svm_type c_svc
kernel_type linear
nr_class 38
total_sv 264
rho -0.148947 0.0820813 0.297318 -0.290244 0.0152206 0.432267 0.204012 0.0397475 0.120829 -0.0250992 -0.118821 -0.504335 -0.0409235 -0.0902506 0.0569382 -0.0126124 0.307726 0.359957 -0.389674 -0.239731 0.0494094 -0.0297619 0.000716411 -0.0293081 -0.178752 0.0742431 -0.243938 0.471641 0.126919 -0.092487 0.215214 0.0729044 0.458566 0.156269 0.17828 0.362582 -0.0435321 0.208338 0.356518 -0.106332 0.237306 0.396959 0.431842 0.202921 0.228456 0.109513 0.0756444 -0.269172 0.184547 0.0925002 0.127427 0.156844 0.28033 0.38116 -0.161059 -0.0797614 0.243019 0.117548 0.194518 0.0931511 0.0268328 0.217103 -0.0376868 0.352994 0.242112 0.0928433 0.482041 0.252727 0.504175 0.498512 0.360851 0.320213 0.0957597 0.137137 -0.284406 -0.0334677 0.268434 0.197434 -0.00985236 0.148157 -0.078725 -0.247327 -0.583718 -0.110378 -0.110249 0.00601821 0.0211373 0.129745 0.265524 -0.38296 -0.384697 -0.0228722 -0.112977 0.000447113 -0.101313 -0.185894 0.0392355 -0.279936 0.198779 0.0252094 -0.163723 0.226671 0.0145346 0.371684 0.151602 0.0576269 0.337061 -0.0823981 -0.381772 -0.122939 0.563043 0.0661793 -0.161997 -0.0367425 -0.164238 -0.252427 -0.907693 -0.193435 -0.476464 -0.0703499 -0.243325 0.0223548 0.0607098 -0.718574 -0.331108 -0.0254517 -0.264075 -0.149099 -0.158688 -0.325504 -0.0844615 -0.304048 0.119367 -0.17656 -0.215764 0.0678695 -0.106753 0.315421 -0.0315901 -0.0527836 0.0600774 -0.356114 0.296607 0.488336 0.390235 0.377709 0.280032 0.236611 0.179168 -0.228453 0.203167 0.24184 0.321518 0.24052 0.381635 0.473804 0.00418649 0.0467179 0.260216 0.287054 0.22744 0.236803 0.26426 0.537418 0.0830751 0.516059 0.297286 0.344091 0.43049 0.311668 0.554634 0.505186 0.513789 0.538396 0.215524 0.247316 0.275153 0.0213834 0.130838 -0.049409 -0.146839 -0.36868 -0.0953384 -0.0735742 0.092062 -0.0515814 0.191954 0.237452 -0.329729 -0.246394 0.0308275 -0.0845417 -0.0415243 -0.052836 -0.133535 0.0542058 -0.421992 0.201751 0.0433172 -0.0712827 0.367581 0.0473605 0.359225 0.181914 0.112988 0.242242 -0.060457 -0.119682 -0.330872 -0.155839 -0.382268 -0.329285 -0.82426 -0.316543 -0.667846 -0.325589 -0.375649 -0.230468 -0.0908091 -0.788394 -0.399589 -0.280286 -0.356642 -0.291672 -0.330293 -0.514876 -0.276048 -0.435252 -0.149853 -0.390989 -0.354938 -0.0787286 -0.242414 0.0500559 -0.142357 -0.207548 -0.0826033 -0.56609 -0.223395 -0.19308 -0.322197 -0.427574 -0.625262 -0.328506 -0.238349 -0.134798 -0.240535 -0.046036 0.0583246 -0.496697 -0.353418 -0.20848 -0.219956 -0.27904 -0.24049 -0.301442 -0.0959274 -0.565442 0.019006 -0.145508 -0.260821 0.0112636 -0.210679 0.172045 -0.109689 -0.107683 0.0112298 -0.287662 0.0893864 -0.118903 -0.134644 -0.571764 -0.0263791 -0.123035 0.0425656 -0.0639877 0.136672 0.240539 -0.474707 -0.229431 0.0430782 -0.0740518 -0.0378532 -0.0655942 -0.258217 0.0346476 -0.272561 0.25338 0.0442583 -0.147764 0.203245 0.0349132 0.417717 0.138522 0.0720806 0.189401 -0.109565 -0.0788273 -0.190316 -0.416714 -0.136322 -0.137059 -0.0399554 -0.109624 0.0808238 0.114741 -0.333228 -0.302999 -0.0156198 -0.149416 -0.191646 -0.182086 -0.172797 -0.0462928 -0.413912 0.0899654 -0.0343719 -0.195646 0.271268 -0.0304117 0.220016 0.0353831 -0.00211497 0.102629 -0.181075 -0.0621045 -0.477099 -0.0511061 -0.053209 0.167929 -0.0127168 0.242865 0.372156 -0.235991 -0.166338 0.164318 -0.0232606 -2.99046e-05 -0.00933126 -0.119557 0.0742637 -0.387644 0.243882 0.221714 -0.099967 0.387915 0.0899401 0.556278 0.222328 0.119393 0.228185 0.0244522 -0.421591 0.069319 0.0768536 0.169038 0.103397 0.229734 0.393258 -0.19033 -0.193363 0.143588 0.103547 0.235937 0.0415796 -0.0358528 0.179598 -0.112066 0.284553 0.177411 -0.0756887 0.443688 0.220028 0.424828 0.436685 0.261322 0.449529 0.0591012 0.389149 0.362827 0.492958 0.704748 0.522413 0.793883 0.140257 0.371701 0.613917 0.587754 0.43353 0.397289 0.281527 0.497091 0.144827 0.674334 0.718387 0.385072 0.523454 0.456281 1.13038 0.530783 0.536948 0.761835 0.45375 -0.0255372 0.121966 0.0310635 0.197389 0.245629 -0.311619 -0.192823 0.136038 -0.0155118 0.0512755 0.0211489 -0.0999975 0.14474 -0.16785 0.207949 0.128243 -0.0639558 0.364784 0.161858 0.410056 0.297206 0.166433 0.237367 -0.00650745 0.162204 0.0768921 0.40351 0.361383 -0.347198 -0.125787 0.118513 0.0243454 0.0576483 0.0290937 -0.0683306 0.201182 -0.128766 0.508388 0.319503 -0.040296 0.255499 0.119161 0.615894 0.142988 0.185485 0.326067 0.0482031 -0.113145 0.131495 0.224713 -0.306669 -0.270021 -0.0329276 -0.129827 -0.0887633 -0.187639 -0.187074 0.0303368 -0.435545 0.233969 -0.0225418 -0.272774 0.195225 -0.0141435 0.316177 0.0581863 0.036684 0.112697 -0.126 0.192065 0.239381 -0.292455 -0.243322 0.121565 -0.0439821 0.0350913 -0.01089 -0.142264 0.0931585 -0.164855 0.22932 0.143533 -0.0434966 0.27076 0.0175133 0.41516 0.214172 0.146003 0.242055 -0.026048 0.0944987 -0.456788 -0.346843 -0.109541 -0.195375 -0.183504 -0.187956 -0.345819 -0.0898747 -0.558163 0.105609 -0.164471 -0.28353 0.066316 -0.100767 0.191939 -0.0138268 -0.0792547 0.0490921 -0.215069 -0.432872 -0.425935 -0.477618 -0.246616 -0.243188 -0.339502 -0.399029 -0.228925 -0.491827 -0.00436336 -0.207349 -0.355935 -0.0441244 -0.197548 0.169615 -0.0710244 -0.163778 -0.0521985 -0.326836 0.0687811 0.283226 0.268937 0.302473 0.22633 0.21864 0.408291 0.0810013 0.7104 0.525959 0.14972 0.438913 0.376948 0.570639 0.463644 0.471678 0.48425 0.255212 0.248885 0.248013 0.244604 0.177954 0.118452 0.344001 0.0140895 0.404917 0.239399 0.158503 0.347403 0.250337 0.492867 0.500177 0.357869 0.532111 0.146645 -0.104815 -0.0393208 -0.0496337 -0.197786 -0.0243889 -0.368063 0.150639 0.0469389 -0.141213 0.292832 -0.000763553 0.530952 0.107945 0.0397188 0.250979 -0.140148 0.0722759 -0.0517399 -0.136033 0.149665 -0.12662 0.243581 0.147496 -0.16259 0.263821 0.163329 0.318777 0.215408 0.167353 0.284416 0.0100874 -0.00866042 -0.129418 0.0738666 -0.257184 0.225649 0.0753261 -0.0583408 0.271398 0.0582224 0.314037 0.219124 0.117367 0.295152 -0.0382571 -0.105365 0.131008 -0.261905 0.211617 0.0808548 -0.0652034 0.351141 0.0953791 0.45086 0.206442 0.125787 0.261997 -0.00342225 0.307296 -0.0454717 0.595112 0.307585 -0.00393934 0.307042 0.24898 0.451231 0.275577 0.285185 0.373762 0.122659 -0.275408 0.200353 -0.0213272 -0.229988 0.0792313 -0.050707 0.284806 0.0363427 0.017914 0.183233 -0.087119 0.462548 0.254942 0.0516162 0.751025 0.308688 0.578501 0.473305 0.367433 0.403491 0.176041 -0.185633 -0.342552 -0.00198508 -0.148957 0.173474 -0.0981862 -0.212823 -0.00774281 -0.398333 -0.141408 0.171282 0.0738178 0.430035 0.107241 0.0373723 0.156889 -0.159356 0.325815 0.22279 0.425282 0.308928 0.239725 0.397589 0.0740494 -0.267915 0.127185 -0.212756 -0.115407 -0.03376 -0.376406 0.289099 0.127689 0.0525823 0.167048 -0.0943901 -0.174782 -0.294296 -0.175858 -0.4203 -0.105439 -0.0156836 -0.168527 0.169001 -0.119082 -0.243043
label 1 2 3 4 5 6 7 8 9 10 11 12 13 15 16 17 18 19 20 21 22 23 24 25 26 27 28 29 30 31 32 33 34 35 36 37 38 39
nr_sv 9 6 10 8 5 7 10 9 6 6 5 6 11 5 5 8 6 5 7 4 7 8 4 7 6 6 7 5 5 6 7 7 6 12 8 10 11 4
SV
0 4.090489532920406e-08 3.796390623651249e-08 0 4.79427005098739e-08 4.734362454227411e-08 4.620254529237704e-08 7.3810088429977e-08 9.395862256200684e-08 6.671385403066215e-08 4.159386988762535e-08 0 3.683968203926828e-08 0 5.563455562425718e-08 0 0 7.625136852419858e-08 0 1.039143481228204e-08 4.969706839844693e-08 0 0 7.902946601925515e-08 0 5.250001623332796e-08 1.028121393289343e-08 0 0 1.868405478076817e-08 3.783291275177608e-08 2.21424008858051e-08 0 5.668598255123017e-08 0 0 2.116383977994902e-08 1:-975.45745 2:120.23932 3:-278.67448 4:-402.2255 5:520.73139 6:-643.02002 7:1226.9453 8:-845.55375 9:314.25444 10:220.23249 11:893.51502 12:-861.38775 13:785.05856 14:-244.41679 15:790.73565 16:150.65391 17:635.93004 18:961.55754 19:-49.86846 20:80.234058 21:-29.612539 22:107.70218 23:-60.253119 24:279.1127 25:-790.57538 26:269.68255 27:-437.40133 28:276.94669 29:-19.92804 30:468.74012 31:-442.13659 32:41.980199 33:-487.77156 34:-190.01872 35:28.485993 36:-75.410228 37:-83.178088 38:443.30831 39:247.72096 40:376.18496 41:-33.80137 42:-181.6583 43:24.838808 44:-85.843751 45:-91.387054 
0 1.193343859303652e-08 0 0 0 0 0 0 0 0 0 0 0 0 0 0 0 0 0 0 0 0 0 0 0 0 0 0 0 0 0 0 0 0 0 0 0 1:-1710.3104 2:-10.654918 3:-148.23117 4:-714.60554 5:933.84671 6:-1081.5446 7:1384.5503 8:-1018.2661 9:142.27971 10:-68.691243 11:1077.0794 12:-585.75124 13:1029.5278 14:-152.84861 15:743.57431 16:421.51091 17:761.25265 18:764.37794 19:24.907644 20:380.6443 21:141.177 22:267.12697 23:-146.60616 24:66.580388 25:-462.78357 26:11.908731 27:-393.92203 28:506.73196 29:-185.25941 30:334.63689 31:-438.17318 32:-196.73844 33:-736.50303 34:-196.65483 35:73.231882 36:-84.405607 37:-94.492529 38:609.42157 39:386.82919 40:170.84421 41:-227.21725 42:-359.95779 43:-176.61229 44:-39.953499 45:-218.57635 
0 0 0 2.426754234362737e-08 9.603410361644178e-09 0 0 0 0 0 0 0 0 0 0 0 0 0 0 0 0 0 0 0 0 0 3.265941745495278e-08 0 0 3.552215292555158e-08 0 0 0 0 0 0 0 1:-223.86921 2:355.47667 3:59.575738 4:168.53313 5:301.76591 6:364.85695 7:1537.6633 8:-997.39464 9:769.19794 10:572.72422 11:459.6939 12:-1037.7946 13:522.58689 14:-459.60348 15:838.35809 16:296.61538 17:592.4619 18:1332.4106 19:-385.698 20:34.831789 21:-137.33056 22:142.45704 23:96.863972 24:189.30842 25:-1102.6067 26:674.41563 27:-304.2061 28:9.691993 29:317.01062 30:484.76217 31:-705.12842 32:504.29719 33:50.95426 34:54.49676 35:-170.78705 36:191.9123 37:-332.14848 38:417.47135 39:27.268641 40:185.95313 41:156.85121 42:-1.050092 43:55.080313 44:-75.495092 45:-315.23316 
3.710522290120441e-08 7.308022608933771e-08 7.8156616626445e-08 1.978419873039524e-08 4.482390999297376e-08 1.34838089979533e-07 7.174214169163208e-08 4.801614106056139e-08 5.891550339785292e-09 2.24322340167379e-08 8.900215426067968e-09 5.092050542567538e-08 2.48267126528531e-08 3.819008675274978e-08 4.112433798540213e-08 5.062732347372674e-09 1.846360382997843e-07 1.017677325149441e-07 6.425919385073459e-08 1.258815968835357e-08 5.226366506806143e-08 0 4.698358750390498e-08 1.561497764130118e-08 9.465151328488942e-08 7.257690819225463e-08 3.080632217335166e-08 2.252926478939504e-07 4.521007046848549e-08 0 2.016801389595717e-08 5.425044991210748e-08 1.464683330987798e-07 5.603944287981364e-08 1.538169818883016e-07 1.554783661043677e-07 7.129115514910222e-08 1:-953.75982 2:408.60272 3:-61.603474 4:-24.654536 5:271.11308 6:-308.92312 7:1563.711 8:-1170.9362 9:693.37298 10:248.5331 11:692.64045 12:-213.62079 13:710.75659 14:-81.086503 15:657.30383 16:453.45743 17:382.26859 18:981.96146 19:-297.54236 20:272.32105 21:74.185947 22:288.40625 23:-100.31333 24:131.71344 25:-611.95385 26:328.82417 27:-174.49259 28:210.55844 29:18.718661 30:85.755874 31:-460.4628 32:264.70388 33:-260.18287 34:-89.607715 35:-220.69489 36:146.11244 37:-334.42226 38:538.86178 39:195.10839 40:1.594199 41:-157.59513 42:-72.232103 43:-119.2342 44:-13.684914 45:-389.00002 
1.048123462710925e-08 4.114869832605215e-08 6.605887876252995e-08 0 0 0 4.54135604037094e-09 1.279066039990706e-08 1.081858533901714e-08 1.691935616328843e-09 1.113374326285881e-08 0 0 5.031761422046155e-08 0 1.750143673453097e-08 0 0 1.85685226317872e-08 0 0 3.873649871551476e-08 0 0 0 0 1.344508941529274e-08 0 4.41655848073344e-08 0 2.973923758848455e-08 2.873941090617756e-08 0 0 0 0 1.033386652361708e-08 1:-590.9196 2:415.63609 3:-213.65053 4:372.49826 5:-51.761675 6:490.70646 7:1483.7396 8:-1195.0536 9:978.63248 10:419.6738 11:697.50055 12:-1022.9892 13:417.1282 14:-742.32519 15:380.36831 16:491.93481 17:365.34207 18:1279.6952 19:-7.855642 20:423.22168 21:-95.205567 22:364.62403 23:46.176323 24:-216.90914 25:-819.73602 26:949.99118 27:-180.37779 28:-122.10271 29:402.64116 30:-187.86125 31:-607.85459 32:626.42713 33:45.40904 34:55.399007 35:-194.50311 36:395.21574 37:-251.59613 38:432.28638 39:-172.92337 40:174.94115 41:-39.809858 42:-259.57383 43:-193.48591 44:86.046253 45:-561.16145 
0 0 0 1.62141573881597e-08 0 0 0 0 0 0 2.487389533636262e-08 0 0 0 0 7.367308438738225e-08 0 0 2.056960553768665e-09 5.415042419088353e-08 0 6.977333257616494e-08 4.542348471211504e-08 5.398195826267302e-09 0 0 0 0 0 2.630144353526703e-08 0 0 0 0 0 0 0 1:-551.46525 2:502.44314 3:-286.25426 4:20.485445 5:462.19864 6:48.159924 7:1442.721 8:-934.52598 9:412.47231 10:523.85682 11:765.09532 12:-680.20484 13:882.45586 14:-142.91493 15:914.02187 16:108.90471 17:434.21403 18:949.75235 19:-213.61013 20:-1.343756 21:-88.382025 22:85.126446 23:-116.8969 24:443.43641 25:-938.50687 26:505.59673 27:-261.5595 28:265.8164 29:130.78299 30:626.18295 31:-445.72154 32:152.88767 33:-211.91191 34:25.681137 35:22.053989 36:-34.145042 37:-331.92745 38:379.71133 39:343.2471 40:324.72084 41:65.738185 42:-162.5868 43:172.94849 44:-202.52669 45:10.000745 
0 0 0 0 0 0 0 0 0 0 0 0 0 4.27699620840148e-08 0 0 0 0 0 0 0 0 5.702367286594273e-09 0 0 0 0 0 1.785677123110603e-08 0 0 0 0 0 0 2.226876757522438e-08 0 1:-1660.1618 2:100.95371 3:-382.17095 4:-462.45232 5:908.23764 6:-865.15858 7:1544.4635 8:-876.56143 9:22.635825 10:-38.74206 11:1094.5327 12:-332.8243 13:1295.1752 14:20.680039 15:939.91977 16:324.02907 17:884.27266 18:517.26153 19:0.391075 20:112.56546 21:-71.874553 22:281.7195 23:-183.16301 24:313.95478 25:-286.99983 26:22.613454 27:-322.76553 28:711.55049 29:-179.09517 30:584.09968 31:-193.26712 32:-523.31738 33:-602.97452 34:-39.479484 35:233.21303 36:-143.31176 37:0.088528 38:553.84397 39:587.00327 40:422.23835 41:-362.68186 42:-383.43463 43:33.965028 44:-144.57984 45:-23.296015 
2.828856191981367e-08 0 0 6.05376400592615e-09 8.408783118338397e-09 0 0 0 0 0 0 0 1.999402756243977e-08 0 7.867832152572323e-09 0 0 0 0 0 0 0 0 0 0 0 7.41682137827642e-10 0 0 0 1.656044441623653e-08 0 0 2.763267404034186e-09 0 0 0 1:-129.71774 2:333.94566 3:-260.64059 4:349.72185 5:233.71327 6:368.69298 7:1601.5322 8:-717.53898 9:366.82011 10:612.06316 11:633.68704 12:-1176.562 13:897.83135 14:-149.11487 15:1031.2064 16:-214.5902 17:490.48511 18:992.63946 19:-369.76054 20:-252.22711 21:-211.20354 22:-36.213892 23:5.221042 24:430.89138 25:-1289.767 26:787.34586 27:-482.06122 28:114.77654 29:269.99448 30:826.68764 31:-697.47841 32:413.93958 33:11.148662 34:122.97707 35:-103.76675 36:-126.73565 37:-488.16605 38:429.31775 39:308.30733 40:442.00784 41:196.50074 42:-58.217525 43:278.66183 44:-379.39163 45:280.54126 
0 0 1.035538410341498e-08 0 0 0 0 0 0 0 0 1.913353566241572e-08 0 0 0 0 0 0 0 0 0 0 0 0 0 0 0 0 2.641319642249676e-08 0 0 0 2.419222382629117e-08 0 0 0 0 1:-1192.4802 2:233.64768 3:-631.99656 4:-26.773459 5:509.69622 6:-340.82906 7:1759.0484 8:-698.51442 9:22.380871 10:141.08777 11:1103.6794 12:-451.74556 13:1352.5204 14:43.430419 15:970.21384 16:-205.24309 17:830.19891 18:615.60685 19:-165.94572 20:-37.450996 21:-390.86832 22:22.196611 23:-69.183849 24:457.33551 25:-547.50643 26:551.70996 27:-411.60123 28:472.41193 29:-143.68989 30:699.87489 31:-394.02497 32:-87.128537 33:-484.93598 34:118.6017 35:99.55744 36:-95.289858 37:-142.06881 38:523.80499 39:652.17894 40:645.55758 41:-182.93691 42:-324.41859 43:168.07396 44:-296.7869 45:361.8392 
-0 0 0 0 0 3.0633527419254e-09 8.240041985636015e-09 0 3.65448023861304e-08 6.453940580674729e-08 0 0 0 0 0 0 0 0 0 5.539511113421316e-09 4.605287198890543e-08 0 0 0 4.49944534242868e-08 0 1.91413794666644e-08 1.709492252546575e-08 0 2.735230639274519e-09 0 0 0 0 0 0 0 1:944.93244 2:102.56433 3:-420.22363 4:2071.4065 5:-255.93427 6:-704.2486 7:294.12771 8:100.18928 9:268.55908 10:176.33056 11:-664.27912 12:-33.529553 13:-1617.5334 14:-914.74551 15:1068.5185 16:-561.06788 17:-36.357243 18:-1137.182 19:173.10179 20:492.28803 21:227.73428 22:634.05998 23:-155.31039 24:630.30047 25:94.756095 26:-287.75733 27:-333.43688 28:572.85069 29:118.61068 30:48.070013 31:-15.332905 32:-301.28206 33:-214.32192 34:-26.913122 35:-174.87412 36:7.836702 37:-372.3996 38:391.36715 39:-52.222658 40:7.978429 41:145.24093 42:-304.95506 43:-114.13906 44:-228.39299 45:58.616365 
-5.04711319174025e-08 6.590058484145832e-08 3.46374556364989e-08 2.032589124855318e-08 4.712951135962122e-08 4.568326979826572e-08 1.580002657525856e-08 5.793545747397658e-08 4.19206318600957e-08 0 6.725941988840171e-08 0 5.367939456580887e-08 4.117701343653218e-08 3.586009698329304e-08 5.240686907012619e-08 3.312765114115317e-08 3.019394977359043e-08 5.442309371651374e-08 4.816094498610308e-08 0 5.429755311522145e-08 8.431764607887499e-08 2.60079041566907e-08 2.295764065017906e-08 2.863889585456977e-08 1.471463891283631e-08 2.864558776694757e-08 2.618359620158593e-08 1.582787584045353e-08 5.130333294201089e-08 2.468934272553275e-08 0 2.477189095459202e-08 1.839267318919901e-08 5.151592607586587e-08 2.552064934147475e-08 1:985.26956 2:81.520045 3:-513.78409 4:2023.0441 5:335.1353 6:-557.80674 7:270.04548 8:49.153262 9:149.50821 10:249.11751 11:-644.81215 12:-154.73183 13:-1515.9444 14:-990.23776 15:1188.0887 16:-615.1793 17:71.439537 18:-1012.827 19:336.3791 20:653.76559 21:481.02251 22:348.30436 23:63.294793 24:471.89332 25:134.00954 26:-420.62413 27:-385.133 28:435.28234 29:245.36321 30:-9.343203 31:-437.17871 32:-176.28325 33:-191.83752 34:51.921119 35:-154.02049 36:247.56869 37:-13.351506 38:433.64311 39:90.404612 40:-181.18284 41:357.76757 42:-137.23183 43:-160.78204 44:6.292809 45:-229.17145 
-0 0 0 0 0 0 0 0 0 0 0 0 0 0 0 0 0 0 0 0 0 0 0 0 0 0 1.457979304224913e-08 0 0 0 0 0 0 0 0 0 0 1:2698.4551 2:-406.95275 3:-375.37964 4:2733.2612 5:-115.42009 6:-301.37146 7:409.59631 8:211.0209 9:17.217081 10:108.05131 11:-494.44003 12:-175.56661 13:-813.34767 14:-31.35525 15:1045.5366 16:-56.036333 17:555.87855 18:-674.13427 19:336.81419 20:415.2914 21:534.39211 22:505.08376 23:37.028027 24:619.27563 25:356.57561 26:-258.10039 27:-632.42878 28:29.136791 29:201.96438 30:-87.345977 31:-712.41636 32:265.4884 33:-26.537427 34:-31.209144 35:-62.616916 36:144.13873 37:51.509142 38:196.44191 39:195.22548 40:-268.01864 41:518.27766 42:171.47743 43:190.12242 44:380.72265 45:-465.72021 
-8.91740861450585e-09 9.405406248081803e-09 4.727676325603865e-10 1.519359843364665e-08 8.836274866514895e-09 0 5.295764178694755e-08 0 8.707855444837631e-09 4.269383877291196e-09 2.529494260059372e-08 7.684918201330868e-09 4.471578342255769e-08 0 9.596598080369946e-09 0 1.481101114678577e-08 4.712713212860329e-09 0 0 1.611557495052571e-08 0 0 8.481110029883027e-09 0 0 8.053523495587919e-09 5.776340943436705e-09 8.217111415499441e-09 0 1.180969590048631e-08 0 2.925091260762146e-08 1.085886460058068e-08 2.874410825525582e-08 0 0 1:2782.5144 2:-446.42326 3:-589.5654 4:2778.5717 5:-772.22166 6:-256.71335 7:294.94334 8:135.47672 9:-28.57016 10:-134.00455 11:-407.86138 12:80.637101 13:-430.74696 14:204.85692 15:945.04634 16:-106.2002 17:920.12379 18:-538.69712 19:25.451491 20:272.44901 21:665.39553 22:820.08346 23:189.06199 24:767.59671 25:596.12884 26:121.27556 27:-784.48194 28:-32.184631 29:185.12368 30:-509.58245 31:-817.44231 32:403.48536 33:52.240104 34:-326.87643 35:-224.12264 36:229.68658 37:149.09915 38:109.58619 39:574.3919 40:-431.59563 41:425.51802 42:457.91475 43:365.13465 44:417.49496 45:-671.85658 
-0 1.61205178901383e-08 0 3.404900671392708e-08 5.73407342085494e-08 0 3.704385388128557e-09 0 0 0 9.201746194236433e-09 0 0 0 2.338629651942905e-08 4.713492252487076e-08 0 0 0 3.338388658244497e-08 0 2.471105873771235e-08 0 0 7.942783790134004e-10 0 1.4781771208435e-08 0 0 5.27474027094099e-08 4.651425031749067e-08 7.251237458846367e-08 0 1.122016653859581e-07 0 6.217852653622915e-08 0 1:2488.687 2:-89.003207 3:-432.90498 4:2602.4763 5:-931.51433 6:-300.32629 7:399.50187 8:268.13995 9:115.77117 10:-38.40872 11:-480.81441 12:-109.29848 13:-1070.0776 14:57.888962 15:852.4588 16:180.3541 17:372.33777 18:-730.72404 19:161.55634 20:462.0058 21:142.99775 22:692.58908 23:-154.84251 24:669.60351 25:163.88998 26:-180.23064 27:-562.52706 28:220.25373 29:-17.010832 30:-13.120884 31:-2.305083 32:-64.541447 33:-7.057828 34:-32.206601 35:110.82688 36:-206.64642 37:-526.00527 38:-0.193241 39:-95.222661 40:-104.26586 41:92.78558 42:-54.859371 43:199.34531 44:-45.719607 45:118.19868 
-1.648647891621899e-08 0 5.9640950743094e-08 0 0 3.515863620390522e-08 4.660587333086116e-08 5.479415280517644e-08 0 3.736999733516045e-09 0 4.168250096960968e-08 1.92742418294807e-09 4.569309540652687e-08 1.549929272685571e-08 0 2.782349622228718e-08 5.408387911648865e-08 1.172311621388106e-08 0 2.525791351563158e-08 0 6.448665822623446e-09 2.636884986758128e-08 0 4.578715499895444e-08 0 4.1980701751432e-08 4.746193901455244e-08 0 8.700026654978392e-10 4.634836330455977e-09 9.251124619817205e-08 0 5.973216667839607e-08 6.821653814126567e-09 3.994394754418493e-08 1:897.73019 2:142.15102 3:-469.28067 4:2209.8961 5:-430.61302 6:-636.9536 7:423.39586 8:175.98114 9:357.04116 10:201.88599 11:-529.76775 12:45.468566 13:-1606.6828 14:-857.30687 15:1024.9716 16:-479.53259 17:-66.6645 18:-1185.045 19:259.00204 20:526.82679 21:-69.246239 22:619.82897 23:-185.72659 24:652.34456 25:111.79308 26:-248.41672 27:-314.93552 28:524.27369 29:99.628727 30:147.05886 31:206.23463 32:-377.027 33:-178.62237 34:160.04606 35:-76.796621 36:29.993315 37:-454.02173 38:351.14095 39:-266.81525 40:147.77624 41:24.602519 42:-475.20265 43:-109.46442 44:-324.96225 45:273.7214 
-0 -0 0 0 0 0 0 0 1.175288665096133e-07 0 3.771065881006455e-08 0 0 0 0 0 0 0 0 5.959518180086624e-08 0 0 0 0 0 0 0 0 0 0 2.92960175933893e-09 0 0 0 0 0 0 1:51.247327 2:119.11046 3:-1850.8356 4:-497.86862 5:963.00817 6:-530.68515 7:-202.50711 8:-1362.1424 9:-532.73888 10:-442.92487 11:261.75078 12:-388.46763 13:231.64992 14:-446.12475 15:-480.34053 16:-290.93198 17:376.37464 18:591.62956 19:503.5815 20:102.84312 21:5.432373 22:-25.574864 23:126.61735 24:472.40047 25:56.151389 26:-338.26384 27:238.97782 28:-133.5504 29:260.84908 30:-620.14603 31:802.86226 32:-77.183375 33:522.81962 34:-74.159364 35:-7.560326 36:-478.26171 37:-326.46327 38:319.25595 39:-127.20491 40:-20.040051 41:398.68916 42:359.5756 43:-210.74438 44:184.98262 45:197.76357 
-0 -0 0 0 0 0 0 0 0 0 0 0 0 0 0 0 0 0 3.322329296468661e-09 0 0 0 0 0 0 0 0 0 0 0 0 0 0 0 0 0 0 1:-1365.8592 2:-16.618135 3:-1646.9179 4:-837.76685 5:1851.8003 6:-961.19167 7:-213.78408 8:-1135.9076 9:-499.51006 10:-215.73059 11:945.53052 12:46.869551 13:816.97528 14:-504.2554 15:-168.83797 16:-128.04517 17:261.50083 18:519.94986 19:697.80587 20:162.51629 21:-506.64523 22:183.78108 23:-309.93966 24:544.68783 25:392.24185 26:-537.00861 27:149.17352 28:-55.079941 29:668.0616 30:-685.04898 31:661.18186 32:-498.52369 33:259.8252 34:-285.14042 35:101.04944 36:-391.23678 37:-290.7357 38:-95.659124 39:61.304255 40:9.742492 41:619.31975 42:695.66828 43:86.201694 44:122.22969 45:372.1239 
-0 -0 0 0 0 0 0 0 0 0 0 0 0 0 0 0 0 0 0 0 0 0 3.184823680347044e-08 0 0 0 0 0 0 0 0 0 0 0 0 0 0 1:-850.52115 2:125.3406 3:-1764.8664 4:-793.63436 5:2213.4901 6:-209.78389 7:-91.213856 8:-1399.4938 9:-581.08672 10:-102.48126 11:542.92259 12:-103.93603 13:821.97821 14:-599.52977 15:-429.15445 16:-68.35553 17:139.94114 18:735.87032 19:746.50777 20:369.0889 21:-303.92333 22:8.6328 23:-260.77373 24:468.81907 25:357.0227 26:-462.42097 27:208.88902 28:-214.49235 29:791.17457 30:-476.11829 31:698.84387 32:-147.31657 33:169.77112 34:-66.631077 35:318.3049 36:-180.48315 37:-298.96894 38:63.224605 39:-213.10868 40:-160.22158 41:638.7386 42:505.00025 43:-191.17086 44:268.76831 45:189.60666 
-0 -0 0 0 0 0 0 0 0 0 0 0 0 0 0 0 0 0 0 0 0 0 0 0 0 0 0 0 0 5.167218206352378e-09 0 0 0 0 0 0 0 1:1286.3301 2:361.89413 3:-1646.4515 4:665.93957 5:223.39715 6:694.94478 7:228.7591 8:-1903.9648 9:-920.94425 10:-437.64075 11:222.42534 12:-1142.2019 13:295.50684 14:-496.16992 15:-621.9763 16:-175.66889 17:378.55069 18:975.45108 19:835.22205 20:267.97115 21:352.73074 22:558.12264 23:225.38308 24:-211.51345 25:491.26515 26:-373.27589 27:-367.40505 28:45.465616 29:-196.40652 30:-562.26747 31:1059.4015 32:370.1036 33:371.36793 34:408.99818 35:455.4683 36:149.87547 37:-66.276135 38:673.86545 39:-516.361 40:-304.49773 41:52.538237 42:36.641229 43:-489.52165 44:426.03084 45:-219.86506 
-1.670672583376305e-07 -5.91236139526723e-08 1.004165653738246e-07 3.482241937596302e-08 9.90372390741719e-08 1.162511464078254e-07 1.399259831036445e-07 9.163235822097323e-08 6.038111854876224e-08 7.019545101214246e-08 8.997888407299803e-08 3.976887481758364e-08 7.356711758029239e-08 7.4064973860587e-08 8.532828361817236e-08 3.565774960356061e-08 1.198677068235864e-07 1.519774930448548e-07 5.958945620161473e-08 3.875028629495745e-08 1.067677490773378e-07 7.248571960656864e-08 8.123949068112518e-08 7.73197734742051e-08 7.64256160091164e-08 9.761215828248623e-08 7.308252471562123e-08 1.317239554918485e-07 8.480813788744458e-08 6.143103132635611e-08 8.174821908220842e-08 9.936853018958115e-08 1.219696290267439e-07 1.135646255280964e-07 1.072392355827931e-07 2.334078503176397e-07 5.269157091334088e-08 1:-163.03744 2:275.47663 3:-1533.7505 4:-163.6761 5:695.30877 6:-498.56059 7:372.50788 8:-1207.3879 9:-155.35834 10:-59.122362 11:544.84144 12:-210.92877 13:237.80508 14:-517.0357 15:-317.77833 16:180.29225 17:199.00181 18:690.80415 19:444.30613 20:228.05214 21:120.41317 22:315.83163 23:-84.791999 24:57.260511 25:447.23163 26:-239.74988 27:-187.64079 28:106.67309 29:219.01398 30:-741.21683 31:559.5332 32:262.48761 33:525.73275 34:-79.621809 35:-202.09078 36:27.752994 37:-352.34263 38:254.17105 39:-187.82926 40:-120.23517 41:354.29275 42:348.79522 43:-576.15719 44:380.57025 45:-187.70653 
-0 -0 8.339965813883389e-09 0 0 0 0 0 0 0 0 0 0 0 0 0 0 0 0 0 0 0 0 0 0 0 0 0 0 0 0 0 0 0 0 0 0 1:523.99067 2:418.72152 3:-1837.121 4:504.99534 5:-139.15273 6:691.90835 7:562.43476 8:-1910.1617 9:-242.06803 10:-79.919355 11:-11.763828 12:-793.04604 13:123.50173 14:-937.69045 15:-837.95473 16:358.09794 17:194.80623 18:711.99665 19:834.20867 20:350.72945 21:403.80677 22:670.90369 23:24.784759 24:-250.72675 25:855.83217 26:205.02507 27:-565.40462 28:-103.61668 29:126.70267 30:-826.50029 31:996.36716 32:564.31443 33:573.97273 34:467.38517 35:240.13946 36:598.63268 37:-166.70464 38:410.67835 39:-583.58404 40:-283.02605 41:-183.09302 42:-487.16414 43:-773.30025 44:616.77445 45:-639.60241 
-0 -0 0 0 0 0 0 0 0 0 0 0 0 0 0 7.721081410427027e-08 0 0 6.787356436115001e-09 0 0 3.668730557899027e-08 3.205636647634791e-08 0 0 0 0 0 0 0 0 0 0 0 0 0 3.648935976506352e-08 1:558.81514 2:520.5961 3:-1899.9694 4:456.74657 5:824.89882 6:714.0454 7:408.70073 8:-1372.0746 9:-955.6087 10:-309.44465 11:359.74148 12:-387.72798 13:440.21281 14:-171.41263 15:-626.11266 16:-231.84581 17:100.20627 18:653.22981 19:752.78647 20:233.37958 21:138.74681 22:-15.766472 23:-57.299691 24:575.57222 25:348.72794 26:-311.74244 27:14.443375 28:-79.663576 29:271.82313 30:-400.00933 31:881.34121 32:187.51951 33:160.90178 34:266.08093 35:244.58331 36:-343.84848 37:-183.51067 38:507.3913 39:-137.45936 40:-243.6726 41:261.73345 42:174.32423 43:-303.36408 44:31.401758 45:108.26646 
-0 -0 0 0 0 1.13434250866177e-08 0 1.184527640861587e-08 0 0 0 0 0 7.696529283309631e-09 0 0 3.345212681142295e-11 2.670894806077209e-09 3.867507787074153e-09 0 0 0 1.342615041794062e-08 8.994558870904348e-09 0 1.989977565475242e-08 0 0 2.735831208317701e-09 0 0 0 0 0 0 0 1.454749035962565e-08 1:-1361.8475 2:70.077355 3:-1858.7496 4:-559.21278 5:1548.9581 6:-1020.5546 7:-37.017555 8:-930.9592 9:-543.54311 10:-277.99018 11:1097.8079 12:230.74138 13:875.79942 14:-369.08746 15:-113.55177 16:-286.25729 17:322.9202 18:318.768 19:660.75172 20:146.12488 21:-698.24147 22:151.57181 23:-305.23797 24:654.95047 25:448.96276 26:-431.72273 27:171.96431 28:-75.441982 29:661.96503 30:-716.06816 31:705.84232 32:-546.91629 33:157.3055 34:-258.27927 35:-15.794978 36:-454.01125 37:-202.75112 38:-51.11679 39:220.76245 40:154.92913 41:514.13207 42:608.27841 43:241.36882 44:-57.06937 45:576.58696 
-0 -3.230289502700613e-08 0 3.665827116879998e-08 9.984153177643324e-09 0 2.369210111237889e-09 1.919337314389803e-09 0 0 0 0 8.143734768851056e-09 0 0 1.371438595567614e-08 0 0 0 8.109396765887165e-09 0 0 0 0 0 0 5.23843282361722e-09 0 0 2.085520129578317e-08 3.269114712021675e-08 1.208745414631399e-08 0 7.312514679301777e-09 0 0 0 1:1526.4126 2:434.26307 3:-2035.4197 4:997.8267 5:-270.72375 6:935.31641 7:354.38084 8:-1642.3497 9:-1481.659 10:-516.38717 11:409.83872 12:-1242.5511 13:494.78476 14:-33.258354 15:-561.07812 16:-816.71294 17:239.19682 18:613.92728 19:918.19489 20:201.47085 21:422.07874 22:131.17723 23:199.1683 24:400.29738 25:268.37105 26:-283.24201 27:-322.75153 28:-2.666702 29:-190.66232 30:-414.15094 31:1113.7794 32:136.73716 33:196.42771 34:340.25201 35:315.39485 36:-409.043 37:-112.74265 38:617.99639 39:-125.97355 40:-224.32849 41:247.82781 42:182.3612 43:-102.63785 44:-305.95897 45:341.73547 
-0 -0 3.645798500276762e-08 0 0 1.04279968521704e-08 1.840206887716577e-08 6.942500632731453e-09 0 2.09183443988029e-08 6.398585079622715e-09 3.665614151504327e-08 6.809531567475142e-09 6.043327761354633e-09 1.299125526813314e-08 6.115787940082547e-09 0 9.446398226573073e-09 0 0 7.480997461755496e-09 0 0 7.417918726265874e-09 0 0 0 0 3.630233968831483e-08 0 1.514010593636956e-08 0 5.318244418149284e-08 2.359991414662298e-08 1.699793529150007e-08 1.479407406188374e-08 0 1:-70.92973 2:318.76926 3:-2352.5072 4:208.50326 5:430.69332 6:-86.615224 7:479.4964 8:-899.27134 9:-905.93067 10:-464.68104 11:824.69917 12:61.399168 13:776.41049 14:-171.80075 15:-367.7082 16:-809.00944 17:329.02815 18:251.54361 19:632.29602 20:435.70469 21:-305.18559 22:-133.83401 23:-79.975202 24:751.02731 25:442.56032 26:-213.4811 27:30.395627 28:-283.46042 29:440.55972 30:-757.30467 31:656.32365 32:-130.37622 33:-8.413824 34:116.18761 35:-94.385737 36:-471.82197 37:-29.203224 38:224.87914 39:254.39755 40:79.445147 41:323.01443 42:300.63506 43:171.00136 44:-336.80983 45:643.9433 
-0 -0 -0 0 0 0 0 0 0 0 0 0 0 0 9.78626306483957e-09 0 0 0 0 0 0 0 0 0 0 0 0 0 0 0 0 0 0 0 0 0 0 1:-2139.4035 2:354.13756 3:-495.22409 4:148.75503 5:-964.20725 6:354.1231 7:651.95116 8:-309.23058 9:80.383087 10:-152.8172 11:-461.59663 12:-469.67562 13:66.162812 14:-520.0538 15:-324.86004 16:131.78032 17:702.54516 18:-359.41893 19:568.88881 20:-503.21706 21:610.92049 22:117.76734 23:581.52726 24:182.70892 25:-381.99085 26:334.06583 27:-617.53345 28:-629.75975 29:-326.68297 30:-135.58177 31:342.71507 32:116.68797 33:-833.61925 34:315.60851 35:-257.63291 36:23.748767 37:291.89631 38:50.19721 39:-642.05083 40:-168.81711 41:-149.27651 42:325.80977 43:84.324177 44:-14.442202 45:318.62092 
-0 -0 -0 0 0 0 0 0 0 7.520111429000061e-08 0 0 0 0 0 0 0 0 0 0 4.137916586147979e-08 0 0 0 0 0 0 0 0 0 0 0 0 0 0 0 0 1:-2127.8576 2:466.68578 3:-490.78519 4:87.019141 5:-1131.7798 6:328.43406 7:456.53535 8:-244.60191 9:272.18847 10:-66.767513 11:-378.24513 12:-474.08644 13:-114.2536 14:-343.39677 15:-244.87536 16:-14.332896 17:658.6824 18:-240.54942 19:398.14697 20:-464.10442 21:458.12028 22:208.61756 23:448.99089 24:337.81293 25:-268.95889 26:331.88717 27:-426.0985 28:-593.81165 29:-248.19353 30:-169.23003 31:294.99874 32:166.31102 33:-694.03643 34:-39.067678 35:-230.8458 36:-107.61646 37:207.52514 38:106.12307 39:-550.05773 40:-49.161531 41:-139.86956 42:437.36127 43:135.71883 44:-51.965262 45:351.62268 
-0 -0 -0 0 0 3.974258959124771e-08 0 0 1.727851934925123e-08 0 0 0 0 0 0 0 7.451114038711986e-09 0 0 0 0 0 0 0 0 0 0 0 0 0 0 0 0 0 0 0 7.850596819157732e-09 1:-2265.9849 2:432.62957 3:-416.9754 4:264.68088 5:-540.98107 6:245.481 7:587.39349 8:-347.66057 9:-67.317009 10:-260.81612 11:-517.12866 12:-556.64108 13:147.91368 14:-281.40476 15:-229.30475 16:96.840856 17:613.48995 18:-211.12208 19:555.84992 20:-363.08993 21:632.4886 22:107.99994 23:663.90999 24:136.70113 25:-401.49327 26:402.71666 27:-420.33042 28:-782.95496 29:-299.85115 30:-203.57549 31:243.82234 32:47.469975 33:-691.23178 34:187.04106 35:-81.582583 36:-207.46405 37:194.97336 38:94.745819 39:-621.9561 40:-180.79708 41:-155.97779 42:444.07695 43:-133.64496 44:-14.287264 45:343.20329 
-0 -0 -0 0 0 0 0 0 0 0 0 0 5.839354907263041e-09 7.199107511100915e-08 0 0 0 0 0 0 0 5.735007658960945e-09 0 0 0 0 0 0 0 0 0 0 0 0 0 0 0 1:-1605.0762 2:982.13205 3:-560.72483 4:608.47901 5:-820.61358 6:911.08184 7:618.87039 8:654.86822 9:991.89783 10:637.87991 11:388.71112 12:-1086.6283 13:-538.93798 14:-80.484543 15:185.41621 16:-354.81481 17:276.49472 18:207.98595 19:88.688384 20:-63.864497 21:-25.300177 22:-344.92852 23:202.51307 24:-43.340254 25:160.07275 26:-106.10939 27:-437.56059 28:-563.28891 29:471.90722 30:-314.61238 31:-86.606558 32:203.15565 33:-547.65035 34:-380.82173 35:-415.53317 36:-31.637144 37:102.20865 38:-84.280333 39:-277.20575 40:545.5133 41:130.0976 42:234.87239 43:-32.454471 44:-294.94608 45:199.17938 
-1.925347857289025e-07 -7.646936363784366e-08 -1.452145161904756e-07 5.646484759402254e-08 1.002876971561549e-07 5.17756412255144e-07 1.469445857952417e-07 1.555582095119906e-07 8.799616648147245e-08 3.50243416838193e-08 8.786549746169944e-08 6.257830227192574e-08 9.684547537687428e-08 1.60442112798249e-07 1.180118987157919e-07 1.347847738467777e-07 1.547942867680491e-07 7.556861708960693e-08 1.160037057617973e-07 7.203478968320967e-08 6.398953444706624e-08 1.104027306271207e-07 1.044312261277884e-07 6.545479486867615e-08 9.770303653053004e-08 1.229410344330063e-07 6.73150458523217e-08 2.385545362882433e-07 2.610990013069075e-07 3.794906170766148e-08 1.229649804593791e-07 1.14255136631338e-07 2.366287498122112e-07 1.363046123910557e-07 1.279149445607134e-07 1.416990171555985e-07 1.723580460763357e-07 1:-1665.3881 2:774.91382 3:-503.23367 4:549.71558 5:-747.45871 6:332.18437 7:633.30529 8:-74.325486 9:514.30476 10:177.04364 11:24.707344 12:-486.01366 13:-208.79888 14:-44.040674 15:57.221684 16:-24.311346 17:211.68579 18:121.60821 19:188.97222 20:-113.29847 21:435.58632 22:48.042369 23:348.16894 24:25.339038 25:-70.251713 26:247.28146 27:-314.42806 28:-496.35068 29:-42.937868 30:-267.25339 31:96.507522 32:86.949637 33:-454.75533 34:-99.726582 35:-198.44732 36:-183.12024 37:74.632292 38:65.424072 39:-374.8656 40:44.971083 41:-103.66038 42:289.63821 43:-67.659744 44:-234.34225 45:227.0285 
-0 -0 -0 0 0 4.881063324840295e-09 0 0 0 2.390891944367179e-08 0 4.587565930292331e-08 0 0 0 0 0 4.514355029900559e-08 0 0 3.355922125062155e-08 0 0 0 0 0 0 0 4.170580870186758e-08 0 0 0 2.239359542188646e-08 0 0 0 0 1:-1822.5058 2:844.72076 3:-679.65076 4:505.45465 5:-1556.9777 6:434.09533 7:510.65938 8:562.76412 9:1065.8356 10:457.87149 11:335.84943 12:-450.19751 13:-372.05548 14:-55.894404 15:6.730024 16:-594.98204 17:310.50698 18:191.78121 19:-69.250597 20:11.598816 21:-88.874075 22:187.19825 23:439.21152 24:198.47944 25:232.62231 26:228.64385 27:-187.06734 28:-282.21664 29:394.21671 30:-292.32456 31:106.4126 32:-87.885005 33:-361.87457 34:-429.71055 35:-328.68733 36:-59.391917 37:-1.994014 38:-22.600993 39:-229.68106 40:278.3179 41:-241.24952 42:451.04602 43:167.4556 44:-337.719 45:386.3129 
-0 -1.828181037430962e-08 -0 5.952999176855267e-09 0 0 0 0 0 0 0 0 0 0 0 0 0 1.078552219123737e-07 0 0 0 1.419289689169743e-08 0 3.067072057030417e-08 0 0 0 0 0 3.664057999210092e-08 0 8.656704029250656e-09 0 0 0 0 0 1:-1548.451 2:804.09887 3:-592.3637 4:436.40627 5:-1280.6523 6:546.18995 7:438.2194 8:100.9035 9:801.60782 10:328.99174 11:178.72487 12:-667.53787 13:-457.05814 14:-157.14016 15:174.93909 16:-67.965655 17:394.48933 18:-47.20994 19:236.87045 20:-301.93061 21:31.769232 22:-47.815358 23:160.20172 24:265.17384 25:80.559118 26:67.939131 27:-326.24206 28:-527.68133 29:106.47615 30:-243.18646 31:220.86506 32:287.40359 33:-565.11512 34:-325.34377 35:-288.31875 36:-19.644031 37:170.26591 38:51.242538 39:-336.14669 40:358.8822 41:48.649117 42:396.63963 43:110.74267 44:-197.74142 45:202.39586 
-0 -0 -0 0 0 0 4.938112055762375e-09 0 0 0 0 0 0 0 0 0 0 0 0 0 0 0 0 0 0 0 0 0 0 0 0 0 0 0 0 0 0 1:-2097.1705 2:386.42262 3:-544.68829 4:282.25312 5:-1014.4005 6:391.97325 7:714.20555 8:-314.29332 9:121.4942 10:-181.93664 11:-403.3435 12:-423.09598 13:92.75611 14:-560.1818 15:-306.71956 16:247.95452 17:753.67778 18:-418.05433 19:672.64468 20:-543.57543 21:475.77508 22:58.512055 23:552.10366 24:205.24362 25:-330.5469 26:350.02923 27:-610.58918 28:-648.86341 29:-356.61152 30:-165.40855 31:397.1583 32:129.58654 33:-808.75044 34:357.04579 35:-240.95464 36:110.25868 37:355.74659 38:52.701544 39:-599.92189 40:-112.38224 41:-157.54291 42:355.01294 43:35.85649 44:26.444523 45:261.04532 
-0 -0 -0 -0 0 0 0 0 0 0 0 0 0 0 0 0 0 0 0 0 0 0 0 0 0 0 0 0 0 1.816340652065638e-08 0 0 0 0 0 0 0 1:3422.0624 2:2400.1572 3:2787.0647 4:-312.35062 5:-879.1471 6:-384.20194 7:-52.73032 8:-509.75695 9:-1174.062 10:108.21556 11:299.53903 12:-716.54577 13:532.09115 14:-168.16528 15:-616.77658 16:-254.69735 17:-454.04597 18:111.74411 19:504.32176 20:77.428966 21:382.3398 22:218.65632 23:-167.20174 24:335.98333 25:225.45949 26:60.736781 27:-52.547362 28:-105.75074 29:581.3651 30:283.11514 31:-213.71317 32:151.00758 33:371.92672 34:-328.33052 35:-324.96797 36:323.99929 37:-29.614154 38:17.572536 39:52.059065 40:369.22968 41:-52.544819 42:176.52257 43:-128.6422 44:-134.21299 45:209.65658 
-0 -0 -0 -0 0 0 0 0 0 0 0 0 0 0 0 0 0 0 0 0 0 0 0 0 1.311106004053942e-08 1.835468585613537e-08 0 0 0 0 0 0 0 0 0 0 0 1:1494.7528 2:2070.998 3:3162.2519 4:-794.74711 5:69.648156 6:-473.92102 7:-278.80052 8:-875.21474 9:-1945.6022 10:-230.67262 11:617.42895 12:-852.41061 13:223.38499 14:-278.89725 15:-341.30472 16:-598.23628 17:-387.25831 18:105.07524 19:791.85474 20:-275.66943 21:235.9995 22:228.71443 23:-177.63429 24:63.440847 25:-208.35891 26:-23.728248 27:-84.233622 28:-500.07803 29:838.80825 30:496.92036 31:153.09526 32:512.60806 33:273.55755 34:-248.35715 35:-881.39797 36:1182.0857 37:144.3422 38:217.01712 39:310.23218 40:51.387575 41:-43.607846 42:203.69867 43:153.03782 44:-329.08326 45:24.470002 
-5.515817758146797e-08 -6.956849639612691e-08 -7.148069054476298e-08 -5.851718620731487e-08 6.0630209726694e-08 5.616105136144937e-08 5.544301635043106e-08 5.835928361898391e-08 5.27805889861913e-08 4.702986789260378e-08 5.663772794403899e-08 4.455837703656333e-08 5.340694666469281e-08 5.285322722453869e-08 6.245644955325561e-08 8.220091133959443e-08 4.927277121016919e-08 5.612503433158893e-08 3.38574341012647e-08 7.765717201980409e-08 4.832389128687386e-08 7.639640002958751e-08 5.701893451760143e-08 5.523339805037699e-08 9.086670934216452e-08 7.737580698452111e-08 4.958161025043163e-08 6.080487503058345e-08 5.447974052715703e-08 1.234137158218211e-07 6.206477572609477e-08 8.720742369605722e-08 7.864846289907282e-08 8.130380107535285e-08 8.759986487910393e-08 8.765221130570109e-08 3.786340611938767e-08 1:2363.1973 2:1992.1026 3:2120.9392 4:145.64421 5:-823.62115 6:14.575098 7:110.88997 8:-585.08714 9:-966.56916 10:-35.838863 11:631.0081 12:-304.24562 13:668.98262 14:-351.46516 15:-147.24855 16:-224.5976 17:-268.45144 18:62.997024 19:426.10175 20:12.76807 21:85.819909 22:298.26982 23:296.43005 24:333.13835 25:499.81242 26:-374.73678 27:165.49169 28:-402.51416 29:79.660388 30:43.981801 31:-278.79442 32:567.60658 33:104.81773 34:-137.7015 35:-542.66151 36:156.94379 37:343.27892 38:88.678487 39:232.41048 40:21.110666 41:-6.004548 42:294.11544 43:18.224915 44:-517.34747 45:55.598125 
-1.116148488664049e-08 -0 -0 -3.90066056356293e-09 4.104579340987138e-09 1.192479311608181e-08 6.175460120846707e-09 1.622234635505985e-08 6.139629249485956e-09 8.937444115144152e-09 0 0 1.852292441354975e-09 1.16234986754292e-08 1.990786174595917e-09 0 1.139744162213464e-08 1.461851894996908e-08 1.099454781034711e-08 0 9.986373180854398e-09 0 0 1.509474882764485e-09 0 0 7.888142336725107e-10 1.952130887520167e-08 4.659600166072523e-09 0 5.00327040705146e-09 0 2.638538222670835e-09 0 5.054014628305818e-09 0 1.086565322189483e-08 1:1528.1082 2:2052.6726 3:3315.0521 4:-621.12146 5:-704.29179 6:-683.41262 7:-153.85211 8:-1187.9096 9:-1677.9074 10:-67.526911 11:585.37555 12:-852.13995 13:69.679827 14:413.67387 15:-259.69011 16:-716.69983 17:-493.46231 18:240.88719 19:368.1932 20:-455.19303 21:387.30489 22:373.87825 23:-238.89102 24:-31.373656 25:-585.65945 26:889.66742 27:-346.12269 28:45.437331 29:914.35608 30:176.10889 31:508.41975 32:-151.01796 33:701.19107 34:-61.908277 35:-522.05953 36:1144.786 37:33.21689 38:-145.66872 39:82.061357 40:657.48923 41:-511.52907 42:-140.71159 43:31.789861 44:455.76867 45:12.507299 
-0 -0 -0 -0 0 0 0 0 0 0 0 0 0 0 0 0 0 0 0 0 0 0 0 0 0 0 0 0 0 8.950626138556516e-09 0 0 0 0 0 0 0 1:3251.9143 2:2358.3183 3:3113.8777 4:145.78694 5:-1835.0809 6:-200.45338 7:370.00754 8:-1035.9779 9:-1062.3617 10:283.30256 11:681.95627 12:-532.81559 13:621.56343 14:495.31616 15:-778.57236 16:-548.51852 17:-594.98307 18:229.75681 19:529.10635 20:-145.78276 21:418.48802 22:299.6064 23:-151.32561 24:-42.599737 25:-141.68847 26:782.01065 27:-388.85146 28:315.23347 29:631.87121 30:141.49589 31:-13.232826 32:-490.10558 33:741.40886 34:212.41848 35:-14.235017 36:514.91312 37:-200.32413 38:-607.64279 39:-156.10415 40:674.21642 41:-581.58045 42:-237.68402 43:-182.44902 44:826.706 45:436.06809 
-0 -0 -0 -0 -0 0 0 0 1.90118971981648e-08 0 0 0 0 0 0 0 0 0 8.196633923114607e-11 0 0 0 3.742456502512627e-09 0 0 0 0 0 0 2.182462253950769e-09 1.543910769222067e-08 0 0 0 0 0 0 1:629.08725 2:-1872.6495 3:195.31632 4:-123.13317 5:991.42945 6:191.71377 7:691.37406 8:-242.64008 9:-1246.7176 10:1205.8236 11:153.77727 12:-396.12632 13:-307.64575 14:210.56409 15:960.31101 16:967.86379 17:-767.20883 18:-770.4388 19:117.92889 20:765.77004 21:-687.45274 22:24.652369 23:158.06644 24:-368.84621 25:-155.4572 26:-683.69408 27:260.16517 28:-579.61615 29:-47.282947 30:41.654972 31:295.4881 32:-391.07003 33:-272.47947 34:-42.864949 35:774.23154 36:158.40779 37:488.8903 38:-49.559888 39:31.81783 40:-131.83595 41:-210.55939 42:146.92543 43:-222.44208 44:396.44324 45:383.92151 
-0 -0 -0 -0 -0 0 0 0 1.759980716333283e-09 0 0 0 0 0 0 0 0 0 0 0 1.123811708971643e-08 0 0 0 0 0 0 0 0 0 0 0 0 0 0 0 0 1:551.14704 2:-2191.3773 3:382.79144 4:-456.90848 5:677.09557 6:-608.73617 7:575.4597 8:-302.92315 9:-1212.8968 10:911.42197 11:-174.64917 12:-638.21228 13:-635.36887 14:236.02004 15:1200.0569 16:1065.9621 17:-716.62658 18:-717.73769 19:-44.363001 20:389.39869 21:-403.2357 22:65.11627 23:21.225741 24:-295.3586 25:-329.34256 26:-372.28683 27:133.85181 28:-456.65121 29:-274.41098 30:-272.00979 31:134.21087 32:-53.575867 33:-416.41583 34:-531.98783 35:452.74933 36:-77.260565 37:483.50676 38:28.105451 39:376.44786 40:-99.178231 41:-161.59807 42:374.13504 43:-448.32755 44:174.97196 45:438.85723 
-1.107788039828302e-07 -5.470486899343322e-08 -1.090213922518152e-07 -1.002876971561549e-07 -5.015068320215769e-08 1.115508679771611e-07 8.469536341254537e-08 1.267313590408022e-07 1.224819519378891e-07 6.211415329144282e-08 7.11586994254739e-08 4.784367066542255e-08 1.009194730689145e-07 7.920057294785779e-08 1.254146943039397e-07 8.894055237131187e-08 1.321796866373516e-07 1.244809496551266e-07 6.568619189974991e-08 6.228695625535574e-08 8.981884574791719e-08 7.671723192206391e-08 1.078710383497107e-07 7.541581975583244e-08 6.402997835624778e-08 9.519708895631616e-08 1.122273043385377e-07 1.166838491596485e-07 8.658132235640934e-08 3.993658574613259e-08 1.12138133619314e-07 1.080131736895574e-07 1.448056972427412e-07 7.912346147240955e-08 1.391453211934607e-07 1.704563276998649e-07 7.997862977437127e-08 1:724.75974 2:-1386.7645 3:13.804109 4:299.66217 5:421.82746 6:-445.98973 7:917.55482 8:-128.30125 9:-702.43499 10:842.31578 11:147.8431 12:-454.52976 13:-685.86603 14:402.10818 15:910.17386 16:1064.1543 17:-675.83376 18:-66.437819 19:-64.888677 20:59.688043 21:-185.37111 22:-207.46293 23:63.766503 24:-336.16862 25:-233.55115 26:-139.90662 27:-157.07024 28:-326.77515 29:-391.3836 30:-449.22919 31:67.170027 32:114.22635 33:-38.827021 34:-376.6882 35:66.698583 36:-13.569952 37:283.54809 38:-115.37163 39:264.28556 40:-11.580961 41:-147.4911 42:338.16118 43:-304.09455 44:-78.363974 45:155.69454 
-0 -5.860165144125229e-08 -0 -0 -0 0 5.655149169266515e-08 0 1.732601699066675e-08 3.443125547356758e-08 2.828849191453783e-08 0 2.266867167142164e-08 0 1.065389253601157e-08 0 0 0 0 1.051354453791185e-08 1.542861848434168e-08 0 0 1.017052835396742e-08 0 0 2.184260829047701e-08 0 0 0 4.775277446843779e-08 0 8.108743589220321e-09 7.177782821305986e-08 0 0 0 1:1429.3059 2:-1897.821 3:-350.18624 4:650.47236 5:-272.1215 6:-727.43629 7:865.12695 8:354.52548 9:-574.15475 10:561.65517 11:-20.155105 12:-243.68377 13:-789.7553 14:445.46113 15:714.5217 16:1058.8807 17:-126.49556 18:-294.86619 19:-281.94317 20:-493.15419 21:-357.59604 22:-98.776742 23:279.02873 24:47.976969 25:-414.37016 26:665.50196 27:-592.46113 28:-473.21548 29:-502.93715 30:-755.13759 31:83.343256 32:-64.745353 33:176.04638 34:-422.65813 35:-202.16811 36:293.32806 37:280.77817 38:-346.83044 39:516.7937 40:483.90019 41:-281.22542 42:550.11443 43:-85.028108 44:-299.44674 45:251.90946 
-0 -0 -0 -0 -1.458410586552345e-08 0 0 0 0 0 0 0 0 0 0 0 0 0 0 0 0 0 0 0 0 0 0 0 0 4.604570947559456e-08 0 0 0 0 0 0 0 1:1572.2892 2:-1514.962 3:140.74959 4:477.32125 5:246.78383 6:-426.13815 7:1033.4931 8:161.41684 9:-666.792 10:1040.8389 11:65.113254 12:-669.04615 13:-773.50001 14:563.30633 15:891.94401 16:1242.8165 17:-387.76897 18:-109.55933 19:-58.322084 20:-207.06227 21:-522.92328 22:-118.88148 23:152.32785 24:-255.37859 25:-523.89964 26:-135.35898 27:-82.494304 28:-668.81689 29:-444.39218 30:-98.576335 31:299.16352 32:-54.949158 33:-135.29384 34:-797.04379 35:-38.588879 36:149.91734 37:-3.596941 38:-273.02078 39:267.93521 40:-37.609876 41:-166.26479 42:567.52064 43:-23.551498 44:-219.19131 45:140.04848 
-0 -0 -0 -0 -0 0 1.914330880383212e-08 0 0 1.323225197948739e-08 0 0 0 3.073054330524806e-09 0 0 1.192266907567368e-08 0 5.906713369998661e-10 0 1.02835742015119e-12 0 0 1.688323730823623e-08 1.446955826780408e-09 0 0 0 0 0 7.949491844992635e-09 0 0 0 0 0 1.291971239570186e-08 1:594.73675 2:-1845.5043 3:67.317206 4:-9.572829 5:818.05091 6:287.44887 7:896.10928 8:-138.37303 9:-1259.0575 10:1165.9472 11:190.09996 12:-223.51278 13:-129.50092 14:209.60278 15:881.93204 16:875.33138 17:-534.65665 18:-869.46297 19:104.92528 20:894.67361 21:-1019.1426 22:74.013579 23:189.59574 24:-369.06941 25:-43.785038 26:-682.04924 27:235.62286 28:-562.1153 29:-31.177174 30:51.007085 31:315.46375 32:-395.6707 33:-222.43381 34:-24.468631 35:778.66653 36:387.804 37:486.49658 38:-9.259784 39:143.90949 40:-134.19199 41:-273.01412 42:166.60822 43:-237.20794 44:374.98042 45:501.8157 
-0 -0 -0 -0 -0 0 0 0 0 0 0 0 0 0 2.704792036814349e-09 0 0 0 0 0 0 0 0 0 0 7.350941918577281e-09 0 0 0 0 0 0 0 0 0 0 0 1:1227.4735 2:-1836.937 3:-185.30065 4:487.25173 5:707.55514 6:446.83837 7:1512.0402 8:400.42775 9:-1374.1302 10:1205.3806 11:406.87932 12:-53.307864 13:123.37442 14:397.96736 15:605.85447 16:762.86849 17:-81.884492 18:-530.439 19:163.13353 20:770.65278 21:-1428.1551 22:-218.67312 23:290.51838 24:-438.46418 25:-218.47702 26:-473.35358 27:-210.87688 28:-873.56934 29:-181.39379 30:-86.915558 31:207.94764 32:-125.92734 33:-159.42694 34:-82.321532 35:354.34032 36:732.84331 37:302.74869 38:-239.18158 39:270.04728 40:-264.78383 41:-361.4164 42:19.23143 43:-243.27391 44:125.99173 45:488.5045 
-0 -0 -0 -0 -0 -0 0 0 6.295027778203923e-08 0 0 0 0 0 0 0 0 0 0 0 0 0 0 0 0 0 0 0 0 0 0 0 0 0 0 0 0 1:-1878.1589 2:-167.55877 3:767.26458 4:-804.67974 5:-209.95303 6:5.351683 7:299.22172 8:-298.41884 9:-138.4365 10:-216.69013 11:-797.37257 12:-8.67914 13:-112.84226 14:-62.343142 15:-381.75378 16:-110.55447 17:718.41907 18:166.80805 19:418.65366 20:-799.81112 21:232.35289 22:-304.19099 23:702.24395 24:-38.279851 25:-200.88327 26:-79.850274 27:29.522668 28:-508.79209 29:-306.48444 30:-129.57041 31:154.08321 32:-473.22891 33:-28.122086 34:258.18975 35:90.967333 36:-519.97955 37:58.329129 38:320.30423 39:-109.71908 40:2.336735 41:182.30274 42:254.87399 43:544.99484 44:273.60148 45:-244.90635 
-0 -0 -0 -0 -0 -0 0 0 0 0 0 0 0 0 0 0 0 0 0 0 0 0 0 0 0 0 0 0 0 0 0 0 0 0 0 0 1.65334274480854e-08 1:-2089.4027 2:102.75921 3:773.7095 4:-835.80028 5:138.16493 6:434.13242 7:271.31495 8:-79.766259 9:-131.37876 10:-188.99397 11:-714.03018 12:-202.07627 13:-81.191635 14:33.910776 15:-467.88071 16:-258.68774 17:623.37068 18:244.78886 19:355.8665 20:-591.83896 21:289.03947 22:-331.38889 23:723.36978 24:-205.71529 25:-120.35415 26:-363.86415 27:57.428227 28:-401.17422 29:-138.60963 30:-160.86895 31:75.067843 32:-557.61248 33:30.576762 34:124.96721 35:86.905873 36:-573.01875 37:-100.31114 38:331.46786 39:-101.07402 40:203.87682 41:177.81869 42:240.95012 43:554.42774 44:304.19119 45:-144.57491 
-0 -0 -0 -0 -0 -0 0 0 0 0 0 0 0 0 0 0 7.740570379250259e-10 0 0 0 0 0 0 0 0 0 0 0 0 0 0 0 0 0 0 0 0 1:-1965.8393 2:-210.7618 3:834.32268 4:-909.47554 5:-74.516631 6:-77.447954 7:333.14736 8:-230.44764 9:-242.69269 10:-266.07323 11:-836.4427 12:-4.413789 13:-66.460573 14:-70.584674 15:-361.52045 16:-248.83086 17:759.75498 18:180.05335 19:317.70891 20:-600.54622 21:378.09863 22:-273.82486 23:668.50025 24:-164.60622 25:-284.0966 26:-45.806318 27:65.203647 28:-562.75848 29:-220.7503 30:-238.41456 31:64.636761 32:-431.26221 33:-210.94164 34:195.66756 35:68.294297 36:-566.00134 37:-7.323545 38:318.94081 39:-178.47659 40:-26.304488 41:136.21723 42:263.30631 43:549.23774 44:273.94196 45:-103.4389 
-0 -0 -0 -0 -0 -0 0 0 0 0 0 0 0 0 0 0 0 0 0 0 0 0 0 0 0 8.470297913793834e-09 0 0 0 0 0 0 0 0 0 0 0 1:-1818.5464 2:478.68159 3:455.79615 4:-169.25826 5:-238.37359 6:635.17826 7:777.0882 8:1229.4308 9:609.08946 10:195.04181 11:-114.46623 12:-544.91882 13:-346.35896 14:-86.8561 15:-83.206967 16:19.460795 17:296.85201 18:262.79317 19:318.32788 20:-224.89968 21:258.27958 22:-407.13246 23:325.15058 24:-242.53237 25:349.71092 26:-1275.1222 27:-213.77234 28:58.449407 29:478.35985 30:-108.69242 31:253.48871 32:-545.86192 33:156.80552 34:-203.03104 35:-315.96736 36:-111.64527 37:-264.40812 38:380.56361 39:38.81369 40:631.44562 41:103.7198 42:12.744965 43:104.03138 44:-0.04588 45:79.941192 
-1.821817145218071e-07 -8.316129284460264e-08 -1.380225683466135e-07 -5.3683209523018e-07 -6.808584447753119e-08 -1.115508679771611e-07 1.47844418153499e-07 1.52530025371016e-07 6.984090025040878e-08 7.146147969401263e-08 8.42854898747998e-08 8.270886532035606e-08 1.033828295556363e-07 1.317117012523747e-07 1.698424801985792e-07 1.253989580145692e-07 2.566291609400239e-07 2.442235096627228e-07 8.968680853849355e-08 7.120922221312987e-08 1.528055008063811e-07 1.031752444506853e-07 1.116750168000055e-07 1.169190566486514e-07 1.203461231152472e-07 1.595960926011621e-07 7.902300218422052e-08 3.414785759553591e-07 2.061583331175147e-07 8.593373636639346e-08 1.316211864558302e-07 1.267483054678085e-07 2.865585773442742e-07 1.358351927778634e-07 1.433298369292621e-07 1.630922354922446e-07 1.838401392197955e-07 1:-1614.4816 2:324.56496 3:373.29962 4:-199.76219 5:-440.69489 6:235.19011 7:657.15707 8:147.38397 9:282.12581 10:6.047572 11:-245.06201 12:-76.528981 13:-148.34433 14:58.542723 15:-58.19941 16:-48.717399 17:324.40656 18:254.4011 19:176.03605 20:-153.37184 21:344.86751 22:-125.29385 23:392.82078 24:-314.39687 25:46.573493 26:-344.27866 27:-35.292285 28:-160.4963 29:54.061531 30:-382.04416 31:95.372344 32:-339.69103 33:-48.061917 34:-60.860164 35:-130.22018 36:-306.46408 37:-141.86075 38:262.13663 39:-77.358115 40:224.50846 41:-53.00802 42:205.57046 43:249.98775 44:2.616288 45:44.580146 
-0 -7.43965899493703e-10 -0 -2.554796994105195e-08 -0 -0 0 0 0 2.948470330209136e-08 0 0 0 1.539877400225134e-07 0 0 0 0 3.927392622159841e-09 0 0 0 0 0 0 0 0 0 5.559999357228899e-08 0 0 0 0 0 0 0 0 1:-1959.3292 2:373.72719 3:224.95212 4:58.789106 5:-780.88428 6:706.78996 7:962.02273 8:973.66776 9:611.3395 10:223.33561 11:-114.52858 12:-314.29687 13:12.828323 14:-249.62818 15:-260.57301 16:-1.568009 17:272.7308 18:-27.200989 19:385.52477 20:152.49509 21:208.34372 22:51.164225 23:156.48573 24:-391.51242 25:233.83045 26:-724.49462 27:-80.299492 28:4.874229 29:629.93778 30:-455.2427 31:262.73154 32:-636.0048 33:-10.685084 34:-171.3705 35:-183.63852 36:24.457035 37:-278.72474 38:132.95448 39:-148.63799 40:683.85355 41:-351.91586 42:-168.60114 43:130.28019 44:-105.11179 45:241.10081 
-0 -0 -0 -0 -0 -0 0 0 0 0 0 0 0 0 0 0 0 0 1.881906095733189e-08 0 0 1.207330056666855e-08 0 0 0 0 0 0 0 0 0 0 0 0 0 0 0 1:-1790.4611 2:594.62774 3:395.74562 4:-141.76446 5:-336.17292 6:565.59252 7:582.39745 8:548.1799 9:423.07533 10:46.275426 11:-166.28673 12:-396.87387 13:-349.46237 14:126.31341 15:-255.23864 16:54.063803 17:296.57478 18:243.05146 19:272.01167 20:-609.93687 21:237.24217 22:-380.30804 23:477.75756 24:-97.696453 25:260.04966 26:-808.57118 27:-163.19873 28:-13.522879 29:32.153388 30:-87.690335 31:258.61998 32:-509.43718 33:369.4438 34:-75.356495 35:-184.96455 36:-336.31338 37:-94.774666 38:385.64159 39:180.80619 40:442.5234 41:251.00344 42:141.89741 43:308.16954 44:46.92483 45:-144.67213 
-0 -0 -0 -0 -0 -0 1.153601499696703e-08 1.311694628268881e-08 0 5.219581812554349e-08 0 0 0 0 2.73330039857614e-08 0 0 0 0 0 7.078911068199266e-09 0 5.610479517450111e-10 0 0 2.63742240179122e-09 0 3.747777437659498e-08 0 0 1.403987458013203e-08 0 0 2.56624677364442e-09 0 0 0 1:-1802.3948 2:-125.11925 3:696.05758 4:-618.93586 5:-319.3339 6:-22.114435 7:368.69368 8:-359.25582 9:-19.430999 10:-178.62176 11:-757.53249 12:18.65346 13:-103.5185 14:-2.889621 15:-401.45801 16:-30.993365 17:703.10598 18:93.998774 19:504.90226 20:-977.29627 21:93.005218 22:-324.60433 23:705.9824 24:60.474119 25:-155.95245 26:-49.818179 27:13.583651 28:-466.19984 29:-386.38096 30:-51.877931 31:227.04958 32:-440.91765 33:143.27388 34:277.23223 35:75.904089 36:-482.91765 37:66.116823 38:356.83212 39:20.101825 40:29.030952 41:207.11273 42:241.96921 43:492.26409 44:278.43656 45:-359.0723 
-0 -0 -0 -0 -0 -0 0 0 0 0 0 0 1.012045484970479e-08 0 0 0 0 0 0 0 0 0 0 0 0 0 0 0 0 0 0 0 0 0 0 0 0 1:-1853.9403 2:534.27685 3:437.4681 4:12.214421 5:-538.31834 6:713.2778 7:686.4597 8:1193.9421 9:736.49975 10:202.69705 11:-199.28599 12:-685.79606 13:-369.70505 14:134.73704 15:-167.52207 16:-79.370649 17:201.59794 18:162.83798 19:249.21038 20:-751.19603 21:288.64144 22:-541.47637 23:491.88927 24:16.09849 25:477.17368 26:-1248.4855 27:-427.10815 28:128.31535 29:164.9336 30:-78.153761 31:229.59026 32:-482.7825 33:520.57701 34:-156.46302 35:-391.69669 36:-244.78169 37:-16.748164 38:532.56155 39:402.34768 40:833.51073 41:318.2256 42:10.526211 43:171.17392 44:-16.398823 45:-108.31194 
-0 -0 -0 -0 -0 -0 0 0 0 0 0 0 0 0 0 0 0 0 0 0 0 0 0 0 0 0 0 4.406909373252422e-09 0 0 0 0 0 0 0 0 0 1:-1750.039 2:244.00465 3:514.80448 4:-168.64664 5:-648.3702 6:420.68593 7:621.71032 8:135.06879 9:433.58128 10:22.538452 11:-487.15091 12:-290.22001 13:-103.80614 14:94.735564 15:-360.8082 16:-117.61094 17:470.14704 18:7.340272 19:516.07506 20:-1047.2849 21:-65.323707 22:-485.5701 23:608.02104 24:111.8741 25:239.60491 26:-347.22411 27:-232.44889 28:-191.13678 29:-287.62639 30:-21.546667 31:246.87529 32:-366.57268 33:459.70638 34:133.3257 35:-153.02925 36:-364.52749 37:41.200179 38:474.8478 39:342.36114 40:399.22078 41:258.57713 42:49.710162 43:359.3181 44:151.24403 45:-312.20961 
-0 -0 -0 -0 -0 -0 -0 0 6.771322303280623e-08 0 0 0 0 0 0 0 0 0 0 0 0 0 0 0 0 0 0 0 0 0 0 0 0 0 0 0 0 1:122.0022 2:-1609.2927 3:-641.5114 4:344.26732 5:-136.34682 6:-150.41855 7:-919.19521 8:-539.16453 9:-437.27204 10:160.41263 11:260.37666 12:312.29046 13:78.169354 14:113.60163 15:-184.08948 16:80.919544 17:449.97515 18:-662.85398 19:37.187974 20:-107.90364 21:76.091664 22:-157.77141 23:392.14916 24:-358.40618 25:-498.46954 26:103.60363 27:132.38253 28:298.19495 29:762.09638 30:328.9205 31:164.36255 32:-104.59172 33:-196.99966 34:-128.30485 35:-1169.5352 36:-573.77795 37:87.363108 38:-100.56248 39:-7.837369 40:-545.02278 41:-131.6736 42:-319.14797 43:-223.89342 44:534.6451 45:88.485723 
-0 -0 -0 -0 -0 -0 -0 0 0 0 0 0 0 0 0 0 0 0 0 0 3.593861534917751e-09 0 0 0 0 0 0 0 0 0 0 0 0 0 0 0 0 1:-1105.8937 2:-1517.9889 3:-346.80077 4:-22.583799 5:-270.6213 6:-506.82981 7:-1052.7757 8:-789.18229 9:-118.79812 10:321.55857 11:396.41635 12:225.08783 13:57.681436 14:113.71068 15:-194.04712 16:-35.508534 17:499.97579 18:-608.09373 19:-73.069892 20:-32.999216 21:-63.381319 22:-292.59573 23:424.6624 24:-310.79632 25:-378.64149 26:-41.22102 27:9.491336 28:461.48383 29:718.07212 30:277.2557 31:-40.965208 32:-56.027691 33:-393.09551 34:-230.98399 35:-1341.1183 36:-435.88604 37:299.5648 38:-118.81669 39:-0.327129 40:-362.74957 41:-188.54891 42:-363.61155 43:-407.18041 44:456.52562 45:63.87887 
-0 -4.051273845159428e-08 -0 -0 -0 -0 -0 0 0 0 0 0 7.407304421988606e-09 0 0 0 0 0 0 1.347937512736326e-08 0 0 0 0 0 0 7.303613280188723e-09 0 0 2.907345652322856e-08 1.70118255384149e-08 0 0 7.606166036310798e-08 0 0 0 1:973.44363 2:-1586.2299 3:-970.31821 4:1357.9304 5:-468.54947 6:254.61251 7:-731.11813 8:-307.9488 9:-871.53728 10:-379.66253 11:121.53086 12:7.896091 13:-83.098332 14:150.50419 15:-207.37196 16:342.53091 17:478.7221 18:-587.91908 19:-83.752951 20:-309.42038 21:8.651283 22:321.55908 23:-211.29835 24:-668.68697 25:-460.21225 26:281.60568 27:-290.50538 28:201.64062 29:410.85971 30:178.23635 31:326.81429 32:-306.38033 33:-112.79673 34:-32.704196 35:-615.42329 36:-332.45256 37:80.967819 38:251.21046 39:-7.686019 40:-439.02199 41:-2.686933 42:42.585737 43:-319.28591 44:686.98321 45:-331.15935 
-8.311534589234439e-08 -4.624634948229319e-08 -1.606972620920482e-07 -8.39237125181297e-08 -4.225552488919859e-08 -1.150755835313223e-07 -8.911607424762437e-08 1.042787582584026e-07 9.768693815697689e-08 1.035023450442879e-07 1.008427888036508e-07 3.176657674081629e-08 3.295806935347696e-08 5.726428947404047e-08 1.320624458812629e-07 6.279875186457895e-08 1.309340346146424e-07 1.321184511535648e-07 1.841755611624625e-08 4.327368961362184e-08 7.258344844028282e-08 8.516610378873372e-08 1.070536752656376e-07 5.654808244330284e-08 6.047388862159712e-08 5.548931544491615e-08 1.038596001134917e-07 1.066670359425407e-07 5.228077592773101e-08 5.853168574249833e-08 1.866894107642737e-07 7.925999120851176e-08 1.783300941872063e-07 1.014151891803547e-07 1.168710398231759e-07 1.621851015996777e-07 5.219844361686704e-08 1:-115.0515 2:-1105.0741 3:-723.00232 4:572.80393 5:-541.66671 6:-156.08735 7:-390.52375 8:-555.07089 9:-56.091433 10:136.15373 11:331.9814 12:312.20038 13:-28.644236 14:202.60355 15:-108.2443 16:385.71525 17:247.53792 18:-507.18638 19:43.546428 20:-146.23776 21:-9.070573 22:40.935781 23:46.816699 24:-277.94013 25:-155.20499 26:407.62111 27:-156.71372 28:610.78747 29:515.02313 30:-90.020088 31:146.49248 32:-191.20423 33:40.884187 34:-19.671667 35:-1002.5638 36:-265.402 37:151.49937 38:57.647709 39:81.540196 40:-331.06329 41:-221.46565 42:-38.240479 43:-559.22481 44:473.06197 45:-64.28139 
-0 -0 -0 -0 -0 -0 -0 0 0 7.404610890141066e-09 0 0 0 0 0 0 0 0 0 0 4.352282995323149e-08 0 0 0 0 0 0 0 1.236234777542772e-08 0 0 0 0 0 0 0 0 1:-87.298358 2:-1569.7663 3:-1054.3279 4:1411.4206 5:-1149.9432 6:-155.19626 7:-396.92871 8:-300.51187 9:-374.65737 10:-230.64222 11:133.84914 12:200.70981 13:150.42719 14:132.06923 15:-439.33708 16:484.05065 17:748.75088 18:-833.579 19:-111.5289 20:-282.16427 21:-599.51436 22:478.25199 23:-466.5338 24:-216.64862 25:-98.086344 26:829.14869 27:-426.13443 28:390.49203 29:427.91355 30:-228.94258 31:344.97013 32:-877.23556 33:-27.817996 34:5.863933 35:-563.70573 36:50.112442 37:209.76359 38:240.82603 39:-62.314466 40:-203.03885 41:-171.44943 42:-65.844142 43:-648.1091 44:581.6385 45:-241.7133 
-0 -0 -0 -3.204872254771872e-08 -0 -0 -2.809139209064164e-09 7.343629678412972e-09 0 0 2.754786773384635e-08 2.570381757925149e-08 8.572886093080278e-08 0 0 3.890895213223689e-08 0 0 3.229476390381357e-08 1.540485595922798e-08 9.458740655461469e-08 5.065154437457416e-09 0 0 0 0 0 0 7.480338862134204e-08 0 0 9.810772762397715e-08 0 0 0 0 3.985444870324937e-08 1:-198.34619 2:-1219.1448 3:-773.46072 4:955.59428 5:-484.91732 6:-313.58024 7:-823.96193 8:-423.9768 9:-434.08358 10:-15.664864 11:378.37576 12:115.65064 13:-46.156151 14:384.32863 15:-60.02091 16:167.44288 17:346.72359 18:-511.73092 19:-178.5455 20:-132.07654 21:109.52626 22:36.348041 23:195.43143 24:-406.32565 25:-363.96648 26:0.295304 27:1.099864 28:37.718623 29:394.69279 30:336.679 31:178.10538 32:-28.242588 33:-230.61005 34:-147.30077 35:-861.94714 36:-481.64971 37:-9.398372 38:130.76403 39:-19.369219 40:-418.74223 41:-11.197413 42:-177.03318 43:-179.32342 44:236.96795 45:-46.033152 
-3.937069713203569e-08 -0 -0 -3.591026278515566e-08 -0 -0 -6.745521969377749e-08 4.742453917568848e-08 4.014807505395459e-08 4.663528513226064e-08 0 0 0 3.171771767925894e-08 0 0 3.410900564468301e-08 6.046897547429894e-08 2.640185454008999e-08 0 1.95846490976832e-08 0 3.251189580844555e-08 6.317747831885115e-08 2.041135324954107e-08 4.752642785805989e-08 0 3.901928028934494e-08 3.333576355607467e-09 0 0 0 0 0 0 0 4.179227230562994e-08 1:-996.82982 2:-1271.9937 3:-516.47925 4:33.165841 5:-240.18337 6:-211.18622 7:-713.83428 8:-642.428 9:-119.46388 10:456.46493 11:638.49788 12:342.20984 13:261.93796 14:176.78965 15:10.245158 16:43.619088 17:493.38739 18:-736.6359 19:58.01995 20:5.395206 21:-161.47077 22:-140.80787 23:560.31558 24:-187.61286 25:-127.38157 26:-49.311603 27:291.64035 28:284.55363 29:728.89692 30:281.30556 31:20.61045 32:144.7803 33:-407.89739 34:-92.476453 35:-1219.4181 36:-520.08256 37:130.00111 38:-228.2301 39:88.349381 40:-321.30686 41:-361.70305 42:-621.35619 43:-209.1995 44:68.897185 45:190.24033 
-0 -4.054888113294438e-08 -0 -0 -1.434417152268304e-08 -4.531458037772038e-08 -0 0 0 0 0 0 1.823894379484764e-08 0 0 1.288803606280183e-08 0 0 0 0 0 0 0 0 0 0 0 0 0 0 1.159494964872799e-07 0 0 3.551976843909419e-08 0 0 0 1:1016.896 2:-1672.4182 3:-1037.6251 4:1612.6055 5:-606.72604 6:288.26504 7:-747.57268 8:-130.75777 9:-1185.6387 10:-231.82542 11:362.60988 12:-8.095348 13:112.36687 14:378.78941 15:-137.05038 16:-10.919395 17:368.09881 18:-734.30646 19:-111.13178 20:-175.86598 21:182.63265 22:212.36104 23:155.05459 24:-647.86307 25:-566.24278 26:140.63301 27:-19.75625 28:-237.77006 29:353.13982 30:461.1406 31:231.93947 32:-17.467779 33:-213.18429 34:-74.692278 35:-634.81777 36:-563.74175 37:-222.56653 38:145.54972 39:72.703154 40:-662.3143 41:166.97514 42:-31.866695 43:65.973349 44:260.20569 45:-66.278378 
-0 -0 -0 -0 -5.01878005939613e-09 -0 -0 0 0 0 0 9.98797428270945e-09 0 7.743415516464423e-09 3.693774152757061e-09 0 0 0 0 0 0 0 0 0 0 0 0 0 0 0 0 0 3.52600975733993e-08 0 1.474773401547372e-08 0 0 1:-285.49892 2:-1311.5041 3:-904.75905 4:773.07665 5:-470.30231 6:80.458061 7:-470.09274 8:-350.42091 9:-631.85181 10:191.88031 11:662.42193 12:483.84925 13:344.7212 14:206.02693 15:-84.535924 16:-154.81363 17:447.16015 18:-767.03949 19:-147.49049 20:152.44205 21:2.280281 22:-71.589731 23:686.59612 24:-373.85785 25:-41.359846 26:151.66527 27:357.8166 28:-304.02582 29:556.86591 30:250.38506 31:-54.902186 32:407.52799 33:-505.90966 34:31.589298 35:-1162.4726 36:-407.82085 37:-13.487501 38:-123.81451 39:41.363473 40:-462.79325 41:-304.49248 42:-719.43581 43:-14.425123 44:-0.991229 45:178.58719 
-0 -0 -0 -0 -0 -0 -0 -0 1.478312632072645e-08 0 0 0 0 0 0 0 0 0 0 0 0 0 0 0 0 0 0 0 0 0 0 0 0 0 0 0 0 1:-1777.5314 2:-317.03051 3:1141.4675 4:268.36273 5:-395.63978 6:-1115.9474 7:-566.72005 8:-1469.7526 9:-1148.0178 10:857.7399 11:396.69635 12:-865.20974 13:-502.08549 14:-616.14823 15:768.9547 16:-858.87919 17:420.93723 18:135.63184 19:-230.47301 20:-380.65722 21:-416.78139 22:-839.94305 23:-589.9068 24:286.50326 25:118.9361 26:348.49341 27:264.22283 28:24.989383 29:-149.91843 30:-70.91066 31:-462.88637 32:50.418074 33:-1.651484 34:237.70835 35:202.029 36:246.26938 37:210.00253 38:-385.39673 39:-375.03572 40:-570.26409 41:-21.800561 42:331.81664 43:-98.211189 44:34.867881 45:-158.3878 
-0 -6.155429069366738e-08 -0 -0 -0 -0 -0 -0 0 0 0 0 3.509221117873611e-08 0 0 0 0 0 0 0 0 0 0 0 0 0 9.905773673351318e-10 0 0 0 0 0 0 0 0 0 0 1:-506.52965 2:-346.05863 3:849.64974 4:1527.5945 5:-681.53784 6:-916.45612 7:-513.37008 8:-15.13819 9:-738.61711 10:1252.511 11:10.513187 12:-542.86115 13:-126.4271 14:-1283.8109 15:924.73672 16:-416.39881 17:-345.02188 18:227.13743 19:204.48866 20:-121.03286 21:-634.45241 22:-866.23468 23:-270.36544 24:70.219781 25:340.82684 26:-620.30876 27:599.47464 28:468.46424 29:10.114177 30:205.26948 31:-325.08956 32:-634.82103 33:-53.03353 34:383.21375 35:-129.14363 36:-311.82355 37:125.38604 38:126.93761 39:-342.18432 40:-25.680546 41:-383.10086 42:98.548819 43:26.528627 44:295.97605 45:-94.934294 
-1.346168898904455e-07 -4.662078661097042e-08 -1.123394725767104e-07 -1.502974055788118e-07 -3.120471231524303e-08 -1.246103759593915e-07 -1.439759129485811e-07 -1.590469271125041e-07 9.541689215967286e-08 1.388288390554213e-07 7.987968484316925e-08 5.36256139497497e-08 6.196168831006991e-09 9.734348255649333e-08 1.029314029739414e-07 4.724783205878275e-08 1.191546197011591e-07 1.405239059747673e-07 6.478530964571401e-10 3.90486888592521e-08 1.387467718389907e-07 4.185742281837024e-08 5.827345208776942e-08 7.609705650138551e-08 6.451123031582999e-08 1.165939620861154e-07 7.493460309042814e-08 1.609976554199926e-07 9.830914578717883e-08 4.812811229137034e-08 1.2388584629432e-07 5.086795072548643e-08 1.878253955284659e-07 9.951804675134267e-08 1.177083967407329e-07 1.243972647082847e-07 6.962675808159069e-08 1:-1018.4229 2:-124.7242 3:591.89027 4:927.08218 5:-718.71081 6:-947.81028 7:-8.557795 8:-788.62723 9:-541.0232 10:973.76061 11:292.96992 12:-413.36134 13:-218.06786 14:-732.64435 15:719.31606 16:-421.31563 17:-46.066856 18:234.44737 19:112.93093 20:-56.184439 21:-674.12712 22:-749.13409 23:-379.01337 24:89.256093 25:291.2033 26:133.73709 27:328.489 28:443.9724 29:-155.72961 30:-182.49622 31:-224.52689 32:-229.27545 33:44.063089 34:257.87082 35:-57.034806 36:-105.82835 37:236.15983 38:-6.733607 39:-203.8262 40:-142.02745 41:-352.59011 42:197.16488 43:-117.95378 44:10.074468 45:5.589733 
-0 -2.556769127025051e-10 -0 -0 -0 -0 -0 -0 0 0 0 0 0 0 0 0 0 0 0 0 0 0 0 0 0 0 0 0 0 0 0 0 0 0 0 0 0 1:-1066.8682 2:-322.78307 3:504.72209 4:1918.4357 5:-1229.3268 6:-928.17945 7:-238.57112 8:-265.43263 9:-615.69914 10:1208.3334 11:-15.753206 12:-480.04874 13:87.728458 14:-1499.5172 15:550.03509 16:-400.91938 17:-48.735299 18:-100.98295 19:513.76584 20:15.009328 21:-1327.325 22:-564.49782 23:-458.89439 24:85.212767 25:204.33596 26:-33.405849 27:250.47091 28:430.51916 29:110.62934 30:-129.75552 31:-17.703753 32:-892.09764 33:103.63082 34:426.00581 35:-184.99314 36:-83.194511 37:504.83411 38:22.247124 39:-348.59842 40:262.81532 41:-565.17385 42:-186.89791 43:68.714191 44:118.79967 45:-33.579233 
-0 -0 -0 -5.260803933178803e-09 -4.337691765880071e-08 -0 -2.167105870512362e-08 -0 0 0 0 1.631204792140766e-08 7.956628651489724e-08 1.129707894666462e-08 0 4.681372285133296e-08 0 0 1.035474961969315e-07 2.496767980755332e-08 0 3.557967509188346e-08 2.373718314129995e-08 3.007370551626193e-09 3.19033081145296e-08 0 0 0 4.395201940068788e-08 2.324355351250549e-08 0 6.525601084702298e-08 0 3.718554367737428e-08 0 0 4.098422634799457e-08 1:-1054.1655 2:39.502798 3:775.41899 4:1252.9838 5:-560.45269 6:-789.6699 7:-508.65307 8:-429.76739 9:-885.83083 10:997.63254 11:226.67739 12:-591.90126 13:-226.63078 14:-770.3896 15:722.54339 16:-406.438 17:-332.63853 18:345.9739 19:-73.458472 20:-426.19657 21:-225.54744 22:-742.30226 23:-409.6058 24:164.76996 25:208.91804 26:-337.58904 27:396.10637 28:234.31212 29:-92.152025 30:65.279829 31:-361.62135 32:-316.75881 33:58.393372 34:258.57106 35:-104.47048 36:-38.842871 37:-77.480927 38:-85.776827 39:-307.19162 40:-450.88593 41:-125.31518 42:199.612 43:46.468711 44:36.157311 45:-173.02624 
-0 -4.298856061812746e-09 -0 -0 -0 -2.120983081410786e-09 -0 -0 0 4.888861950369048e-09 0 0 0 0 0 0 0 0 0 0 0 0 0 0 0 0 0 0 0 0 3.004130937660699e-09 0 0 0 0 0 0 1:-536.86114 2:-285.6451 3:977.9457 4:1641.4036 5:-822.43898 6:-909.30074 7:-789.01119 8:32.639398 9:-989.55078 10:1416.7178 11:-10.775307 12:-721.02769 13:-149.22378 14:-1060.5971 15:945.26298 16:-505.31928 17:-657.97618 18:245.71657 19:-100.87861 20:-463.22514 21:89.302568 22:-851.33828 23:-287.43873 24:178.01812 25:306.5086 26:-700.21653 27:607.7729 28:245.91096 29:34.91011 30:323.35019 31:-631.84537 32:-452.40001 33:-56.141567 34:221.06523 35:-200.2146 36:-254.5697 37:-273 38:226.44182 39:-300.50189 40:-343.46575 41:-56.428006 42:208.91022 43:80.371032 44:9.990205 45:-229.47736 
-4.906777278869834e-08 -2.83049721951931e-08 -1.278200198829608e-07 -4.16884209973164e-08 -3.349124297402542e-09 -1.064132459699376e-07 -4.952317265917667e-08 -1.812971790386306e-07 -5.427177202623637e-08 3.44298123074281e-08 1.192638765758367e-07 1.262013083989211e-08 8.021012881904821e-08 2.711665061021501e-08 6.361217588313368e-08 1.834068428848776e-08 5.545523433057289e-08 6.026748651706831e-08 4.268418209255254e-08 2.130973846248415e-08 5.397395377925107e-08 3.714500829552264e-08 2.123423433608354e-07 5.408848867940593e-08 5.213373154622297e-08 3.693889344531408e-08 7.639505824658534e-08 4.890916217655533e-08 3.391087607627719e-08 1.31888529335911e-08 1.337863253277512e-07 3.188938301295003e-08 4.942839843980398e-08 6.796811768710486e-08 4.486262957167073e-08 1.102618379884422e-07 5.028397164056263e-08 1:53.452933 2:-1578.0641 3:-921.05434 4:-929.65441 5:877.82105 6:207.21175 7:-625.95937 8:-997.21832 9:-586.5874 10:12.849867 11:-252.47592 12:5.119416 13:-330.88888 14:-240.89586 15:561.68962 16:26.336471 17:-36.203602 18:-3.337459 19:224.81044 20:-232.87379 21:254.05913 22:80.058618 23:456.26852 24:-50.59689 25:238.91458 26:266.84188 27:34.175849 28:248.859 29:-585.79353 30:-396.8959 31:-38.167069 32:-280.46913 33:443.60869 34:-138.83894 35:-544.86131 36:-241.19665 37:-205.48415 38:-179.34981 39:40.21993 40:255.54588 41:-153.10752 42:-384.83825 43:-259.19657 44:-195.8011 45:161.49578 
-0 -2.044214528757783e-08 -0 -2.809732984914079e-09 -0 -0 -0 -0 -0 2.247829543057531e-08 0 0 0 0 0 5.431438849293778e-09 0 0 0 0 2.387959745462944e-08 0 0 0 0 0 0 0 0 0 2.6237612163266e-08 0 0 0 0 0 0 1:402.82852 2:-1798.7832 3:-1738.4625 4:-321.52177 5:-573.60911 6:970.64246 7:-244.64205 8:-1134.671 9:-790.53878 10:-292.11238 11:-844.08162 12:-190.93659 13:-1017.5959 14:-743.34098 15:561.55792 16:-420.9894 17:11.132302 18:-448.2208 19:104.33619 20:-339.94687 21:-165.09891 22:211.81248 23:195.14089 24:-39.644039 25:-76.328905 26:1146.4006 27:-280.86749 28:153.79708 29:-718.9307 30:-1057.3152 31:578.78354 32:20.598682 33:378.95133 34:329.42942 35:-219.21818 36:564.31114 37:-136.39731 38:-14.04747 39:-662.99326 40:526.50259 41:-415.41261 42:-1175.5328 43:-301.01658 44:-546.0913 45:-228.4028 
-6.160098545211094e-08 -3.84261722082928e-08 -5.008996517541469e-08 -6.077653184849321e-08 -4.354986425806916e-08 -5.416660087311634e-08 -5.85242348853893e-08 -2.37345587566642e-08 -5.592824645416293e-08 1.868995118913383e-08 0 3.730441660361541e-08 1.956217071111719e-08 5.711070134488362e-08 8.016811709062156e-08 8.206998666117741e-08 7.164603487331964e-08 6.699784258717097e-08 1.596619149158788e-08 5.125085676073914e-08 2.588174732496389e-08 5.694494034642917e-08 0 7.276575490843864e-08 1.463830032868124e-08 5.614142297149094e-08 2.568018331527902e-08 5.270824738397715e-08 5.557432276918575e-08 6.820502761531368e-08 4.010113741713432e-08 7.469034292356297e-08 9.373504362317354e-08 5.766948018768694e-08 5.075956393513404e-08 5.270205622989427e-08 7.226133981019293e-08 1:243.85372 2:-1237.0208 3:-765.40357 4:-807.19709 5:274.00874 6:669.0534 7:-192.32942 8:-745.79867 9:-907.68081 10:-470.21287 11:58.995006 12:-498.85419 13:-466.8321 14:-163.76932 15:406.12642 16:-157.74378 17:557.15177 18:-107.73604 19:-664.91566 20:-107.79367 21:95.134825 22:121.46428 23:-109.19284 24:433.47103 25:13.769214 26:-7.439888 27:302.64741 28:272.83177 29:-1112.3195 30:-517.93547 31:21.519363 32:87.630001 33:258.05208 34:-49.761999 35:-344.41024 36:269.88383 37:-176.48888 38:-211.13781 39:-274.19528 40:141.67869 41:84.162053 42:-293.01042 43:227.49516 44:-477.17557 45:-307.71399 
-0 -0 -0 -0 -0 -0 -2.474377048788203e-08 -5.164984484429499e-10 -0 3.634554864311477e-08 0 0 0 0 0 0 1.273078370824313e-08 4.99658669188867e-08 0 0 6.161027463835023e-08 0 0 9.013043200302429e-09 0 1.40515753039265e-09 0 1.771101464076654e-08 8.533085423510121e-09 0 0 0 1.745456649388668e-08 0 0 0 5.992227326302633e-09 1:-811.75639 2:-2134.9902 3:-140.81348 4:-1796.2576 5:230.27324 6:-656.62852 7:-1322.1685 8:-1228.6622 9:-392.75135 10:-395.60192 11:-5.121053 12:-51.137735 13:32.533621 14:-167.48867 15:190.0343 16:215.72782 17:709.48864 18:-214.76121 19:-407.81649 20:-331.92162 21:504.26241 22:859.4134 23:418.32935 24:429.39417 25:864.76757 26:-384.76153 27:558.28338 28:-230.74691 29:-683.03127 30:-93.990536 31:-385.85109 32:-521.68828 33:443.72108 34:-735.85675 35:-298.61175 36:-701.00418 37:-375.38642 38:-817.09041 39:455.4769 40:733.05105 41:35.570557 42:-57.219949 43:-166.70586 44:-129.2274 45:-148.85346 
-0 -0 -0 -0 -1.202122968020555e-08 -0 -0 -0 -0 0 0 0 0 0 0 0 0 0 0 0 0 0 0 0 0 0 0 0 0 1.289317506999871e-08 1.956657707261112e-08 0 0 0 0 0 0 1:1482.2973 2:-1619.1049 3:-875.34252 4:-1081.5915 5:-577.10671 6:943.99094 7:-582.93138 8:-1039.8495 9:-1277.964 10:-441.43988 11:-455.74806 12:-647.74757 13:-1091.4798 14:-37.802062 15:441.42294 16:-656.29631 17:316.24763 18:-126.92684 19:-367.68902 20:-507.85157 21:665.2224 22:651.76011 23:587.67623 24:-41.165597 25:-259.29791 26:485.45212 27:617.27769 28:-548.79674 29:-1305.0773 30:-367.94764 31:315.77272 32:-109.98211 33:432.81144 34:-58.17777 35:-582.78064 36:348.66851 37:-266.38107 38:-241.30014 39:16.527346 40:181.18527 41:-284.21269 42:-136.04202 43:111.77967 44:-418.69532 45:-373.39539 
-0 -0 -0 -0 -0 -0 -0 -0 -0 0 0 0 0 0 0 0 0 0 0 0 6.646436280613654e-10 0 0 0 0 0 0 0 0 0 5.921264621156498e-09 0 0 0 0 0 0 1:227.03679 2:-1958.3351 3:-638.80817 4:-1231.8803 5:-296.52797 6:-59.955171 7:-741.72098 8:-1075.3732 9:-550.07043 10:-194.85971 11:-218.31625 12:-452.02568 13:-482.96106 14:-156.89888 15:384.80693 16:0.663369 17:462.73025 18:-198.76359 19:-400.24079 20:-386.26467 21:622.54283 22:894.29169 23:668.36778 24:190.67389 25:385.87051 26:18.437368 27:885.00369 28:-582.57837 29:-806.26423 30:-194.94692 31:-76.421665 32:-318.2084 33:591.62795 34:-602.77534 35:-508.30916 36:-117.43616 37:-377.71734 38:-513.37226 39:324.24841 40:501.55589 41:-196.55307 42:-114.63227 43:-28.190262 44:-518.10912 45:-184.84337 
-0 -4.097292756883173e-09 -0 -0 -0 -0 -0 -0 -0 -0 0 0 0 0 0 0 0 0 0 0 0 0 0 0 0 0 0 0 0 0 0 0 0 0 0 0 0 1:-132.55817 2:-1661.8224 3:287.36505 4:-346.9594 5:-2405.8128 6:-647.78999 7:-286.15452 8:1333.2468 9:126.17618 10:519.3615 11:-468.32801 12:-663.38753 13:296.93301 14:-649.4966 15:-341.51768 16:45.470799 17:-774.16949 18:-517.71754 19:561.08756 20:878.78354 21:329.48872 22:-1121.9817 23:345.18127 24:705.34474 25:50.372782 26:17.505934 27:396.78963 28:562.89824 29:463.12342 30:63.769245 31:452.05334 32:-236.8651 33:-396.47954 34:-390.98159 35:505.35098 36:165.45299 37:-257.81831 38:396.4058 39:701.01498 40:524.96819 41:-172.83508 42:-190.33448 43:-179.07028 44:-27.379088 45:-319.94602 
-7.43014470870024e-08 -3.462486212643349e-08 -7.669389805136753e-08 -6.576170110260492e-08 -4.36599425154887e-08 -1.097776607444978e-07 -9.351784925785131e-08 -1.323602224558324e-07 -8.745359853029957e-08 -8.299794412113345e-08 7.821096583212938e-08 2.556318670174817e-08 8.022721261779306e-08 5.594749884393359e-08 1.531602724911502e-07 4.002845902552384e-08 1.048549962263323e-07 1.361166267081388e-07 2.766401404962085e-08 4.706141913690611e-08 1.357350631199589e-07 4.610850441646731e-08 6.625639473686699e-08 1.025383868041833e-07 4.409318935775755e-08 9.197424022023208e-08 9.824992900198397e-08 7.547619723380114e-08 4.673850238835234e-08 6.734457043498624e-08 1.277392592523915e-07 8.050268507284698e-08 1.784792816229568e-07 1.009168608022332e-07 6.914870844265848e-08 9.015464125165461e-08 5.327534700811876e-08 1:-633.98547 2:-1391.8668 3:104.7372 4:-465.4859 5:-1604.6066 6:-767.46474 7:-178.28185 8:531.9098 9:-82.182595 10:240.45917 11:-27.053152 12:-97.625177 13:542.96733 14:-343.66623 15:-569.02135 16:367.10082 17:-546.92907 18:-235.17908 19:579.06246 20:532.01365 21:28.653301 22:-878.78005 23:520.44632 24:574.08687 25:-96.784353 26:603.57978 27:49.705682 28:622.81652 29:-201.07925 30:-231.91577 31:405.28877 32:89.538029 33:-85.114788 34:-53.765186 35:457.69313 36:17.084908 37:-242.1115 38:8.286883 39:558.01362 40:45.258231 41:-69.899639 42:0.525971 43:-367.3877 44:-132.89828 45:19.463969 
-1.653657657672649e-08 -2.242404939907272e-08 -1.441989735957783e-08 -6.837267431488678e-08 -7.047770475679235e-09 -0 -5.962415186379615e-08 -2.518201861085724e-08 -5.626410247549074e-08 -1.070905134914273e-08 1.049432174830089e-09 4.033458636963602e-08 2.321315495094259e-08 3.49910269234183e-08 0 4.019493551524839e-08 3.297305688237405e-08 1.506107815820269e-08 3.113282640443489e-08 1.028599858713948e-08 4.669313123246168e-08 2.678228149199363e-08 1.14795267065113e-08 5.367499352898092e-09 2.961820787002384e-08 1.178984056424081e-08 0 5.779379057189294e-08 8.922229550917006e-08 0 3.422913588404693e-09 2.796911423795588e-08 3.820441710540726e-08 1.638389158055567e-08 2.203011437375009e-08 1.060397042842352e-08 5.541241454859267e-08 1:-1984.9094 2:-758.00321 3:316.35947 4:42.187855 5:-1969.7472 6:-1201.3471 7:-1005.6339 8:467.43593 9:-49.856521 10:-168.75487 11:-421.41292 12:-321.26785 13:380.2416 14:-589.95246 15:-7.395577 16:367.26378 17:-855.21235 18:-266.81946 19:213.28524 20:593.41853 21:658.40221 22:-440.7446 23:-648.43902 24:795.21992 25:175.68623 26:239.08523 27:67.17354 28:-220.27078 29:-28.166283 30:-49.308298 31:662.05433 32:-81.696192 33:7.638852 34:-676.32717 35:-42.146467 36:305.22329 37:88.575094 38:35.821077 39:-6.951768 40:-292.78481 41:415.28605 42:-346.20313 43:737.27373 44:199.0229 45:-112.78982 
-0 -0 -0 -0 -0 -0 -0 -0 -0 -1.823661209997585e-08 0 0 0 0 0 0 0 0 0 0 0 0 0 0 0 0 0 0 0 0 0 0 0 0 0 0 0 1:-930.28917 2:-1931.9908 3:311.48494 4:-1108.827 5:-1472.5648 6:-1109.9634 7:-889.49463 8:196.62447 9:-278.72245 10:14.501446 11:-211.23095 12:-223.82579 13:817.61808 14:-706.76621 15:-879.25254 16:984.29776 17:-885.87451 18:-287.68276 19:767.95126 20:207.11563 21:879.39529 22:-236.41591 23:517.68371 24:1025.2198 25:-286.07543 26:1080.0132 27:-199.50876 28:16.977285 29:-148.31102 30:-250.06203 31:136.27922 32:800.72467 33:-310.25434 34:-277.33366 35:529.06644 36:-59.843368 37:-252.04354 38:-162.76694 39:433.71279 40:-151.35736 41:133.84206 42:-183.52159 43:-76.238278 44:-371.74655 45:-174.22848 
-0 -1.139958513516515e-08 -0 -0 -5.259599016579999e-09 -0 -0 -0 -0 -0 0 0 0 0 0 0 0 0 0 0 0 0 0 0 0 0 6.697284452441793e-09 0 0 6.817641354916356e-09 1.59283606488331e-08 0 0 0 0 0 0 1:54.041691 2:-1653.3922 3:390.9963 4:-309.41897 5:-2645.1029 6:-455.82391 7:-463.81269 8:1168.549 9:268.92246 10:672.85744 11:-694.95105 12:-981.99153 13:-9.094825 14:-461.7405 15:-116.65166 16:200.9118 17:-1348.8227 18:-485.51272 19:363.28974 20:661.13442 21:1175.188 22:-978.61979 23:399.13166 24:632.19077 25:329.42128 26:-79.313972 27:542.74892 28:-9.391185 29:712.98488 30:-50.324418 31:164.83072 32:287.62725 33:-565.86657 34:-575.12552 35:680.34351 36:14.831183 37:-275.86307 38:563.53845 39:804.06541 40:373.02873 41:-233.51926 42:-353.84835 43:55.995791 44:-293.65524 45:-592.20889 
-0 -0 -1.424781279739568e-08 -0 -0 -0 -0 -0 -0 -0 -0 0 0 0 0 0 0 0 0 3.629617262492356e-08 0 4.862042974075163e-08 6.154821831336504e-08 0 0 0 0 0 0 0 0 0 0 0 0 0 0 1:1374.8826 2:587.43534 3:-2114.9173 4:-117.13385 5:1700.74 6:-716.39072 7:-1061.3716 8:-416.85095 9:999.73708 10:337.96917 11:-400.63155 12:125.52122 13:529.48761 14:142.29167 15:-18.683634 16:-409.38572 17:-488.88466 18:-35.917292 19:715.86909 20:526.56141 21:-108.04926 22:-751.90221 23:911.83556 24:-434.74609 25:222.50158 26:470.97049 27:52.367774 28:-168.09043 29:81.810671 30:632.39846 31:-263.8891 32:-128.66153 33:611.59147 34:101.58029 35:14.18182 36:497.8143 37:-39.805063 38:4.361535 39:-173.83123 40:-64.730568 41:132.01513 42:333.57259 43:506.93063 44:277.2636 45:34.601776 
-4.848805217406317e-08 -8.065991700330262e-08 -8.149346509141317e-08 -4.0308071147753e-08 -2.757359219977054e-08 -9.944719134001174e-08 -3.591255610585186e-08 -1.187249338148652e-07 -5.82543463009537e-08 -7.172821979602872e-08 -5.620480008613141e-08 3.221866321482215e-08 7.631794980364618e-08 1.448883597997134e-08 5.527859266805889e-08 3.078691523603174e-08 5.610217788402554e-08 5.272307002120381e-08 2.660552590676427e-08 7.477177298414255e-08 5.117818765591721e-08 3.931746869091241e-08 5.312375978947369e-08 6.54264318330761e-08 4.058905767640225e-08 3.716713787314389e-08 6.786386342468262e-08 6.652038423231109e-08 5.024517971182759e-08 7.574756449452251e-08 9.762730016573028e-08 9.30573365814151e-08 5.532481072227114e-08 1.456948935129901e-07 9.612047452839685e-08 1.024327408590893e-07 3.544511488809556e-08 1:1361.9735 2:131.0073 3:-1798.423 4:325.70493 5:687.29606 6:-1274.073 7:-798.72337 8:-506.73686 9:1113.513 10:471.4336 11:-143.55786 12:82.316242 13:301.04805 14:616.17092 15:174.05752 16:-48.366783 17:-207.81035 18:-367.82399 19:458.12285 20:202.0456 21:-13.808179 22:-414.99644 23:575.37869 24:-572.29153 25:499.46663 26:407.64504 27:-396.86287 28:282.50353 29:-336.70249 30:331.18838 31:-120.31026 32:45.302821 33:457.28865 34:-304.84751 35:-135.30861 36:283.00925 37:108.68697 38:248.2777 39:74.096855 40:335.97352 41:65.939602 42:350.49662 43:208.00542 44:39.822693 45:-186.89095 
-0 -5.470399745599834e-09 -0 -0 -4.29612459898376e-09 -0 -0 -0 -0 -0 -0 0 0 0 0 0 0 0 0 0 0 0 0 0 0 0 0 0 0 0 0 0 0 3.955662422923973e-09 0 0 0 1:2371.0033 2:-281.84972 3:-1818.2398 4:1305.5381 5:776.28537 6:-982.81337 7:-1326.0135 8:-1364.8266 9:1162.6245 10:370.26039 11:-369.25225 12:-44.542507 13:773.15184 14:871.80094 15:-79.676952 16:545.41314 17:401.11029 18:-804.17284 19:815.78002 20:-291.10584 21:-315.43941 22:-816.9384 23:77.792604 24:-29.248364 25:1064.9253 26:626.03245 27:-151.82507 28:-97.620436 29:-233.21562 30:488.07712 31:161.24355 32:204.61855 33:499.49124 34:87.768924 35:112.10146 36:377.69143 37:751.87036 38:567.72578 39:74.416339 40:354.11707 41:-32.188352 42:170.91428 43:18.303759 44:-221.13474 45:-494.54923 
-0 -0 -0 -0 -1.283801716981037e-08 -0 -0 -0 -0 -0 -0 0 5.561291628869768e-09 0 0 2.668025548944152e-08 0 0 0 0 0 0 0 0 0 0 0 0 0 0 1.845833927744748e-08 6.00092099598106e-09 0 0 2.770762297249009e-09 0 0 1:2057.1854 2:91.63281 3:-1875.9416 4:705.51956 5:1347.8422 6:-569.06098 7:-1005.4043 8:-665.00948 9:786.00705 10:202.6111 11:-227.02744 12:152.83816 13:598.27833 14:1053.7426 15:-16.172919 16:-279.7623 17:84.38671 18:-209.28232 19:684.75134 20:804.82774 21:86.168573 22:-652.6725 23:518.21684 24:-304.7298 25:355.91352 26:314.47915 27:84.434917 28:-53.077749 29:-359.32209 30:477.15357 31:-195.16407 32:-114.6585 33:359.66632 34:63.43845 35:320.90589 36:281.49604 37:136.91925 38:348.77709 39:-393.26992 40:89.677491 41:-57.88704 42:302.8927 43:267.66268 44:-219.34557 45:-47.196027 
-3.801367173885159e-08 -0 -3.834685007387649e-08 -4.755742631394643e-08 -1.192999397547432e-08 -0 -4.837293376894795e-08 -9.665722722631903e-09 -2.162533854221554e-08 -4.753565677980802e-08 -2.305559792082806e-08 3.475762449566978e-08 9.070327623652621e-09 5.031182912749765e-08 2.468726875611815e-08 3.157299583975735e-08 2.516608203325954e-08 5.881175601696447e-08 3.054811425829999e-08 5.162032110941117e-09 3.753654771114277e-08 1.385018853583798e-08 1.435875862309468e-08 3.054891368627099e-08 3.030774937727255e-08 4.462046856742798e-08 0 2.097386257399464e-08 3.672567626015646e-08 9.974304275001581e-09 1.202758003166065e-08 4.102253009745099e-10 5.20148736713185e-08 0 4.312506275163746e-09 4.703576375289631e-08 3.155358506853602e-08 1:865.08212 2:467.08952 3:-1906.4101 4:-215.14782 5:811.27389 6:-1013.1018 7:-622.85723 8:-143.42497 9:1030.0372 10:673.01654 11:-86.210186 12:141.05284 13:101.40985 14:-15.770774 15:139.30693 16:-865.58174 17:-700.84314 18:22.258775 19:446.87645 20:848.28989 21:-115.54255 22:-197.07465 23:1349.2047 24:-949.40299 25:-46.367206 26:499.25342 27:-319.29052 28:124.07717 29:-28.731314 30:309.19887 31:-301.57928 32:-184.68738 33:582.39454 34:-335.54637 35:-368.81923 36:287.60995 37:-421.73549 38:-193.59351 39:-238.37775 40:248.62322 41:-68.997397 42:56.112836 43:353.26852 44:75.491927 45:408.55903 
-0 -1.56257919343294e-08 -0 -0 -0 -0 -0 -0 -0 -0 -0 0 1.097074114708405e-09 0 0 0 0 0 0 0 0 0 0 0 0 0 8.979204210775987e-09 0 0 0 0 0 0 0 0 0 0 1:1757.4443 2:-183.38786 3:-1927.4352 4:475.37403 5:856.42685 6:-1009.8278 7:-814.84215 8:-261.01594 9:832.19003 10:557.6184 11:-161.26615 12:135.39372 13:636.54335 14:742.80932 15:45.408388 16:-1089.9762 17:-201.49089 18:-144.12436 19:465.65025 20:1475.6179 21:256.12921 22:-175.53393 23:1200.7643 24:-895.44936 25:135.99778 26:440.45578 27:-214.36038 28:-98.041696 29:-258.99758 30:199.80609 31:-603.10104 32:-119.49959 33:122.77906 34:-195.29024 35:-224.44421 36:338.11243 37:-182.73376 38:21.312175 39:-643.07659 40:228.79056 41:-215.64196 42:-37.864028 43:67.38563 44:-226.71108 45:489.03905 
-0 -0 -1.6356390616788e-09 -0 -0 -0 -0 -0 -0 -0 -0 -4.919252493161969e-09 0 0 0 2.246040496531444e-08 0 0 0 1.532962346571712e-08 0 3.43352792163114e-08 0 0 0 0 0 0 0 0 0 0 0 0 0 0 0 1:-1064.8888 2:3562.6936 3:-2917.965 4:152.66622 5:-1689.5517 6:-404.93361 7:64.643793 8:293.60159 9:-1089.1743 10:871.08267 11:-428.95535 12:-167.67407 13:430.42327 14:145.65899 15:-128.11706 16:491.08514 17:175.12351 18:270.32499 19:-535.5461 20:1110.5537 21:-23.528603 22:-474.35531 23:428.64085 24:-692.35167 25:413.87679 26:435.15107 27:632.73416 28:-264.83602 29:-222.20466 30:382.27894 31:98.456728 32:85.949844 33:-796.84181 34:752.188 35:-425.0767 36:272.50459 37:-342.95524 38:-450.77227 39:69.482097 40:153.97741 41:155.05472 42:-50.497376 43:-109.52172 44:345.23059 45:1.426331 
-0 -0 -0 -0 -1.933013725448341e-09 -0 -0 -0 -0 -0 -1.122414445475809e-09 -0 0 0 0 0 0 0 0 0 2.684893177481528e-09 0 0 0 0 0 0 0 0 0 0 0 0 0 0 0 0 1:-2858.158 2:2138.9116 3:-2333.1065 4:274.46923 5:-1320.1812 6:-2055.9427 7:-370.35246 8:340.4651 9:-1494.9214 10:554.82369 11:-699.85325 12:410.13398 13:967.81777 14:191.83368 15:322.1134 16:1917.2155 17:118.77518 18:120.43328 19:-588.86365 20:72.003937 21:-124.48084 22:-392.99559 23:-221.76901 24:-873.38195 25:871.68983 26:-356.40444 27:289.66691 28:594.37078 29:-118.74211 30:442.53169 31:-85.670953 32:-90.041795 33:-345.17438 34:1176.1756 35:-150.04157 36:160.8841 37:-212.36628 38:-169.8948 39:-38.008611 40:225.9642 41:473.8837 42:290.56053 43:392.90667 44:-320.91762 45:64.525114 
-0 -0 -0 -0 -0 -0 -0 -0 -0 -0 -1.37612400237431e-08 -0 0 0 5.204365110052935e-09 0 0 0 0 0 1.146287922954582e-09 0 0 0 0 0 0 0 0 0 0 0 0 0 0 0 3.613580209477074e-09 1:-2536.1234 2:2658.6346 3:-3002.576 4:-1011.8178 5:-2957.692 6:-1079.8577 7:-553.37494 8:-364.47389 9:-27.805614 10:923.51153 11:-657.01744 12:652.18468 13:994.28938 14:1324.625 15:-15.182939 16:274.73683 17:-761.32858 18:-235.2629 19:557.34075 20:-1284.4711 21:35.741012 22:5.901752 23:-522.42118 24:300.82375 25:-910.37313 26:-917.64231 27:-550.92122 28:-125.6478 29:38.872762 30:294.24453 31:-1067.8642 32:-424.6513 33:845.52186 34:-535.17394 35:604.80913 36:-541.055 37:597.19684 38:503.28389 39:-389.96324 40:-679.80038 41:-485.56648 42:-600.51027 43:-115.65162 44:-509.48679 45:-182.31811 
-0 -0 -0 -0 -0 -0 -0 -0 -0 -0 -0 -0 0 0 0 0 0 0 0 0 0 0 0 0 0 0 0 0 0 0 0 0 0 0 0 0 1.530214112408824e-09 1:-3206.2057 2:1897.608 3:-2663.4695 4:147.9848 5:-1205.6654 6:-1409.3532 7:-376.12234 8:559.89152 9:-1968.9013 10:853.75251 11:-675.27847 12:516.72443 13:1206.8021 14:142.76937 15:-80.193288 16:1176.7327 17:395.74448 18:576.60205 19:-534.34036 20:765.82104 21:244.46361 22:-475.34168 23:204.34724 24:-755.26809 25:535.44705 26:73.829354 27:385.88263 28:252.82916 29:-688.26118 30:834.35747 31:-153.94567 32:-113.56146 33:-518.22161 34:1118.0698 35:-383.89311 36:132.93688 37:-773.97947 38:-269.936 39:-41.223104 40:-552.82538 41:490.41762 42:471.14744 43:241.09816 44:-109.97627 45:351.85068 
-4.34183522509813e-08 -2.970131597179135e-08 -4.455059204775741e-08 -5.82441722293061e-08 -2.189948120781457e-08 -2.716644296508734e-08 -4.097960109165294e-08 -4.160136478605521e-08 -3.28586196795924e-08 -3.343816744172683e-08 -3.031069035118296e-08 -3.647512723257686e-08 3.874816330891164e-08 3.80647440249636e-08 4.090941459868484e-08 4.417323151107116e-08 3.350362469650444e-08 3.997214568527748e-08 2.66617331739159e-08 1.915139175453549e-08 3.003316531778548e-08 1.492444851406478e-08 2.832352042957427e-08 2.822630583914263e-08 2.256381461319318e-08 2.033454944131816e-08 2.109875632895821e-08 3.972835776904657e-08 4.771218496667809e-08 2.754728855088195e-08 3.508638519374415e-08 2.947028490163281e-08 7.999307295337822e-08 3.551760074201738e-08 3.771524502925042e-08 4.353356797439836e-08 4.011361313848235e-08 1:-1248.9042 2:2433.103 3:-2572.0389 4:239.50375 5:-1945.9101 6:-406.93907 7:488.39225 8:462.01009 9:-812.11169 10:803.95143 11:125.43399 12:617.06186 13:485.61475 14:1212.3835 15:-5.233145 16:-188.53908 17:150.75624 18:648.37775 19:-748.85457 20:400.59906 21:202.6417 22:-434.34512 23:509.04359 24:-284.98699 25:237.00588 26:431.39582 27:364.37899 28:108.00937 29:-487.37295 30:649.31422 31:-148.35315 32:57.505555 33:-455.95171 34:392.9674 35:-205.13742 36:145.95982 37:-990.59532 38:-252.17676 39:229.06049 40:-970.86172 41:368.65562 42:514.80565 43:209.37606 44:-213.8164 45:119.20721 
-0 -0 -0 -6.342995725347773e-09 -0 -0 -4.777854930713432e-09 -0 -0 -0 -0 -0 0 0 0 0 0 8.633434337405484e-09 0 0 1.260493969040363e-08 0 0 7.977515384544393e-09 0 9.309445753233743e-09 0 0 0 0 0 0 0 0 0 0 0 1:-638.14994 2:3132.0305 3:-3288.7412 4:-1423.2188 5:-3676.8746 6:716.15098 7:529.40204 8:196.37729 9:919.36692 10:877.00179 11:943.6055 12:1375.2717 13:101.54478 14:2829.8351 15:-438.83397 16:-3415.8012 17:19.360194 18:182.42578 19:-302.89151 20:-443.86253 21:-820.29306 22:-154.66772 23:600.58732 24:1273.0852 25:-1086.6162 26:-293.17119 27:-1.536543 28:-788.24152 29:-93.900249 30:-103.02508 31:-619.96377 32:-559.63748 33:56.945112 34:-1257.1582 35:535.21335 36:-170.93622 37:-920.93441 38:-46.118126 39:-426.90523 40:-1540.5221 41:-841.14947 42:140.6111 43:-191.0889 44:-331.71693 45:-29.510288 
-1.045986774129587e-08 -6.211207314228627e-09 -1.298680920006923e-08 -1.869321553162631e-08 -5.42212825135929e-09 -6.468517497376206e-09 -1.038982458469673e-08 -8.824122004353525e-09 -1.018903323273811e-08 -5.295468899682317e-09 -0 -1.70197121039582e-08 0 4.744954012295289e-09 3.849722111473819e-09 1.53610297867415e-08 6.650223421160354e-09 1.47047588467317e-08 5.130485779410573e-09 1.311606140535342e-08 0 1.7577126449233e-08 1.230218504638472e-08 2.854586441027954e-09 1.501862678224615e-08 0 6.533962308723545e-09 1.508454747463057e-08 1.47034985143309e-08 1.332044167021467e-08 1.097284103693897e-08 1.199224173782527e-08 1.567486489638681e-08 1.337499704600868e-08 9.749107321365167e-09 1.712599376805476e-08 0 1:-531.70266 2:3931.8117 3:-2875.4623 4:-580.13636 5:-3066.1095 6:-538.25062 7:-4.951923 8:-1462.1167 9:1546.3001 10:1109.2085 11:-102.81301 12:13.814307 13:-231.14908 14:1591.0602 15:-35.629166 16:47.438609 17:-1241.2547 18:-292.53455 19:387.70999 20:-1243.0611 21:-259.14908 22:-6.404199 23:-527.27848 24:140.91365 25:-622.13342 26:-415.74378 27:-139.54387 28:-69.49854 29:400.13816 30:-420.97026 31:-520.40352 32:-577.72724 33:910.11383 34:-926.70112 35:550.80143 36:-401.1635 37:830.40132 38:457.92626 39:-371.45594 40:-390.78309 41:-505.21448 42:-395.36381 43:-367.1055 44:-216.38246 45:-319.06462 
-0 -0 -0 -0 -0 -0 -0 -0 -0 -0 -0 -0 0 0 0 0 0 0 0 0 0 0 0 0 0 0 0 0 0 0 0 0 0 0 0 0 6.906896638649952e-09 1:-1689.1296 2:3815.2786 3:-3091.6129 4:-700.43834 5:-2904.6562 6:-735.26658 7:-284.88875 8:-1710.6395 9:1163.4105 10:1017.2211 11:-635.63376 12:-128.14195 13:207.66715 14:1043.371 15:-253.06794 16:985.86768 17:-1377.7257 18:-548.765 19:819.99853 20:-1658.4368 21:-320.16508 22:85.409815 23:-700.65143 24:22.209173 25:-470.24227 26:-546.44007 27:-360.96471 28:-53.876599 29:268.14032 30:-174.22824 31:-575.77229 32:-546.0772 33:980.27398 34:-764.75379 35:577.04537 36:-421.61012 37:1302.1534 38:660.4406 39:-324.08465 40:-227.55827 41:-445.12032 42:-702.06576 43:-442.50822 44:-176.46367 45:-366.49957 
-1.617582109581393e-08 -0 -1.725197602312149e-08 -2.218056098004313e-08 -0 -1.359531342323131e-08 -2.656158471329297e-08 -1.703288181236851e-08 -2.689000895882685e-08 -1.119091110209837e-08 -2.070342825098231e-08 -8.562195880794895e-09 1.353306244329471e-08 1.27640003514437e-08 8.669651510581813e-09 1.318673273668093e-08 1.826921590711791e-08 1.528784831823911e-08 1.863455231447848e-08 1.004288752949959e-08 2.627678005151285e-08 7.411417404635742e-09 1.69979587453411e-08 1.435158263862105e-08 1.679966116485222e-08 2.620155687274673e-08 5.556427420577375e-09 1.875515443205184e-08 2.622975152531982e-08 1.303720313526867e-09 9.40626208210749e-09 1.065338674650287e-08 1.61662866811937e-08 1.476590988705306e-08 4.451599130033387e-09 1.470341795087636e-08 1.184710565304238e-08 1:-2928.868 2:2316.3553 3:-2358.2825 4:543.91975 5:-1176.213 6:-2178.84 7:-315.63473 8:155.30713 9:-1242.9704 10:441.38482 11:-784.43507 12:250.28106 13:756.27721 14:-97.617487 15:412.13075 16:2527.0765 17:60.269457 18:-34.662535 19:-426.87292 20:-97.721208 21:-342.74706 22:-366.37671 23:-392.1944 24:-983.93389 25:1094.2628 26:-290.49188 27:363.2649 28:550.94677 29:-40.616506 30:259.39267 31:127.49986 32:-35.894193 33:-323.0173 34:1284.153 35:-140.63972 36:222.36184 37:283.36128 38:-147.68017 39:-134.93801 40:724.32425 41:248.7134 42:59.639384 43:296.74205 44:-233.35643 45:-189.76621 
-0 -0 -0 -0 -1.530375385194113e-08 -0 -0 -0 -0 -0 -0 -0 0 8.837590287198539e-09 0 0 0 0 0 1.093757084370135e-08 0 0 0 0 0 5.342530312736626e-09 0 0 0 1.286967613924896e-08 0 0 0 0 0 4.874597500586067e-09 0 1:1014.2417 2:5056.3392 3:-2428.1577 4:513.25652 5:-3103.1824 6:-18.900201 7:1438.3529 8:127.40743 9:194.26556 10:393.37387 11:-28.307299 12:-384.5971 13:-767.86173 14:873.10829 15:-449.86012 16:984.47653 17:-989.69052 18:-137.73768 19:-80.37079 20:-328.76041 21:-485.1194 22:45.724661 23:1314.9437 24:-639.97052 25:673.78728 26:596.54163 27:610.27951 28:22.082775 29:372.51273 30:-480.23778 31:880.80555 32:494.95603 33:-877.69271 34:395.57542 35:-795.30029 36:-8.48278 37:266.25542 38:-752.93156 39:320.17243 40:597.57277 41:112.03532 42:-179.32745 43:27.459223 44:549.78656 45:-949.4536 
-0 -1.345489588492057e-08 -0 -2.993017108525733e-09 -0 -6.133967797276793e-10 -0 -0 -0 -0 -0 -0 0 0 0 0 0 6.811715345169593e-09 0 0 0 0 0 0 0 0 0 0 0 0 0 3.878330357245194e-09 0 0 9.753687420165908e-09 0 0 1:-1172.2111 2:3707.5194 3:-2680.4756 4:817.2218 5:-2048.2853 6:-1290.5438 7:486.39056 8:-255.64531 9:-254.50444 10:429.60566 11:-586.98341 12:-337.16351 13:-195.65897 14:32.885108 15:239.33227 16:2543.6473 17:-400.47283 18:-357.97104 19:-116.3504 20:-342.37185 21:-670.20967 22:40.249485 23:49.42224 24:-1038.9131 25:1062.8811 26:393.03304 27:669.47736 28:141.10822 29:337.7419 30:-181.71593 31:435.03343 32:400.64286 33:-517.6742 34:1079.2351 35:-205.73081 36:362.14848 37:916.84109 38:-299.99131 39:-105.33744 40:1172.1177 41:155.18003 42:-313.50627 43:-54.767696 44:201.63696 45:-918.28492 
-0 -0 -0 -0 -0 -0 -0 -0 -0 -1.260959182634834e-08 -0 -0 -0 0 0 0 0 0 3.33093008910288e-08 0 0 0 0 0 0 0 0 0 0 0 0 0 0 0 0 0 2.124654541830907e-08 1:-704.82065 2:-971.85017 3:115.84192 4:959.32398 5:959.94809 6:-128.6278 7:-1453.2984 8:1890.1232 9:-207.13933 10:740.95438 11:-347.4512 12:-110.50633 13:112.4293 14:596.78487 15:693.08638 16:-472.48288 17:-199.49993 18:1303.3236 19:131.16265 20:-340.03036 21:159.81129 22:-93.086272 23:493.53258 24:220.76656 25:578.50233 26:162.86017 27:493.00339 28:721.84705 29:258.90069 30:-115.79765 31:-142.36114 32:350.69799 33:-90.987124 34:-425.06679 35:608.67722 36:-225.93975 37:292.65386 38:-172.86407 39:-16.894355 40:-122.24967 41:137.14537 42:36.004294 43:-290.88072 44:127.49026 45:-62.19042 
-7.019219334692185e-08 -8.248666273089284e-08 -8.85203839166186e-08 -7.97671431661708e-08 -3.899438643119375e-08 -1.214401202316269e-07 -8.200521397876373e-08 -1.237704856747633e-07 -6.96257899171796e-08 -8.123661126751518e-08 -4.814504234203778e-08 -9.204664317087696e-08 -3.45574558756864e-08 6.129028306395219e-08 7.521565805858965e-08 8.79474145121987e-08 7.900051648522534e-08 5.016546802885281e-08 4.698331260204989e-08 6.188020986029633e-08 7.043337267590591e-08 6.226993494610948e-08 9.004460153038256e-08 5.059708165939322e-08 4.325273977503258e-08 4.017853555845178e-08 6.182551857081798e-08 9.367384961788166e-08 1.057291253391167e-07 4.724736619065477e-08 1.347978618355559e-07 1.20748143550255e-07 1.004552807077528e-07 1.395665892212309e-07 9.348324735824224e-08 1.040665717826399e-07 5.170668802154336e-08 1:27.16984 2:-963.74653 3:-99.52961 4:1645.3892 5:550.90947 6:-162.06297 7:-696.18996 8:1555.7254 9:-266.92183 10:101.75515 11:-59.985875 12:57.196704 13:184.00072 14:649.19344 15:670.13301 16:-144.28162 17:-271.43891 18:1242.926 19:54.657425 20:-636.88547 21:658.75568 22:-16.562858 23:306.64902 24:-112.10475 25:337.61208 26:210.25473 27:60.14623 28:296.32409 29:317.45462 30:-203.82089 31:-13.564336 32:211.50614 33:132.15478 34:-394.34751 35:118.58283 36:-36.336068 37:244.26196 38:-62.936358 39:186.84304 40:-82.405346 41:36.050303 42:209.71536 43:-378.03415 44:154.05212 45:-92.191315 
-0 -1.783593944042177e-08 -0 -0 -0 -0 -0 -1.231000773614825e-08 -0 -0 -2.200969880026047e-09 -0 -0 0 0 0 0 0 0 0 0 0 0 0 0 0 0 0 0 0 0 0 0 0 0 0 0 1:756.2745 2:-1944.377 3:-250.25345 4:2414.6591 5:-61.587299 6:-358.14999 7:-483.20014 8:1943.5088 9:-623.85962 10:-466.00295 11:-94.403224 12:399.72095 13:915.55097 14:541.08767 15:673.80777 16:-342.06692 17:311.55226 18:887.23278 19:-352.98101 20:-1087.4445 21:980.81939 22:302.84718 23:318.20041 24:212.97174 25:-279.86666 26:787.22158 27:-318.7134 28:-221.69814 29:527.97195 30:-471.8943 31:228.20204 32:-322.19423 33:236.29988 34:-301.63412 35:-2.522477 36:376.87322 37:314.2223 38:118.34232 39:733.99428 40:361.52707 41:-223.79065 42:367.78492 43:-535.96979 44:-123.41379 45:-188.7731 
-0 -0 -0 -0 -1.62436787547583e-08 -2.14802450870925e-09 -0 -0 -0 -0 -0 -0 -0 0 0 0 0 0 0 0 0 0 0 0 0 0 1.673719623933082e-08 0 0 3.397259656569936e-09 0 0 0 0 0 0 0 1:735.95287 2:-1534.961 3:344.27276 4:2024.825 5:139.42917 6:-211.89691 7:-537.70218 8:1923.4493 9:-452.54817 10:-45.935234 11:-101.94824 12:197.89561 13:538.93822 14:534.00178 15:749.97286 16:-227.74625 17:-10.786041 18:1372.4835 19:-99.796501 20:-898.25037 21:74.46163 22:437.7832 23:432.68959 24:160.93437 25:136.7723 26:425.98426 27:138.97599 28:150.12735 29:149.92792 30:69.838796 31:503.56858 32:23.331144 33:87.250473 34:-229.31779 35:10.237218 36:-278.85537 37:177.8798 38:9.451156 39:-197.74189 40:-10.379515 41:-53.285667 42:22.506943 43:-93.981712 44:-239.4021 45:-72.434439 
