svm_type c_svc
kernel_type linear
nr_class 38
total_sv 252
rho -0.0640906 0.121633 0.379328 -0.336011 0.0147706 0.479249 0.23328 0.0433509 0.072382 -0.0260142 -0.122899 -0.513865 -0.0397754 -0.111865 0.0858676 -0.0151522 0.3109 0.389827 -0.395313 -0.254322 0.0150865 -0.0345196 0.00299555 -0.0190981 -0.21256 0.10848 -0.263761 0.476568 0.134459 -0.13289 0.20846 0.0713824 0.467069 0.0900374 0.151551 0.353429 -0.021945 0.1027 0.283385 -0.334456 0.0696393 0.336432 0.301492 0.12719 0.074657 0.00312519 -0.114174 -0.390407 0.00186358 -0.0267393 0.0476876 0.0254443 0.228252 0.306822 -0.26526 -0.219257 0.0711186 -0.00725935 0.0483592 0.029698 -0.117185 0.135725 -0.204715 0.302023 0.158103 -0.125554 0.366076 0.16095 0.460642 0.281929 0.237405 0.251815 0.0314612 0.176316 -0.314156 -0.042779 0.279355 0.206062 -0.020826 0.0394723 -0.0921829 -0.265459 -0.582551 -0.116894 -0.124967 0.0192835 -0.0245952 0.136785 0.273027 -0.38467 -0.401317 -0.0593577 -0.136251 -0.0432836 -0.0752517 -0.223714 0.035865 -0.291887 0.198505 0.042384 -0.191186 0.222938 0.00680818 0.393753 0.0867235 0.0457624 0.34445 -0.0656922 -0.424256 -0.147189 0.538961 0.0415617 -0.202716 -0.123459 -0.203432 -0.275447 -0.946162 -0.220386 -0.548015 -0.0990671 -0.266719 0.00854777 0.0382558 -0.745077 -0.362801 -0.144694 -0.308046 -0.16766 -0.178165 -0.397076 -0.106618 -0.323441 0.0941679 -0.19968 -0.269464 0.0345835 -0.141591 0.291206 -0.11787 -0.0907367 0.0336241 -0.379075 0.345915 0.526507 0.422151 0.388483 0.253686 0.258302 0.206278 -0.193548 0.257345 0.255065 0.356828 0.27553 0.420467 0.502321 0.0299679 0.0203112 0.239665 0.33514 0.251071 0.281851 0.301636 0.573973 0.109205 0.570762 0.347609 0.313569 0.473748 0.346842 0.557323 0.493002 0.560526 0.57683 0.247548 0.26652 0.307948 0.0207836 0.0705653 -0.0316343 -0.147051 -0.380639 -0.091582 -0.0777553 0.110167 -0.0432209 0.22237 0.249818 -0.322197 -0.250171 -0.00354412 -0.0881331 -0.0336598 -0.0343337 -0.152488 0.0708077 -0.444352 0.220727 0.0555324 -0.165748 0.377568 0.045614 0.360582 0.160958 0.11417 0.233056 -0.0391754 -0.13232 -0.36565 -0.22697 -0.399601 -0.347314 -0.841377 -0.332787 -0.721837 -0.315023 -0.38768 -0.237673 -0.105607 -0.799432 -0.427918 -0.361415 -0.395289 -0.303678 -0.333928 -0.579509 -0.312573 -0.45217 -0.19575 -0.385707 -0.37556 -0.109053 -0.270002 0.0311155 -0.205245 -0.236037 -0.106457 -0.576797 -0.243612 -0.266421 -0.370882 -0.443707 -0.635956 -0.34153 -0.254837 -0.133098 -0.220822 -0.0366333 0.0570771 -0.492706 -0.37162 -0.363798 -0.235614 -0.287506 -0.24875 -0.314679 -0.102748 -0.60569 0.0113669 -0.11986 -0.30538 -0.0561153 -0.23424 0.18834 -0.206952 -0.126101 0.00114532 -0.2695 -0.0015413 -0.137854 -0.138784 -0.575518 -0.00178083 -0.129758 0.0531603 -0.0542375 0.159011 0.255558 -0.451919 -0.230148 -0.0394038 -0.0786692 -0.0275431 -0.0523478 -0.27214 0.0514567 -0.277399 0.273325 0.0638666 -0.14887 0.197113 0.0343954 0.437039 0.090028 0.072174 0.190866 -0.0696444 -0.0554666 -0.213357 -0.372196 -0.117729 -0.0977269 0.0683944 -0.0282556 0.170694 0.192753 -0.296393 -0.253682 -0.0211232 -0.0931823 -0.151278 -0.0783944 -0.162658 0.00714802 -0.392345 0.158666 0.0523837 -0.117195 0.302995 0.0202315 0.307205 0.0556871 0.0434097 0.205238 -0.0567677 -0.075419 -0.41067 -0.0416525 -0.0665827 0.166646 -0.000871692 0.280953 0.395169 -0.225564 -0.165355 0.120291 -0.0260677 0.0206602 0.0100848 -0.131344 0.0928665 -0.400511 0.260539 0.22462 -0.135017 0.349572 0.104424 0.643988 0.17339 0.126425 0.233821 0.0742337 -0.416641 0.0879715 0.0758031 0.185786 0.0958745 0.251986 0.404648 -0.185622 -0.2218 0.136995 0.0555122 0.157584 0.0643355 -0.0529472 0.185384 -0.116399 0.30473 0.193248 -0.0998358 0.458194 0.227543 0.434358 0.410542 0.268327 0.464508 0.0819339 0.382072 0.343861 0.507907 0.697048 0.5334 0.801074 0.154388 0.323993 0.563978 0.533066 0.450542 0.414023 0.262051 0.495832 0.149368 0.674986 0.718045 0.347597 0.520931 0.457871 1.13717 0.526305 0.542831 0.759415 0.454869 -0.0241235 0.132648 0.0407444 0.205198 0.255491 -0.30722 -0.19103 0.0734983 -0.0214787 0.0708595 0.0381887 -0.102759 0.16263 -0.188609 0.207072 0.167628 -0.0900583 0.377519 0.165029 0.427516 0.231512 0.170355 0.238695 0.0153298 0.195351 0.0850931 0.420242 0.376841 -0.353924 -0.138483 0.0809055 0.0292955 0.0722967 0.0615075 -0.070499 0.213045 -0.119353 0.53877 0.383647 -0.0488642 0.2498 0.12748 0.632459 0.105827 0.206265 0.321637 0.0720175 -0.119446 0.129897 0.212244 -0.295357 -0.290126 -0.0769249 -0.151936 -0.102851 -0.196141 -0.213775 0.0254101 -0.460842 0.181768 -0.0225891 -0.313377 0.174316 -0.0296897 0.295285 -0.00648584 0.0156074 0.0985585 -0.113844 0.23058 0.26059 -0.288417 -0.251601 0.0403036 -0.0698888 0.0315339 0.00368076 -0.15761 0.095906 -0.173916 0.25143 0.157559 -0.0750442 0.263527 0.0886049 0.366346 0.162538 0.136313 0.270564 0.0120996 0.0830397 -0.456664 -0.366433 -0.18828 -0.222231 -0.209446 -0.194952 -0.397651 -0.103135 -0.596768 0.0889205 -0.177512 -0.288036 0.0358945 -0.125285 0.199093 -0.0710507 -0.108778 0.0323013 -0.226468 -0.443329 -0.432193 -0.53998 -0.260128 -0.242561 -0.344254 -0.434165 -0.235924 -0.514095 -0.0173318 -0.200035 -0.372005 -0.0593558 -0.213672 0.182605 -0.133703 -0.183916 -0.065913 -0.310072 0.0685283 0.24399 0.255716 0.308015 0.228861 0.167842 0.409453 0.0715258 0.70758 0.534215 0.128424 0.43012 0.370541 0.577348 0.406104 0.472088 0.487169 0.258798 0.213464 0.248969 0.281141 0.206598 0.0933434 0.35608 0.00625492 0.429665 0.276703 0.183369 0.35321 0.264735 0.516478 0.464406 0.380488 0.56876 0.160371 -0.0581255 0.00492866 -0.00708075 -0.165796 0.0402415 -0.389184 0.213506 0.132265 -0.133516 0.358494 0.0322595 0.63629 0.105882 0.0827281 0.246357 -0.0131622 0.0936069 0.0112811 -0.148135 0.147294 -0.133626 0.280769 0.17653 -0.115592 0.27125 0.177257 0.351687 0.18848 0.177404 0.298773 0.0445733 -0.0066351 -0.157057 0.068993 -0.269757 0.229156 0.0811637 -0.103021 0.263101 0.0517561 0.329627 0.148169 0.110669 0.176726 -0.0198602 -0.162773 0.132503 -0.279563 0.210514 0.0804665 -0.154652 0.350533 0.0804091 0.397191 0.157082 0.114774 0.25301 0.00259665 0.3433 -0.0530399 0.628144 0.340488 0.0381584 0.321103 0.253502 0.493553 0.272744 0.299064 0.403396 0.162368 -0.29854 0.205046 0.0128037 -0.282554 0.0669928 -0.0580143 0.3074 -0.0192335 0.0180201 0.196491 -0.0701567 0.464337 0.270246 0.0632806 0.79499 0.316418 0.593082 0.367266 0.37826 0.40607 0.197018 -0.1721 -0.323658 -0.0191212 -0.19203 0.194898 -0.16988 -0.237624 -0.0194994 -0.372713 -0.195024 0.14791 -0.0306686 0.42612 0.00516465 0.0181584 0.1407 -0.159199 0.362012 0.276187 0.357317 0.311631 0.242211 0.449328 0.0973808 -0.284811 0.15905 -0.291158 -0.115804 -0.0238735 -0.333746 0.311486 0.0782342 0.0532606 0.178998 -0.0724757 -0.253088 -0.342202 -0.193129 -0.415583 -0.0324809 0.05332 -0.113585 0.187697 -0.102385 -0.232721
label 1 2 3 4 5 6 7 8 9 10 11 12 13 15 16 17 18 19 20 21 22 23 24 25 26 27 28 29 30 31 32 33 34 35 36 37 38 39
nr_sv 7 8 8 7 4 7 6 7 4 8 7 6 9 4 7 7 5 6 7 3 6 10 5 6 5 5 10 5 5 4 5 6 4 12 11 10 10 6
SV
4.469563306225116e-08 0 0 3.046379424402626e-08 4.109640471958656e-08 0 0 1.637478260290442e-08 3.012610682024486e-08 8.790994772572705e-10 2.366777718480086e-08 0 4.613700547829196e-08 0 3.584645818740342e-08 5.298282791808757e-08 8.586769496064292e-09 0 0 2.960108251270102e-08 0 5.295088237807539e-08 8.666572293044352e-09 2.70939614361065e-08 0 0 3.272763789324073e-08 0 0 4.776290861810132e-08 4.216050889157141e-08 0 0 1.643992243139921e-08 0 0 0 1:-250.90756 2:317.63159 3:-151.9931 4:271.19808 5:190.72858 6:248.06001 7:1561.1097 8:-558.93251 9:357.48559 10:686.45291 11:570.15996 12:948.5137 13:857.76814 14:-116.79448 15:-999.90317 16:-223.9596 17:144.21161 18:-1240.4759 19:192.48883 20:169.67506 21:-81.441167 22:-78.243299 23:14.500373 24:315.93681 25:-943.12423 26:-926.82957 27:76.073548 28:-270.77844 29:370.39765 30:653.21484 31:-714.72893 32:15.298928 33:-559.86103 34:44.683049 35:-114.03139 36:211.52052 37:359.07411 38:-35.756196 39:270.2087 40:298.31837 41:-437.48976 42:1.514414 43:219.44995 44:-55.434501 45:-208.45157 
0 2.94681925801146e-08 0 0 1.966002549742802e-09 0 0 0 4.534589727960351e-08 1.474512733070689e-08 0 0 0 0 1.895749674527913e-09 0 0 0 0 0 0 0 0 0 0 1.22619955416329e-08 0 0 0 0 0 0 0 0 0 0 0 1:-1559.6541 2:34.720802 3:-148.21373 4:-716.86339 5:865.93772 6:-1114.7567 7:1518.1257 8:-764.06136 9:67.896261 10:-62.422337 11:1150.2359 12:360.46723 13:1088.1957 14:-12.139785 15:-949.9257 16:150.92357 17:457.50905 18:-888.66816 19:221.45667 20:-302.81462 21:195.43282 22:247.19825 23:-267.49121 24:188.06611 25:-511.86775 26:-276.12021 27:435.13899 28:324.75393 29:80.831241 30:105.10543 31:-636.48762 32:548.06915 33:439.96917 34:-85.541896 35:-40.814747 36:129.52697 37:-49.277392 38:-84.859584 39:536.74491 40:359.17717 41:-108.988 42:471.88345 43:134.95658 44:353.47421 45:-26.453595 
4.567380069623314e-08 8.562069613764335e-08 1.275544087816109e-07 3.391320703358567e-08 6.877475054323023e-08 1.778779596457988e-07 1.002670861299e-07 8.308229971567149e-08 1.771228679658251e-08 5.373998714255703e-08 5.615477936259125e-08 4.813443702375817e-08 2.796338021580079e-08 4.887268868598582e-08 6.109191056085952e-08 4.273214408838638e-08 1.790908200733487e-07 1.698142864478181e-07 6.540551734410493e-08 4.551580092198628e-08 1.001306018793176e-07 2.761694796540872e-08 7.895682468751189e-08 4.397101860016327e-08 9.725701276812673e-08 1.13466918895459e-07 3.618225190273196e-08 2.324155821954102e-07 6.061097762848883e-08 3.009206941194587e-08 5.02211219763285e-08 8.111288875491754e-08 1.643752374159909e-07 9.086974853478422e-08 1.555997869971321e-07 1.730129511278828e-07 9.209034050069735e-08 1:-874.85075 2:408.18682 3:-75.401481 4:31.5001 5:219.92311 6:-358.10613 7:1695.5791 8:-893.80231 9:560.92142 10:403.73831 11:780.07636 12:66.114141 13:720.86099 14:6.107876 15:-815.87447 16:189.71112 17:61.651598 18:-1048.1617 19:358.91984 20:-131.74069 21:74.357158 22:232.16631 23:-197.31112 24:228.38755 25:-496.6895 26:-511.92046 27:84.318889 28:-47.910257 29:184.55141 30:90.222985 31:-396.80502 32:377.62651 33:-182.37626 34:-27.784952 35:-300.53938 36:50.945989 37:278.93902 38:-130.27662 39:477.08538 40:128.157 41:-134.27128 42:184.92545 43:-41.445013 44:321.28623 45:-138.76204 
5.86745042458861e-09 4.999162904857507e-08 7.165609033054235e-08 0 0 0 1.065497979237045e-08 1.46945051132569e-08 5.435499877273362e-09 1.099974407640307e-08 0 0 0 5.038494750094703e-08 0 1.799508217594888e-09 0 0 2.065276061437795e-08 0 0 2.450276903326003e-08 0 0 0 4.019663143927875e-10 2.016827980006543e-08 0 4.077993951199322e-08 0 1.092716982342696e-08 2.391439934649473e-08 0 0 0 0 9.934100280977712e-09 1:-546.60191 2:365.61383 3:-280.28456 4:521.56059 5:-111.99708 6:402.22566 7:1670.1578 8:-938.01975 9:826.06817 10:628.58809 11:779.56752 12:996.30492 13:716.39877 14:-595.60073 15:-619.6672 16:213.74761 17:50.578617 18:-1272.8065 19:64.017102 20:-431.16121 21:-64.095872 22:387.07014 23:-50.685355 24:-148.67677 25:-439.17628 26:-1082.1194 27:-149.32198 28:-537.14162 29:590.3244 30:41.196836 31:-302.22136 32:223.49941 33:-646.16018 34:66.449262 35:-251.07933 36:-193.28133 37:337.73061 38:-192.13634 39:212.51837 40:-134.34736 41:-352.59165 42:210.88804 43:136.57506 44:537.48258 45:-139.1527 
0 0 0 0 0 0 0 0 0 0 4.60031703255342e-09 0 0 0 0 0 0 0 0 0 0 0 0 0 0 0 0 0 0 0 0 0 0 0 0 0 0 1:-992.36678 2:346.15401 3:-559.91103 4:-294.49365 5:649.58497 6:-370.17479 7:1618.8176 8:-684.7822 9:-38.646377 10:264.12048 11:1132.3706 12:475.20226 13:1307.7008 14:52.245831 15:-928.05059 16:-304.60033 17:373.44227 18:-850.66787 19:57.110473 20:-80.782208 21:-99.671127 22:-6.480875 23:-135.49253 24:531.33707 25:-743.45353 26:-713.52886 27:261.11329 28:200.38462 29:168.79333 30:551.65286 31:-696.63895 32:213.54558 33:176.35189 34:34.971632 35:145.0174 36:208.27647 37:37.567812 38:15.266377 39:323.58279 40:586.22781 41:-348.3948 42:424.99479 43:250.91777 44:-59.92443 45:-2.949339 
0 3.293464725734118e-09 0 0 0 7.127353656086852e-09 1.180015211279778e-08 1.784943302469349e-08 0 1.79525558343076e-09 0 0 7.374035272338594e-09 3.155760475982704e-08 5.287795977967183e-09 0 0 7.240480763626683e-09 0 1.259755518128044e-09 0 0 1.036042767383628e-08 2.539993662447386e-08 0 0 0 0 1.10740010601074e-08 0 0 0 0 0 0 8.809696132116631e-09 3.874600460835957e-10 1:-1574.4349 2:154.39157 3:-388.05305 4:-495.98085 5:878.6404 6:-887.00287 7:1668.5255 8:-617.12503 9:-94.400624 10:-64.331289 11:1201.0248 12:31.62999 13:1242.6696 14:183.69872 15:-1107.8056 16:17.34994 17:602.19097 18:-658.66183 19:174.36578 20:-102.56887 21:-10.281323 22:191.98019 23:-291.25943 24:472.89725 25:-398.85646 26:-263.66816 27:402.64819 28:589.08216 29:-11.791008 30:296.67375 31:-577.95809 32:169.84295 33:630.31955 34:-8.949631 35:175.47535 36:133.76994 37:-186.61816 38:-4.921228 39:503.69823 40:644.17033 41:-225.65512 42:653.60925 43:90.990097 44:161.05329 45:-60.339127 
0 0 5.823610912961341e-09 0 0 0 0 0 0 4.551689047549045e-09 0 2.078753050686618e-08 0 0 0 0 0 0 0 0 0 0 0 0 0 0 0 0 2.277082378392418e-08 0 0 0 1.028942826911853e-08 0 0 0 0 1:-1241.4164 2:255.41433 3:-669.69327 4:-31.08312 5:514.32505 6:-387.56004 7:1874.9083 8:-439.31992 9:-172.7693 10:100.40481 11:1216.5402 12:130.49527 13:1327.3321 14:301.77046 15:-907.5749 16:-474.42032 17:524.95347 18:-711.09348 19:176.09151 20:14.009108 21:-312.18553 22:-44.187253 23:-27.230106 24:512.12662 25:-482.19015 26:-788.37019 27:333.80724 28:232.31379 29:14.445338 30:586.43713 31:-681.67003 32:215.86501 33:156.46785 34:119.22503 35:74.098628 36:187.33446 37:28.112844 38:-17.326562 39:442.47328 40:822.92421 41:-442.02447 42:522.43297 43:262.88897 44:-75.429331 45:33.150305 
-0 0 0 1.779063653908451e-09 2.391738707743246e-09 0 0 0 0 0 0 0 0 0 0 0 0 0 0 0 0 0 0 0 0 0 0 0 0 0 0 0 0 1.124747034973167e-08 0 0 0 1:3530.8104 2:-686.4032 3:-158.56293 4:3204.9289 5:-668.23496 6:-263.94307 7:302.57926 8:425.20062 9:-135.97176 10:-142.71191 11:-536.42222 12:184.2947 13:-542.6918 14:497.76608 15:-820.96997 16:-166.84989 17:601.31384 18:653.15787 19:-15.726918 20:-541.80184 21:459.97682 22:415.38243 23:-163.52017 24:861.47873 25:180.3757 26:322.30239 27:714.72879 28:-2.827516 29:180.5049 30:-206.09307 31:-287.56286 32:123.65485 33:-39.493651 34:128.64182 35:161.09937 36:283.7961 37:234.12053 38:-31.18668 39:92.398215 40:24.681536 41:-24.947956 42:-148.56564 43:132.41546 44:-461.83343 45:-89.370233 
-0 0 0 0 0 0 0 0 0 0 0 0 0 0 0 0 0 0 0 2.137479131513433e-08 0 0 0 0 0 0 0 0 0 0 0 0 0 0 0 0 0 1:1178.2147 2:179.36843 3:-460.77566 4:2118.14 5:-223.92057 6:-742.14386 7:205.66071 8:77.573952 9:355.9141 10:202.73045 11:-698.69209 12:554.75588 13:-1435.0484 14:-653.05613 15:-742.264 16:-1064.0544 17:29.808178 18:1161.025 19:136.30302 20:-547.06227 21:310.52188 22:459.55416 23:-250.46408 24:818.67906 25:-73.778392 26:201.54272 27:419.9596 28:594.5612 29:193.87261 30:-107.91344 31:-167.83562 32:42.402898 33:279.45342 34:40.853656 35:-160.56461 36:195.55437 37:278.35231 38:-206.48413 39:384.47379 40:-98.933993 41:-131.41883 42:52.088615 43:477.0827 44:69.325789 45:-38.721112 
-0 0 0 0 0 0 0 0 0 0 0 0 0 0 0 0 0 0 1.258888189033309e-08 0 0 0 0 0 0 0 0 0 0 0 0 0 0 0 0 0 0 1:1243.3301 2:174.93505 3:-566.33214 4:2054.926 5:368.66402 6:-611.26978 7:189.88175 8:8.895359 9:228.53823 10:233.99478 11:-670.60142 12:637.97231 13:-1296.3315 14:-703.84034 15:-862.52991 16:-1166.1933 17:60.380552 18:1017.6437 19:46.338101 20:-660.20706 21:545.18746 22:306.31142 23:52.721663 24:531.6151 25:-53.348366 26:340.68808 27:447.98752 28:456.00093 29:324.5387 30:-289.95345 31:-433.34232 32:119.53123 33:63.180335 34:136.88083 35:-178.2381 36:-195.28843 37:100.09859 38:-217.22236 39:472.16203 40:63.262883 41:-106.2838 42:-210.59759 43:438.14874 44:78.447548 45:-82.022732 
-0 0 0 5.56673646203154e-09 0 0 0 0 0 0 0 0 0 0 0 0 0 0 0 0 0 0 0 0 0 0 0 0 0 0 0 0 0 0 0 0 0 1:3485.4617 2:-568.2817 3:-307.89616 4:3123.2553 5:-342.77051 6:-282.84102 7:323.07175 8:308.64973 9:-104.41979 10:-115.24924 11:-538.14847 12:218.44325 13:-472.67874 14:395.07532 15:-943.95504 16:-220.88604 17:653.75795 18:545.63021 19:-24.497182 20:-471.15528 21:584.48301 22:372.65495 23:-87.129945 24:771.66648 25:284.90774 26:321.72666 27:726.10226 28:-88.71574 29:239.76903 30:-324.20943 31:-441.45898 32:211.69495 33:-291.99125 34:56.956003 35:5.892057 36:24.237161 37:130.66004 38:-16.017017 39:195.5355 40:157.91019 41:-92.61708 42:-336.69967 43:57.337991 44:-457.03775 45:-188.96847 
-5.422168018824705e-08 6.036211249829862e-08 6.598580965191277e-08 3.97951605187446e-08 7.514163385719956e-08 5.720909284993099e-08 7.348346586754899e-08 4.227156200795509e-08 5.22173352518371e-08 3.310286635366736e-08 6.396999687543588e-08 3.19797088963986e-08 6.4293673901404e-08 4.161447697304767e-08 5.511718734136168e-08 6.844683409944458e-08 5.233435915259986e-08 5.66112814064045e-08 3.445573734822454e-08 3.758742046629471e-08 4.047292270162149e-08 5.242891914099109e-08 5.768904956976494e-08 4.079780317887137e-08 4.40346832278783e-08 3.907979936870209e-08 4.529358340308461e-08 6.266700030643509e-08 5.643145372138644e-08 4.233346394894455e-08 7.334497676165204e-08 6.611880390490455e-08 7.443409408248179e-08 8.286558895922463e-08 7.583322481299259e-08 8.231662387069823e-08 3.853252011462535e-08 1:691.0907 2:552.43178 3:-620.50947 4:1630.379 5:-469.48494 6:-296.83427 7:583.56814 8:-225.76543 9:422.51655 10:362.7679 11:138.69581 12:103.03013 13:-877.29132 14:177.8641 15:-871.62992 16:40.294452 17:-247.89588 18:49.331957 19:67.775796 20:4.054865 21:120.64289 22:316.20249 23:-164.36544 24:173.71893 25:363.00989 26:94.012435 27:95.713856 28:540.09407 29:-404.81052 30:390.7632 31:1080.3882 32:-731.27064 33:-194.70343 34:-80.507746 35:74.887578 36:1358.7306 37:-413.48433 38:-4996.0887 39:64.037458 40:1073.2606 41:-85.904459 42:-600.43241 43:948.135 44:-800.56534 45:324.3554 
-4.201520399482587e-08 4.821442193527173e-08 4.875372152805685e-08 3.190328936578098e-08 6.321137596697994e-08 4.287629244287033e-08 6.483790406062592e-08 3.200461574598598e-08 4.339879101255783e-08 2.542522934660768e-08 5.614223483111568e-08 1.965501347074768e-08 5.654149190122253e-08 2.952814293117205e-08 4.632401741409105e-08 5.395333948739366e-08 4.152637922699775e-08 4.192894130326924e-08 2.364580652998484e-08 3.108242263963589e-08 2.92303557545277e-08 4.10742286870349e-08 4.750775145978127e-08 3.098775239456078e-08 3.424873273237827e-08 2.774892311480749e-08 3.921686626145088e-08 4.899590061099988e-08 4.257376906065867e-08 3.471681303344033e-08 6.407891048304957e-08 5.423809535459996e-08 5.653583407659232e-08 6.876229095305663e-08 6.276382007992913e-08 6.69407959974516e-08 2.803908375689987e-08 1:2283.5994 2:-341.28715 3:-348.78832 4:2459.1369 5:305.17396 6:-356.7417 7:220.34586 8:31.930331 9:252.63219 10:-20.666064 11:-855.71786 12:495.95549 13:-893.76751 14:-436.84031 15:-753.14584 16:-1513.2572 17:349.50719 18:974.00804 19:-3.244021 20:-795.8253 21:1251.4697 22:325.87406 23:324.61438 24:723.51146 25:-124.86135 26:232.0163 27:746.04208 28:-280.56938 29:913.93676 30:-1409.8458 31:-1770.2526 32:1179.4067 33:-54.558146 34:50.16528 35:-519.6465 36:-1605.4475 37:663.26196 38:4327.4406 39:579.38519 40:-704.52433 41:151.29405 42:-56.645648 43:-424.68554 44:512.54794 45:-706.97322 
-0 0 0 8.921598630078598e-10 0 0 0 0 0 0 0 0 0 0 0 0 0 0 0 0 0 0 0 0 0 0 0 0 0 0 0 0 0 0 0 0 0 1:2965.1811 2:-395.86303 3:-700.98915 4:2838.8383 5:-732.25512 6:-277.69596 7:255.28172 8:103.30482 9:13.093054 10:-212.94235 11:-470.66704 12:3.699317 13:-409.16665 14:304.96891 15:-899.08154 16:-473.40908 17:802.24142 18:369.10998 19:202.52121 20:-229.07543 21:747.25248 22:631.20659 23:81.328199 24:893.13159 25:628.55969 26:-53.818154 27:742.86231 28:-215.51777 29:405.02258 30:-661.78142 31:-393.01586 32:319.61659 33:-625.89496 34:-233.71756 35:-408.31963 36:-285.10408 37:146.12633 38:-28.344487 39:354.66437 40:452.45125 41:66.238876 42:-507.46793 43:-186.75547 44:-518.56537 45:-405.60484 
-0 0 1.547987989415388e-09 0 0 0 0 4.117229533226019e-08 0 1.645508371077161e-08 0 3.386196388340533e-09 0 2.145183212710377e-08 0 0 0 6.417191631281164e-09 0 0 1.654173469101877e-08 0 0 0 0 1.490606089204451e-08 0 0 0 0 0 0 9.441014585638968e-09 0 0 0 6.719204260740132e-09 1:1103.349 2:217.43564 3:-508.29431 4:2261.6754 5:-384.43352 6:-674.02867 7:331.07427 8:171.39582 9:413.9648 10:245.71464 11:-555.30956 12:485.36157 13:-1449.4728 14:-585.90578 15:-732.70238 16:-948.17754 17:33.54301 18:1234.2252 19:68.435805 20:-657.6163 21:45.983912 22:443.50448 23:-269.01189 24:855.40302 25:-75.268392 26:188.77078 27:397.74894 28:568.6036 29:137.34017 30:46.498125 31:-39.589154 32:-81.723803 33:377.47203 34:184.07624 35:7.735225 36:231.25759 37:324.4508 38:-236.05252 39:272.36504 40:-267.7157 41:-190.46583 42:236.31711 43:558.89488 44:107.17971 45:33.687001 
-0 -3.252084296464871e-08 0 3.742186993050565e-08 7.081357607233079e-09 0 0 0 3.072271308551585e-08 0 0 0 7.552331737486762e-09 0 0 4.5791332257354e-08 0 0 0 0 0 1.296726140977198e-08 0 0 0 0 3.888606896591508e-09 0 0 2.76859755678843e-08 3.374470896735e-08 1.325583689651754e-08 0 0 0 0 1.740319496908659e-08 1:1238.1898 2:391.49848 3:-1795.3785 4:812.8317 5:15.279921 6:859.63344 7:556.10311 8:-1794.6096 9:-948.5753 10:-846.35627 11:250.13398 12:1067.7141 13:567.49327 14:-143.51515 15:615.90126 16:-72.098285 17:259.4779 18:-884.20898 19:-742.64934 20:-407.3728 21:459.68556 22:430.07556 23:101.59737 24:9.020929 25:145.30272 26:361.90658 27:451.70935 28:160.06349 29:-239.72135 30:16.06372 31:1261.8113 32:15.006554 33:-117.61212 34:233.89867 35:450.54639 36:60.447266 37:-117.30963 38:115.23871 39:750.28673 40:-482.21617 41:-154.02708 42:-249.54806 43:52.389844 44:186.60682 45:160.65425 
-0 -0 0 0 0 0 0 0 4.962966599982781e-08 0 0 0 0 0 0 0 0 0 0 0 0 0 6.842427064025538e-09 0 0 0 0 0 0 0 0 0 0 0 0 0 0 1:-1367.7113 2:-76.642892 3:-1626.4115 4:-1068.193 5:1744.1425 6:-1396.7688 7:-322.18302 8:-1228.3033 9:-186.20441 10:-348.38511 11:957.54621 12:-141.80414 13:421.55057 14:-514.59032 15:179.30963 16:-95.228499 17:292.15611 18:-526.49874 19:-456.50937 20:-396.53451 21:-203.91913 22:24.063494 23:-109.08379 24:327.73638 25:103.07414 26:619.14315 27:-225.61014 28:-6.81451 29:485.19273 30:-645.05887 31:670.67677 32:-565.37232 33:136.42992 34:-532.17757 35:-383.87113 36:461.06412 37:217.08162 38:335.4353 39:-10.566743 40:-47.512122 41:-274.56342 42:-830.97269 43:-39.786809 44:-29.063388 45:346.52196 
-1.683739824920672e-07 -6.921836946316435e-08 1.08639778652645e-07 3.127283317823628e-08 1.045216847123427e-07 1.235952134242647e-07 1.48344533398653e-07 1.014492396014805e-07 8.781890237867315e-08 7.411624401270364e-08 1.270046587327369e-07 3.499505909923919e-08 7.321920542339083e-08 7.490426262224032e-08 9.295873808430898e-08 5.909740753456095e-08 1.206763006691856e-07 1.656692621560162e-07 7.00414038814335e-08 9.753926823320457e-08 1.158230611574119e-07 9.456524349818626e-08 1.216610011834397e-07 8.813026116096183e-08 7.60522338586502e-08 1.087286718889906e-07 7.202975900574016e-08 1.331526267456465e-07 8.795320767564974e-08 5.844049947281647e-08 7.425455124092777e-08 9.961143975398725e-08 1.334554865615601e-07 1.132072976372505e-07 1.090310428025682e-07 2.589972337640354e-07 6.437283471023674e-08 1:-103.67768 2:267.36763 3:-1554.9932 4:-143.68488 5:620.27783 6:-511.08108 7:509.39911 8:-1165.8462 9:-85.542863 10:-93.706707 11:571.4228 12:189.62095 13:232.4628 14:-483.24597 15:176.71139 16:222.19413 17:127.34067 18:-696.76303 19:-291.43798 20:-401.79078 21:75.772495 22:277.16216 23:-107.11763 24:97.918971 25:348.38502 26:286.37492 27:191.61307 28:141.47221 29:236.40351 30:-432.31637 31:896.29685 32:-179.75277 33:-363.09008 34:-200.00896 35:-195.56379 36:66.549326 37:342.38614 38:140.51806 39:241.11516 40:-294.56738 41:-281.36046 42:-560.96373 43:-96.131074 44:409.46291 45:306.14985 
-0 -0 1.434760872805519e-08 0 0 0 0 0 0 0 0 0 0 0 0 0 0 0 0 0 0 0 0 0 0 0 3.332148278248584e-09 0 0 0 0 0 0 0 0 0 0 1:572.71916 2:357.41023 3:-1888.4803 4:612.73958 5:-208.59144 6:673.30799 7:882.20746 8:-1834.9247 9:-88.340635 10:-117.5403 11:-21.517503 12:805.93135 13:325.7942 14:-950.30958 15:502.98715 16:534.76805 17:185.53562 18:-710.44171 19:-650.70251 20:-602.82296 21:383.65297 22:712.92425 23:-163.66458 24:-155.5384 25:859.20729 26:-14.014223 27:588.7481 28:-128.84191 29:232.72576 30:-218.30397 31:1387.3815 32:-182.63327 33:-505.43645 34:295.28007 35:246.17587 36:-565.65645 37:304.03341 38:36.133539 39:287.50264 40:-875.33259 41:-64.410893 42:220.29285 43:-44.177191 44:929.81462 45:366.2328 
-0 -0 0 0 0 0 0 0 0 0 0 0 0 0 0 0 0 0 0 0 0 0 2.864008812487669e-08 0 0 0 0 0 0 0 0 0 0 0 0 0 0 1:-110.4778 2:368.85865 3:-2241.9747 4:-114.70766 5:1381.4741 6:274.5994 7:439.04681 8:-1221.5235 9:-884.19857 10:-594.04631 11:619.8212 12:-114.08751 13:695.09832 14:-253.416 15:739.93174 16:-303.49679 17:236.54677 18:-424.78046 19:-531.14907 20:-806.58524 21:-206.2668 22:-264.02052 23:195.0138 24:657.39018 25:191.06171 26:383.8345 27:-234.90174 28:-77.963357 29:466.71981 30:-140.57203 31:1028.5564 32:-39.940545 33:112.44 34:49.761764 35:238.97622 36:488.88553 37:-60.227485 38:239.04341 39:451.02313 40:-33.222403 41:-220.94944 42:-533.73067 43:178.78038 44:-139.50572 45:323.99652 
-0 -0 0 0 0 5.458273975653972e-09 0 7.086952922218997e-09 0 0 0 0 0 0 0 0 0 0 3.585268287507351e-09 0 0 0 0 4.987530659893045e-09 0 1.171983547446734e-08 0 0 0 0 0 0 0 0 0 0 1.821732027430746e-08 1:-1331.867 2:101.32126 3:-1875.2326 4:-632.87641 5:1518.0258 6:-1009.9421 7:77.896964 8:-956.72672 9:-517.04888 10:-437.97743 11:1186.6952 12:-392.0734 13:656.48614 14:-246.79268 15:201.11604 16:-234.71658 17:311.53635 18:-303.70599 19:-452.88049 20:-597.68382 21:-640.85969 22:-32.287432 23:-104.41982 24:706.49277 25:286.29939 26:524.52319 27:-288.64157 28:72.132331 29:492.16235 30:-518.47133 31:912.80736 32:-392.04965 33:458.22034 34:-350.85793 35:56.237237 36:494.9321 37:58.497127 38:308.61448 39:79.591638 40:207.63595 41:-319.77279 42:-599.16565 43:16.611782 44:-549.12325 45:127.33188 
-0 -0 0 0 0 0 0 0 0 0 0 0 0 0 0 0 0 0 0 4.583684532912942e-09 0 0 0 0 0 0 0 0 0 0 0 0 0 0 0 0 0 1:643.79759 2:340.71069 3:-2356.4904 4:461.08597 5:202.54989 6:465.8668 7:670.84597 8:-1360.3621 9:-1158.5685 10:-886.88726 11:517.14542 12:464.31628 13:674.2816 14:40.069031 15:877.3899 16:-646.02921 17:251.863 18:-308.70857 19:-616.85676 20:-720.06614 21:250.3719 22:-83.282108 23:340.66971 24:529.92256 25:232.56038 26:324.24239 27:144.5482 28:-51.294129 29:161.37065 30:-76.168063 31:1218.9738 32:54.030435 33:19.279928 34:154.13207 35:109.31121 36:621.74522 37:-224.65094 38:182.63571 39:538.90797 40:73.668155 41:-78.17703 42:-342.60666 43:338.75501 44:-262.83913 45:166.16771 
-0 -6.837322005757298e-09 2.776187215768489e-08 0 0 9.898317056108293e-09 1.412788442776567e-08 4.758844483698706e-09 0 1.70945463809605e-08 8.250108984206666e-09 4.109290934367121e-08 7.468376126669817e-09 1.287950554857333e-08 6.720796055369706e-09 2.572000961055265e-08 0 2.313707797414668e-09 0 0 0 0 0 2.480280339823371e-10 0 0 0 0 3.706985306535135e-08 0 2.416653736745291e-08 0 4.367433062078152e-08 2.195500603429384e-08 1.506151021669748e-08 0 0 1:-215.32382 2:305.69982 3:-2412.4637 4:163.02635 5:462.93887 6:-98.313929 7:633.79171 8:-889.96012 9:-821.78339 10:-725.76434 11:856.39447 12:-232.40703 13:577.54483 14:-0.46115 15:628.05226 16:-592.60294 17:289.95933 18:-251.37486 19:-351.17797 20:-768.9899 21:-178.21084 22:-195.49062 23:297.81985 24:607.83889 25:384.75071 26:309.10321 27:-143.02318 28:-172.70473 29:316.66872 30:-364.95457 31:976.97436 32:-2.238977 33:179.3642 34:78.712307 35:-61.847803 36:490.23223 37:-174.68928 38:115.3544 39:380.9948 40:302.88041 41:-170.99626 42:-369.36156 43:308.38096 44:-436.00095 45:43.715694 
-0 -0 -0 0 0 0 0 0 0 0 0 0 0 0 0 0 0 0 0 0 0 1.231223591749596e-08 0 5.457592998666436e-09 0 0 0 0 0 5.296905054720103e-09 0 0 0 0 0 0 0 1:-1504.0527 2:906.45425 3:-583.21594 4:737.6103 5:-977.24675 6:1003.3441 7:535.33876 8:755.00803 9:743.42009 10:767.77938 11:405.06767 12:1214.4116 13:-124.54855 14:130.43785 15:-134.24544 16:-408.25487 17:271.26146 18:-79.479148 19:-139.55457 20:1.742089 21:-202.77047 22:-326.69211 23:316.32923 24:14.989067 25:160.12619 26:306.54518 27:232.73101 28:-559.48338 29:680.30553 30:-25.430608 31:72.442376 32:500.91617 33:104.79726 34:-284.14508 35:-436.45119 36:27.956612 37:-1.075326 38:-128.63522 39:-349.84973 40:34.882501 41:-554.96315 42:-221.08972 43:40.824576 44:-21.267258 45:1.142836 
-0 -0 -0 0 0 0 0 0 0 4.864150629116228e-08 0 0 0 0 2.802204739331865e-09 0 0 0 0 0 4.859953568798906e-09 0 0 0 0 0 0 0 0 0 0 0 0 0 0 0 0 1:-2050.0213 2:345.56821 3:-419.37997 4:194.86966 5:-970.6936 6:401.94953 7:698.70312 8:-168.74946 9:161.13701 10:-135.51473 11:-417.5644 12:420.18331 13:273.40832 14:-550.96335 15:140.5932 16:178.01394 17:767.2826 18:325.35712 19:-673.23899 20:332.39445 21:682.25607 22:262.32697 23:462.79756 24:218.09024 25:-247.34695 26:-273.77642 27:570.76194 28:-769.34203 29:113.18598 30:287.77328 31:294.43933 32:677.04011 33:477.40136 34:388.13986 35:-242.51663 36:-101.96393 37:-217.08566 38:-263.73535 39:-163.25738 40:-527.1063 41:-98.824895 42:-262.16626 43:-282.02716 44:-135.97404 45:131.10433 
-0 -0 -0 0 0 3.234953570224323e-08 0 0 2.189457735408503e-08 0 0 0 0 0 0 0 2.413226925431368e-09 0 0 0 0 0 0 0 0 0 0 0 0 0 0 0 0 0 0 0 0 1:-2144.6381 2:433.93214 3:-341.70995 4:299.13875 5:-547.017 6:279.15865 7:643.07732 8:-214.53658 9:38.483666 10:-280.59392 11:-499.08639 12:451.7855 13:359.16122 14:-309.07331 15:80.028957 16:157.91926 17:633.99109 18:172.81252 19:-618.94966 20:242.18297 21:727.81133 22:322.73409 23:555.37502 24:148.81275 25:-230.15491 26:-313.94693 27:353.02603 28:-909.81153 29:23.074786 30:173.44999 31:244.67547 32:560.71827 33:448.00374 34:241.95515 35:-77.320073 36:104.64172 37:-212.86652 38:-263.15893 39:-76.053053 40:-508.59669 41:-32.676707 42:-369.60915 43:-342.4148 44:-10.713039 45:197.24546 
-0 -0 -0 0 0 0 0 0 0 0 0 0 6.545854112158283e-09 7.707413253337811e-08 0 0 0 0 0 0 0 0 0 0 0 0 0 0 0 0 0 0 0 0 0 0 0 1:-1562.9503 2:911.4312 3:-577.35307 4:744.17771 5:-821.72214 6:897.12943 7:581.18791 8:729.70157 9:775.95534 10:822.92738 11:345.50699 12:1226.3528 13:-160.27218 14:113.88766 15:-81.260965 16:-433.63745 17:234.57005 18:-194.07195 19:-127.83379 20:-22.179245 21:-100.91198 22:-257.70645 23:318.592 24:-101.61159 25:184.5729 26:268.09692 27:208.10171 28:-565.90894 29:723.30886 30:-77.723378 31:2.735365 32:459.75421 33:142.34155 34:-284.10381 35:-446.52716 36:67.997147 37:-32.747393 38:-169.25091 39:-362.39629 40:-28.885461 41:-458.28796 42:-168.38828 43:1.478247 44:27.409331 45:-19.044821 
-2.050341100251146e-07 -1.16287519169385e-07 -1.507492595383851e-07 6.151432665389174e-08 1.004711622026358e-07 5.511683399024547e-07 1.602755839256015e-07 1.58295251889018e-07 7.695553514177662e-08 4.541293417726041e-08 8.861769429595398e-08 4.998143746184319e-08 9.626081641757972e-08 1.590798984172805e-07 1.252150433465422e-07 1.34529032085436e-07 1.667791368620388e-07 7.81095906093549e-08 1.177557755091029e-07 7.354380132466853e-08 8.750389739769617e-08 1.186929665115709e-07 1.059164985078682e-07 9.015538855476843e-08 9.74358564327761e-08 1.262125989706212e-07 6.709058805838486e-08 2.562566769075919e-07 2.59170556043033e-07 6.861307793560088e-08 1.242940135113151e-07 1.262419132387869e-07 2.353599350124091e-07 1.329130441193854e-07 1.341468973174026e-07 1.476436472753743e-07 1.851158545698804e-07 1:-1570.7434 2:740.28296 3:-458.7698 4:623.68521 5:-756.72853 6:343.38468 7:646.5741 8:38.382783 9:468.10856 10:287.62705 11:17.876421 12:515.83613 13:-20.685612 14:12.846146 15:-61.211782 16:-45.50758 17:182.11171 18:-134.95052 19:-220.50668 20:98.12396 21:426.60125 22:176.52116 23:292.90878 24:55.766102 25:44.086218 26:-140.34254 27:234.13063 28:-585.86512 29:186.15273 30:16.524643 31:159.04272 32:408.11543 33:236.56303 34:-43.444473 35:-226.82164 36:150.30238 37:-102.37791 38:-203.39974 39:-64.011465 40:-275.61926 41:-96.69417 42:-198.9041 43:-176.838 44:19.628221 45:-0.923459 
-0 -0 -0 0 0 4.215256186153116e-09 0 0 0 2.871624696826926e-08 0 5.750102371092843e-08 0 0 0 0 0 1.180772628119849e-07 0 0 3.4602882561068e-08 0 0 1.664227461622422e-09 0 0 0 0 5.057764256860541e-08 0 0 0 2.700170069962375e-08 0 0 0 0 1:-1715.5651 2:730.44743 3:-674.02259 4:669.78043 5:-1573.4681 6:464.07827 7:486.08278 8:665.50158 9:903.45562 10:691.9537 11:343.81218 12:575.67415 13:-158.2802 14:101.96904 15:193.66934 16:-598.72489 17:330.50541 18:-196.34795 19:35.938553 20:-36.952569 21:-143.87875 22:309.98244 23:408.14303 24:242.74229 25:308.73562 26:-31.990314 27:3.289474 28:-334.60098 29:536.56693 30:-24.089046 31:114.80887 32:192.07017 33:273.8372 34:-344.26547 35:-373.64742 36:101.14513 37:15.203472 38:-221.39744 39:-129.35565 40:-160.39366 41:-221.8574 42:-57.120646 43:-356.59008 44:-220.1043 45:-17.217182 
-0 -0 -0 0 0 0 0 0 0 0 0 0 0 0 0 0 0 2.281258558617291e-08 0 0 0 0 0 0 0 0 0 0 0 0 0 0 0 0 0 0 0 1:-2038.5743 2:384.63089 3:-469.95833 4:319.69994 5:-1010.5581 6:438.34086 7:758.22575 8:-172.02713 9:197.46985 10:-161.98132 11:-344.1327 12:371.04518 13:282.36671 14:-591.69303 15:66.012448 16:278.17515 17:821.48704 18:394.60643 19:-769.94237 20:300.42311 21:565.32306 22:191.66641 23:464.1806 24:234.57397 25:-205.4209 26:-271.76355 27:564.30799 28:-774.80765 29:76.617028 30:272.63582 31:358.68954 32:658.96048 33:457.77027 34:397.84886 35:-228.64134 36:-203.79549 37:-245.73209 38:-261.58099 39:-171.93651 40:-443.1859 41:-164.8874 42:-281.03793 43:-323.54006 44:-65.567146 45:132.9986 
-0 -0 -0 -0 0 0 0 0 0 0 0 0 0 0 0 0 0 0 0 0 0 0 0 0 0 8.870114737029021e-09 0 0 0 0 0 0 0 0 0 0 0 1:1771.406 2:2276.1499 3:3098.0096 4:-745.60194 5:-1.435748 6:-433.96201 7:-154.36856 8:-912.9807 9:-1771.5211 10:-719.45911 11:563.96803 12:708.68024 13:362.17026 14:-276.44756 15:637.77364 16:-375.22924 17:-327.15975 18:32.146509 19:-858.84567 20:-120.66155 21:193.08116 22:142.64612 23:-254.1513 24:107.47298 25:-66.419795 26:447.15048 27:-223.50175 28:-385.85706 29:690.81014 30:760.06997 31:-63.045167 32:-212.12966 33:-567.36291 34:-170.8789 35:-985.71863 36:-937.95063 37:251.82471 38:-432.51575 39:337.83366 40:193.73615 41:-191.04038 42:34.375584 43:25.578033 44:-150.84967 45:-217.6717 
-5.352004762984349e-08 -7.993640986347343e-08 -6.869470310874192e-08 -5.599934776959345e-08 5.858697095082894e-08 5.534127786973255e-08 5.349270465148191e-08 5.611929353931453e-08 4.4773837037894e-08 4.570109022219977e-08 5.581027263399044e-08 4.278614806401606e-08 5.374243662457007e-08 4.838405952161561e-08 6.05798504712437e-08 7.841851150595489e-08 4.991612394842466e-08 5.470069736127354e-08 3.329447517255096e-08 7.69195652763207e-08 4.535987608585238e-08 7.506671597214766e-08 5.414587186073732e-08 5.374566024800507e-08 1.003411728064173e-07 7.931781277276117e-08 5.020822476151346e-08 6.025581343230667e-08 5.105258282332091e-08 1.32591809204471e-07 6.075911072468442e-08 8.572131204399108e-08 7.217181970079882e-08 7.986687444521566e-08 8.91783130068107e-08 8.553764038319037e-08 3.627831533712436e-08 1:2541.5392 2:2095.6552 3:2010.2803 4:224.10323 5:-864.21854 6:75.449517 7:205.23248 8:-570.54938 9:-941.66237 10:-305.34197 11:663.49851 12:95.442891 13:645.15957 14:-310.13522 15:256.02166 16:-128.98644 17:-286.01384 18:-3.190525 19:-347.21616 20:-164.02808 21:78.560865 22:382.7189 23:242.23765 24:337.21882 25:441.60353 26:693.71358 27:-155.80878 28:-247.67003 29:-32.675035 30:18.59599 31:-160.66369 32:236.54235 33:-612.04027 34:25.805926 35:-579.32329 36:-202.8897 37:-233.8696 38:-321.96443 39:148.06807 40:280.35382 41:-100.59512 42:-222.96686 43:35.566996 44:-82.674254 45:-356.44778 
-1.085695364776843e-08 -0 -0 -5.514978884298288e-09 5.084584076024257e-09 1.17584848560059e-08 6.935790886838587e-09 1.407319573990511e-08 9.204044149146733e-09 8.122051001792326e-09 0 0 1.56733457390008e-09 1.018277911888563e-08 2.713528224938527e-09 0 1.055473843283875e-08 1.330621576646522e-08 1.099954715003422e-08 0 1.031217575584563e-08 0 0 2.218138372593282e-09 3.476775946542931e-09 4.923784804943335e-09 1.859468761632029e-11 1.786724540443042e-08 6.293388413130389e-09 0 5.439879088721444e-09 0 4.907366592168518e-09 0 3.629912353650407e-09 0 1.185761081570753e-08 1:1746.9934 2:2263.8894 3:3304.2186 4:-575.09685 5:-773.6281 6:-621.43579 7:-12.683761 8:-1203.8584 9:-1562.2094 10:-460.13001 11:493.44898 12:720.0373 13:221.33696 14:463.29953 15:673.44276 16:-412.62426 17:-421.95207 18:-168.21604 19:-547.28868 20:213.66759 21:372.75011 22:191.6512 23:-394.34482 24:125.0666 25:-198.97139 26:-745.86294 27:-24.195035 28:-80.115656 29:892.64764 30:523.21557 31:291.41689 32:-1045.2289 33:-136.39237 34:-239.77032 35:-536.65697 36:-865.12733 37:328.27836 38:-117.31355 39:-209.84337 40:18.136417 41:-379.69594 42:656.91428 43:-393.05216 44:115.73664 45:384.27898 
-0 -0 -0 -0 0 0 0 0 0 0 0 0 0 0 0 0 0 0 0 0 0 0 0 0 0 0 0 0 0 1.731287321180361e-08 0 0 0 0 0 0 0 1:3366.1758 2:2526.7731 3:3018.3546 4:214.93833 5:-1876.141 6:-123.79486 7:504.04999 8:-1006.9296 9:-1140.0517 10:45.79439 11:645.07534 12:263.12928 13:674.11439 14:521.7457 15:1049.13 16:-18.16263 17:-488.89194 18:-198.70629 19:-509.16682 20:-112.73538 21:510.13419 22:141.63041 23:-226.47807 24:77.839502 25:158.14507 26:-728.77074 27:207.24538 28:212.22222 29:619.01859 30:-56.891722 31:-173.87708 32:-1156.7494 33:15.216521 34:-16.51369 35:91.542791 36:-274.63344 37:345.34488 38:33.929893 39:-665.37796 40:-83.471964 41:-128.73847 42:653.65728 43:-486.80752 44:145.38663 45:968.18317 
-0 -0 -0 -0 -0 0 0 0 8.527498810953954e-09 0 0 0 0 0 0 0 0 0 0 0 0 0 0 0 0 0 0 0 0 0 0 0 0 0 0 0 0 1:852.12193 2:-1769.193 3:232.77853 4:-102.14754 5:1052.8279 6:153.13751 7:691.80565 8:-240.29125 9:-1523.0502 10:844.38341 11:15.585811 12:543.15571 13:-382.29674 14:263.36733 15:-1175.911 16:608.43236 17:-740.75584 18:857.23127 19:260.60911 20:-682.6503 21:-562.79434 22:177.78858 23:81.931704 24:-388.05953 25:-424.49021 26:680.46061 27:-208.7544 28:-454.46184 29:-173.54368 30:-118.09137 31:133.29713 32:70.433331 33:581.4801 34:-78.821126 35:732.53226 36:-451.42599 37:-393.87865 38:-18.355952 39:-63.484793 40:-4.23265 41:189.15765 42:-59.529757 43:-323.80628 44:-47.618791 45:561.15579 
-0 -0 -0 -0 -0 0 0 0 1.513837017522665e-08 0 0 0 0 0 0 0 0 0 0 0 0 0 0 0 0 0 0 0 0 0 0 0 0 0 0 0 0 1:808.44325 2:-2092.8649 3:438.23503 4:-425.05521 5:689.47796 6:-647.63143 7:548.87945 8:-309.72927 9:-1386.9651 10:557.97376 11:-355.16047 12:824.68978 13:-593.3581 14:251.4755 15:-1407.3566 16:565.32259 17:-720.19567 18:802.25896 19:248.49374 20:-279.82502 21:-332.27368 22:152.63423 23:-76.806459 24:-244.94342 25:-434.30723 26:266.74784 27:-115.78485 28:-439.2528 29:-209.84974 30:-299.77056 31:138.01989 32:484.08976 33:346.20338 34:-508.25353 35:240.04357 36:-245.93181 37:-487.23521 38:-19.479361 39:101.27047 40:291.9248 41:229.27709 42:-284.33682 43:-324.68451 44:24.609288 45:638.80934 
-1.118371578125596e-07 -8.926045134834409e-08 -1.116030423195758e-07 -1.004711622026358e-07 -6.36715550268532e-08 1.110317133709072e-07 9.328249044218193e-08 1.255029656403078e-07 1.19282718930128e-07 6.753247277776498e-08 6.959174501616141e-08 4.727921364193331e-08 1.001883771729194e-07 8.03766080071032e-08 1.257927851658599e-07 8.986231237719922e-08 1.397171643446253e-07 1.24370068170946e-07 6.619808242580469e-08 6.53827694898102e-08 9.041386409989029e-08 7.666668166522623e-08 1.127096525941865e-07 7.816618485594531e-08 6.488242329784127e-08 9.705930803463122e-08 1.136398679870483e-07 1.18457778958979e-07 8.667021052195681e-08 8.047018683310486e-08 1.199692728583161e-07 1.095615023398059e-07 1.337411846265008e-07 4.465457366292804e-08 1.435011915614264e-07 1.734019604223733e-07 8.226240384479233e-08 1:883.80257 2:-1329.073 3:29.703545 4:354.38242 5:415.5241 6:-511.79214 7:863.53941 8:-93.845959 9:-876.27916 10:643.97876 11:-10.462056 12:649.37473 13:-663.23741 14:386.55246 15:-1126.8154 16:686.86046 17:-711.38513 18:157.08463 19:52.925193 20:13.264845 21:-212.86875 22:-99.358519 23:62.783585 24:-341.26599 25:-264.80503 26:8.911612 27:186.29586 28:-390.58131 29:-225.24549 30:-350.22023 31:276.90125 32:279.17641 33:-36.838515 34:-426.93059 35:-89.746344 36:-162.411 37:-259.23232 38:-64.218283 39:-46.96983 40:285.72175 41:124.28424 42:-233.97015 43:-237.38416 44:110.33557 45:164.24016 
-0 -5.148429718357869e-08 -0 -0 -0 0 6.207956349556543e-08 0 1.380705215044236e-08 3.224953217708307e-08 3.143897149064091e-08 0 2.605184892774018e-08 0 1.189880847877417e-08 0 0 0 0 8.644443573663536e-09 2.150421692477071e-08 0 0 1.049485605352527e-08 0 0 2.598037195553274e-08 0 0 0 5.066158727970645e-08 0 1.185889303554369e-08 1.053118918715621e-07 0 0 0 1:1574.9192 2:-1879.1905 3:-379.50904 4:770.64538 5:-313.98882 6:-786.70412 7:780.85578 8:381.1723 9:-672.38854 10:420.9371 11:-191.92813 12:464.70786 13:-789.1774 14:359.77444 15:-1010.2492 16:716.88258 17:-71.418016 18:345.22073 19:-13.115078 20:496.18687 21:-397.85768 22:-18.190876 23:327.93861 24:81.632703 25:-193.68042 26:-837.85201 27:487.88594 28:-745.01974 29:-152.14273 30:-411.52781 31:475.4387 32:-61.963535 33:-69.144598 34:-557.96854 35:-419.79111 36:-383.58696 37:-95.782478 38:-217.71705 39:-277.94372 40:718.67007 41:-171.60756 42:-97.922379 43:-339.26169 44:-50.103988 45:-39.93202 
-0 -0 -0 -0 -0 0 0 0 0 0 0 0 0 0 0 0 0 0 0 0 0 0 0 0 0 0 0 0 0 4.617730385955359e-09 0 0 0 0 0 0 0 1:1662.2183 2:-1848.204 3:261.4286 4:219.61235 5:387.85904 6:-650.83794 7:812.04538 8:153.38076 9:-1111.2622 10:965.37799 11:-226.4138 12:953.80324 13:-537.05614 14:345.14902 15:-1276.199 16:794.80567 17:-543.69004 18:636.13679 19:-67.250819 20:-27.239593 21:-653.72104 22:121.91754 23:73.55566 24:-300.11176 25:-655.91331 26:154.2017 27:-132.11489 28:-705.81728 29:-372.51892 30:151.27377 31:146.1582 32:273.00662 33:408.61602 34:-920.55287 35:-95.900431 36:-233.58286 37:-40.716367 38:-49.198493 39:-10.958762 40:365.96617 41:172.84754 42:-179.92165 43:-464.02841 44:-176.07031 45:252.68911 
-0 -0 -0 -0 -0 0 1.302157573461777e-08 0 0 9.515476795604901e-09 0 0 0 7.778740959976116e-10 0 0 7.303550930350572e-09 0 0 0 0 0 0 1.503298192193243e-08 0 0 0 0 0 0 1.80452869342711e-08 0 0 0 0 0 1.097662790124941e-08 1:778.22041 2:-1744.3774 3:105.34728 4:2.738687 5:908.57564 6:251.00349 7:887.50267 8:-111.63275 9:-1549.5016 10:786.01689 11:76.333133 12:326.00859 13:-264.23595 14:269.79643 15:-1104.9582 16:562.3341 17:-500.52437 18:932.22664 19:342.81045 20:-839.768 21:-859.7549 22:261.28589 23:120.2141 24:-386.08151 25:-367.39379 26:709.15545 27:-202.72097 28:-425.35949 29:-192.47032 30:-115.84699 31:133.65249 32:11.990481 33:538.02342 34:-78.818518 35:726.90061 36:-645.14693 37:-312.83031 38:-77.2765 39:32.947518 40:79.28485 41:193.58094 42:-24.146197 43:-363.33178 44:-75.162454 45:632.09189 
-0 -0 -0 -0 -0 0 0 0 0 0 0 0 0 0 1.632087793950124e-09 0 0 0 0 0 0 0 0 0 0 6.789572682508969e-09 0 0 0 0 0 0 0 0 0 0 0 1:1264.0356 2:-1748.0066 3:-202.04224 4:504.19716 5:829.01428 6:358.91562 7:1436.3594 8:467.00221 9:-1727.6309 10:788.18456 11:298.23375 12:72.179564 13:-84.209535 14:446.18397 15:-865.18502 16:587.72574 17:-63.961611 18:579.89649 19:173.67217 20:-832.37181 21:-1241.7784 22:53.669268 23:350.84262 24:-561.33459 25:-512.22696 26:490.26767 27:159.809 28:-827.16599 29:-214.58329 30:-83.950467 31:176.70629 32:96.794821 33:208.12166 34:-147.50597 35:253.63642 36:-805.25255 37:12.884101 38:-214.28148 39:-69.971247 40:177.94458 41:422.88096 42:61.346948 43:-268.21266 44:-26.355675 45:503.96255 
-0 -0 -0 -0 -0 -0 0 0 0 0 0 0 1.535332471295545e-08 0 0 0 0 0 0 0 0 0 0 0 0 0 0 0 0 0 0 0 0 0 0 0 0 1:-1723.7176 2:493.3119 3:372.03851 4:0.120325 5:-383.29572 6:657.52221 7:616.48924 8:1324.79 9:574.63013 10:390.39811 11:-130.38285 12:683.17999 13:-197.52811 14:44.633742 15:-20.3543 16:71.535863 17:194.68601 18:-289.6019 19:-388.33418 20:411.331 21:122.91416 22:-297.1229 23:409.81939 24:-174.61488 25:-67.512743 26:1315.975 27:379.51642 28:425.1576 29:360.93809 30:-246.90519 31:191.80827 32:-494.96431 33:233.55488 34:-330.23196 35:-268.32623 36:323.88621 37:24.122674 38:217.33461 39:276.13572 40:194.01282 41:-700.99212 42:52.377743 43:95.094326 44:8.32051 45:-89.706758 
-0 -0 -0 -0 -0 -0 0 0 6.621144218930978e-08 0 0 0 0 0 0 0 0 0 0 0 0 0 0 0 0 0 0 0 0 0 0 0 0 0 0 0 0 1:-1738.6331 2:-107.23801 3:868.20142 4:-757.88364 5:-236.70321 6:52.30884 7:336.10588 8:-201.34586 9:19.310345 10:-193.34662 11:-779.89698 12:-71.693128 13:-27.173631 14:-198.23807 15:254.7296 16:24.824324 17:780.36902 18:-241.3695 19:-739.19679 20:667.28193 21:226.97508 22:-38.502778 23:689.64761 24:-117.65611 25:-259.5315 26:134.72301 27:32.904586 28:-477.05686 29:-246.96616 30:-132.95327 31:124.40513 32:-143.03872 33:493.8919 34:198.43431 35:176.53999 36:402.78296 37:-255.91972 38:230.86003 39:189.39125 40:-141.75938 41:-305.61195 42:-135.98136 43:-153.78769 44:-418.95005 45:-317.28664 
-0 -0 -0 -0 -0 -0 0 0 0 0 0 0 0 0 0 0 0 0 6.294244961067827e-09 0 0 0 0 0 0 0 0 0 0 0 0 0 0 0 0 0 0 1:-1976.1729 2:524.33883 3:572.09647 4:-309.27475 5:-68.535907 6:692.28883 7:519.30663 8:840.48841 9:343.93183 10:158.52616 11:-305.41709 12:526.56327 13:-114.19614 14:-60.860667 15:219.43533 16:84.992243 17:414.81802 18:-354.60582 19:-521.75617 20:413.4813 21:164.26867 22:-217.01299 23:532.63542 24:-343.57355 25:-162.32405 26:1038.5728 27:227.98524 28:155.7297 29:213.63711 30:-295.28982 31:125.84922 32:-413.69296 33:431.18283 34:-228.3417 35:-99.96141 36:426.56509 37:-25.353202 38:247.40754 39:221.40778 40:52.351893 41:-619.39959 42:34.417757 43:-11.647145 44:-241.06431 45:-132.81817 
-1.850053133018857e-07 -1.000853852928013e-07 -1.38951804456027e-07 -5.555022171020985e-07 -6.709976272573846e-08 -1.110317133709072e-07 1.630752424301371e-07 1.577313935136718e-07 5.695623747004422e-08 6.643811964574202e-08 8.469991702830799e-08 8.110283766475062e-08 9.757683685245588e-08 1.069751040496506e-07 1.742940968388769e-07 1.24626238367809e-07 2.662679387801733e-07 2.428561027681389e-07 9.825608640339301e-08 7.279390008212477e-08 1.376552420126764e-07 1.14689324338547e-07 1.121849866733804e-07 1.178159801446043e-07 1.20406866799107e-07 1.702127579474545e-07 7.820719475081458e-08 3.769695180770876e-07 2.008481402196239e-07 8.384652732401037e-08 1.383496256102677e-07 1.287469031229486e-07 2.908041747002339e-07 1.302943345427304e-07 1.458383292964596e-07 1.661156091027041e-07 2.059886122019693e-07 1:-1485.6741 2:320.89164 3:419.7107 4:-113.24603 5:-458.34442 6:245.95379 7:651.94478 8:275.69142 9:313.2316 10:107.84474 11:-241.03675 12:68.57023 13:-77.549002 14:26.032116 15:7.770591 16:-34.705105 17:292.9143 18:-307.0265 19:-227.41282 20:174.30523 21:283.01963 22:93.37517 23:353.55547 24:-330.01932 25:-56.07854 26:348.94133 27:36.132977 28:-120.91886 29:149.33927 30:-375.64033 31:179.19887 32:-30.575029 33:352.4632 34:-74.020806 35:-103.7583 36:349.73105 37:-13.52729 38:-12.822636 39:175.40946 40:-77.108337 41:-303.81427 42:23.99873 43:-129.10094 44:-168.98249 45:-140.5213 
-0 -0 -0 -3.223091468875246e-08 -0 -0 0 0 0 2.398956654228606e-08 0 0 0 1.839387613481321e-07 0 0 0 0 8.231538534635175e-09 0 0 0 0 0 0 0 0 0 6.283051845143524e-08 0 0 0 0 0 0 0 0 1:-1799.182 2:306.91299 3:197.06462 4:224.93528 5:-795.95865 6:707.61983 7:915.86739 8:1139.8712 9:532.64477 10:402.03647 11:-89.645124 12:325.8779 13:148.58577 14:-237.22823 15:131.43328 16:27.346224 17:287.56995 18:3.443862 19:-245.64758 20:-246.5452 21:150.83173 22:191.38258 23:99.516214 24:-348.2402 25:40.697077 26:749.54666 27:-16.246453 28:151.03186 29:715.23128 30:-496.30472 31:292.02304 32:-356.55394 33:568.76175 34:-203.61573 35:-140.11314 36:189.98367 37:195.39056 38:-135.85627 39:-36.745014 40:-115.22856 41:-459.6538 42:539.04581 43:-16.452072 44:72.287655 45:1.186509 
-0 -0 -0 -0 -0 -0 0 8.116966337977683e-09 0 5.268798949674999e-08 0 0 0 0 1.995052356979311e-08 0 0 0 0 0 8.384302241601416e-09 0 7.263454241875621e-10 0 3.675377630272827e-10 3.399459923067388e-09 0 2.027274713381777e-08 0 0 7.530815768977695e-09 0 0 0 0 0 0 1:-1700.5387 2:-60.943794 3:797.23637 4:-581.29835 5:-341.27241 6:23.815158 7:403.28852 8:-263.57727 9:110.72276 10:-127.48521 11:-728.45172 12:-105.66937 13:-21.917666 14:-141.79265 15:240.6517 16:137.19066 17:795.5835 18:-155.53768 19:-884.09312 20:762.47962 21:93.351883 22:-82.255976 23:694.12182 24:-23.992653 25:-234.31675 26:130.15375 27:77.466112 28:-414.4509 29:-362.46565 30:-55.700234 31:165.37438 32:-278.8555 33:379.86398 34:165.56381 35:163.66368 36:367.8454 37:-262.17595 38:318.15943 39:242.60812 40:-32.64365 41:-339.1889 42:-140.24373 43:-166.17869 44:-335.26894 45:-361.86513 
-0 -6.209662644375338e-08 -0 -0 -1.579812806012419e-08 -6.488632426414932e-08 -0 0 0 0 7.903200351436799e-09 0 8.482753027441207e-08 0 0 4.71858217244639e-08 0 0 0 1.460868790914243e-08 0 0 0 0 0 0 0 0 0 2.685306621055563e-08 1.774066428596291e-07 3.77315988635011e-08 0 8.321377313946881e-08 0 0 0 1:875.35966 2:-1556.9875 3:-968.16156 4:1468.6566 5:-451.58409 6:297.02233 7:-692.03735 8:-387.02012 9:-880.7797 10:-622.15786 11:167.16728 12:-53.261319 13:-115.41876 14:218.68876 15:51.209573 16:360.86062 17:475.38504 18:491.69149 19:47.96984 20:333.76714 21:165.86509 22:295.64938 23:-310.14169 24:-593.37642 25:-382.10244 26:-233.7079 27:61.592299 28:3.464121 29:324.93592 30:502.05174 31:7.325186 32:-143.70647 33:260.99176 34:-54.24752 35:-490.73545 36:379.39423 37:-173.70139 38:204.69423 39:341.13851 40:-208.83187 41:278.20685 42:-288.30226 43:-131.60589 44:-6.072068 45:127.48474 
-0 -0 -0 -0 -0 -0 -0 0 7.640149612552405e-08 0 0 0 0 0 0 0 0 0 0 0 0 0 0 0 0 0 0 0 0 0 0 0 0 0 0 0 0 1:-993.26256 2:-1414.8842 3:-266.37496 4:-127.70197 5:-170.36106 6:-239.00683 7:-831.22944 8:-908.68777 9:-219.46629 10:353.35247 11:590.10187 12:-372.06198 13:102.33535 14:224.49853 15:-43.075798 16:146.57123 17:550.72308 18:616.51068 19:36.168536 20:80.064066 21:15.401871 22:19.667365 23:451.58416 24:-249.66915 25:-224.8283 26:123.12463 27:-310.18291 28:534.40027 29:857.81784 30:260.71453 31:-344.72776 32:84.395308 33:143.78406 34:55.093282 35:-1182.7012 36:508.35341 37:-494.38117 38:121.58099 39:-245.41628 40:-228.09618 41:595.02337 42:227.21131 43:23.306121 44:270.43735 45:341.60315 
-0 -0 -0 -0 -0 -0 -0 0 3.766361674490152e-08 0 0 0 0 0 0 0 0 0 0 0 0 0 0 0 0 0 1.481760183584248e-08 0 0 0 0 0 0 3.899765577758352e-08 0 0 0 1:879.61648 2:-1594.1909 3:-970.56273 4:1420.2891 5:-425.71634 6:259.80253 7:-634.60219 8:-450.12038 9:-740.31028 10:-616.06966 11:50.164317 12:-25.982845 13:-148.44976 14:73.248275 15:10.697876 16:453.90315 17:566.27479 18:497.75849 19:22.738796 20:334.17783 21:46.714271 22:276.47726 23:-458.98229 24:-520.09117 25:-301.21803 26:-394.14659 27:185.3022 28:129.78807 29:447.40069 30:323.69429 31:61.166756 32:-240.19238 33:362.97593 34:-37.721407 35:-537.24461 36:257.53394 37:-261.34008 38:177.10472 39:312.80866 40:-227.41436 41:173.40298 42:-298.10783 43:-262.10662 44:168.55013 45:242.69097 
-9.321323986970967e-08 -7.622474348442151e-08 -1.624724178264186e-07 -1.182460268240781e-07 -4.190062040139272e-08 -1.034973054082158e-07 -9.815106906227318e-08 1.178441318011227e-07 9.864420967447241e-08 1.264651516643186e-07 1.204521267099444e-07 3.877669491661345e-08 5.952461964672592e-08 5.673207906197569e-08 1.380162470710544e-07 7.001750293069437e-08 1.376828330524372e-07 1.466281137419056e-07 4.187069968579043e-08 5.756210993927341e-08 1.761127808755766e-07 9.092678039792053e-08 1.198066606170453e-07 6.488371331546068e-08 5.101884410712498e-08 6.376230551343457e-08 9.772051532579941e-08 1.132972182104464e-07 8.428295616295868e-08 5.880117521232161e-08 1.528765360207843e-07 1.350891185692317e-07 1.912469049327014e-07 8.28845808524387e-08 1.173193794199523e-07 1.658680313423235e-07 8.172885376084042e-08 1:-79.608922 2:-1117.6168 3:-668.1567 4:629.82192 5:-527.66051 6:-132.11826 7:-327.60142 8:-628.27704 9:-80.551559 10:92.328694 11:333.05603 12:-321.83198 13:-133.45852 14:173.31979 15:-66.063123 16:465.28215 17:339.04751 18:449.45146 19:-0.217604 20:112.49462 21:-4.956866 22:90.755033 23:-28.799594 24:-180.40865 25:0.828247 26:-463.24742 27:58.430723 28:515.13588 29:592.20526 30:44.455039 31:13.767243 32:-274.5002 33:122.1021 34:8.269028 35:-944.52612 36:210.12666 37:-248.81208 38:101.08104 39:106.63437 40:-170.77073 41:274.8552 42:-168.89928 43:-265.23315 44:387.7648 45:440.56976 
-0 -0 -0 -0 -0 -0 -0 0 0 3.277229415540152e-09 0 0 0 0 0 0 0 0 0 0 2.93902280058505e-08 0 0 0 0 0 0 0 2.080781589998633e-08 0 0 0 0 0 0 0 0 1:-81.322419 2:-1623.7953 3:-1036.8667 4:1522.5243 5:-1130.0198 6:-122.9262 7:-291.01755 8:-357.12397 9:-336.40817 10:-362.51531 11:95.417331 12:-264.61044 13:75.517836 14:25.659442 15:133.70697 16:673.74413 17:936.50116 18:694.58539 19:112.49047 20:148.18729 21:-562.50303 22:276.4178 23:-580.31341 24:67.311327 25:144.19252 26:-902.60951 27:276.7785 28:221.04602 29:512.03352 30:-68.878785 31:163.28206 32:-623.32801 33:721.55958 34:-78.952547 35:-535.99736 36:-117.97767 37:-206.39648 38:83.043994 39:238.4211 40:-280.93438 41:58.667321 42:-199.2353 43:-263.72542 44:542.90578 45:393.50738 
-2.950897816535861e-08 -0 -0 -1.561904164162256e-08 -0 -0 -6.492417336786397e-08 4.349229320375876e-08 0 3.09077838040798e-08 0 0 0 2.214342278021772e-08 0 0 3.022007445219129e-08 5.383611653338237e-08 3.518423312460451e-08 0 2.222923100813088e-08 0 2.488208373109798e-08 5.720365819074308e-08 2.74184161888258e-08 4.245033500038317e-08 0 3.490397266784568e-08 0 0 0 0 0 0 0 0 5.355970198379089e-08 1:-976.54746 2:-1267.7027 3:-432.81939 4:60.213574 5:-199.2714 6:-159.29608 7:-656.62942 8:-750.46793 9:-267.15881 10:341.53243 11:688.44747 12:-400.5875 13:128.49588 14:261.4383 15:-91.578567 16:111.9382 17:589.75533 18:677.43726 19:97.540429 20:43.17419 21:-70.415256 22:131.79097 23:477.40385 24:-210.32971 25:-79.910316 26:165.28604 27:-422.9708 28:371.41438 29:728.09198 30:403.38319 31:-272.88242 32:155.58842 33:97.389496 34:116.42049 35:-1056.9944 36:545.23425 37:-377.88702 38:103.49727 39:-219.35623 40:-202.68873 41:590.02908 42:398.01783 43:121.03232 44:190.04953 45:253.4797 
-0 -0 -0 -2.641051545990087e-08 -2.729747076803592e-09 -0 -0 0 0 0 0 2.862680308278623e-08 0 1.846109480065549e-08 1.22825308337184e-09 3.621827767615101e-09 0 0 0 0 2.92919527308796e-09 0 0 0 0 0 0 0 3.920247418749681e-08 0 5.258873487467289e-09 0 3.381562742893327e-08 0 1.549271743114121e-08 0 0 1:-393.09767 2:-1323.7928 3:-861.44857 4:793.51813 5:-379.31121 6:100.82664 7:-426.01736 8:-453.40022 9:-712.18206 10:-43.248068 11:672.54185 12:-554.11193 13:111.47778 14:283.38249 15:90.692802 16:-36.008386 17:483.25791 18:698.98797 19:292.49579 20:57.510658 21:127.24234 22:285.80071 23:596.65624 24:-448.11482 25:96.184628 26:85.2245 27:-499.77227 28:-232.37204 29:505.30948 30:510.14306 31:-232.83018 32:383.99822 33:-61.077048 34:265.16095 35:-1029.1716 36:505.76003 37:-212.85168 38:22.739369 39:-63.593063 40:-218.64527 41:650.12452 42:437.66944 43:287.02106 44:36.35598 45:103.33565 
-0 -5.153983678718289e-08 -0 -0 -1.861304103183267e-08 -1.472178400416987e-08 -0 -0 0 0 0 0 8.974828135099405e-08 0 0 2.152377471595192e-08 0 0 1.75951768411395e-08 1.3833787691226e-08 0 1.11607559116165e-08 2.243172358052119e-09 4.839757689428161e-09 5.613321231016495e-09 0 7.23777421254711e-10 0 0 1.561972083616114e-08 1.201052224420631e-08 2.86908303080651e-08 0 2.010588264517037e-08 0 0 0 1:-580.95615 2:-237.64736 3:777.86169 4:1609.0015 5:-698.94198 6:-824.0621 7:-624.09993 8:-113.23648 9:-1106.9129 10:918.2159 11:124.23814 12:632.77079 13:19.010634 14:-870.62629 15:-718.89707 16:-817.10872 17:-625.07283 18:-216.6483 19:-193.29794 20:203.31739 21:-340.85189 22:-847.37898 23:41.702835 24:37.05594 25:-30.872338 26:662.2065 27:-331.73042 28:621.48209 29:-285.26172 30:-246.04504 31:-517.12613 32:-201.73281 33:391.73532 34:345.18656 35:-15.213483 36:359.76943 37:-55.027694 38:-55.080868 39:191.97748 40:-344.09639 41:-10.593324 42:-36.817103 43:-339.5406 44:34.402071 45:-104.75969 
-1.320010204565263e-07 -6.390863629901839e-08 -1.132950370073982e-07 -1.58295251889018e-07 -5.157944824738697e-08 -1.107811816361379e-07 -1.658483598516494e-07 -1.613364250048814e-07 1.033884347383982e-07 1.354986432911064e-07 7.903285185124791e-08 6.825789002453623e-08 3.125906532131921e-08 1.088302458411072e-07 1.021464918500285e-07 7.019958725952906e-08 1.201515685842374e-07 1.415159595302093e-07 6.058879513933873e-08 5.018143441091228e-08 1.308974300898366e-07 6.385822617035576e-08 7.927580565709541e-08 7.421371115059562e-08 9.205495477728646e-08 1.180549587225688e-07 7.443999694642011e-08 1.626218655471448e-07 1.416213846690703e-07 5.20633031768053e-08 1.13324240461798e-07 8.439325080155071e-08 1.875174288214264e-07 1.067827402018082e-07 1.182503997763109e-07 1.242880930275565e-07 1.095315527499064e-07 1:-995.43351 2:-129.72008 3:603.17556 4:1040.4882 5:-727.16531 6:-946.56344 7:79.879706 8:-819.50158 9:-748.86851 10:721.35521 11:311.20539 12:492.67392 13:-50.202517 14:-550.76241 15:-514.82367 16:-744.0394 17:-103.24348 18:-159.35196 19:-153.47412 20:-165.60893 21:-743.80628 22:-773.7689 23:10.875721 24:26.892193 25:243.97556 26:-184.33579 27:-204.55481 28:441.6373 29:-248.7792 30:-359.62272 31:-145.78612 32:-52.656358 33:101.24294 34:296.36987 35:-44.218887 36:-18.441794 37:-257.17567 38:-138.74233 39:-6.590364 40:-222.19929 41:62.581363 42:-46.102239 43:-336.29524 44:146.06384 45:0.123124 
-0 -0 -0 -0 -0 -0 -0 -0 0 0 0 0 0 0 0 0 0 0 1.887106460512699e-08 0 0 0 0 0 0 0 0 0 0 0 0 0 0 0 0 0 0 1:-1621.7236 2:-47.203954 3:1138.7771 4:1006.1438 5:-474.723 6:-995.49551 7:-616.14029 8:-1004.4082 9:-1421.0505 10:645.53561 11:236.73355 12:980.98651 13:7.9666 14:-623.46547 15:-397.16988 16:-1128.5462 17:-224.18187 18:-231.12718 19:-98.63726 20:435.04665 21:-445.53328 22:-1165.0075 23:-60.125676 24:107.7229 25:110.97491 26:123.57057 27:-250.56321 28:133.2681 29:-264.86195 30:-235.10688 31:-457.26799 32:-55.558364 33:-52.39873 34:223.03043 35:8.654727 36:-133.15061 37:214.09168 38:-177.19875 39:-93.804653 40:-408.06011 41:377.4128 42:-292.08163 43:-276.6432 44:-40.04412 45:-215.11665 
-0 -0 -0 -0 -0 -0 -0 -0 0 0 0 0 0 0 0 0 0 0 0 0 0 0 0 0 0 0 0 0 0 0 0 0 0 0 0 0 1.774043453888835e-09 1:-1837.7593 2:-150.38942 3:1200.8633 4:395.34554 5:-470.48597 6:-1129.6565 7:-387.93969 8:-1583.7601 9:-1261.7407 10:420.53007 11:398.4946 12:1019.7634 13:-205.5922 14:-358.07284 15:-450.61867 16:-1132.4308 17:331.73048 18:-133.69585 19:32.35226 20:409.80739 21:-375.39228 22:-1025.1192 23:-172.19559 24:245.10504 25:251.87154 26:-298.50496 27:-227.62086 28:-69.574647 29:-288.19087 30:-123.16036 31:-283.8127 32:65.662631 33:-215.18858 34:200.57156 35:152.51346 36:-362.16478 37:227.81563 38:-229.51169 39:-194.71395 40:-310.89174 41:414.35706 42:-471.8254 43:-295.27469 44:42.685488 45:-270.62144 
-0 -3.130797058454301e-09 -0 -0 -2.820691023456338e-08 -1.549146405960203e-08 -0 -0 -0 0 0 0 0 0 1.447713432003435e-08 2.117807291928895e-08 0 0 0 1.098278245923361e-08 0 1.111581202754904e-08 0 1.006017647675006e-08 0 0 0 0 0 4.825903771551117e-08 1.447252198555712e-08 5.654736854299429e-09 0 4.400534580979261e-09 0 0 0 1:1339.2758 2:-1527.3704 3:-920.00154 4:-1117.1247 5:-109.57035 6:894.00534 7:-364.13191 8:-911.02459 9:-978.18231 10:-849.70969 11:-376.08207 12:938.60524 13:-992.74679 14:-0.418835 15:-218.43709 16:-708.23998 17:349.69549 18:52.469508 19:110.10446 20:678.32505 21:428.47188 22:540.73127 23:344.13425 24:-7.998633 25:-234.27466 26:-544.99193 27:-173.5185 28:-266.74916 29:-1196.6899 30:-65.714029 31:644.01938 32:-203.17305 33:-108.00897 34:-28.075226 35:-600.33499 36:-51.434283 37:382.23344 38:-124.36417 39:-43.946274 40:-267.44869 41:-144.7289 42:413.97572 43:162.13441 44:224.44216 45:-300.7605 
-0 -0 -0 -0 -0 -0 -0 -0 -0 0 0 0 0 1.02596637101427e-08 1.787338038901088e-08 0 0 0 0 0 0 0 0 0 0 0 0 0 0 0 0 0 3.070005812576944e-10 0 0 0 0 1:237.66733 2:-1722.7963 3:-680.51529 4:-1211.4967 5:638.11624 6:727.26044 7:-179.22475 8:-1069.3975 9:-910.27508 10:-895.75345 11:-267.0267 12:814.29534 13:-340.7867 14:-191.35201 15:-272.40943 16:-753.9677 17:521.98164 18:-59.050806 19:647.3025 20:313.70202 21:222.01734 22:-20.707542 23:112.33562 24:152.21878 25:18.705026 26:-475.66889 27:197.74279 28:328.09171 29:-1192.2918 30:-475.20636 31:310.2801 32:187.8028 33:-155.02997 34:-33.065227 35:-338.51311 36:-151.59109 37:437.92582 38:-201.46448 39:-587.71597 40:-382.50547 41:-366.5943 42:368.74782 43:553.92355 44:178.7056 45:-421.04144 
-8.207715599917533e-08 -7.031516312801687e-08 -1.681712814640168e-07 -7.197769035237316e-08 -2.577097095247736e-08 -1.412641760071489e-07 -8.862117657505179e-08 -1.978005906319598e-07 -9.313043424972669e-08 4.676774813621706e-08 1.202351803073197e-07 3.532469754966232e-08 1.00005121519571e-07 6.664255181966822e-08 9.952309173410028e-08 6.156621846528021e-08 9.738103952492547e-08 1.037064125599583e-07 5.77780568063168e-08 5.652479615678243e-08 4.208029254567786e-08 7.486712437483419e-08 2.089641809814245e-07 8.757253776329224e-08 6.179481521290731e-08 6.838716329604949e-08 9.598015634476615e-08 9.251414035445004e-08 5.606560313668048e-08 3.93218633856887e-08 1.515530218164545e-07 8.14339098471685e-08 1.073066225947342e-07 1.047880005530657e-07 9.053375810496584e-08 1.562450820695224e-07 8.060745964002056e-08 1:159.0487 2:-1565.895 3:-872.1573 4:-874.85389 5:831.87225 6:212.07675 7:-464.65539 8:-1113.9974 9:-448.89006 10:-121.37162 11:-249.33238 12:124.16602 13:-365.32283 14:-187.09243 15:-548.98678 16:-235.88999 17:-51.357105 18:16.829732 19:-317.48899 20:184.07139 21:214.0327 22:280.43822 23:417.63341 24:-31.565115 25:250.81492 26:-300.30851 27:199.0188 28:254.43102 29:-524.08449 30:-442.00977 31:179.61243 32:-356.69557 33:-31.376375 34:-168.058 35:-570.6562 36:348.96893 37:64.245027 38:-41.532105 39:-251.38228 40:67.136856 41:2.131678 42:294.4033 43:195.9503 44:387.15206 45:197.61226 
-0 -2.217016607792375e-08 -0 -1.703353032694736e-08 -0 -0 -0 -9.930812685715676e-09 -8.162875052908788e-09 2.722616944113319e-08 0 6.571340245674055e-09 0 0 0 1.266898593705193e-08 0 0 0 0 3.283353471569574e-08 0 0 0 0 0 6.717561516172795e-09 0 1.696391590762777e-08 0 3.661830371708404e-08 0 3.094215090505679e-10 2.892985278857815e-09 0 0 8.631733444691353e-09 1:501.74234 2:-1875.9875 3:-1697.8921 4:-128.11358 5:-620.7123 6:964.64857 7:29.524583 8:-1202.7314 9:-475.62554 10:-456.83166 11:-893.00561 12:543.98888 13:-917.65745 14:-617.4242 15:-366.48257 16:-736.95121 17:117.07198 18:506.29008 19:-335.46821 20:240.86654 21:-202.64171 22:320.31662 23:191.94156 24:48.666725 25:174.3201 26:-1369.7465 27:356.73314 28:-84.574826 29:-458.32214 30:-422.37154 31:1111.8041 32:-228.24682 33:-102.17944 34:229.12919 35:-274.5416 36:-346.24307 37:251.13909 38:-294.32208 39:-373.4853 40:-586.9464 41:-230.99364 42:1002.3619 43:607.16812 44:927.63736 45:-124.52384 
-1.654263477452891e-08 -0 -0 -0 -0 -0 -5.384269574734515e-09 -0 -0 0 0 0 0 0 0 0 2.61249983567067e-08 1.210721052998461e-08 0 0 0 0 0 2.277542002372905e-08 0 1.957494417819205e-08 0 0 0 0 0 2.380918994907388e-09 0 0 0 0 2.258805838181635e-08 1:-141.86094 2:-1894.1337 3:-495.77492 4:-1364.476 5:698.70769 6:590.43224 7:-416.4151 8:-1117.8415 9:-853.57117 10:-797.47925 11:31.849373 12:541.39267 13:-66.284673 14:-276.51489 15:-290.53967 16:-376.49832 17:755.4419 18:125.8732 19:611.77254 20:358.95195 21:-90.887411 22:159.42701 23:228.59743 24:477.97612 25:-89.317166 26:44.650374 27:-21.957273 28:166.611 29:-1115.2976 30:-507.61921 31:158.13029 32:52.723266 33:-256.30426 34:-279.83788 35:-389.86861 36:-13.1029 37:238.57109 38:-86.60631 39:-509.72555 40:78.159112 41:-100.18093 42:348.66668 43:396.03072 44:65.769154 45:-402.16683 
-0 -0 -0 -0 -0 -0 -2.677273365146162e-08 -4.977919227222546e-09 -2.095125435762742e-09 3.710107003506145e-08 0 0 0 0 0 0 7.146776326615771e-09 5.053288537786465e-08 0 0 7.461202527732999e-08 0 0 4.114065211281504e-09 2.123841405078201e-09 0 0 2.141014993246599e-08 1.893159664704983e-08 0 0 0 2.088479024123082e-08 0 0 0 7.401370754044711e-09 1:-739.96677 2:-2088.2304 3:-49.747655 4:-1816.2082 5:182.00147 6:-553.92093 7:-1165.5586 8:-1382.5339 9:-227.89432 10:-506.03906 11:14.794822 12:63.710238 13:-42.239047 14:-187.15287 15:-400.52947 16:48.016149 17:675.63127 18:-11.075005 19:365.79973 20:573.04642 21:507.51463 22:856.68246 23:133.69754 24:563.06535 25:647.4484 26:609.94015 27:-194.75828 28:4.842371 29:-915.93867 30:-629.14201 31:-248.12601 32:-510.54611 33:142.56987 34:-718.40361 35:-301.19686 36:753.52468 37:161.82854 38:194.80198 39:-780.72511 40:734.06008 41:-97.698488 42:155.04542 43:-33.572896 44:201.264 45:-113.28369 
-0 -0 -0 -0 -0 -0 -0 -0 -0 0 0 0 0 0 0 0 0 0 0 0 0 0 0 2.303076959097011e-09 0 2.507701486078182e-10 0 0 0 0 0 0 0 0 0 0 0 1:-325.62716 2:-1951.8287 3:-217.75735 4:-1739.1565 5:69.775252 6:-446.46895 7:-1035.6546 8:-1339.2882 9:-274.21238 10:-517.49799 11:-6.53273 12:334.10343 13:-211.76209 14:-233.14708 15:-470.5997 16:-25.549735 17:630.40713 18:46.477512 19:309.23686 20:722.52314 21:526.34111 22:901.81643 23:248.29008 24:466.80134 25:446.32168 26:435.09303 27:-448.01989 28:-184.17799 29:-1058.8051 30:-439.51047 31:22.165294 32:-523.07468 33:24.681917 34:-723.41525 35:-469.86516 36:584.21778 37:259.6273 38:119.60093 39:-601.05049 40:559.77853 41:-106.97121 42:298.55194 43:-6.693164 44:285.29499 45:-303.30683 
-0 -0 -0 -9.838891816541141e-09 -0 -0 -2.389499858106076e-09 -0 -0 0 0 4.906978724481757e-09 0 0 0 0 0 0 0 0 0 0 0 0 0 0 0 0 0 0 1.953940843829218e-08 5.653323700678883e-09 1.541014000574781e-08 0 0 0 0 1:123.12807 2:-1946.6212 3:-587.9016 4:-1226.0083 5:-314.41303 6:-26.698834 7:-598.05075 8:-1218.4762 9:-408.69369 10:-347.03392 11:-254.64366 12:615.49628 13:-433.48302 14:-108.25402 15:-460.24926 16:-224.48064 17:427.94396 18:50.211218 19:220.49946 20:669.69072 21:687.54115 22:1003.0422 23:323.82184 24:259.34695 25:338.61773 26:236.88335 27:-589.61694 28:-405.70985 29:-1110.0526 30:-314.8521 31:129.73509 32:-581.42365 33:-64.559403 34:-646.06431 35:-588.03454 36:306.44618 37:308.66283 38:-30.379881 39:-380.33807 40:476.34548 41:-16.943547 42:346.15829 43:19.332843 44:222.41865 45:-458.39017 
-0 -1.694932777687586e-08 -0 -0 -0 -0 -0 -0 -0 -0 0 0 2.280315250952363e-09 6.752346988039801e-09 0 0 0 0 0 0 0 0 0 0 0 0 6.435539356523966e-09 0 0 0 4.745451469436071e-09 0 0 0 0 0 0 1:-128.03173 2:-1676.2541 3:265.00124 4:-180.5119 5:-2470.3896 6:-451.98031 7:-468.10311 8:1205.1576 9:-5.350664 10:597.34168 11:-559.26507 12:710.06959 13:342.45076 14:-458.14245 15:118.82845 16:156.21669 17:-988.7285 18:556.84975 19:-80.517654 20:-737.48762 21:742.08121 22:-841.97253 23:844.66816 24:344.12822 25:231.73638 26:291.27274 27:-608.78217 28:539.22407 29:424.41853 30:199.77828 31:198.97655 32:378.5849 33:336.80077 34:-461.06113 35:497.24428 36:19.409132 37:141.23588 38:67.014758 39:628.56261 40:760.92269 41:-222.59026 42:439.43685 43:46.03112 44:418.99641 45:-201.98999 
-8.614620998411487e-08 -5.803385163417079e-08 -9.121079039366415e-08 -8.98053004284652e-08 -5.284334166860907e-08 -1.092974817504529e-07 -1.142856600099632e-07 -1.606501648839386e-07 -1.094996717341411e-07 -9.161912331537859e-08 7.913112826457042e-08 4.354919587247164e-08 9.742472283848427e-08 6.975407515079146e-08 1.546047300494542e-07 6.45832262252181e-08 1.22493831364259e-07 1.520020327336948e-07 4.183055372982e-08 5.733853592128363e-08 1.670714071387482e-07 6.115044518251092e-08 7.704095078292468e-08 1.092825767330399e-07 5.708908354274291e-08 1.050241901616468e-07 9.773090884859778e-08 9.308162619774865e-08 7.291692509541329e-08 7.049100490910473e-08 1.407574068164452e-07 1.028139400820556e-07 2.155220244579576e-07 1.119211659738635e-07 9.01983554362401e-08 1.015614436626471e-07 7.270373193463273e-08 1:-576.53988 2:-1438.6066 3:142.41237 4:-339.22062 5:-1620.7804 6:-683.23152 7:-237.42279 8:505.98651 9:-185.10311 10:221.8246 11:29.557566 12:-54.004357 13:546.48422 14:-373.23577 15:364.47489 16:556.43076 17:-452.07026 18:334.27961 19:-330.45478 20:-676.8258 21:96.955341 22:-552.3351 23:944.88122 24:300.28095 25:36.365168 26:-611.75098 27:-73.567167 28:600.75979 29:-171.07568 30:74.18526 31:470.08648 32:191.66405 33:29.516492 34:-129.09303 35:377.11437 36:-21.555824 37:216.74891 38:85.307314 39:268.92343 40:483.06963 41:231.64223 42:20.745417 43:-59.205179 44:357.86552 45:137.35756 
-0 -0 -0 -0 -0 -0 -0 -0 -6.00032122003728e-09 -0 0 1.156592821327964e-08 0 0 0 0 0 0 0 0 1.61450770630426e-08 0 0 0 0 0 0 1.391021297114416e-08 0 0 0 0 0 0 0 0 0 1:-2050.5267 2:-1333.6943 3:217.27677 4:357.04957 5:-2958.1645 6:-1095.7643 7:-413.8591 8:1309.7122 9:-250.22781 10:112.15182 11:30.104958 12:-690.08818 13:1012.5695 14:-955.92669 15:554.42214 16:-190.21679 17:113.76905 18:803.3806 19:122.73296 20:-1558.4909 21:-647.4877 22:-511.24092 23:83.842375 24:1056.6032 25:-249.62672 26:-164.93424 27:-362.1319 28:636.60048 29:-240.83282 30:571.08509 31:514.91559 32:-965.53723 33:1053.0012 34:-277.49562 35:275.90748 36:-866.77971 37:150.70233 38:48.285504 39:-67.085949 40:-217.96036 41:89.950635 42:439.17926 43:186.92519 44:-439.42691 45:197.60226 
-0 -0 -0 -0 -0 -0 -0 -0 -0 -4.829646103662262e-09 0 0 0 0 0 0 0 0 0 0 0 0 0 0 0 0 0 0 0 0 0 0 0 0 0 0 0 1:-2556.49 2:-1602.4757 3:855.55011 4:-884.99172 5:-1787.3748 6:-1195.7339 7:-1526.9554 8:-279.64937 9:51.19348 10:-344.23982 11:-379.65035 12:172.69655 13:822.68193 14:-703.89293 15:409.58986 16:613.48583 17:-597.21088 18:481.30634 19:0.922726 20:-797.89471 21:629.4671 22:-947.0382 23:-62.225179 24:1029.1825 25:482.1449 26:-559.82988 27:28.400182 28:-460.00867 29:75.605671 30:344.49142 31:535.96096 32:353.15211 33:-50.844106 34:-818.23153 35:-120.36922 36:-178.47115 37:-32.551492 38:237.33284 39:-250.05402 40:-136.41108 41:304.21577 42:62.390131 43:518.49771 44:-835.84811 45:-99.920457 
-5.64692673789223e-10 -0 -0 -3.296538700822672e-08 -0 -0 -2.883001567481486e-08 -0 -1.999865033692806e-08 -0 0 5.001052191800026e-09 0 9.19447745835889e-09 0 9.141451842474589e-09 1.432842736539668e-08 0 1.40790300249702e-08 0 0 7.811629295025687e-09 3.568246358001617e-10 0 1.239735192058753e-08 0 0 1.818170132946196e-08 4.590425601120465e-08 0 0 2.377355973317042e-09 0 0 0 0 3.207599880765534e-08 1:-2437.0548 2:-1219.8094 3:665.00551 4:-422.6508 5:-1967.376 6:-1190.7818 7:-1439.2543 8:-32.783113 9:44.060792 10:-295.05152 11:-497.04088 12:325.35646 13:692.17129 14:-702.89158 15:127.89126 16:449.99688 17:-968.73804 18:435.06871 19:-13.578722 20:-698.89146 21:786.3005 22:-949.70827 23:-132.18205 24:855.05799 25:474.24866 26:-274.55257 27:-65.262795 28:-431.649 29:33.110543 30:342.85854 31:604.9847 32:231.47855 33:69.01488 34:-824.34152 35:-177.95486 36:-204.58042 37:-50.254236 38:238.09178 39:-50.836138 40:-94.909371 41:217.10006 42:258.7544 43:509.24498 44:-781.04937 45:-198.35149 
-0 -0 -0 -0 -0 -0 -0 -0 -0 -1.464621819337085e-08 0 0 0 0 0 0 0 0 0 0 0 0 0 0 0 0 0 0 0 0 0 0 0 0 0 0 0 1:-920.80023 2:-1938.3781 3:388.27981 4:-1069.8787 5:-1512.2625 6:-988.5521 7:-962.48766 8:114.07538 9:-328.6582 10:-34.818698 11:-110.25841 12:17.549327 13:808.80265 14:-835.70457 15:449.27543 16:1193.9597 17:-830.38392 18:408.68941 19:-638.20042 20:-407.08798 21:993.72785 22:-158.01201 23:741.85467 24:869.24028 25:140.72153 26:-940.18274 27:-7.581276 28:-137.04245 29:50.732236 30:276.23271 31:399.73853 32:715.55316 33:-431.8925 34:-305.70606 35:418.97779 36:68.488937 37:263.0635 38:54.104648 39:127.25947 40:445.22108 41:419.76015 42:17.577039 43:217.80256 44:200.1803 45:-365.25764 
-0 -0 -0 -0 -9.79799555383012e-10 -0 -0 -0 -0 -0 0 0 0 0 0 0 0 0 0 0 0 0 0 0 0 0 0 0 0 0 0 0 0 0 0 0 0 1:-591.58285 2:-1724.4005 3:350.45179 4:-639.6585 5:-1984.6936 6:-744.24244 7:-761.0762 8:278.28368 9:-113.5758 10:424.90523 11:-484.13356 12:587.20944 13:558.37014 14:-603.63824 15:121.65203 16:858.67607 17:-1366.417 18:447.03308 19:-401.82689 20:-459.01616 21:1243.783 22:-443.46583 23:803.53942 24:541.55366 25:493.02859 26:-357.88803 27:-453.57128 28:-237.50926 29:320.74757 30:252.03319 31:367.65807 32:900.34564 33:-440.42293 34:-584.50292 35:405.55146 36:188.14823 37:124.43109 38:35.692959 39:513.44493 40:697.91239 41:269.67455 42:452.24271 43:232.5574 44:337.70548 45:-610.81781 
-0 -0 -0 -0 -0 -0 -0 -0 -0 -0 -0 0 0 0 0 0 0 0 0 3.424575455195701e-10 0 0 0 0 0 0 0 0 0 0 0 0 0 0 0 0 0 1:983.16745 2:492.21265 3:-1911.65 4:-446.00736 5:914.95677 6:-1088.2051 7:-900.65485 8:-430.56698 9:931.11625 10:980.07168 11:-68.504605 12:-93.419352 13:181.85537 14:203.7096 15:213.27639 16:-599.74191 17:-642.78032 18:119.95113 19:-317.12583 20:-541.4707 21:-67.708913 22:387.57462 23:1235.3161 24:-1094.9959 25:-0.370719 26:-430.83363 27:326.08462 28:119.00754 29:-112.59808 30:251.20177 31:-458.41008 32:-563.52346 33:-195.87182 34:-417.0238 35:-181.3663 36:-140.87781 37:434.16549 38:-0.666007 39:-181.40662 40:-123.2967 41:-383.70222 42:109.36815 43:-90.974229 44:-555.2686 45:89.253687 
-4.909245867822219e-08 -1.001071896147672e-07 -9.090560907715143e-08 -4.307169724491615e-08 -3.713642635400849e-08 -1.010307165068023e-07 -3.680275968275598e-08 -1.230405377875498e-07 -5.992861789676207e-08 -7.458099675634327e-08 -5.771690556530243e-08 2.934290686222158e-08 8.233262619902699e-08 1.190887416816637e-08 5.695710036639178e-08 6.129091323119307e-08 5.809170681975442e-08 5.260961312873327e-08 2.790867818170069e-08 9.668637527160312e-08 5.819563393107724e-08 5.962474804583009e-08 8.4037658253369e-08 6.736888290828793e-08 3.834506046493395e-08 3.814968121145548e-08 6.856596502305289e-08 6.737021805199407e-08 5.232515954458694e-08 7.450409305121182e-08 1.124022411245455e-07 1.009829882251404e-07 6.004124697377423e-08 1.434993681939414e-07 1.006078921878906e-07 1.032476038514015e-07 3.645977619674256e-08 1:1375.5829 2:148.32049 3:-1813.2001 4:318.97889 5:581.08824 6:-1231.2216 7:-805.8137 8:-677.55284 9:965.19299 10:739.63229 11:-104.86455 12:-253.92517 13:344.98977 14:705.99997 15:-148.00562 16:102.57181 17:-102.8628 18:407.22914 19:-306.42936 20:-262.71536 21:10.107288 22:-32.917006 23:579.08718 24:-638.50341 25:526.61291 26:-263.17916 27:493.68029 28:276.94715 29:-315.46527 30:215.63956 31:-227.01614 32:-254.55405 33:-218.75764 34:-378.59185 35:-96.385801 36:-307.90835 37:-11.79075 38:-3.383845 39:123.12473 40:136.95427 41:-607.87838 42:-43.861058 43:-211.007 44:-170.73378 45:-217.02776 
-0 -0 -0 -0 -6.983982416161166e-09 -0 -0 -0 -0 -0 -0 0 0 0 0 0 0 0 0 0 0 0 1.026217038044479e-09 0 0 0 0 0 0 0 9.042417416438866e-10 0 0 8.733091755334082e-09 0 0 0 1:2363.9021 2:-256.58462 3:-1877.966 4:1327.4392 5:674.60308 6:-929.69529 7:-1150.0574 8:-1610.0593 9:1001.6873 10:554.00712 11:-349.16911 12:-320.62021 13:876.03739 14:838.09591 15:-282.09314 16:831.09269 17:618.63333 18:771.80699 19:-713.68661 20:-102.4944 21:-266.33058 22:-693.50063 23:323.34499 24:-145.66712 25:1181.0622 26:-168.8144 27:271.70173 28:-5.950888 29:-385.83795 30:453.93415 31:-31.089475 32:-333.1104 33:-328.85361 34:34.801436 35:144.02808 36:-662.99757 37:-616.11001 38:100.8889 39:286.13517 40:41.257094 41:-648.86383 42:41.652031 43:-207.90366 44:217.99557 45:-359.29141 
-0 -0 -0 -0 -0 -0 -0 -0 -0 -0 -0 0 0 0 0 0 0 0 0 3.216751237550768e-09 0 6.63758870894787e-10 0 0 0 0 0 0 0 0 0 0 0 0 0 0 0 1:1495.302 2:510.66268 3:-2254.0359 4:-207.62261 5:1641.7323 6:-738.95514 7:-1114.702 8:-505.05316 9:865.19111 10:620.26389 11:-231.16255 12:-389.69567 13:652.96298 14:362.31247 15:391.16893 16:-541.18727 17:-339.33829 18:165.88878 19:-369.08794 20:-887.58824 21:-15.014398 22:-7.897683 23:1316.1025 24:-812.47792 25:112.38235 26:-278.10793 27:-23.620338 28:-101.01608 29:-150.18178 30:333.61587 31:-577.78238 32:-590.74689 33:-152.4178 34:2.092889 35:104.72933 36:-397.54839 37:346.98613 38:-68.147828 39:-56.483692 40:-371.77434 41:-319.31524 42:89.080792 43:-142.06391 44:-633.02112 45:94.996435 
-3.533041490172333e-08 -0 -4.434915863979208e-08 -4.554599705103783e-08 -1.168986386382079e-08 -0 -4.789715734555201e-08 -5.314789273831384e-09 -1.910423395448583e-08 -4.565418355097641e-08 -2.141422269926797e-08 3.581717449149323e-08 0 5.269928961318057e-08 2.376632425150162e-08 2.805715775239776e-08 2.41090580604013e-08 5.841124280544502e-08 2.96918338537663e-08 1.413228195271741e-08 2.884692418256752e-08 3.703129839313331e-08 3.962397574463333e-08 2.82421213317925e-08 3.051137120472618e-08 4.446347423687831e-08 0 2.054077204937142e-08 3.525240784699712e-08 1.065831318125911e-08 2.936784090493687e-09 8.342643096920355e-11 4.487221965979645e-08 0 4.149278011449083e-09 4.62846126995523e-08 3.170221422374398e-08 1:887.29941 2:482.51196 3:-1902.067 4:-245.73502 5:749.89649 6:-991.38558 7:-721.5416 8:-315.16519 9:894.62604 10:960.89917 11:6.505937 12:-183.10154 13:153.07919 14:262.8037 15:270.43381 16:-754.4134 17:-646.06225 18:124.88067 19:-185.50889 20:-766.76414 21:-5.017344 22:568.28789 23:1221.1121 24:-1093.2405 25:11.016777 26:-441.77903 27:295.44464 28:77.296787 29:-85.435461 30:208.73352 31:-424.79319 32:-504.38847 33:-127.2795 34:-386.88041 35:-193.10901 36:-35.763484 37:478.15226 38:-99.286297 39:-227.96744 40:-229.65702 41:-322.15529 42:224.74219 43:-16.544027 44:-433.51591 45:95.276326 
-0 -2.000504209178441e-08 -0 -0 -0 -0 -0 -0 -0 -0 -0 0 1.164735447320127e-08 0 0 0 0 0 0 0 0 0 0 0 0 0 9.236332562191195e-09 0 0 0 1.246757724860579e-08 0 0 0 0 0 0 1:1657.3803 2:-157.65631 3:-1944.1434 4:410.55744 5:852.01917 6:-996.71049 7:-861.75571 8:-456.72508 9:654.15615 10:714.0218 11:-109.32781 12:-391.4809 13:655.35115 14:1042.1151 15:388.30258 16:-792.18546 17:-192.42653 18:165.58699 19:168.51345 20:-1257.6507 21:513.47796 22:538.17728 23:1138.2722 24:-1096.6418 25:199.5725 26:-369.07422 27:252.92403 28:-119.94716 29:-292.1825 30:-4.051483 31:-638.05318 32:-15.003086 33:15.208372 34:-116.91407 35:-103.70719 36:-148.29869 37:265.9282 38:-470.99235 39:-135.20852 40:-525.75679 41:-292.58874 42:172.19959 43:124.68398 44:-86.282657 45:41.130207 
-0 -0 -0 -0 -3.45485136875958e-09 -0 -0 -0 -0 -0 -0 -0 0 0 0 0 0 0 0 0 0 0 0 0 0 0 0 0 0 4.133731798136794e-09 0 0 0 0 0 0 0 1:1094.31 2:4641.7826 3:-2824.5298 4:426.92489 5:-3448.0633 6:74.705324 7:1231.6633 8:581.18391 9:-186.77764 10:635.4787 11:30.874876 12:360.16967 13:-555.6472 14:1294.5968 15:448.43096 16:320.56062 17:-631.6056 18:-232.91302 19:297.67491 20:431.7323 21:-89.716366 22:319.34565 23:1292.9005 24:-708.59657 25:530.30214 26:-495.99712 27:-836.00972 28:230.99331 29:397.64856 30:315.78727 31:621.18609 32:555.74086 33:508.60261 34:291.70011 35:-693.73405 36:141.49226 37:701.22515 38:256.59528 39:-580.05728 40:713.85778 41:216.97233 42:98.857179 43:-288.20484 44:-83.370001 45:-5.384753 
-0 -0 -0 -0 -0 -0 -0 -0 -0 -0 -9.941419801622061e-09 -0 0 0 0 0 0 0 0 0 7.076349500428009e-09 0 0 0 0 0 0 0 0 0 0 0 0 0 0 0 0 1:-2731.2932 2:2109.6064 3:-2428.7335 4:250.31823 5:-1474.7765 6:-1876.2394 7:-455.32639 8:328.08841 9:-1679.4869 10:174.92005 11:-681.87545 12:-671.21801 13:573.89747 14:-128.11122 15:-1128.4235 16:1540.3586 17:-63.595266 18:-320.06639 19:677.91316 20:192.0351 21:-225.00174 22:-247.55181 23:-116.66016 24:-888.21936 25:656.15279 26:421.53743 27:-30.970005 28:754.83938 29:-180.47221 30:205.99089 31:-158.71765 32:8.820229 33:386.91123 34:1268.5356 35:-14.131356 36:-53.661786 37:522.56066 38:40.224818 39:-231.46621 40:148.54738 41:-191.74128 42:-181.87796 43:94.110296 44:-377.31989 45:-325.60721 
-4.62097606666565e-08 -3.962374433109314e-08 -4.703418294086966e-08 -5.123843661469369e-08 -2.476539549725919e-08 -3.027231470506536e-08 -3.747920991580615e-08 -4.635086609315175e-08 -3.093881840486185e-08 -2.965559412030076e-08 -2.467392711098649e-08 -4.610647215687295e-08 3.834245670510406e-08 4.184363740497463e-08 4.388539327357578e-08 6.404167082072579e-08 3.149366414678227e-08 2.278077489660375e-08 2.851193827520011e-08 3.254050910005121e-08 2.756349127018868e-08 4.253331484114673e-08 3.192463896117522e-08 2.652422532480995e-08 2.76293006902259e-08 2.061548887440123e-08 2.394214491666506e-08 3.746899587619162e-08 4.259980397924691e-08 2.970495701428701e-08 3.901880330539423e-08 3.319082610515219e-08 6.445784704540643e-08 3.949701737070768e-08 3.838887138485173e-08 5.16285756367776e-08 3.06884660430637e-08 1:-1126.7298 2:2300.0227 3:-2632.4119 4:325.15429 5:-2036.594 6:-283.89101 7:451.5165 8:531.88404 9:-1054.296 10:630.51071 11:67.431523 12:-735.24807 13:90.950944 14:1118.3729 15:98.948414 16:-93.262585 17:92.521336 18:-785.75344 19:784.9681 20:41.99526 21:170.15793 22:-97.142038 23:651.7308 24:-463.63605 25:292.80971 26:-213.16665 27:-156.72155 28:122.5554 29:-633.79207 30:744.28412 31:-294.53777 32:239.38086 33:223.74626 34:453.55017 35:-210.2216 36:162.92074 37:1174.0474 38:-13.391338 39:247.96573 40:-10.452378 41:812.18466 42:-527.17975 43:-164.09995 44:-533.17712 45:-220.62558 
-0 -0 -2.652600172228273e-09 -1.629722650606451e-08 -0 -0 -9.356674894728368e-09 -0 -3.28909853403472e-09 -0 -6.890664932732301e-09 -0 0 0 0 0 2.421771217398217e-09 2.263043239366408e-08 0 0 1.452247464696371e-08 0 0 1.022007469930878e-08 0 9.955808327196752e-09 0 4.813862161574544e-09 5.595537883969993e-09 0 0 0 1.290903639136833e-08 4.470601607567339e-10 2.464808506377473e-09 0 6.089787750219495e-09 1:-512.93927 2:2874.407 3:-3351.6444 4:-1176.4362 5:-3818.7188 6:935.13321 7:678.37206 8:304.9329 9:581.81403 10:1193.4789 11:930.0339 12:-1390.4034 13:-348.83929 14:3197.7025 15:1973.7906 16:-2661.2902 17:426.08097 18:-108.83512 19:64.146893 20:362.54963 21:-787.98447 22:-183.01137 23:826.54272 24:1068.3068 25:-1071.6511 26:103.48209 27:-263.25368 28:-899.80879 29:-254.14069 30:-208.93667 31:-536.7534 32:29.51607 33:79.647546 34:-1382.9308 35:426.10654 36:447.02395 37:584.35351 38:-800.40003 39:593.01873 40:-721.31583 41:1326.6687 42:-103.40568 43:-531.6709 44:227.67858 45:-409.10361 
-0 -0 -0 -0 -0 -0 -0 -0 -0 -0 -2.808435269697974e-09 -0 0 0 5.536899979151635e-09 0 0 0 0 0 0 0 0 0 0 0 0 0 0 0 0 0 0 0 0 0 0 1:-2634.9334 2:2952.4785 3:-3264.5926 4:-736.15989 5:-3156.4853 6:-810.41036 7:-447.87045 8:-1121.2073 9:-32.061644 10:1084.6114 11:-844.73153 12:-406.60965 13:665.01455 14:681.48717 15:-193.22783 16:1314.8432 17:-879.72394 18:607.01998 19:-1250.0684 20:956.6665 21:-143.14122 22:-427.24852 23:-896.0999 24:82.660861 25:-674.41363 26:353.50544 27:503.94101 28:-19.54792 29:64.239291 30:-642.27698 31:-940.95833 32:-732.79753 33:-372.47159 34:-512.50593 35:470.53535 36:54.916877 37:-1415.7612 38:-235.55911 39:565.97473 40:-600.29495 41:299.52308 42:363.31308 43:348.61445 44:484.26263 45:-205.40195 
-8.221218803431125e-09 -2.661751615510763e-09 -8.696905131530619e-09 -8.201371924575188e-09 -1.017603471327658e-09 -2.407142979548191e-09 -5.262525661195496e-09 -5.832845980150706e-09 -4.979660477215278e-09 -5.93603230423481e-09 -0 -1.164208152718656e-08 0 4.224334548164931e-09 1.306649680405388e-09 1.133359486383979e-08 3.58967405353604e-09 0 3.412801398583362e-09 8.243871116980055e-09 0 1.190818314115364e-08 1.101378346546066e-08 0 9.594592507378689e-09 0 4.168428358272574e-09 8.435106928268098e-09 8.810221456877186e-09 7.291561081695108e-09 7.507236154188837e-09 6.575868767043507e-09 1.411448991418524e-09 6.727393958929889e-09 2.347553399335423e-09 1.103474742921304e-08 5.371203490892675e-09 1:-1763.5618 2:3684.0031 3:-3220.9338 4:-644.72115 5:-3175.7984 6:-515.57581 7:-67.253645 8:-1691.3613 9:786.52969 10:1371.5216 11:-566.9301 12:9.133814 13:210.85177 14:923.34767 15:15.247219 16:1169.3551 17:-1038.8572 18:723.12202 19:-1229.673 20:965.68947 21:-377.8396 22:-388.83487 23:-853.49827 24:166.05686 25:-469.43233 26:203.07992 27:245.22336 28:-79.857687 29:171.94226 30:-763.68813 31:-561.04576 32:-681.48476 33:-295.48985 34:-867.16 35:431.20547 36:-31.812592 37:-1589.6364 38:-144.82472 39:537.0879 40:-565.43644 41:189.15572 42:256.65869 43:308.6157 44:622.80885 45:-131.40284 
-1.449098806053672e-08 -0 -1.770428019828184e-08 -2.080174431572018e-08 -0 -1.052593323144284e-08 -2.900442719302059e-08 -1.521978592609721e-08 -2.905031260842436e-08 -1.121139009528256e-08 -1.580172916251249e-08 -4.607684002893781e-09 1.323299686764541e-08 8.791122730595148e-09 7.156301918715908e-09 6.275205513747183e-09 1.894336443281836e-08 2.883542771082902e-08 1.783817644818709e-08 1.036614641886613e-08 2.234731114777837e-08 0 1.398088107109001e-08 1.65095272766351e-08 1.166072231807124e-08 2.413542639899125e-08 3.988759110131864e-09 2.058909923809746e-08 2.900430529870347e-08 0 6.988246191732671e-09 8.276387201022526e-09 2.933795169355472e-08 1.009949719345604e-08 3.943385762911321e-09 8.90074523087438e-09 1.809582150943437e-08 1:-2845.8107 2:2309.0261 3:-2457.1072 4:497.0349 5:-1337.165 6:-2010.2726 7:-395.44163 8:145.83775 9:-1387.2003 10:116.36906 11:-754.64499 12:-442.87848 13:423.6803 14:-439.68392 15:-1468.191 16:2028.1362 17:-126.07639 18:-138.73756 19:490.04035 20:238.27729 21:-443.20237 22:-269.62763 23:-308.89808 24:-923.28564 25:894.93027 26:397.47603 27:-143.80178 28:731.19674 29:-73.725373 30:84.17081 31:86.026566 32:-7.352645 33:394.14781 34:1341.9686 35:6.368357 36:-271.32324 37:34.785532 38:53.792259 39:-455.75159 40:215.41039 41:-560.98266 42:105.14781 43:71.001732 44:-36.888218 45:-378.06187 
-0 -0 -0 -0 -1.354829772666963e-08 -0 -0 -0 -0 -0 -0 -0 0 9.249848270324114e-09 0 0 0 9.239872892974856e-09 0 1.298538008485443e-08 0 0 0 0 3.896034726392745e-10 5.657810428848783e-09 0 0 0 1.137892208167851e-08 0 0 0 0 0 6.331397121827187e-09 0 1:-55.373136 2:4483.8376 3:-2778.7324 4:507.14815 5:-2762.7339 6:-485.50163 7:1062.7069 8:-148.56231 9:-94.657842 10:542.27056 11:-441.47192 12:649.42941 13:-579.78988 14:196.63043 15:-521.74803 16:1776.8717 17:-572.44026 18:453.11028 19:-146.00125 20:360.37898 21:-873.97426 22:666.2129 23:546.75478 24:-773.02247 25:1128.0435 26:-211.79291 27:-852.37992 28:105.28417 29:381.46541 30:306.48282 31:736.78556 32:538.48407 33:204.73116 34:845.53488 35:-424.57971 36:-464.49901 37:-462.78863 38:334.31357 39:-989.86932 40:588.24261 41:-623.41203 42:108.16368 43:229.83979 44:518.75617 45:-353.97676 
-0 -1.273542280888291e-08 -0 -1.094368181171804e-08 -0 -4.073822725876916e-09 -0 -0 -0 -0 -0 -2.803843666761513e-09 0 0 0 1.079062234856588e-08 0 0 0 0 0 1.611105524730283e-08 0 0 0 0 4.532132273416599e-10 0 0 0 4.017049933322047e-10 6.045431213218342e-09 0 4.236725098184934e-09 1.293117897607612e-08 0 0 1:-1213.6506 2:3674.9293 3:-2854.8747 4:822.40421 5:-2228.1423 6:-1170.7092 7:480.88317 8:-198.75971 9:-378.04003 10:394.34488 11:-624.52907 12:447.88751 13:-300.78127 14:-196.96993 15:-1250.1624 16:2183.6374 17:-439.84697 18:330.62524 19:65.41254 20:339.60524 21:-726.7929 22:257.40272 23:-68.17659 24:-910.5731 25:1195.2969 26:-137.1792 27:-775.54033 28:264.81553 29:344.46196 30:85.380764 31:509.23945 32:316.27031 33:207.89865 34:1146.8331 35:-152.48857 36:-655.49944 37:-554.84125 38:166.76999 39:-853.06835 40:458.28256 41:-890.27397 42:246.79683 43:182.44596 44:550.76053 45:-442.2929 
-0 -0 -0 -0 -0 -0 -0 -0 -0 -1.86630703525616e-08 -0 -0 -0 0 0 0 0 0 2.878908987430622e-08 0 0 0 0 0 0 0 0 0 0 0 0 0 0 0 0 0 1.540701527074689e-08 1:-382.44193 2:-878.27744 3:148.50027 4:979.34744 5:1010.7414 6:-74.638561 7:-1735.8714 8:1664.5393 9:-431.89432 10:629.35999 11:-349.37506 12:73.29138 13:102.55906 14:749.9073 15:-494.51495 16:-660.17377 17:-335.18401 18:-1248.6695 19:-441.5086 20:327.50053 21:54.819491 22:67.75488 23:446.85232 24:203.15517 25:636.62048 26:-62.506505 27:-452.93786 28:741.88598 29:146.56155 30:-130.33477 31:-81.222541 32:352.7476 33:-241.39241 34:-427.26512 35:586.28697 36:-9.669289 37:-289.72479 38:57.780704 39:-118.60402 40:64.231716 41:173.14079 42:-241.90178 43:7.133557 44:120.66976 45:103.01006 
-7.393011184454285e-08 -1.208351658026265e-07 -8.82399132875474e-08 -8.316726174808413e-08 -5.162377732656145e-08 -1.262402261006596e-07 -8.096811899293238e-08 -1.185648555252754e-07 -6.870824993319555e-08 -8.134205116700939e-08 -4.386971479313063e-08 -9.397998067222829e-08 -3.484251164718924e-08 6.204642787279377e-08 7.784397463801428e-08 8.989936896608147e-08 8.457702751700523e-08 5.041522288830981e-08 4.894751739396423e-08 6.288467720179647e-08 6.023351584090416e-08 6.188628065003462e-08 9.415244527225675e-08 5.108916958433159e-08 3.651130790481489e-08 3.521633922945516e-08 7.773738438039611e-08 9.276816102893891e-08 1.040523506446757e-07 4.942982970126773e-08 1.422025977461581e-07 1.228833186601927e-07 1.008010677615352e-07 1.404244864916184e-07 9.504038054942689e-08 1.052987832132385e-07 5.251613411543642e-08 1:257.5415 2:-893.43336 3:-105.77664 4:1665.8459 5:597.84125 6:-161.11345 7:-927.72335 8:1415.4577 9:-336.49207 10:24.146361 11:-78.785537 12:-126.63722 13:97.139242 14:731.77378 15:-530.41385 16:-328.01532 17:-444.58467 18:-1165.5799 19:-475.83288 20:650.92439 21:479.2003 22:75.395771 23:173.50519 24:-84.355029 25:479.72503 26:-112.25077 27:-69.93434 28:256.99302 29:317.70116 30:-88.705731 31:83.390197 32:48.698061 33:-231.54728 34:-481.36643 35:62.221941 36:-120.39026 37:-213.1165 38:-0.158084 39:43.282756 40:249.39569 41:86.477045 42:-334.92602 43:-126.72885 44:211.56951 45:112.40025 
-0 -0 -0 -0 -0 -0 -0 -2.578729439586262e-08 -0 -0 -5.01391389860735e-09 -0 -0 0 0 0 0 0 0 0 0 0 0 0 0 0 1.358334281026886e-09 0 0 0 0 0 0 0 0 0 0 1:988.23821 2:-1907.3423 3:-318.9302 4:2487.1722 5:7.334996 6:-357.15252 7:-697.43916 8:1840.9939 9:-602.15396 10:-622.35916 11:-75.290215 12:-645.91662 13:678.22698 14:599.51132 15:-507.89184 16:-532.3051 17:105.95724 18:-890.7251 19:-261.88069 20:1190.2542 21:796.71106 22:276.3313 23:134.55481 24:331.71133 25:122.88917 26:-749.01156 27:122.79138 28:-428.16189 29:653.25985 30:-51.350115 31:421.34625 32:-508.65139 33:112.37914 34:-532.21045 35:-165.4561 36:-471.70932 37:-151.75635 38:-172.66018 39:253.75298 40:873.84414 41:-117.54721 42:-214.91836 43:-241.6032 44:507.74909 45:-69.627897 
-7.544309121888508e-09 -0 -0 -1.963940878165386e-08 -3.685993871908698e-09 -0 -3.196204257247894e-08 -0 -5.229909673911771e-08 -0 -5.082140939769865e-08 -0 -1.673294192556023e-08 2.327717865731361e-08 2.60675009547446e-08 0 2.462916189444792e-08 3.93023722553527e-08 3.881498249616334e-09 8.245253734138409e-09 3.901479565818073e-08 1.641276986379237e-08 9.599218007693728e-10 3.958896091418516e-08 3.517753684742317e-08 5.701632998123014e-08 0 1.785349531555176e-08 1.35549508522184e-08 1.523888311899555e-08 4.33741407641577e-10 0 2.97227967784784e-08 0 1.207744665958812e-08 3.294847721754343e-09 3.213137078524422e-08 1:-312.97429 2:-904.98942 3:259.96914 4:1292.2232 5:449.71853 6:-36.549203 7:-1233.2197 8:1971.3202 9:-401.39324 10:489.58221 11:-148.72076 12:-396.94996 13:361.15435 14:467.78297 15:-349.12131 16:-677.79276 17:113.50548 18:-1033.351 19:-314.15724 20:79.876966 21:-771.96137 22:335.05254 23:245.65611 24:510.21185 25:860.55042 26:-205.86869 27:-591.08667 28:861.57292 29:-4.927348 30:247.64408 31:224.37953 32:428.78584 33:-182.67194 34:-82.001506 35:511.86411 36:-23.464777 37:-444.10646 38:39.853285 39:-281.25603 40:-331.22823 41:58.74389 42:127.63795 43:204.62759 44:164.2017 45:-62.727054 
-0 -0 -0 -0 -0 -0 -0 -0 -0 -0 -0 -0 -0 -9.003557117488572e-10 0 0 0 0 0 0 0 1.467284977452872e-08 0 0 0 0 0 0 0 0 0 5.926058863495355e-11 0 0 0 0 0 1:-1699.1178 2:1167.9892 3:1007.398 4:601.31337 5:780.52156 6:1074.4266 7:914.54529 8:1724.8523 9:247.08166 10:-1278.181 11:409.29171 12:1105.6017 13:72.249219 14:-289.68003 15:-446.46547 16:-380.77011 17:-1316.3556 18:883.33404 19:47.86248 20:419.7316 21:210.22177 22:382.68401 23:99.167266 24:-648.24219 25:-266.78544 26:180.95369 27:-187.16049 28:854.61608 29:-191.12115 30:227.55612 31:-213.67957 32:-607.60177 33:8.464432 34:-231.7867 35:-154.58455 36:506.69941 37:-280.81284 38:228.26158 39:118.30541 40:-40.356876 41:272.3684 42:-29.10706 43:-135.09029 44:-421.5877 45:-105.43241 
-0 -0 -0 -0 -0 -0 -0 -0 -0 -0 -0 -0 -0 -0 0 0 0 0 0 0 0 0 0 0 0 8.931032690187831e-09 0 0 0 1.233220345330678e-08 0 0 0 0 0 0 0 1:-1906.4428 2:1222.7931 3:1118.2342 4:-404.1914 5:1176.4848 6:739.89256 7:1216.9044 8:929.574 9:443.83839 10:-1038.3288 11:369.16344 12:1122.9091 13:-63.486441 14:-47.311158 15:-439.53092 16:-675.69261 17:-567.91623 18:861.74115 19:33.306604 20:69.806374 21:446.58854 22:79.520882 23:290.18839 24:-773.72616 25:66.850622 26:-10.851153 27:-442.30848 28:877.48141 29:75.774579 30:279.37489 31:6.273173 32:-44.264475 33:-62.512492 34:-128.66926 35:318.59122 36:350.04448 37:-201.87439 38:31.493496 39:12.942408 40:0.391343 41:120.65007 42:-21.181556 43:-345.772 44:-118.86708 45:-217.92391 
-6.742218710614932e-08 -9.86330571896411e-09 -5.617031374104988e-08 -3.284742165243095e-08 -3.293901728445363e-08 -4.398446570482813e-08 -3.658061723355545e-08 -3.396115050062045e-08 -3.683512116501997e-08 -5.271310220393215e-08 -0 -2.790900618445838e-08 -5.139121114632366e-09 -3.121067554347229e-08 2.031421462923472e-08 3.642391066333611e-08 1.082672961852847e-07 0 8.157297554745468e-08 4.277816643552365e-08 2.305109138934062e-08 3.224595884305335e-08 4.468348030271013e-08 1.152604413566194e-08 7.695642386178993e-08 4.91023926910757e-08 3.882078834252951e-09 1.26534096688545e-07 6.875451028393629e-08 1.861598445113261e-08 1.9212461705097e-08 3.753375632890541e-08 3.063272821255357e-08 3.60383273497514e-08 9.534388412485717e-08 6.805043388937442e-08 7.78349532605423e-08 1:-1885.7578 2:851.48824 3:1107.0435 4:190.77742 5:1053.8341 6:288.73458 7:1133.5696 8:135.4597 9:669.80463 10:-953.16199 11:10.420215 12:609.26297 13:-92.114183 14:172.11734 15:-402.1245 16:-583.18296 17:-361.73089 18:529.9631 19:232.89007 20:-308.50873 21:590.56254 22:556.14208 23:93.15192 24:-904.3449 25:241.41957 26:-214.80566 27:-644.03646 28:285.20153 29:192.32869 30:-112.59378 31:221.62945 32:181.16509 33:-54.822485 34:-280.48011 35:185.20928 36:176.67827 37:-131.78959 38:-260.18912 39:146.35311 40:-323.3737 41:196.86937 42:287.41613 43:-313.88749 44:158.81124 45:-321.8087 
-4.787713854967572e-08 -4.419561700833483e-08 -9.114570745994976e-09 -1.104589988320473e-07 -3.651328385648583e-09 -1.247133492365265e-08 -1.79239327050367e-07 -3.076759510199676e-08 -4.118601360529085e-08 -9.875923751570057e-09 -5.171169928644774e-08 -2.239084025841704e-08 -1.298497113747442e-08 -2.370991406896322e-08 4.865659204800682e-08 1.232521827401181e-08 2.630537540479279e-08 7.886979288954638e-08 1.103867191683717e-08 0 3.468488204460967e-08 2.581095651080372e-08 1.528780300334684e-08 3.246896225626797e-08 1.068834359655355e-08 4.335721783721075e-08 4.539911908955908e-08 2.372974651114469e-08 6.942355195024051e-08 1.626511879081535e-08 4.32508345975394e-08 3.627534374771612e-08 4.624629579091711e-08 3.653357405109905e-08 1.630672367215539e-09 2.03509055745478e-08 1.057068932649371e-08 1:-1564.6933 2:403.71379 3:702.2728 4:547.62776 5:-81.87803 6:591.3558 7:1373.7951 8:927.86813 9:1277.9714 10:-338.26633 11:393.70907 12:829.03282 13:-232.66213 14:-945.09438 15:-385.97403 16:-743.40532 17:-329.86328 18:343.08365 19:-60.861363 20:-460.31525 21:227.78503 22:618.6219 23:346.82878 24:-943.704 25:257.24785 26:-152.52914 27:-937.37518 28:419.17068 29:583.85746 30:-367.50345 31:39.044388 32:232.42666 33:175.65258 34:-179.4911 35:37.838496 36:265.82397 37:157.49294 38:-258.36509 39:-234.81514 40:-204.79041 41:26.573822 42:1073.9214 43:-57.000732 44:9.398405 45:-472.59758 
-0 -0 -0 -0 -0 -0 -0 -0 -0 -0 -0 -0 -0 -0 0 0 0 0 0 0 0 0 0 5.992307910894355e-09 0 1.451793394167307e-09 0 0 0 0 0 0 0 0 0 0 0 1:-2662.3239 2:1116.7677 3:1544.9734 4:-1212.5006 5:1517.5251 6:250.17626 7:1478.6032 8:90.584817 9:74.005709 10:-1697.4764 11:134.0801 12:870.23719 13:219.97373 14:477.0735 15:-184.89646 16:-861.97131 17:280.0609 18:1462.4576 19:-43.999165 20:34.929178 21:586.32979 22:145.57357 23:163.21103 24:-484.68869 25:411.76826 26:-504.9122 27:-83.644171 28:895.19399 29:-44.991951 30:674.94938 31:221.09842 32:134.91227 33:-257.74229 34:139.3264 35:701.50441 36:-62.389088 37:-354.23358 38:-59.995067 39:176.05783 40:-38.777898 41:154.72241 42:-303.0348 43:-482.88854 44:291.08709 45:-39.388671 
-0 -0 -0 -0 -0 -0 -0 -0 -0 -0 -2.872764648345406e-09 -0 -0 -0 0 0 0 1.457692149344398e-08 0 0 0 0 0 0 0 0 0 0 0 0 0 0 0 0 0 0 0 1:-2789.0316 2:1034.9344 3:1559.8297 4:-717.31238 5:1421.199 6:264.20551 7:1382.7985 8:-400.65186 9:170.78936 10:-1903.344 11:-136.02904 12:558.76527 13:249.54179 14:878.68353 15:-155.98674 16:-778.22425 17:507.5609 18:1773.9642 19:157.27591 20:130.52925 21:342.97667 22:271.55283 23:-16.46021 24:-352.13129 25:590.09042 26:-611.02365 27:-251.60548 28:666.23088 29:-149.1487 30:739.79329 31:396.14911 32:-36.24391 33:-281.42176 34:218.48816 35:689.18445 36:-197.86356 37:-404.90808 38:-108.06869 39:437.18688 40:-201.73239 41:85.360332 42:-407.34625 43:-581.00186 44:498.4952 45:140.60925 
-1.551591529093485e-08 -3.853552930402454e-08 -2.24988836837688e-08 -9.284761046618031e-08 -2.197649297039902e-08 -2.469868147462003e-08 -7.509392111386028e-08 -3.260785104023169e-08 -3.08091110707964e-08 -1.431318957430872e-08 -3.111643566239701e-08 -1.430831733847151e-08 -4.598485070195203e-08 -2.950266120592301e-08 3.553628306646786e-08 4.851491654990497e-08 2.304607556453644e-08 3.804421702811699e-08 9.66360158226941e-09 1.579914011405541e-08 2.295678699429421e-08 2.460241326456423e-08 2.768639051488481e-08 2.546029752449382e-08 3.874839630154345e-09 1.486272108855422e-08 1.453474375976193e-08 2.848156332648495e-08 9.042988100239255e-08 1.374725048256764e-08 2.811982099582362e-08 2.824187827386248e-08 8.117942579989652e-08 2.993909553654991e-08 2.393251073918782e-08 2.961183152185388e-08 3.617091754002045e-08 1:-1663.7811 2:1110.8425 3:-142.33507 4:973.6307 5:-869.50159 6:1341.0281 7:1434.4036 8:1279.2694 9:-152.51554 10:-758.91017 11:561.31702 12:713.78141 13:-65.324512 14:497.4221 15:-236.32826 16:-726.34794 17:-1249.3547 18:1441.3089 19:-89.428724 20:344.40708 21:340.3259 22:92.4387 23:330.36964 24:-160.12025 25:718.62045 26:44.58821 27:705.81733 28:665.143 29:-92.288878 30:272.98 31:-208.93776 32:-338.15008 33:-250.71103 34:389.79391 35:-383.96037 36:-92.631548 37:-552.71639 38:195.89535 39:18.297402 40:731.09518 41:13.488392 42:-1024.0494 43:265.38653 44:-81.352645 45:44.587107 
-0 -0 -0 -0 -0 -0 -0 -0 -0 -9.611246661630721e-09 -0 -0 -0 -0 -0 0 0 0 0 0 0 0 0 0 0 0 0 0 0 0 0 0 0 0 0 0 0 1:-306.20238 2:-1246.0144 3:86.227092 4:-1389.8518 5:85.805016 6:-691.57361 7:823.89332 8:1043.7363 9:-696.09224 10:-288.74187 11:-627.16389 12:-388.7238 13:192.96844 14:-326.69483 15:264.733 16:338.84746 17:893.01442 18:209.87659 19:-1412.9396 20:-68.589886 21:724.49652 22:-577.02297 23:-669.01985 24:-724.28723 25:-604.97157 26:-826.99208 27:-104.21044 28:-18.738171 29:-874.754 30:-472.8474 31:-190.6655 32:-136.51769 33:-316.29739 34:350.20339 35:215.94786 36:-113.53659 37:210.72288 38:-86.405669 39:-276.23124 40:-164.3476 41:118.79808 42:-283.51006 43:351.26422 44:-260.78529 45:53.744679 
