svm_type c_svc
kernel_type linear
nr_class 38
total_sv 227
rho -0.0808352 0.051462 0.187172 -0.361376 -0.0369443 0.429137 0.171591 -0.019066 0.0734688 -0.0683313 -0.163809 -0.558382 -0.0829604 -0.0627756 0.0516902 -0.0510968 0.278654 0.318675 -0.399124 -0.252261 0.0242607 -0.0688081 -0.0221638 -0.0349197 -0.179894 0.0956815 -0.280132 0.412085 0.0553807 -0.165005 0.162402 0.0229586 0.424492 0.156617 0.0815007 0.307373 -0.0351388 0.112405 0.221513 -0.322195 0.0853615 0.354422 0.261315 0.105094 0.171592 0.0265991 -0.162684 -0.456298 -0.0290062 -0.00598215 0.132647 -0.000993372 0.230479 0.324046 -0.307743 -0.188371 0.16627 -0.0337466 0.0574137 0.0410106 -0.0979618 0.228016 -0.249835 0.311981 0.126837 -0.0696604 0.310976 0.125981 0.438012 0.369352 0.195837 0.32285 0.0368846 0.095078 -0.321647 -0.0749727 0.262584 0.145244 -0.0473735 0.12118 -0.0996796 -0.307429 -0.614477 -0.136436 -0.0745623 0.0183838 -0.0383935 0.127331 0.250308 -0.372204 -0.390448 -0.0178722 -0.142935 -0.0478213 -0.0803184 -0.173247 0.0553459 -0.341104 0.174437 -0.00224052 -0.233329 0.195059 -0.0122598 0.336392 0.152196 0.0112743 0.299268 -0.037484 -0.407083 -0.133365 0.773891 0.0633506 -0.147455 -0.0303528 -0.197952 -0.236088 -0.944812 -0.203235 -0.27879 -0.0502443 -0.237314 0.0602278 0.180471 -0.656444 -0.316916 -0.0819594 -0.232557 -0.123574 -0.112039 -0.299917 0.00488438 -0.3278 0.144263 -0.184618 -0.226996 0.0388504 -0.0993015 0.30501 -0.000254894 -0.0707871 0.0715499 -0.242179 0.340935 0.542377 0.40317 0.400855 0.344086 0.260502 0.197931 -0.239501 0.241401 0.329278 0.382662 0.320764 0.431646 0.530079 0.0429188 0.055171 0.279297 0.345054 0.294763 0.319492 0.363133 0.705633 0.0752658 0.553153 0.350415 0.500935 0.454949 0.436215 0.57667 0.512771 0.584706 0.583269 0.257781 0.283617 0.198819 0.0372514 0.15263 -0.0818756 -0.174176 -0.379771 -0.102049 -0.0208423 0.120095 -0.0416244 0.250672 0.270964 -0.294724 -0.215904 0.0827584 -0.0616453 -0.00441263 -0.00161581 -0.109069 0.131346 -0.48444 0.238724 0.0606012 -0.134332 0.294148 0.0605389 0.381128 0.138792 0.119287 0.282181 0.000151472 -0.160958 -0.376831 -0.194423 -0.470791 -0.344943 -0.839561 -0.361511 -0.655049 -0.362391 -0.427401 -0.240783 -0.138171 -0.774518 -0.42331 -0.341258 -0.390241 -0.278595 -0.304891 -0.536187 -0.219509 -0.512956 -0.230813 -0.52525 -0.422306 -0.140312 -0.286399 -0.0319451 -0.149741 -0.263495 -0.117284 -0.547986 -0.23974 -0.163819 -0.329944 -0.433609 -0.633249 -0.294051 -0.196097 -0.0843925 -0.202518 0.0104581 0.110571 -0.480541 -0.328904 -0.268661 -0.219795 -0.237149 -0.206134 -0.268785 -0.0577044 -0.573826 0.048682 -0.153701 -0.276367 0.162536 -0.215052 0.187529 -0.0163054 -0.110359 0.0510435 -0.246337 0.0885092 -0.103467 -0.154076 -0.569885 -0.0262608 -0.0560053 0.0656693 -0.0703089 0.18125 0.266785 -0.429787 -0.21857 0.0587012 -0.0820719 -0.0142328 -0.019428 -0.18393 0.110689 -0.300141 0.283036 0.0443771 -0.162636 0.180987 0.0334532 0.440419 0.185206 0.0666154 0.195137 -0.0458058 -0.153296 -0.263628 -0.440831 -0.160738 -0.0824951 -0.0231416 -0.158365 0.100211 0.175679 -0.313786 -0.304744 -0.033476 -0.172787 -0.102794 -0.140644 -0.171319 0.00619284 -0.497184 0.103357 -0.0400935 -0.21435 0.271091 -0.0642736 0.231842 0.055391 -0.0196631 0.121123 -0.13464 -0.0783967 -0.500917 -0.0481138 0.0271832 0.246032 -0.00338653 0.294869 0.406784 -0.201049 -0.148656 0.18405 -0.0349696 0.0384572 0.0617068 -0.0977223 0.202013 -0.291045 0.281412 0.226972 -0.0803213 0.345617 0.100425 0.593577 0.213644 0.110535 0.231519 0.0712422 -0.442315 0.0840255 0.0891364 0.203408 0.104992 0.273056 0.397105 -0.163642 -0.149439 0.173297 0.108515 0.272507 0.122397 -0.00800678 0.249233 -0.149377 0.307614 0.187301 -0.068281 0.434546 0.231359 0.423094 0.441621 0.264626 0.483311 0.0980204 0.39056 0.412009 0.53851 0.778905 0.542657 0.839565 0.183229 0.430923 0.628841 0.625404 0.458908 0.440342 0.331342 0.584855 0.156598 0.675975 0.722594 0.414767 0.537134 0.47618 1.13318 0.545988 0.562512 0.788917 0.484228 -0.00547259 0.172691 0.0343721 0.250516 0.261743 -0.302005 -0.157456 0.165824 -0.00586893 0.0954039 0.0788625 -0.0598733 0.257199 -0.22117 0.236519 0.179588 -0.0685491 0.34665 0.171174 0.418466 0.295022 0.184678 0.252561 0.0503976 0.122186 -0.0202796 0.37261 0.281347 -0.382373 -0.173276 0.0504764 -0.0345945 0.0362593 0.0566967 -0.106403 0.203007 -0.18083 0.452737 0.173294 -0.0801896 0.176032 0.108497 0.394345 0.160522 0.129508 0.2584 0.0229856 -0.130729 0.145868 0.228192 -0.284396 -0.289445 -0.0505822 -0.140537 -0.0945938 -0.141891 -0.181028 0.077067 -0.502145 0.260732 -0.025371 -0.279001 0.118843 -0.035849 0.282998 0.0467162 -0.0118021 0.0844748 -0.0907168 0.232508 0.30953 -0.269273 -0.224683 0.119164 -0.0535311 0.0439613 0.0409361 -0.101135 0.206021 -0.209621 0.256331 0.143949 -0.0885285 0.254001 0.03414 0.411768 0.198552 0.13405 0.28921 0.031793 0.074162 -0.484965 -0.349809 -0.139294 -0.21963 -0.159433 -0.188167 -0.354235 -0.0446787 -0.664824 0.0688117 -0.182432 -0.356791 -0.00371488 -0.144205 0.193947 -0.0487535 -0.13407 0.0302995 -0.169819 -0.416221 -0.429701 -0.516705 -0.280942 -0.235071 -0.316681 -0.380438 -0.149655 -0.554773 -0.0325201 -0.213543 -0.395341 -0.0720775 -0.22572 0.162266 -0.0794808 -0.208998 -0.0847543 -0.286136 0.0621438 0.253648 0.237784 0.297051 0.216316 0.210658 0.422104 0.0301756 0.669984 0.489197 0.128017 0.405106 0.3602 0.56101 0.478688 0.447123 0.462137 0.409103 0.232491 0.225248 0.258528 0.205137 0.108738 0.438974 -0.0215438 0.409808 0.244299 0.077464 0.317657 0.239097 0.492655 0.481192 0.374555 0.512149 0.158226 -0.118451 -0.0296883 -0.0324624 -0.176985 0.0892235 -0.390572 0.221702 0.0426843 -0.144235 0.258703 -0.0244379 0.536704 0.138129 0.0100844 0.215523 -0.0789996 0.0970192 0.0332615 -0.0925521 0.25872 -0.158433 0.264314 0.142535 -0.14156 0.240927 0.155078 0.329817 0.217699 0.166265 0.327866 0.0565634 -0.00708304 -0.131545 0.14455 -0.33653 0.200192 0.0486524 -0.121498 0.237889 0.048296 0.301577 0.247925 0.103918 0.196943 -0.0358382 -0.144955 0.144404 -0.340751 0.184436 0.0572983 -0.223307 0.246068 0.0520362 0.385744 0.15718 0.0894412 0.245679 -0.00264628 0.35265 -0.0903159 0.518195 0.245468 0.0621831 0.272897 0.192162 0.439613 0.247101 0.300786 0.366672 0.137646 -0.381271 0.102038 -0.136169 -0.332057 0.0521273 -0.125216 0.216713 -0.0815577 -0.0930346 0.0804132 -0.112479 0.53319 0.293405 0.0833643 0.79223 0.354975 0.568662 0.478582 0.428958 0.453782 0.248629 -0.248197 -0.403351 -0.042862 -0.250739 0.112832 -0.0887725 -0.227679 -0.0158214 -0.336718 -0.181382 0.12515 -0.0040135 0.434233 0.0967372 0.0132338 0.152146 -0.098939 0.337276 0.245329 0.431077 0.315741 0.254133 0.449072 0.115719 -0.185328 0.171136 -0.0958958 -0.0974602 0.0364458 -0.288305 0.292963 0.0940775 0.0359661 0.187102 -0.055286 -0.165918 -0.349007 -0.165647 -0.393215 -0.140937 -0.0373045 -0.156661 0.19761 -0.0754462 -0.208799
label 1 2 3 4 5 6 7 8 9 10 11 12 13 15 16 17 18 19 20 21 22 23 24 25 26 27 28 29 30 31 32 33 34 35 36 37 38 39
nr_sv 7 7 10 5 4 5 4 7 4 6 6 5 9 5 3 6 4 6 9 4 5 7 5 5 4 6 7 6 6 5 6 4 3 11 7 8 12 4
SV
0 2.903439919203713e-08 2.016623362824003e-08 0 1.045464134985446e-08 2.612485317776367e-08 1.363111460937077e-08 2.775503249884338e-08 5.303605356112311e-08 4.217841381217551e-08 3.820230985899849e-08 0 1.37722284693223e-08 0 2.661463288237901e-08 0 0 4.26944123091256e-08 0 1.185262628676658e-08 2.559512343359356e-08 0 0 4.85182524739807e-08 0 1.476777517733192e-08 0 0 1.006619968374899e-09 0 0 0 0 3.143273267502063e-08 0 0 8.371091503955504e-09 1:-811.44677 2:59.966927 3:-383.51013 4:-214.4863 5:-299.82767 6:-1152.7674 7:1090.3371 8:467.7353 9:11.274119 10:489.22603 11:1102.8223 12:669.41161 13:754.66809 14:267.31794 15:952.0215 16:-287.18169 17:802.94654 18:644.54356 19:31.139646 20:-131.90284 21:-299.91604 22:-284.86873 23:6.417756 24:228.55736 25:-514.70036 26:-120.91845 27:-431.82652 28:479.24103 29:-778.31823 30:305.912 31:12.163581 32:-128.75337 33:-36.920289 34:120.79835 35:278.81784 36:45.993218 37:-440.91787 38:-301.84434 39:-62.835967 40:347.77736 41:-60.097095 42:67.016039 43:136.84981 44:116.81202 45:-148.59127 
4.055315559532097e-08 0 7.052032880292802e-09 2.926904090896999e-08 3.585932192237226e-08 0 0 7.992685641914821e-09 2.157781583685374e-08 0 1.737286688143156e-08 0 4.068082199553211e-08 0 2.74656257842546e-08 5.330163317180811e-08 5.8457732728957e-09 0 2.803844869796655e-09 3.15290757738324e-08 0 5.684307217067563e-08 0 1.656953125871016e-08 0 6.167747984490294e-09 0 0 0 4.253496913112669e-08 4.688111341020374e-08 1.217905710755358e-08 0 1.562678543247548e-08 0 0 0 1:67.271332 2:246.80083 3:-91.799509 4:471.47583 5:-69.753035 6:-182.95994 7:1721.956 8:296.28228 9:141.85442 10:924.86175 11:714.99681 12:972.3198 13:516.87541 14:144.69478 15:1122.0422 16:-187.61772 17:929.15683 18:782.01164 19:105.08331 20:44.47392 21:-259.96676 22:-70.97848 23:41.920708 24:103.8978 25:-892.48545 26:-583.97753 27:-690.17579 28:596.90108 29:-511.84947 30:432.72372 31:-301.82594 32:-414.03362 33:-436.96571 34:-150.20839 35:22.925457 36:-445.36704 37:-336.39947 38:-674.89842 39:-128.41016 40:239.96057 41:-159.94995 42:91.161679 43:74.500367 44:102.38691 45:180.91205 
0 0 0 0 0 0 0 0 0 0 0 0 0 6.30952027855291e-09 0 0 0 0 0 0 0 0 0 0 0 0 0 0 0 0 0 0 0 0 0 0 0 1:-1594.4404 2:81.710243 3:-329.93204 4:-629.55985 5:-912.74669 6:-1588.7992 7:1171.8027 8:658.13755 9:-138.95896 10:287.96799 11:1125.5395 12:280.42117 13:1233.9961 14:549.711 15:922.32164 16:-373.38595 17:918.78685 18:391.30255 19:178.90266 20:-94.409464 21:-337.16721 22:-613.98963 23:-8.470229 24:256.76525 25:-193.09778 26:246.51248 27:-334.98394 28:236.5495 29:-739.49079 30:403.40267 31:-2.895698 32:334.28294 33:387.79913 34:47.46884 35:517.20304 36:195.80632 37:-552.57983 38:-51.769041 39:113.59245 40:533.653 41:218.16962 42:77.595076 43:193.65296 44:249.70432 45:-372.42732 
0 0 0 0 0 0 0 0 0 0 0 0 0 0 0 0 0 0 0 0 0 0 0 0 0 0 7.734936045874084e-08 0 0 0 0 0 0 0 0 0 0 1:-87.233161 2:222.37943 3:41.895391 4:388.74882 5:-89.861332 6:-521.57184 7:1854.7316 8:761.01763 9:364.87346 10:989.7826 11:662.39589 12:598.95669 13:702.08331 14:26.822149 15:998.0511 16:-248.1003 17:1019.4907 18:672.30309 19:202.93373 20:-5.599291 21:-408.52621 22:-253.15329 23:246.79766 24:225.5317 25:-636.69304 26:-491.16878 27:-516.60622 28:481.4014 29:-394.51514 30:329.54701 31:-190.63687 32:-215.99266 33:-247.71432 34:140.24084 35:101.57707 36:-171.21552 37:-84.281706 38:-523.66401 39:-174.53635 40:364.0754 41:3.481233 42:109.12026 43:158.00541 44:33.471177 45:-320.72446 
6.895469136540693e-08 1.324737827274101e-07 1.606612661029377e-07 3.710940623368735e-08 6.466705057482118e-08 1.583263287058811e-07 1.118760049232828e-07 9.486659895511842e-08 3.218648742912889e-08 4.600747746653211e-08 3.044346683395159e-08 6.240615456325679e-08 2.901325650129448e-08 1.14901227252662e-07 5.207059724401496e-08 4.654559664259343e-08 1.835756884497631e-07 1.340635303585318e-07 8.321604994078005e-08 3.458575839167342e-08 7.748807145546046e-08 3.605269564916484e-08 6.177902827870191e-08 3.336242676110938e-08 9.408427400255517e-08 1.009460040612324e-07 1.327213073783252e-08 2.317797524921383e-07 1.338940098796961e-07 3.896491260808865e-08 5.959674249036847e-08 9.645216832831387e-08 1.832934420619982e-07 7.650892971996037e-08 1.553261419932682e-07 1.808689104193657e-07 9.535907714894745e-08 1:-641.0892 2:345.84003 3:-92.576772 4:243.25861 5:-3.327671 6:-872.75585 7:1611.8586 8:767.78142 9:385.1308 10:828.26932 11:650.21873 12:141.05099 13:803.60557 14:225.62361 15:662.27222 16:-164.72296 17:925.15783 18:475.90096 19:245.31585 20:-45.105912 21:-411.24103 22:-411.88339 23:206.11596 24:142.65955 25:-317.85157 26:-189.43512 27:-318.74715 28:313.85599 29:-360.8245 30:129.47411 31:-106.20138 32:-23.568944 33:-78.984881 34:139.00873 35:188.23222 36:-69.567818 37:-51.895384 38:-396.83642 39:-161.07362 40:525.98072 41:-58.927375 42:47.450608 43:26.01993 44:21.746121 45:-379.53991 
0 0 0 0 0 0 0 0 0 0 0 2.558924831341773e-09 0 0 0 0 0 0 0 0 0 1.193844383016321e-08 3.542330813377928e-08 0 0 0 0 0 0 0 0 0 0 0 0 0 0 1:-533.45478 2:450.98393 3:-320.9454 4:115.28555 5:-410.73262 6:-600.48011 7:1542.3711 8:517.21678 9:-76.676964 10:820.15203 11:862.08484 12:586.46428 13:866.26324 14:311.92238 15:949.66985 16:-102.29115 17:741.43579 18:663.10674 19:93.875982 20:-117.18029 21:-287.86183 22:-239.78394 23:-44.495889 24:152.9047 25:-645.92501 26:-388.15467 27:-634.32373 28:450.91221 29:-598.05731 30:304.08807 31:-219.09146 32:-147.08674 33:-272.11518 34:-131.92036 35:153.98034 36:-284.25227 37:-439.59329 38:-414.3553 39:27.91335 40:339.2597 41:18.054148 42:151.46293 43:45.303867 44:133.51388 45:69.636808 
0 0 0 0 0 0 0 0 0 0 0 0 0 7.089261015499009e-09 0 0 0 0 0 0 0 0 0 0 0 0 0 0 0 0 0 0 0 0 0 0 0 1:-1674.6284 2:183.47866 3:-556.90722 4:-510.02258 5:-938.98208 6:-1562.928 7:1265.3946 8:409.79837 9:-228.72554 10:255.41193 11:1189.0082 12:315.55397 13:1289.3293 14:516.03044 15:946.87906 16:-375.77915 17:666.39832 18:488.21454 19:188.48117 20:-142.05565 21:-250.62208 22:-367.89232 23:-37.645539 24:331.84484 25:-341.27423 26:97.418729 27:-580.10882 28:397.15467 29:-717.93833 30:296.58278 31:-118.03623 32:147.90626 33:-27.04164 34:-69.768583 35:471.5164 36:111.64759 37:-708.89292 38:-10.858309 39:100.87613 40:581.78323 41:155.60946 42:221.04453 43:226.68606 44:425.68858 45:-189.94168 
-0 0 0 6.769786035852109e-09 0 0 0 0 0 0 0 0 4.244865070222057e-09 0 0 0 0 0 0 0 0 0 0 0 0 0 8.473263165197724e-09 0 0 0 0 0 0 0 0 0 0 1:3303.7132 2:-452.99709 3:291.09521 4:3260.0797 5:927.93092 6:81.13634 7:536.21234 8:-439.84596 9:190.31939 10:-225.05927 11:-484.28973 12:6.523479 13:-573.995 14:782.05165 15:539.11119 16:-542.00697 17:-461.87453 18:-556.37274 19:9.832006 20:-345.68401 21:-282.74779 22:-871.34139 23:-384.59512 24:1030.215 25:491.6086 26:17.370924 27:98.357379 28:284.06927 29:147.94077 30:180.88088 31:117.59627 32:244.76614 33:29.58403 34:-121.90143 35:-5.513727 36:-58.033341 37:23.404434 38:-295.15525 39:48.023285 40:-190.61258 41:485.3657 42:-29.865603 43:37.861708 44:45.798804 45:145.92171 
-0 0 1.270851017513925e-08 0 0 1.742967854724231e-08 0 6.080767826942103e-08 0 0 0 0 0 2.418725493208552e-08 0 0 0 1.739818506896162e-08 1.526173209580729e-08 3.560982528952896e-08 1.29268371433765e-09 0 0 0 9.211611202848514e-09 0 0 0 0 0 0 0 0 0 0 0 8.015815415217368e-09 1:661.63121 2:381.69209 3:-172.01499 4:1936.6914 5:327.4216 6:-753.46981 7:-114.61708 8:95.214574 9:206.68918 10:174.85725 11:-408.02488 12:-173.06957 13:-1661.8574 14:255.97913 15:1359.3787 16:470.89849 17:-1049.0048 18:-544.17473 19:-24.550883 20:-266.71038 21:-317.61144 22:-747.79878 23:-170.83911 24:886.01759 25:149.38681 26:303.86308 27:-230.75268 28:-43.842741 29:-37.952026 30:-91.238932 31:-279.56451 32:120.52626 33:153.41796 34:0.134298 35:508.29787 36:94.852569 37:-48.964239 38:-466.39767 39:247.2621 40:138.38699 41:107.34034 42:191.54091 43:-126.19152 44:44.677152 45:-34.345353 
-6.156767323916227e-08 6.857832849852606e-08 6.096062855525035e-08 3.143837607658465e-08 6.713707650030962e-08 5.402022386331541e-08 7.146324678116907e-08 4.218256863346736e-08 6.342504749717668e-08 2.462628544539939e-08 6.485775280384148e-08 3.485257420246853e-08 6.310836708728078e-08 4.189429239939063e-08 5.125320176103364e-08 6.736103826899267e-08 5.718734169840287e-08 5.930956373530996e-08 3.807396987854748e-08 1.97246063661742e-08 3.019108208955333e-08 5.189459403058625e-08 6.624254571662382e-08 4.572334700940792e-08 4.325878191940009e-08 3.698687687663901e-08 4.133792714487609e-08 6.998463650643629e-08 6.087477697094852e-08 2.934509305473065e-08 7.305046118443817e-08 6.77452296867414e-08 7.841705568472581e-08 6.756733683662277e-08 8.366458596276195e-08 8.361965221583163e-08 4.180494077652455e-08 1:263.93334 2:678.07553 3:-377.02368 4:1489.0554 5:533.25792 6:-460.42029 7:547.58461 8:283.72343 9:290.28702 10:508.00945 11:172.3342 12:-484.98573 13:-670.16056 14:707.35916 15:541.7537 16:308.74153 17:26.684519 18:-101.96303 19:-96.070351 20:25.876141 21:-59.757352 22:-262.57906 23:233.48146 24:-5.250022 25:414.41493 26:470.51966 27:281.14557 28:-918.75838 29:9.591555 30:-451.29878 31:-569.52626 32:-483.06024 33:-940.56632 34:-3124.1283 35:-181.94965 36:3460.549 37:-339.49304 38:-2760.4649 39:303.8062 40:-414.022 41:1041.0917 42:423.73639 43:208.45266 44:-381.75742 45:-223.25018 
-4.794017372156563e-08 5.577891945090255e-08 4.439026445742192e-08 2.614236938432566e-08 5.791825019533254e-08 3.881619257985562e-08 6.293521274338443e-08 3.114362771486442e-08 5.329631236342622e-08 1.621667582160847e-08 5.807734960434837e-08 2.254413635598269e-08 5.691950649521925e-08 2.937887363718523e-08 4.179240514621315e-08 5.511775045533692e-08 4.576488137655727e-08 4.387685786803644e-08 2.719338452551365e-08 1.334195689595026e-08 1.915085510516e-08 4.207075883093476e-08 5.52043204295595e-08 3.587950158747769e-08 3.36563295266133e-08 2.44996251152564e-08 3.630608595661087e-08 5.51949940189077e-08 4.68662932872818e-08 2.247066468782204e-08 6.501465060247044e-08 5.7137085707905e-08 6.305018958937019e-08 5.649039827844386e-08 7.076554531333174e-08 6.788015061757504e-08 3.06262248723148e-08 1:2266.0236 2:-175.08332 3:-83.993522 4:2794.6093 5:138.18133 6:-131.59574 7:230.82901 8:50.068495 9:412.036 10:39.154672 11:-652.86156 12:237.67105 13:-1231.874 14:192.8548 15:1481.558 16:-16.863681 17:-1534.5552 18:-389.99662 19:4.725196 20:-507.7005 21:51.287398 22:-930.01318 23:-581.95448 24:1166.2064 25:13.519716 26:-126.12687 27:-311.93048 28:1192.6783 29:185.34477 30:892.68245 31:458.56093 32:615.51527 33:1099.8546 34:3640.4071 35:157.32774 36:-3045.4589 37:784.41306 38:1292.6088 39:16.506818 40:693.11167 41:-820.44484 42:-243.22389 43:-384.79104 44:636.76888 45:-175.55268 
-0 0 0 1.333322947926373e-08 1.41791839629158e-08 0 1.316697450822868e-08 0 0 0 0 0 0 0 0 0 0 0 0 2.725334717027334e-08 0 0 0 0 0 0 0 0 0 2.635526763492066e-08 0 0 0 4.528138432623159e-08 0 0 0 1:2190.1804 2:209.39062 3:-120.55534 4:2540.3997 5:998.5594 6:-144.81591 7:420.55127 8:-196.57847 9:324.52745 10:-85.915429 11:-392.82104 12:-101.21178 13:-1057.2883 14:673.68886 15:731.03524 16:-204.24562 17:-340.24434 18:-557.53176 19:30.470646 20:-333.83534 21:-366.75638 22:-805.17235 23:-178.38866 24:880.73262 25:373.41141 26:192.06977 27:-17.829442 28:112.0635 29:82.095439 30:-50.874651 31:79.401214 32:105.27362 33:-40.250857 34:-261.91633 35:47.411756 36:-210.79315 37:-26.9154 38:-360.21007 39:66.753779 40:-114.47694 41:279.82064 42:59.403095 43:-151.86598 44:-54.763637 45:36.517099 
-0 0 0 0 0 0 0 0 0 0 0 0 0 0 0 0 0 0 0 0 0 0 0 0 0 0 0 0 0 0 2.884796186408456e-09 0 0 0 0 0 0 1:3389.6122 2:-559.93165 3:494.38658 4:3399.7162 5:1156.5565 6:11.200559 7:507.35275 8:-541.98211 9:113.00886 10:-270.67456 11:-436.26098 12:-21.552061 13:-508.11378 14:931.99996 15:426.06597 16:-543.50402 17:-564.72729 18:-605.72364 19:4.10317 20:-476.59582 21:-368.84564 22:-991.71392 23:-383.00761 24:1097.9489 25:483.79089 26:5.520753 27:126.92414 28:346.59445 29:141.84495 30:101.68959 31:158.75871 32:365.2491 33:119.52142 34:-391.46586 35:60.380024 36:-106.6832 37:-11.114457 38:-258.67882 39:86.55536 40:-304.1227 41:642.92459 42:-6.037261 43:22.753307 44:-98.336938 45:232.86536 
-0 0 0 0 0 0 0 2.746223626788673e-09 0 4.214390038783496e-08 0 0 0 0 0 0 0 0 0 0 5.071434380182196e-08 0 0 0 0 4.207480975210767e-08 0 0 0 0 0 0 9.377297707141551e-09 0 0 0 0 1:1011.0501 2:232.51649 3:-80.662266 4:2195.6822 5:567.3997 6:-622.12764 7:108.69206 8:-139.68097 9:216.19272 10:164.1604 11:-336.27062 12:-237.65863 13:-1440.649 14:484.24869 15:1044.1745 16:302.24451 17:-910.67024 18:-606.3891 19:-73.831848 20:-469.93764 21:-315.34271 22:-711.29152 23:-151.39237 24:1020.446 25:191.08464 26:124.79183 27:-188.66425 28:54.304668 29:66.941255 30:-143.2115 31:-180.09697 32:292.20365 33:1.128218 34:-299.75587 35:426.2449 36:12.039905 37:-53.557338 38:-298.57495 39:194.32998 40:-94.679315 41:305.23712 42:313.84399 43:-180.97289 44:57.934472 45:35.180798 
-0 -0 0 0 0 0 0 0 8.893135674901159e-08 0 2.68844849298481e-08 0 0 0 0 0 0 0 0 3.600162735521016e-08 0 0 0 0 0 0 0 0 0 0 1.230512633586839e-09 0 0 0 0 0 0 1:222.66008 2:85.463398 3:-1963.8313 4:-74.830905 5:-685.03057 6:-555.20195 7:-34.655599 8:1372.621 9:-258.73934 10:-704.29621 11:434.25286 12:305.71201 13:117.64606 14:-589.80696 15:40.387469 16:-248.43925 17:269.40812 18:552.94708 19:-376.55555 20:-264.99526 21:338.02645 22:-339.77209 23:-96.880822 24:147.21564 25:-64.366378 26:-109.71615 27:627.79825 28:-589.70674 29:584.72672 30:-561.66311 31:481.61414 32:-226.64386 33:144.26023 34:-284.35997 35:436.65838 36:-325.32667 37:29.580282 38:-202.11925 39:-137.48344 40:-184.60844 41:-521.12387 42:345.45675 43:118.88424 44:-198.07919 45:209.81413 
-0 -1.943054797651822e-08 0 3.767902458395006e-08 9.596335298003695e-09 0 0 0 1.714012317674962e-08 0 0 0 4.122236873553323e-09 0 0 1.405801776699538e-08 0 0 0 8.708439523006553e-09 0 0 0 0 0 0 0 0 0 2.351086333327234e-08 3.758405213187152e-08 1.360794158663851e-08 0 0 0 0 0 1:1518.8345 2:397.43759 3:-1681.0609 4:1230.104 5:180.19455 6:839.26516 7:1348.4471 8:1533.2745 9:-458.56532 10:-1201.2867 11:531.45704 12:996.55442 13:149.15091 14:-597.10408 15:-241.04999 16:-459.25434 17:6.37712 18:858.86087 19:-557.19004 20:-230.20439 21:174.87238 22:-702.85971 23:206.80068 24:170.3763 25:-36.857458 26:459.65309 27:1041.2671 28:-490.60857 29:-76.312427 30:-331.16316 31:617.37002 32:172.87104 33:-268.62799 34:-430.03601 35:429.81966 36:-243.19103 37:734.31228 38:47.391746 39:-45.084103 40:36.84731 41:-235.92636 42:309.87481 43:35.492366 44:168.61021 45:-84.212893 
-0 -0 0 0 0 0 0 0 0 0 0 0 0 8.955016789628426e-09 0 0 0 0 3.332658149546266e-09 0 0 0 0 0 0 0 0 0 0 0 0 0 0 0 0 0 1.448801741460678e-08 1:-1255.154 2:-34.953274 3:-1821.8634 4:-606.9487 5:-1672.7586 6:-1170.7106 7:-469.0609 8:1207.8333 9:-584.77476 10:-411.13667 11:970.08899 12:-150.58242 13:794.88934 14:-347.42787 15:181.1571 16:40.181918 17:448.29124 18:553.04183 19:-535.67255 20:-560.81248 21:-109.14641 22:-118.36651 23:34.698701 24:547.05174 25:388.44459 26:-247.2024 27:537.15477 28:-866.81395 29:715.03298 30:-445.47654 31:500.14424 32:123.07331 33:404.55057 34:-59.595912 35:399.74047 36:-359.4382 37:-224.71987 38:-232.12329 39:30.569843 40:-671.92201 41:-279.4186 42:194.91197 43:390.44984 44:-200.31468 45:121.94763 
-0 -0 0 0 0 0 0 0 0 0 0 0 0 0 0 0 0 0 0 0 0 0 2.252775830733684e-08 0 0 0 0 0 0 0 0 0 0 0 0 0 0 1:-488.29392 2:78.632355 3:-1963.1186 4:-332.32343 5:-1949.7693 6:-448.4469 7:48.422211 8:1381.7623 9:-591.66314 10:-353.23543 11:576.91377 12:110.62389 13:681.98711 14:-625.86583 15:54.332941 16:31.323335 17:526.36996 18:637.63134 19:-510.58539 20:-717.44872 21:50.682386 22:-91.312372 23:60.360894 24:392.60588 25:276.74268 26:-471.13002 27:578.0842 28:-949.34707 29:484.97276 30:-229.44706 31:503.55882 32:333.2561 33:246.16148 34:-74.836204 35:324.46258 36:-360.21961 37:-17.050426 38:-232.92281 39:-7.046578 40:-719.65776 41:-369.07639 42:359.2888 43:306.78439 44:-179.81862 45:154.08785 
-0 -0 0 0 0 0 0 0 0 0 0 0 0 0 0 0 0 0 0 0 0 0 0 0 0 0 9.394316676306776e-09 0 0 0 0 0 0 0 0 0 0 1:1301.9646 2:230.48195 3:-1732.8545 4:849.45008 5:-173.71245 6:84.620725 7:979.40072 8:1450.4694 9:-182.11058 10:-559.86198 11:465.86784 12:592.07888 13:113.36886 14:-845.0961 15:36.568941 16:-374.71234 17:343.72536 18:668.3408 19:-407.59789 20:-290.29315 21:92.428785 22:-482.3471 23:379.14721 24:406.2015 25:220.68944 26:281.52719 27:870.5157 28:-659.52014 29:399.66644 30:-368.33647 31:418.6165 32:94.559448 33:-106.33403 34:-98.102157 35:130.88164 36:-212.41125 37:481.04569 38:-188.65506 39:-331.59078 40:-177.14644 41:-479.39946 42:528.70546 43:392.17034 44:136.37085 45:-13.673948 
-1.615081819194472e-07 -9.958528178182433e-08 1.33439553033342e-07 3.532396794371075e-08 1.040123069362252e-07 1.227711729131614e-07 1.693945542648871e-07 1.115450842610367e-07 6.867322987631656e-08 8.915542633707827e-08 1.14665055101965e-07 5.810961550976783e-08 8.25997117294861e-08 6.178186061286366e-08 1.002767188767604e-07 5.260470797396222e-08 1.203104526658411e-07 1.622392345895628e-07 5.582017136780328e-08 6.506367410533902e-08 1.147514627974797e-07 7.937178842188825e-08 9.07483606647789e-08 8.990560914322988e-08 7.50739180629857e-08 1.189024301766086e-07 7.210356145347235e-08 1.300166576082379e-07 1.236239925689023e-07 6.569854982086605e-08 1.008058133645995e-07 1.071106668575085e-07 1.72637248827353e-07 1.592422053905494e-07 1.262249222319557e-07 2.545695628490425e-07 4.376611500297676e-08 1:304.90409 2:231.16294 3:-1589.2951 4:424.3551 5:-241.26058 6:-558.93821 7:541.30282 8:1076.0023 9:-60.416859 10:-71.200164 11:583.79127 12:29.269686 13:277.31025 14:-566.94992 15:85.504341 16:-160.0398 17:429.30449 18:422.85239 19:-311.96233 20:-286.11497 21:-107.00069 22:-322.01868 23:335.12803 24:416.46441 25:345.59476 26:150.03465 27:612.02283 28:-654.32361 29:523.27294 30:-387.08062 31:230.613 32:-163.68237 33:39.292925 34:37.011354 35:50.262125 36:-271.75841 37:204.66628 38:-365.66327 39:-160.20861 40:-138.07815 41:-634.07651 42:329.51467 43:420.58841 44:13.771693 45:-43.862649 
-0 -0 0 0 0 0 0 0 0 0 0 0 0 1.757521623142395e-08 0 7.144239560740462e-08 0 0 1.535733177987823e-08 0 0 2.863692137683191e-08 4.410638406353933e-08 0 0 0 0 0 0 0 0 0 0 0 0 0 4.564846590388957e-08 1:499.25574 2:531.12204 3:-1889.2681 4:710.40914 5:-809.48714 6:375.1227 7:1086.3747 8:1200.7644 9:-555.51444 10:-807.32509 11:378.71326 12:269.23452 13:309.09305 14:-592.11231 15:-298.07735 16:-143.85147 17:113.97568 18:627.96089 19:-497.94778 20:-557.98347 21:273.17964 22:-432.65819 23:-152.32689 24:263.90864 25:112.7878 26:-110.42859 27:659.84063 28:-649.93349 29:80.378897 30:-363.48531 31:509.50272 32:189.90656 33:-17.228491 34:-425.44334 35:340.52956 36:-239.10333 37:417.96324 38:17.184461 39:-52.273519 40:19.359133 41:-378.63015 42:383.28691 43:-165.65781 44:93.319889 45:-1.054255 
-0 -5.341418191086056e-09 0 0 0 0 0 1.491016133670917e-09 0 0 0 6.281238735891937e-10 4.850153290820393e-09 0 8.071110235790006e-10 0 0 0 0 0 0 0 0 0 0 0 0 0 0 0 0 0 2.504006938542872e-09 9.925017483083679e-10 0 0 0 1:1303.5674 2:455.81059 3:-1965.016 4:1239.6188 5:237.1024 6:757.87174 7:1447.2052 8:1407.8809 9:-784.50696 10:-1452.545 11:603.37396 12:1077.8354 13:260.54521 14:-523.31964 15:-326.32925 16:-398.73064 17:-444.3552 18:854.65729 19:-524.17485 20:-439.00274 21:361.80608 22:-702.08738 23:-32.245281 24:239.0357 25:-57.733989 26:370.34837 27:960.4991 28:-338.93851 29:-171.73393 30:-505.81102 31:727.19142 32:-0.884739 33:-194.79923 34:-545.23777 35:437.95337 36:-160.20337 37:709.85159 38:99.140749 39:97.942298 40:176.78965 41:-182.02325 42:171.10924 43:-291.34262 44:157.30625 45:-103.22577 
-0 -0 7.04450312673551e-09 0 0 0 0 0 0 0 0 3.666998066212074e-09 0 0 0 0 0 0 0 0 0 0 0 0 0 0 0 0 0 0 0 0 0 0 0 0 0 1:433.85187 2:412.96437 3:-2252.5164 4:511.33347 5:-381.67619 6:95.662628 7:1032.478 8:1208.9551 9:-801.01604 10:-1292.4486 11:611.53366 12:590.54989 13:447.22273 14:-595.11231 15:-259.36901 16:-215.38877 17:-560.65828 18:737.86213 19:-405.66625 20:-720.33311 21:425.88011 22:-464.9305 23:-198.29787 24:494.63412 25:10.697924 26:-94.66127 27:775.62221 28:-408.22861 29:79.050224 30:-659.9543 31:756.61647 32:4.836931 33:-28.543506 34:-492.97032 35:346.08532 36:-95.622497 37:476.70901 38:46.878571 39:38.270658 40:202.1979 41:-240.54304 42:411.81154 43:-464.72073 44:66.663918 45:-59.540577 
-0 -0 0 0 0 8.797686746500985e-09 -0 0 0 0 0 6.009872538583685e-09 0 0 0 0 0 0 0 0 0 0 0 4.463437999026924e-09 0 2.555839336847273e-10 0 0 6.283764978500736e-10 0 0 0 0 0 -0 0 0 1:-1019.6481 2:235.88521 3:-2219.1357 4:-370.36976 5:-1323.441 6:-1025.8751 7:-49.819887 8:1017.7134 9:-637.21299 10:-697.67387 11:906.33056 12:-199.35377 13:752.22285 14:-383.71433 15:72.37638 16:-0.407892 17:26.639405 18:538.37861 19:-360.94262 20:-745.06398 21:134.53832 22:-45.089253 23:-88.703404 24:580.80578 25:250.30392 26:-453.60518 27:443.21197 28:-661.0619 29:631.83123 30:-657.22514 31:525.74643 32:68.485603 33:146.37227 34:-204.5181 35:454.59392 36:-195.25757 37:-60.189159 38:-74.790523 39:43.685822 40:-241.12806 41:-159.81168 42:446.78505 43:-25.410541 44:111.65881 45:-7.133164 
-0 -0 -0 0 0 0 0 0 0 0 0 0 4.885367116726295e-09 0 0 0 0 0 0 0 0 2.22877272769586e-08 0 0 0 0 0 0 1.472753546214457e-08 8.440223118225161e-09 0 0 0 0 0 0 0 1:-1624.0748 2:953.29692 3:-464.30978 4:588.99075 5:805.08026 6:748.91371 7:800.60243 8:-832.33751 9:520.44293 10:999.10204 11:766.07734 12:858.40963 13:-646.61691 14:-22.045742 15:368.60058 16:-204.24728 17:-248.46713 18:289.90507 19:-172.26749 20:-118.23936 21:260.99556 22:663.42261 23:-173.38811 24:658.45009 25:272.48271 26:-621.36961 27:134.8525 28:120.26337 29:-184.19522 30:-295.14268 31:206.31195 32:-301.95673 33:-29.903993 34:506.21307 35:-40.694252 36:356.36282 37:-74.915418 38:-430.38109 39:-332.51586 40:-170.45718 41:-420.34467 42:-339.19933 43:-112.81034 44:-175.71237 45:530.76457 
-0 -0 -0 0 0 4.874115859375468e-08 0 0 0 0 0 0 0 0 0 0 0 0 0 0 0 0 0 0 0 0 0 0 0 0 0 0 0 0 0 0 0 1:-2487.0487 2:408.29373 3:-449.58948 4:-182.42427 5:732.62653 6:-98.991803 7:735.14448 8:86.719317 9:138.40112 10:15.102449 11:-170.30118 12:507.10883 13:-204.33172 14:-565.06563 15:307.85931 16:-685.9599 17:-198.03979 18:-375.10493 19:-659.06828 20:382.26323 21:462.20101 22:-543.03386 23:120.88198 24:278.19407 25:77.143768 26:-408.84179 27:504.20972 28:830.73706 29:-718.34666 30:-518.11434 31:218.46334 32:87.650012 33:-17.391237 34:23.909174 35:-162.57742 36:333.92176 37:607.89836 38:-17.827387 39:-350.29241 40:-309.06013 41:-235.01279 42:-190.12023 43:25.695029 44:59.826154 45:183.57968 
-0 -0 -0 0 0 0 0 0 0 4.589372937954737e-08 0 0 0 0 0 0 0 0 0 0 1.660749010067739e-08 0 0 0 0 0 0 0 0 0 0 0 0 0 0 0 0 1:-2303.5603 2:483.33734 3:-449.59664 4:-81.957964 5:991.54072 6:46.994908 7:606.76752 8:56.270949 9:258.48992 10:159.7892 11:-110.6129 12:508.28466 13:-329.56054 14:-428.14877 15:264.42524 16:-630.69259 17:-201.17795 18:-194.79871 19:-505.52058 20:361.07525 21:291.0536 22:-542.41448 23:16.02961 24:278.25204 25:208.288 26:-513.68573 27:338.18421 28:687.62975 29:-548.54327 30:-553.96758 31:293.20545 32:-136.38772 33:-149.39008 34:49.258053 35:44.73079 36:249.0336 37:464.26385 38:18.810007 39:-442.03573 40:-320.65658 41:-246.19414 42:-233.82424 43:42.527544 44:-220.39506 45:300.44235 
-1.878795326114705e-07 -1.180594031878115e-07 -1.404840561600775e-07 6.104817582614478e-08 9.614929862408188e-08 4.929894237447022e-07 1.487194957933515e-07 1.478676345804257e-07 1.020540804776555e-07 7.559760278367512e-08 8.18346738739721e-08 9.675303227422402e-08 9.22718935031853e-08 1.775084031513643e-07 1.223232689599679e-07 1.327311625809852e-07 1.61269013835686e-07 1.443831697793185e-07 1.148753180018557e-07 7.313115332688596e-08 1.052919116494913e-07 1.007763146192119e-07 1.014856106960529e-07 7.094107549488123e-08 9.920940917673732e-08 1.260811137055933e-07 6.509512633949894e-08 2.233340486213566e-07 2.704922779671409e-07 6.562152326718226e-08 1.172278895575116e-07 1.200153725071727e-07 2.549613064949687e-07 1.32726659456556e-07 1.235721722537539e-07 1.393580120084574e-07 1.754549129934573e-07 1:-1668.2823 2:769.41421 3:-404.77846 4:583.31205 5:760.72284 6:87.412149 7:794.49216 8:-94.603472 9:383.94816 10:510.45469 11:187.94488 12:422.45034 13:-257.61685 14:-72.948232 15:171.85714 16:-268.21482 17:-110.59609 18:78.187562 19:-248.63237 20:119.48638 21:269.32862 22:-212.39575 23:148.40214 24:136.81129 25:194.6389 26:-356.45642 27:335.5786 28:473.73939 29:-346.7639 30:-289.36288 31:309.12013 32:-129.13161 33:14.396385 34:22.188766 35:-43.064141 36:231.46035 37:299.38337 38:-124.75936 39:-249.62638 40:-128.98347 41:-402.07471 42:-267.45072 43:-158.98018 44:-145.04339 45:142.47766 
-0 -0 -0 0 0 0 0 0 0 5.370775440133354e-09 0 7.2615497744258e-10 0 0 0 0 0 6.681879461424655e-08 0 0 1.283610708609296e-08 0 0 2.535886434517307e-08 0 0 0 0 0 0 0 0 0 0 0 0 0 1:-1860.6784 2:814.65506 3:-476.80643 4:230.55603 5:1067.3258 6:297.02201 7:587.11527 8:-217.03256 9:458.57787 10:708.05268 11:455.67296 12:489.70365 13:-567.73063 14:-33.267359 15:387.70109 16:-273.01024 17:-178.41053 18:75.539265 19:-339.82805 20:55.993691 21:161.53193 22:116.97931 23:-109.87385 24:434.12167 25:376.08027 26:-584.43184 27:185.23558 28:190.08891 29:-302.83369 30:-455.21049 31:242.90198 32:-285.50513 33:-193.56733 34:294.5857 35:43.433368 36:249.95618 37:134.53617 38:-187.37068 39:-429.64268 40:-185.1166 41:-333.91484 42:-291.29777 43:-40.976205 44:-97.44535 45:427.14179 
-0 -0 -0 -0 0 0 0 0 0 0 0 0 0 0 0 0 0 0 0 0 0 0 0 0 0 0 0 0 0 7.692761790061587e-09 0 0 0 0 0 0 0 1:3353.3084 2:2539.1776 3:2698.0453 4:-613.22121 5:1018.3033 6:-68.862107 7:225.68332 8:493.46492 9:-1105.1224 10:-791.14921 11:427.19026 12:556.85989 13:461.92618 14:-636.63556 15:-403.95921 16:354.10356 17:-227.78646 18:133.61505 19:-294.61058 20:-308.65492 21:51.55521 22:-403.90317 23:-77.065142 24:173.87601 25:181.44722 26:-248.46736 27:162.01538 28:-194.09364 29:67.893724 30:569.28177 31:-323.40028 32:-385.95487 33:-193.91811 34:296.97685 35:-152.17393 36:283.31391 37:-74.197809 38:-243.35705 39:-154.68757 40:158.48882 41:-290.49991 42:-249.25249 43:129.01591 44:-98.54419 45:147.94513 
-2.982099250087086e-09 -0 -0 -0 0 7.189341419883645e-09 0 3.241626404091985e-09 0 0 0 0 0 1.663660149558265e-08 1.425507682488717e-09 0 3.552364400758438e-09 0 6.943830204643188e-09 0 0 0 0 0 0 0 0 7.81549269207842e-09 0 0 0 0 0 0 0 0 7.338060838016393e-09 1:1477.2504 2:2044.3436 3:3325.6271 4:-1223.5438 5:315.86282 6:-394.30941 7:-29.830705 8:1005.9776 9:-1704.2696 10:-1486.1845 11:770.45849 12:524.72055 13:299.94606 14:-135.4776 15:-334.98543 16:482.24009 17:-577.95633 18:435.74451 19:-360.15213 20:208.48696 21:-26.350507 22:-135.99952 23:-48.835983 24:-3.003721 25:-396.16085 26:-758.18982 27:381.75707 28:-197.2698 29:-306.10689 30:434.66784 31:-620.96144 32:-681.40953 33:-167.26701 34:368.86728 35:-412.42029 36:-87.262084 37:216.7365 38:-663.61161 39:90.081651 40:379.21271 41:101.02394 42:-362.08378 43:451.43781 44:-93.754818 45:-127.85607 
-6.339634789257024e-08 -7.768376097602612e-08 -7.300299252766082e-08 -6.104817582614478e-08 6.455696657178526e-08 6.095503474213031e-08 6.078119444754612e-08 7.021217082761772e-08 5.883242860547001e-08 5.565116905679297e-08 5.605250766280958e-08 4.370487206561605e-08 5.531824566303284e-08 4.638550889797377e-08 5.98784291718694e-08 8.086625375461878e-08 5.786344897054309e-08 7.066799209874325e-08 3.856925431248271e-08 7.828945863572666e-08 5.807436436301235e-08 7.719216810340468e-08 5.766889006754616e-08 6.002630230328697e-08 1.171295865119409e-07 1.116966713887278e-07 5.082849885096866e-08 7.259703023945473e-08 5.853432846035389e-08 1.094808330358644e-07 6.572901800496497e-08 8.248998409023252e-08 7.935122371899228e-08 8.022642171993122e-08 9.592612306994184e-08 8.647691168620891e-08 4.14447528906836e-08 1:2434.5899 2:2085.5047 3:2067.4338 4:30.605417 5:961.58748 6:240.73308 7:568.19661 8:526.68775 9:-758.37685 10:-678.24991 11:578.76102 12:241.68628 13:650.16956 14:-429.11668 15:-24.532321 16:294.53487 17:-240.76896 18:104.81187 19:-352.4486 20:-47.945029 21:136.41895 22:-309.75332 23:60.860299 24:406.30681 25:266.25521 26:-320.64165 27:443.22274 28:-127.47889 29:296.03223 30:25.160265 31:-529.999 32:-128.15308 33:-627.07684 34:329.70279 35:-186.30351 36:505.59413 37:227.44789 38:208.89592 39:-102.30934 40:269.37896 41:-153.4413 42:-281.26472 43:-365.03666 44:352.0861 45:-97.584538 
-0 -0 -0 -0 0 0 0 0 0 0 0 0 0 0 0 0 0 0 0 0 0 0 0 0 0 0 0 0 0 1.872427171025417e-08 0 0 0 0 0 0 0 1:2115.0673 2:2440.5496 3:3242.8127 4:-1001.3983 5:1092.3066 6:-430.67996 7:274.23678 8:939.93952 9:-1392.3117 10:-931.14448 11:760.28628 12:439.19532 13:547.18532 14:-141.94522 15:-731.90923 16:394.3921 17:-492.57708 18:476.50006 19:-241.31331 20:-43.564792 21:134.71348 22:-329.60848 23:60.482452 24:-99.030138 25:-327.63785 26:-171.76899 27:-84.272393 28:68.182196 29:-50.602044 30:540.19336 31:-119.14073 32:-593.83213 33:205.61123 34:102.06103 35:-542.08968 36:-192.4398 37:-126.17546 38:-446.35556 39:-162.96221 40:156.76968 41:54.565576 42:-82.042386 43:719.87271 44:-503.58181 45:-73.969981 
-0 -0 -0 -0 -0 0 0 4.008588116219656e-10 2.7077599765698e-08 0 0 0 0 1.860431292042811e-08 0 0 0 0 1.119934235552577e-08 0 1.071251814010714e-08 0 1.285560826256975e-08 0 9.445124216305542e-09 0 0 0 0 0 0 0 0 0 0 0 2.860876661963219e-08 1:586.71022 2:-1751.7339 3:143.06395 4:-107.45959 5:-898.95052 6:-160.52378 7:797.27597 8:0.649208 9:-1634.0268 10:208.30741 11:222.3694 12:11.187523 13:-663.82447 14:1280.3724 15:322.06468 16:870.37063 17:505.76929 18:-960.87745 19:-61.641552 20:-391.69153 21:-69.507936 22:461.70285 23:372.44713 24:-112.70051 25:-201.29209 26:11.109717 27:676.94792 28:-185.2393 29:51.940114 30:213.06797 31:393.80423 32:649.54934 33:60.861455 34:131.4202 35:126.58987 36:385.42804 37:-31.474364 38:620.51833 39:-7.083938 40:-443.90388 41:158.59274 42:82.987261 43:78.344504 44:-84.238751 45:-72.119904 
-0 -0 -0 -0 -0 0 0 0 0 0 0 0 0 0 0 0 0 0 0 0 1.099428947985817e-08 0 0 0 0 0 0 0 0 0 0 0 0 0 0 0 0 1:833.02987 2:-2126.3703 3:292.36096 4:-155.39305 5:-260.22528 6:-719.71783 7:550.04262 8:34.069835 9:-1409.4989 10:-19.233698 11:19.606982 12:235.2462 13:-917.32979 14:1418.7158 15:538.42772 16:898.6344 17:624.64361 18:-1087.6704 19:-183.73777 20:-87.280345 21:-355.46328 22:248.73972 23:324.99116 24:-278.1659 25:-26.595898 26:111.17358 27:533.54656 28:0.629587 29:-227.00274 30:-61.343438 31:672.66873 32:218.40974 33:-37.117758 34:298.68165 35:79.55375 36:522.6485 37:16.044969 38:565.52731 39:16.23928 40:-49.485787 41:-281.82789 42:-64.400709 43:388.6734 44:-539.60857 45:172.72557 
-1.090174281740851e-07 -1.392345106585579e-07 -1.136086422342289e-07 -9.614929862408188e-08 -6.455696657178526e-08 9.144873497688434e-08 1.578767664031002e-07 1.271132223852785e-07 1.379299652113997e-07 1.052138347628187e-07 9.680461859245223e-08 4.551755372662302e-08 1.211666221183956e-07 5.982125984493993e-08 1.236345506384031e-07 8.911953071437735e-08 1.218983009417908e-07 1.18728922719555e-07 5.595243979478588e-08 7.278999615052737e-08 8.961784796914162e-08 7.600276603238025e-08 1.018240659312188e-07 8.380824458525522e-08 5.689855576745045e-08 8.394039752150516e-08 1.298642414784867e-07 1.151174362474445e-07 8.591991436489978e-08 6.528429728169844e-08 1.783073743918949e-07 1.077576919238163e-07 1.484679537779926e-07 1.487818436717929e-07 1.428684266800565e-07 1.611298250794533e-07 6.546064393338755e-08 1:1132.0811 2:-1367.5075 3:34.923138 4:793.34142 5:78.137559 6:-528.42368 7:970.09483 8:-190.97192 9:-827.03933 10:300.81258 11:192.85553 12:-1.339719 13:-677.3613 14:1092.2043 15:218.30784 16:635.37295 17:726.85617 18:-598.96423 19:-319.08516 20:-26.219631 21:-184.75025 22:395.85819 23:207.72986 24:-292.38966 25:23.170722 26:258.25718 27:482.27015 28:86.528441 29:-122.40377 30:-140.66787 31:481.01319 32:-131.23113 33:-135.89212 34:146.35128 35:-315.02482 36:205.2567 37:145.0557 38:168.1967 39:-11.562398 40:76.492209 41:-331.89243 42:-85.361772 43:173.7212 44:-46.92782 45:-199.64674 
-0 -0 -0 -0 -0 0 0 0 0 0 0 0 0 0 0 0 0 0 0 0 0 0 0 0 0 0 0 0 0 1.880559295716812e-08 0 0 0 0 0 0 0 1:1515.236 2:-1446.2181 3:206.35246 4:609.78443 5:-20.12832 6:-672.94327 7:921.22654 8:-484.29838 9:-1034.2623 10:395.99404 11:211.22345 12:148.05025 13:-921.31976 14:1297.5938 15:270.61529 16:418.59075 17:1033.624 18:-683.80768 19:-447.63743 20:168.33236 21:-200.08261 22:570.52701 23:202.04362 24:-399.23731 25:1.6349 26:-11.491475 27:585.66806 28:143.11838 29:-372.85089 30:-268.05488 31:175.69596 32:-326.05811 33:-336.57536 34:244.62514 35:-90.509882 36:-41.739065 37:-181.79395 38:115.83629 39:-29.430106 40:-207.68166 41:-207.63676 42:-185.83288 43:183.73819 44:-465.65787 45:-109.53163 
-1.963585672962776e-09 -0 -0 -0 -0 1.581054855340271e-08 0 0 0 0 0 0 0 4.597320470091279e-09 1.104465372483685e-08 0 2.444175245126655e-08 6.324164628610893e-09 0 0 0 0 0 2.343595604895232e-08 0 2.956165666210076e-08 0 0 0 0 -0 0 0 0 0 0 0 1:510.06457 2:-1632.0951 3:3.847281 4:-35.107854 5:-1045.1626 6:-354.88897 7:1092.0519 8:-397.10127 9:-1742.1886 10:129.57696 11:278.91747 12:-138.11944 13:-428.42002 14:1176.112 15:209.95706 16:504.45929 17:618.65189 18:-891.76472 19:-11.885372 20:-529.48142 21:-76.873673 22:821.49782 23:496.19985 24:162.89333 25:-269.0526 26:-5.370579 27:639.88871 28:-47.985091 29:153.61067 30:33.429764 31:137.45608 32:614.94696 33:-314.81513 34:279.37623 35:73.270767 36:380.64069 37:-52.214939 38:631.94036 39:81.874187 40:-291.96548 41:209.73495 42:145.35057 43:85.776426 44:-126.4091 45:-121.64571 
-0 -0 -0 -0 -0 -0 0 0 0 0 0 0 2.04279815404961e-08 8.691521631021201e-09 0 0 0 0 0 0 0 6.610463240346206e-09 0 2.445948343220659e-09 0 4.032927503391211e-09 0 0 0 0 0 0 0 0 0 0 0 1:-1593.6546 2:459.93623 3:362.52562 4:-22.496207 5:323.78095 6:400.57697 7:650.89862 8:-1392.2469 9:606.1091 10:610.13037 11:86.457766 12:454.59256 13:-525.95043 14:-176.10809 15:38.360108 16:-284.75749 17:105.36258 18:241.49929 19:-457.38093 20:391.58812 21:598.92561 22:402.81307 23:-545.52001 24:658.79798 25:-7.356997 26:446.86179 27:703.66961 28:-726.70974 29:201.1361 30:249.62234 31:-283.79186 32:-227.9279 33:492.64236 34:288.52902 35:613.60751 36:17.435103 37:-558.50365 38:-263.28956 39:-260.18341 40:2.434769 41:67.906453 42:-384.0101 43:10.963518 44:192.29537 45:203.5305 
-0 -0 -0 -0 -0 -0 0 0 4.345280800627395e-08 0 0 0 0 0 0 0 0 0 0 0 0 0 0 0 0 0 0 0 0 0 0 0 0 0 0 0 0 1:-1899.8544 2:-231.83071 3:735.89109 4:-976.46879 5:88.601499 6:-379.30571 7:232.8364 8:59.650267 9:-45.259281 10:-273.72477 11:-698.39148 12:237.22089 13:-227.56511 14:-369.13699 15:24.367409 16:-847.85774 17:-47.35002 18:244.60143 19:-514.95872 20:637.40183 21:719.98397 22:-115.26433 23:-32.321087 24:-181.34435 25:-155.46956 26:-225.97853 27:437.67815 28:538.10614 29:27.77133 30:-214.07947 31:357.83861 32:116.59617 33:327.9678 34:-159.09766 35:460.94508 36:-9.308206 37:-48.880031 38:105.77285 39:-314.36546 40:-189.68075 41:494.27553 42:-416.98256 43:-96.253629 44:261.66524 45:-144.68627 
-1.844511818836448e-07 -1.102660949904133e-07 -1.315688596596624e-07 -5.41730582338457e-07 -6.814437616201394e-08 -1.072592835302871e-07 1.600571565763405e-07 1.623863050988448e-07 8.391489601617989e-08 1.469328151841901e-07 8.106076176901334e-08 7.626290669740114e-08 9.02348179113334e-08 2.199407775906908e-07 1.875077258203619e-07 1.251481801667522e-07 2.544924228439945e-07 2.475283192671606e-07 9.878675682459176e-08 7.480855402004058e-08 1.609414771141128e-07 1.041807782588526e-07 1.066784745823165e-07 1.122887229898228e-07 1.248244782745136e-07 1.707341599253496e-07 7.947407699852464e-08 3.558314277023033e-07 2.542994731561463e-07 9.199436840553944e-08 1.421584533275711e-07 1.270463307848821e-07 2.995787069795986e-07 1.434453795691423e-07 1.429072887943456e-07 1.633418982704893e-07 1.999066412267856e-07 1:-1430.8733 2:281.23197 3:365.18296 4:-95.723454 5:502.2115 6:-8.833092 7:692.63014 8:-298.67813 9:342.42129 10:277.15095 11:-220.68955 12:123.5107 13:-171.14483 14:-110.53183 15:35.819602 16:-453.1854 17:-37.363439 18:219.92809 19:-259.54301 20:305.51131 21:412.53708 22:16.45359 23:125.56007 24:109.6296 25:6.842356 26:41.214966 27:436.91021 28:5.622861 29:147.97376 30:-114.99154 31:225.14997 32:-0.015015 33:302.85271 34:60.759746 35:340.69624 36:86.387605 37:-73.676375 38:-103.54619 39:-301.60362 40:-10.301403 41:210.27135 42:-337.21735 43:-109.69952 44:124.46622 45:-245.46353 
-0 -0 -0 -0 -0 -0 0 0 0 0 0 0 0 0 0 0 0 0 1.303145718622212e-08 0 0 0 0 0 0 0 0 0 0 0 0 0 0 0 0 0 0 1:-1890.1933 2:562.72811 3:379.83553 4:-259.37385 5:205.70877 6:210.90804 7:568.56901 8:-711.58735 9:393.89607 10:378.04706 11:14.406558 12:270.83784 13:-428.95861 14:-162.16886 15:-124.82685 16:-392.86212 17:119.90311 18:266.07468 19:-537.55078 20:464.25236 21:656.19008 22:266.94034 23:-353.26 24:303.20146 25:-18.156199 26:384.83667 27:606.18431 28:-338.21864 29:224.92864 30:87.597593 31:-148.82593 32:-211.18624 33:396.94477 34:71.441576 35:553.8253 36:-126.04408 37:-447.91932 38:-103.99575 39:-236.77175 40:-47.235829 41:199.23544 42:-395.13154 43:8.639824 44:305.29235 45:158.45322 
-0 -0 -0 -0 -0 -0 -0 0 9.282976516277914e-08 0 0 0 0 0 0 0 0 0 0 0 0 0 0 0 0 0 0 0 0 0 0 0 0 0 0 0 0 1:120.30633 2:-1618.9804 3:-614.08774 4:578.34582 5:295.88322 6:261.82909 7:-613.74299 8:721.53211 9:-501.99843 10:-228.14441 11:140.58505 12:-333.52406 13:198.12839 14:12.456844 15:-75.925451 16:-595.68608 17:-230.30747 18:-808.03899 19:-7.269073 20:395.91258 21:304.05175 22:71.686125 23:356.43975 24:229.89347 25:-245.38985 26:-516.07405 27:-367.17621 28:-180.50119 29:-236.87198 30:-202.80767 31:-558.8511 32:-541.48309 33:1148.2199 34:-4.684842 35:-172.13132 36:89.553334 37:145.53983 38:132.23901 39:-211.94318 40:96.763304 41:26.623011 42:486.98044 43:-209.11183 44:-392.43451 45:-218.66959 
-0 -5.519996701821616e-08 -0 -0 -1.670458853991551e-08 -5.299790326148661e-08 -0 0 3.062208963930075e-08 0 4.190678474882927e-09 0 4.931233398710774e-08 0 0 3.81055396675925e-08 0 0 0 1.558962883359359e-08 0 0 0 0 0 0 7.148298817053478e-09 0 0 1.285495658007784e-08 1.223485866182055e-07 1.906807717402831e-09 0 8.677025180964346e-08 0 0 0 1:1031.8834 2:-1533.1659 3:-817.58261 4:1776.8311 5:697.83551 6:833.91221 7:-80.671191 8:311.19376 9:-407.96238 10:-949.40156 11:87.767259 12:-173.72961 13:103.22697 14:28.4968 15:-172.86522 16:-599.55605 17:-188.89496 18:-763.43187 19:12.04233 20:620.79514 21:-358.08945 22:53.527504 23:539.89705 24:5.206458 25:-95.797221 26:-315.87429 27:76.933259 28:10.340041 29:-391.16655 30:-94.946387 31:-246.40873 32:-352.55203 33:652.2091 34:-268.55066 35:105.14143 36:-246.60193 37:187.44063 38:-27.840061 39:0.042963 40:0.143685 41:23.351335 42:289.52012 43:-22.625302 44:-57.429815 45:-343.90947 
-0 -0 -0 -0 -0 -0 -2.947982493705556e-08 9.44520877840709e-09 0 1.96965558067949e-08 0 0 0 0 0 0 0 2.640661054505197e-08 0 0 0 0 0 0 1.532389841219241e-08 0 0 1.623296380067764e-08 0 0 0 0 0 0 0 0 1.976217024081792e-08 1:-1160.8529 2:-1431.3822 3:-370.60676 4:-127.16758 5:259.55672 6:-30.572272 7:-771.9184 8:960.04237 9:-563.34874 10:198.16196 11:481.32637 12:-345.81363 13:334.005 14:225.2802 15:-59.777355 16:-541.26342 17:-165.64991 18:-755.35452 19:-11.99883 20:290.3503 21:405.3659 22:130.80646 23:234.31901 24:493.58199 25:-152.84551 26:-438.9797 27:-568.78655 28:-294.68621 29:-152.20537 30:-219.91903 31:-610.13059 32:-431.8456 33:1239.0263 34:230.41244 35:-274.0463 36:492.2561 37:76.653464 38:288.59066 39:-221.84465 40:320.94884 41:-36.33064 42:277.16176 43:-289.32638 44:-334.40588 45:-135.57882 
-0 -0 -0 -0 -0 -0 -0 0 0 0 0 0 0 0 0 0 0 0 0 0 0 0 0 0 0 0 7.985529430335441e-09 0 0 0 0 0 0 0 0 0 0 1:817.59168 2:-1560.722 3:-785.70545 4:1403.128 5:689.67402 6:611.58233 7:-124.36422 8:570.05534 9:-152.65688 10:-455.59464 11:-29.391874 12:-250.88487 13:72.601079 14:-139.39947 15:-46.955973 16:-567.00423 17:-129.72693 18:-896.72047 19:-149.86052 20:434.02982 21:-195.99894 22:43.332516 23:508.39098 24:279.70357 25:19.043853 26:-286.51657 27:-376.05263 28:-99.751328 29:-152.84061 30:-278.0165 31:-408.09569 32:-558.94822 33:983.89136 34:-144.23927 35:-58.784162 36:-60.213317 37:256.92315 38:-57.288605 39:-188.63363 40:69.066855 41:-178.28386 42:509.07789 43:468.35855 44:-75.329127 45:-332.21119 
-1.024532604189086e-07 -9.236546701456602e-08 -1.693945542648871e-07 -7.041746070768769e-08 -4.407660590763061e-08 -9.842486321461189e-08 -6.57740354806285e-08 1.140407386030125e-07 1.055663773188461e-07 1.124899491979427e-07 1.147117323611805e-07 1.819518941615986e-08 1.732380185528059e-08 4.005364651299358e-08 1.393942724430451e-07 6.530966116594368e-08 1.46695825443294e-07 1.703194676841227e-07 7.508233937403511e-09 5.33634072043351e-08 9.68231623656554e-08 7.736246719737477e-08 1.02860002949661e-07 8.400709698675285e-08 6.653703185382758e-08 8.752416453912622e-08 9.42367184841061e-08 1.06763001753207e-07 5.105773625747775e-08 7.178535460130536e-08 1.780005692615015e-07 1.000492325890555e-07 1.617469242393007e-07 1.184166550710525e-07 1.214618252981856e-07 1.604376531064577e-07 3.449860543741633e-08 1:50.767178 2:-1104.565 3:-633.94038 4:897.61439 5:776.84655 6:181.12064 7:-52.771085 8:624.11016 9:-79.821659 10:86.351812 11:192.98807 12:-421.09092 13:194.56388 14:59.117937 15:-166.5249 16:-401.50936 17:-44.852229 18:-728.21618 19:-135.44392 20:258.05034 21:-41.636545 22:-34.502211 23:436.76042 24:308.35252 25:119.17834 26:-136.37355 27:-500.66988 28:-181.82639 29:-27.400101 30:-329.15859 31:-443.50228 32:-558.7199 33:859.49621 34:-68.600521 35:-137.72896 36:13.236667 37:301.33938 38:-29.417119 39:-109.6417 40:247.20136 41:-290.04219 42:377.36155 43:334.03492 44:-135.07987 45:-281.97705 
-0 -0 -0 -6.029998064334046e-08 -0 -6.453999927001655e-09 -5.12613434236591e-08 3.961323583807887e-08 0 2.384125899270043e-08 7.575451280004785e-09 4.509191021624696e-08 8.03880899040162e-08 2.765385438804594e-08 0 1.265347209383527e-08 0 0 7.383221589850889e-08 3.868527558447503e-09 1.424434597558003e-07 1.08265778392794e-08 0 0 0 0 0 1.060436116268334e-08 9.545258677305029e-08 0 7.087591231964147e-09 7.394564738273882e-08 5.201299582567556e-08 0 1.042437708127839e-08 0 8.876012828477008e-08 1:-318.32426 2:-1225.4553 3:-650.64594 4:1126.5459 5:644.44401 6:121.30751 7:-532.86184 8:550.83866 9:-353.60276 10:-379.1956 11:290.50547 12:-242.86375 13:98.072062 14:254.46308 15:-161.08562 16:-474.01879 17:-96.828816 18:-671.44279 19:165.6183 20:471.83802 21:6.689942 22:70.233494 23:285.62258 24:125.52401 25:-85.467039 26:-357.61478 27:-18.293766 28:-60.177347 29:-336.53362 30:-141.72731 31:-411.32876 32:-384.27614 33:740.7618 34:-72.946964 35:-1.092428 36:51.29635 37:100.02716 38:54.318662 39:-124.86978 40:130.21406 41:-137.30583 42:313.33849 43:-287.85444 44:-40.651465 45:-251.12081 
-2.305385911374499e-08 -0 -0 -1.800205444232334e-08 -0 -0 -1.354195273499731e-08 0 6.659272315415659e-10 0 0 0 0 2.698231431031308e-08 0 0 2.504329268624015e-08 0 0 0 0 0 4.183736497091374e-08 3.819471579801832e-08 0 2.208954400941537e-08 0 6.221414766931288e-09 0 0 0 0 0 0 0 0 0 1:-1038.6329 2:-1309.1323 3:-625.12668 4:158.4139 5:121.89729 6:-27.895269 7:-573.54576 8:678.3666 9:-713.75372 10:-85.693488 11:493.24336 12:-420.15136 13:382.06333 14:203.19295 15:-43.413758 16:-492.18078 17:-300.18978 18:-799.49859 19:247.30726 20:272.10785 21:500.5325 22:159.31249 23:395.27219 24:385.02787 25:-86.114694 26:-700.45088 27:-392.13151 28:-121.95774 29:-119.33769 30:-291.79008 31:-651.92282 32:-277.5967 33:863.60334 34:158.07946 35:-313.19568 36:419.85345 37:22.447511 38:309.46677 39:-280.5697 40:396.1304 41:82.010027 42:502.12673 43:-717.92664 44:-153.12678 45:-149.65777 
-0 -5.549064701551888e-08 -0 -0 -2.127412159222562e-08 -2.088929798615262e-08 -0 -0 0 1.545462660059375e-08 0 0 7.397426421996715e-08 0 0 1.295978824878812e-09 0 0 0 1.390632736081012e-08 0 0 0 1.381304072594206e-08 0 0 9.781976538740386e-09 0 0 1.75150086665991e-08 1.386538008607445e-08 2.452360131754605e-08 0 9.496932499789261e-09 0 0 0 1:-202.54605 2:-322.8589 3:955.49288 4:1818.0452 5:1179.8348 6:-166.86734 7:-555.2854 8:-56.389948 9:-1306.7898 10:286.31633 11:160.12819 12:401.55883 13:-96.639844 14:-303.55113 15:1306.6924 16:809.70543 17:13.797171 18:250.65956 19:-453.64653 20:-96.068498 21:106.64835 22:535.31442 23:-489.7577 24:-305.79311 25:14.669419 26:414.07533 27:-373.48049 28:-283.64813 29:350.33251 30:121.345 31:-563.00661 32:528.20834 33:491.60418 34:-195.48399 35:530.1615 36:51.524291 37:55.699436 38:271.18366 39:-377.61225 40:-315.18154 41:162.92218 42:31.556386 43:-17.512143 44:163.10026 45:-72.058651 
-0 -0 -0 -0 -0 -0 -0 -0 6.961075642944021e-09 0 0 0 0 0 0 0 0 0 0 0 0 0 0 0 0 0 0 0 0 0 0 0 0 0 0 0 0 1:-1837.8231 2:-383.9237 3:1202.0665 4:243.60215 5:660.30491 6:-911.86653 7:-515.47438 8:1334.7549 9:-1620.9121 10:-340.74452 11:739.7356 12:583.04593 13:-434.50653 14:-45.464437 15:1172.8545 16:85.874687 17:-274.31489 18:449.79961 19:-80.803717 20:-147.30279 21:-132.14992 22:744.76312 23:-640.62362 24:-428.22718 25:245.18031 26:55.322731 27:-830.44622 28:219.94141 29:261.58212 30:-215.01083 31:-42.870276 32:240.63198 33:-187.22537 34:-265.58812 35:-228.56494 36:-105.56565 37:711.00624 38:154.69257 39:184.33914 40:-231.73552 41:-19.306616 42:-202.61573 43:104.5241 44:50.387636 45:-137.29683 
-1.306143170958767e-07 -8.13894512290226e-08 -1.130361003947076e-07 -1.176950934739891e-07 -5.21796756394841e-08 -1.066247832107478e-07 -1.104504929486216e-07 -1.630991832194985e-07 9.170297839876315e-08 1.260587447365478e-07 7.913868024519998e-08 2.371087556332298e-08 2.012912711430837e-08 5.692773983303314e-08 1.021550960603162e-07 5.271570049833206e-08 1.222925220645555e-07 1.400615643204451e-07 0 5.209130749071859e-08 1.380377717669714e-07 4.074879871702564e-08 4.416693626769708e-08 6.483374934251933e-08 5.497755031819319e-08 1.1856200248706e-07 6.785263845829369e-08 1.603241474245308e-07 1.047019322082855e-07 5.615149432272995e-08 1.166525028647616e-07 7.996017381619867e-08 1.934870430375165e-07 1.118514687089869e-07 1.185011258439487e-07 1.22011844382001e-07 6.920217844594106e-08 1:-703.23991 2:-211.2861 3:700.35799 4:1261.9761 5:1143.6568 6:-646.72456 7:65.526684 8:673.26032 9:-983.74754 10:277.00339 11:365.44449 12:281.66875 13:-67.755357 14:-153.71274 15:962.02126 16:271.43721 17:-96.531702 18:283.09607 19:-351.99006 20:-423.0681 21:-77.72111 22:628.3114 23:-110.67217 24:-141.12148 25:202.70219 26:278.44827 27:-713.09668 28:-38.338169 29:432.93232 30:-364.20526 31:-122.06211 32:168.33443 33:34.754804 34:-297.44747 35:148.3328 36:123.60256 37:487.70889 38:418.27634 39:-56.582458 40:0.266256 41:64.327497 42:-44.152732 43:300.50007 44:210.36721 45:-303.23536 
-0 -0 -0 -3.017254110643655e-08 -0 -0 -5.19358121502231e-08 -0 7.328118400656666e-09 0 0 4.064334566686837e-08 2.685782717583477e-08 4.412982938360539e-08 0 3.938178987364272e-08 0 0 1.049294166904007e-07 0 0 3.41051686700428e-08 3.684340629477415e-08 0 3.957751520604678e-08 0 0 0 3.932571610640985e-08 0 0 1.276107610589242e-08 0 1.617883392446044e-08 0 0 4.163250091635173e-08 1:-1065.0106 2:-37.153304 3:888.04312 4:1336.3234 5:867.14339 6:-386.48083 7:-458.43669 8:356.50339 9:-1339.7289 10:66.835264 11:361.27187 12:356.673 13:-126.22538 14:-208.02654 15:1046.2387 16:652.07116 17:16.238458 18:362.28718 19:-392.33262 20:-44.889646 21:-16.76823 22:592.89355 23:-534.08733 24:-379.07286 25:101.36124 26:379.70915 27:-388.4905 28:-109.19332 29:289.98394 30:-20.981566 31:-440.64974 32:368.04182 33:266.93936 34:-194.78975 35:130.93531 36:-97.584861 37:325.99143 38:94.550025 39:-148.0704 40:-247.96246 41:40.03485 42:-73.19838 43:-113.61963 44:76.93051 45:-63.881095 
-0 -0 -0 -0 -1.080043325166674e-08 -0 -0 -0 -0 0 0 0 0 0 0 0 0 0 0 0 2.266204199402371e-08 0 0 0 0 0 0 0 0 2.386726506252168e-08 1.540659968442154e-08 0 0 0 0 0 0 1:1790.1653 2:-1621.457 3:-1064.3515 4:-564.03745 5:284.10118 6:1217.9989 7:395.99841 8:653.55205 9:-422.99844 10:-1347.6701 11:-7.531068 12:334.09487 13:-1231.388 14:285.6304 15:445.95846 16:-163.71429 17:-462.55155 18:195.08348 19:120.34267 20:871.53926 21:235.14836 22:-581.86959 23:-27.381719 24:-808.02448 25:-180.05215 26:385.96867 27:253.12428 28:650.08361 29:394.44813 30:-955.4902 31:-224.74667 32:-643.37857 33:-564.29816 34:-26.382751 35:-92.276531 36:-259.31808 37:45.022152 38:-324.68391 39:40.006994 40:331.18686 41:62.314194 42:122.17809 43:-378.08962 44:138.82971 45:-420.19475 
-0 -0 -0 -0 -0 -0 -0 -0 -0 2.089900730476736e-08 0 0 0 0 0 0 0 3.225822801448818e-08 0 0 2.535559674485807e-08 0 0 0 0 0 0 0 0 0 0 0 0 0 0 0 3.649954002032038e-09 1:-745.40999 2:-2376.7066 3:-441.10532 4:-1855.2942 5:-123.76404 6:-183.85191 7:-1279.7068 8:1385.3978 9:-409.63479 10:-757.46257 11:71.226427 12:0.02396 13:-139.21467 14:245.86496 15:383.48415 16:-335.86342 17:255.16833 18:-21.372923 19:437.81615 20:704.25773 21:189.05171 22:-972.57463 23:-350.73897 24:-43.362618 25:879.02673 26:668.45281 27:149.85393 28:353.36967 29:874.25827 30:-150.16418 31:3.527653 32:-333.55915 33:209.13715 34:34.602448 35:-260.66464 36:243.53985 37:-1233.3854 38:253.56741 39:108.11631 40:-56.575171 41:-225.21463 42:-330.68734 43:-31.514783 44:7.06875 45:280.58341 
-0 -0 -0 -0 -0 -0 -0 -0 -0 0 0 0 0 0 0 0 4.346514290283594e-09 0 0 0 0 0 0 0 0 0 0 0 0 0 0 0 0 0 0 0 0 1:-272.95108 2:-2419.7508 3:-364.86716 4:-1324.3902 5:-850.16083 6:309.91311 7:-338.14339 8:1245.5715 9:-492.27118 10:-876.27709 11:-144.0294 12:297.35235 13:4.682264 14:58.056945 15:658.96411 16:-333.91412 17:121.32284 18:-68.392515 19:818.80494 20:375.43645 21:-56.371489 22:-582.71943 23:-650.43868 24:87.175828 25:598.49614 26:970.33173 27:-337.37871 28:442.82268 29:858.83686 30:-390.19159 31:217.64585 32:-175.32824 33:-21.860019 34:382.85232 35:-244.36307 36:407.96446 37:-733.74868 38:-191.47201 39:-18.025229 40:-61.683463 41:430.46303 42:-538.74405 43:-198.13957 44:378.39641 45:194.19253 
-3.835606453632369e-08 -8.721184887264076e-08 -1.312457622825284e-07 -4.029937263337735e-08 -1.876496692998921e-08 -1.274998417694148e-07 -2.696341240320807e-08 -2.296841593524676e-07 -4.981221869680602e-08 5.604571958673722e-08 1.276669790045821e-07 1.248204728339922e-08 1.009330411967639e-07 1.377735949058164e-08 6.118883537023362e-08 3.892989264425185e-08 6.021243113201857e-08 4.039869238573034e-08 3.790601986226611e-08 3.552927857473057e-08 6.691489953063891e-08 4.927726133361457e-08 2.023379332483556e-07 5.110234482469247e-08 5.029841627128565e-08 2.357065130252314e-08 1.049124419427181e-07 3.792450351855055e-08 3.892800628644348e-08 3.068011552780484e-08 2.27796151675228e-07 5.353024065459467e-08 4.63661769908019e-08 9.293602738533219e-08 5.472894851705722e-08 1.000555214979493e-07 4.161795315301108e-08 1:745.35812 2:-1670.7191 3:-1067.438 4:-108.15662 5:-378.21787 6:548.51655 7:-52.32265 8:1010.3887 9:-323.77753 10:-289.65815 11:-198.14309 12:5.955848 13:-272.36696 14:322.00083 15:428.58859 16:22.824446 17:-26.983106 18:-19.905802 19:-440.32495 20:263.92905 21:336.37002 22:-411.44302 23:164.59649 24:-148.45803 25:368.4408 26:689.15929 27:51.591227 28:293.98437 29:511.41813 30:-323.70173 31:-141.80605 32:-637.54983 33:219.85633 34:-84.587332 35:-288.30736 36:125.12146 37:-300.56351 38:-177.71996 39:-86.639278 40:342.28199 41:-153.0147 42:-20.000074 43:-116.44196 44:113.35293 45:226.81972 
-6.844429229078206e-08 -2.950951098796215e-08 -4.34989475195494e-08 -6.175470784427815e-08 -2.926702842381407e-08 -3.750772320768296e-08 -7.046482713857133e-08 -0 -5.617995374555783e-08 2.869352293727268e-08 0 3.509547721696404e-08 7.015861354053212e-09 7.112871636300638e-08 8.36356239341493e-08 6.910537393148266e-08 7.579135983201925e-08 7.106501994077747e-08 1.992217996946279e-08 3.912135260795224e-08 1.375573183473882e-08 4.450651286854521e-08 0 7.145923162983253e-08 1.612482581470114e-08 6.456932823412917e-08 7.358503956492099e-09 5.687409373926418e-08 5.902915134742245e-08 3.751750202976224e-08 1.549669941068339e-08 5.779548176727482e-08 9.366341857053003e-08 3.72537513191815e-08 4.204490059923192e-08 5.960105391040073e-08 8.152605438469736e-08 1:294.53753 2:-1301.6703 3:-861.30821 4:-510.74683 5:-244.30708 6:663.40358 7:433.55079 8:615.9984 9:-321.99123 10:-965.76649 11:212.68704 12:232.5825 13:-606.81635 14:144.38339 15:595.89796 16:-175.36959 17:93.480157 18:19.18579 19:455.23143 20:362.64435 21:-157.83924 22:-393.1821 23:-519.39791 24:-355.33659 25:121.86424 26:729.96145 27:-167.44204 28:278.8479 29:537.92715 30:-834.39736 31:-128.70423 32:-333.48936 33:-443.95462 34:202.37605 35:-201.75822 36:39.394908 37:24.57511 38:-343.86585 39:93.832589 40:232.58339 41:172.02584 42:-320.2801 43:-452.01584 44:446.53699 45:-137.45273 
-0 -0 -0 -0 -0 -0 -2.993946448067445e-08 -0 -0 0 0 0 0 0 0 0 0 2.131800235980062e-08 0 0 3.926829824717118e-08 0 0 1.18590189966899e-08 0 6.743230686281374e-09 0 2.09987584814731e-08 0 0 0 0 1.785647490143993e-08 0 0 0 0 1:-629.08951 2:-1976.0226 3:-482.53477 4:-1859.1593 5:-123.38326 6:-302.16761 7:-1074.7218 8:1280.5076 9:-390.24294 10:-695.43963 11:286.22633 12:71.659343 13:-477.12155 14:309.29103 15:499.08906 16:-189.70393 17:302.20669 18:-97.791347 19:271.86557 20:872.55616 21:286.92386 22:-942.91229 23:-182.19304 24:-494.55771 25:675.69867 26:399.93213 27:411.8953 28:203.45737 29:811.77725 30:-322.63914 31:-309.14446 32:-471.65101 33:-146.99859 34:76.580345 35:-169.8636 36:50.822775 37:-1051.2504 38:155.87835 39:57.637217 40:158.04676 41:-334.22757 42:-162.46026 43:-228.01096 44:40.865709 45:44.296362 
-0 -7.997113234100281e-09 -0 -0 -0 -0 -0 -0 -0 -0 0 0 0 0 0 0 0 0 0 0 0 0 0 0 0 0 0 0 0 4.730222946237518e-09 0 0 0 0 0 0 0 1:298.32599 2:-1680.3503 3:215.80819 4:26.945901 5:2781.7969 6:210.47156 7:-370.42997 8:-1320.4061 9:63.988971 10:459.18843 11:-450.88678 12:852.7922 13:-150.26118 14:-631.72665 15:32.997527 16:862.22126 17:-189.20041 18:-848.25717 19:-165.52767 20:-1077.4754 21:1085.0229 22:-298.8849 23:-293.7999 24:-162.76334 25:99.613626 26:-287.52313 27:-166.26937 28:-990.91778 29:-437.94155 30:235.87511 31:290.4799 32:325.41905 33:-17.584925 34:257.38117 35:662.2641 36:98.975823 37:-751.94368 38:-155.35217 39:159.14561 40:751.06938 41:321.59734 42:-357.68427 43:214.79696 44:-124.48135 45:-69.647243 
-0 -0 -0 -0 -0 -0 -0 -0 -0 -1.067684323904763e-08 0 0 0 0 0 0 0 0 0 0 0 0 0 0 0 0 0 0 0 0 0 0 0 0 0 0 0 1:-977.37005 2:-2091.5555 3:195.80963 4:-1247.6708 5:1724.5393 6:-535.30305 7:-1100.1712 8:-281.94916 9:-392.03919 10:-225.03267 11:-112.20427 12:212.4628 13:757.86232 14:-1069.5557 15:-469.66256 16:486.48418 17:435.20186 18:-1019.7735 19:-632.96815 20:-929.01535 21:734.8742 22:-1110.2417 23:177.78455 24:-117.33976 25:17.464771 26:-89.784626 27:-336.90468 28:138.4825 29:-603.82043 30:-314.8036 31:522.1552 32:11.076826 33:-603.05396 34:-123.54916 35:-378.65899 36:-265.82598 37:-109.38144 38:-117.44052 39:489.21505 40:436.0853 41:-185.05226 42:-183.83424 43:-63.668273 44:-72.500041 45:248.3253 
-6.467997679283877e-08 -5.294831992928082e-08 -7.176004189684422e-08 -6.435336213495756e-08 -5.135397704006122e-08 -1.035168195257514e-07 -8.610042821329494e-08 -1.222353070853737e-07 -8.889785695163403e-08 -8.048917795492393e-08 7.034491242038241e-08 2.505523359708894e-08 6.987749772618664e-08 4.503179397368913e-08 1.413904183262654e-07 4.398720294518822e-08 9.95115964720789e-08 1.316342681285431e-07 2.585874753496907e-08 4.949733547174846e-08 1.305971628068632e-07 3.988475553662851e-08 5.68504641693848e-08 9.679390136504559e-08 4.384207854177034e-08 1.02379347472401e-07 9.01232340627395e-08 7.149540262584491e-08 5.474529326325653e-08 6.320739716828853e-08 1.348449369214584e-07 8.2762193193281e-08 1.608366395856736e-07 9.455103366780243e-08 6.968165121440457e-08 8.370461715064866e-08 5.342972418269885e-08 1:-208.34465 2:-1473.5742 3:29.499343 4:-57.417908 5:1934.4486 6:-230.72472 7:-210.05704 8:-598.27837 9:-101.42181 10:161.56223 11:-91.239671 12:214.24136 13:564.68123 14:-646.16141 15:-366.98631 16:240.2658 17:168.98752 18:-742.38506 19:-430.01826 20:-985.47202 21:885.15603 22:-290.77943 23:214.72065 24:17.765136 25:-57.940824 26:251.7018 27:-471.19041 28:-287.86977 29:-199.18925 30:-505.00626 31:313.26278 32:181.00797 33:-407.52758 34:-195.65443 35:177.51391 36:-76.021319 37:-190.12321 38:189.13557 39:542.04779 40:500.54717 41:-45.715309 42:-239.62799 43:252.73929 44:-286.09375 45:71.260417 
-2.350591448586884e-08 -2.204142849146172e-08 -1.739538444023404e-08 -6.25087454683983e-08 -4.297192016731752e-09 -1.697015237067255e-09 -6.083238697089523e-08 -3.379245691206439e-08 -5.261551438550756e-08 -1.44722286348057e-08 5.920096295120288e-09 3.629623763325506e-08 2.740411347241849e-08 3.451457503623979e-08 7.227952957823456e-09 3.516644363990699e-08 3.833253411081166e-08 1.885111353732337e-08 3.260870148289025e-08 8.750968698398554e-09 4.926683208037856e-08 2.980367563896718e-08 1.651153635478694e-08 9.438677622839683e-09 3.001402285595594e-08 4.03890803950132e-09 0 4.177809813383359e-08 7.81037026032151e-08 3.616899238068486e-09 9.532284567291055e-09 2.583170957386665e-08 4.826268346798186e-08 1.826619397322967e-08 2.120682627818048e-08 1.476095593013337e-08 5.495119788455292e-08 1:-1920.9484 2:-826.46619 3:274.82426 4:69.583396 5:2253.7022 6:-419.59483 7:-1193.5262 8:-378.12867 9:88.218995 10:-205.52228 11:-345.66014 12:382.62122 13:360.05494 14:-490.9076 15:220.14933 16:904.77577 17:159.36164 18:-705.97058 19:-66.304176 20:-1034.3467 21:-38.76057 22:-478.56153 23:-495.97699 24:-426.40319 25:552.9038 26:-279.86811 27:475.70581 28:-360.41014 29:-406.5834 30:-200.75494 31:178.08623 32:-502.05257 33:64.664558 34:134.09133 35:-9.538902 36:-476.42348 37:64.174164 38:-360.20319 39:384.4858 40:-266.11116 41:698.69887 42:474.43508 43:-297.26424 44:368.56806 45:-188.19062 
-0 -0 -0 -0 -0 -0 -0 -0 -0 -0 0 0 0 0 0 0 0 0 0 0 0 0 0 0 0 0 1.124648289124629e-08 0 0 9.080297854368871e-10 1.226572839764916e-09 0 0 0 0 0 0 1:107.06245 2:-1724.979 3:322.14943 4:-145.272 5:2860.5483 6:254.44955 7:-482.29756 8:-1203.3561 9:12.389875 10:569.01794 11:-484.45453 12:1037.7005 13:-351.30547 14:-505.65231 15:37.118288 16:1246.7994 17:-307.36662 18:-857.95051 19:-129.28042 20:-979.19829 21:1212.252 22:-366.33098 23:-383.68369 24:-400.09206 25:210.71211 26:-414.3665 27:55.333191 28:-1077.9443 29:-552.91684 30:567.75377 31:427.03804 32:332.02725 33:27.647304 34:340.81656 35:479.28305 36:143.1941 37:-742.87339 38:-345.617 39:-75.253149 40:1048.7907 41:313.11866 42:-475.40399 43:-180.84673 44:-38.726329 45:-16.85266 
-0 -0 -0 -0 -0 -0 -0 -0 -0 -0 0 0 0 0 0 0 0 0 0 0 0 0 1.743910327266289e-09 0 0 0 0 0 0 0 0 0 0 0 0 0 0 1:-999.74279 2:-1839.6059 3:201.76903 4:-1213.334 5:1804.5696 6:-520.23625 7:-1125.8164 8:-320.86985 9:-359.18406 10:67.38667 11:-177.64171 12:451.82979 13:411.63877 14:-834.91617 15:-348.64945 16:926.17403 17:415.57111 18:-1030.1088 19:-623.47054 20:-944.86715 21:933.44949 22:-1007.8253 23:55.781528 24:-403.33003 25:207.71133 26:-356.40207 27:-46.908029 28:-197.15487 29:-746.20077 30:61.855055 31:618.05337 32:-41.740315 33:-528.6309 34:31.071018 35:-306.78492 36:-174.89923 37:-319.51928 38:-205.77008 39:186.35384 40:835.4427 41:-124.67874 42:-202.35902 43:-275.59717 44:61.500162 45:188.64794 
-3.314894778562549e-08 -0 -3.499014616838151e-08 -3.062389952736661e-08 -0 -0 -3.652811116463276e-08 -0 -7.503645280212313e-09 -2.401414057810829e-08 -3.08558514557594e-09 2.001468452755942e-08 0 3.038440476278966e-08 1.116764639445309e-08 5.662437786893705e-09 0 4.542179721250061e-08 2.206615932514108e-08 4.853069948418599e-09 0 6.433772954473281e-09 0 2.983431517043528e-08 2.516217770215546e-08 3.208974611816786e-08 0 1.705230923972507e-08 1.64792390752605e-08 9.093431862624826e-09 0 0 1.277879413935483e-08 0 0 3.231280292269302e-08 2.07042024266653e-08 1:836.87403 2:472.2334 3:-1920.1837 4:-211.44082 5:-754.661 6:-929.79495 7:-1411.5862 8:701.84639 9:175.21852 10:1135.8984 11:-7.870887 12:226.28192 13:55.859629 14:360.67072 15:-260.2588 16:386.94266 17:-640.63427 18:257.28967 19:-30.674726 20:-397.12997 21:1125.0613 22:510.70154 23:1116.6301 24:-20.36427 25:-367.07603 26:425.66145 27:7.65332 28:463.18802 29:-15.150324 30:408.22892 31:-558.61786 32:-595.34613 33:-424.93732 34:186.46748 35:-38.860315 36:-479.87946 37:-159.7741 38:-300.8654 39:-283.98325 40:-389.41511 41:163.21582 42:355.91979 43:-98.336462 44:-95.970261 45:-153.68704 
-0 -0 -0 -0 -0 -0 -0 -0 -0 -0 -0 0 0 0 0 0 0 0 0 3.02871654446916e-08 0 4.116139033622856e-08 5.3070669504329e-08 0 0 0 0 0 0 0 0 0 0 0 0 0 0 1:1461.7611 2:602.80863 3:-2144.0906 4:271.13127 5:-1378.3823 6:-429.73621 7:-1363.1263 8:897.20389 9:368.42069 10:846.66868 11:-352.75188 12:323.78088 13:455.52477 14:249.09721 15:-362.77962 16:155.10745 17:-433.86449 18:68.596927 19:-240.45092 20:-685.94129 21:1173.795 22:474.70872 23:598.87245 24:-283.40855 25:-106.94324 26:-52.46656 27:82.520322 28:329.01875 29:94.099766 30:567.85683 31:-667.71494 32:-129.11984 33:-536.48165 34:-38.56932 35:5.576024 36:-554.85549 37:225.79139 38:-23.511068 39:-141.80985 40:-509.975 41:414.15161 42:176.43449 43:255.58192 44:5.673484 45:-146.95479 
-5.286969578875615e-08 -1.229351024081898e-07 -8.430353772398958e-08 -5.121077434660547e-08 -4.450242896501179e-08 -9.608901041764318e-08 -4.453265060438059e-08 -1.264778621160682e-07 -7.163503496498766e-08 -8.041665155955734e-08 -6.777166929137668e-08 4.209538334682381e-08 7.884410682262874e-08 1.686488681353176e-08 6.836525567881851e-08 5.90181347597662e-08 6.731177500620273e-08 6.144258327838979e-08 1.981559889488782e-08 7.887428569182946e-08 5.984559334865952e-08 4.58853564433484e-08 7.863029379015739e-08 6.741455974682088e-08 3.409173639029069e-08 5.294120532543607e-08 7.661243344048214e-08 6.626068038617106e-08 6.653522659867535e-08 7.791301376416426e-08 1.069220790914524e-07 8.900917284897437e-08 6.205802692968588e-08 1.493415892894789e-07 8.814252035404092e-08 1.091654136111592e-07 2.67313596723792e-08 1:1603.7833 2:149.93195 3:-1732.1795 4:859.12753 5:-165.38016 6:-779.64832 7:-1061.9183 8:844.95606 9:468.5239 10:1025.6446 11:-111.81457 12:207.03544 13:354.54561 14:687.41911 15:-439.74907 16:-200.89715 17:-378.81198 18:-328.16363 19:-88.296074 20:-293.31313 21:584.71883 22:374.10835 23:472.79887 24:-24.45469 25:396.82997 26:496.18601 27:-4.644495 28:144.93193 29:-113.4846 30:262.58072 31:-371.31658 32:-521.40789 33:-556.71504 34:68.004794 35:134.215 36:-275.06046 37:-12.105365 38:-184.42132 39:-268.68051 40:-25.856821 41:-61.569276 42:28.1277 43:410.6717 44:517.18598 45:28.315254 
-0 -0 -2.225585613944196e-08 -0 -1.155007869779779e-08 -7.156081748090586e-10 -0 -0 -0 -2.323618686691649e-08 -0 0 1.398282610149582e-08 1.133203332610654e-08 0 2.332475584325426e-08 0 0 1.588221408353743e-08 0 0 5.517148360397833e-09 0 0 1.186786044282158e-08 0 0 2.476324777174998e-09 0 0 2.102330974526233e-08 1.099846044134849e-08 0 0 1.511903264601897e-08 0 1.800014739441655e-08 1:1854.3747 2:152.50211 3:-1760.9477 4:952.65596 5:-1139.1885 6:-284.73296 7:-1055.8368 8:1092.8724 9:305.80721 10:509.06202 11:-277.40632 12:264.75492 13:599.72759 14:844.40915 15:-714.89461 16:-565.30042 17:-361.3201 18:-125.65794 19:146.57954 20:-864.64325 21:791.99329 22:135.21025 23:207.37341 24:-408.91252 25:74.664946 26:233.49532 27:124.47026 28:263.61423 29:-22.081985 30:459.18 31:-220.83088 32:53.615502 33:-512.73706 34:-94.912726 35:396.8732 36:-77.672815 37:330.39719 38:134.34788 39:-85.895807 40:-256.09672 41:82.700837 42:-365.84665 43:214.2951 44:180.66114 45:-89.861726 
-0 -0 -0 -0 -0 -0 -0 -0 -0 -0 -5.407754278550063e-09 0 0 5.159486255062313e-09 1.157200423255132e-09 0 1.417814440678207e-08 0 0 0 2.810031734858803e-08 0 0 5.461483484222842e-10 0 0 0 0 7.474777343434685e-10 0 0 0 2.519071613571582e-08 0 0 0 1.888523010338876e-09 1:955.20546 2:250.25135 3:-1891.7657 4:19.514972 5:-856.30453 6:-1003.8999 7:-1414.6366 8:690.43886 9:99.149048 10:934.5848 11:-69.985575 12:272.53719 13:278.89569 14:579.39144 15:-444.46125 16:75.570323 17:-859.50885 18:254.4711 19:407.53433 20:-711.53296 21:1080.9375 22:263.73376 23:1119.0851 24:0.745104 25:-328.42366 26:369.38885 27:21.280469 28:592.35077 29:-14.940922 30:393.30282 31:-422.00458 32:-386.84724 33:-356.83602 34:298.57865 35:133.45703 36:-39.147482 37:-26.581226 38:-210.70349 39:-315.6842 40:-376.25435 41:31.622222 42:211.79157 43:-374.19423 44:-196.51525 45:-277.37949 
-0 -0 -0 -0 -0 -0 -0 -0 -0 -0 -0 -0 0 0 0 1.981265546192298e-08 0 0 0 1.743597171970751e-08 0 2.880614741633592e-08 0 0 0 0 0 0 0 0 0 0 0 0 0 0 0 1:-782.51794 2:3636.8086 3:-3019.4692 4:519.67169 5:2045.1858 6:-7.594038 7:278.37542 8:-525.95577 9:-1149.9119 10:82.907259 11:-375.35122 12:136.81927 13:9.347755 14:142.25526 15:-166.63194 16:-289.89614 17:421.42146 18:119.6629 19:1150.7336 20:-585.78784 21:691.22465 22:322.77139 23:759.39442 24:-572.55438 25:178.6656 26:-287.99718 27:-33.010594 28:290.96437 29:-196.83717 30:-643.94114 31:-733.12381 32:1026.0013 33:231.96282 34:202.06869 35:-365.6383 36:179.49405 37:-315.5454 38:58.169022 39:115.05621 40:-250.68004 41:52.021732 42:-82.723354 43:192.86695 44:-210.51554 45:241.85953 
-1.289906455729226e-08 -0 -2.142489453167879e-08 -1.778314401257922e-08 -2.191390778731435e-09 -6.513851821873634e-09 -2.905557777883296e-08 -2.306997027234889e-08 -3.323312945138903e-08 -1.389051312072048e-08 -2.700228169788784e-08 -1.875578507826174e-09 1.61574762959234e-08 1.685036563076283e-08 8.141685508015781e-09 4.439881411096796e-09 2.467748158286933e-08 1.688793363379559e-08 1.150534371830692e-08 1.391802172741185e-08 2.00526989279079e-08 0 7.909888324613876e-09 9.144795080981921e-09 2.182602684190633e-08 1.636827803892009e-08 4.034103414100676e-09 1.944513756960487e-08 2.610544344107447e-08 0 7.350348250491114e-09 5.03080854687601e-09 2.436256604968897e-08 0 0 1.398633769684636e-08 1.8208717712444e-08 1:-2664.1986 2:2273.4942 3:-2462.768 4:440.06901 5:1870.8835 6:-1403.9639 7:-787.73453 8:-547.67244 9:-1442.3473 10:-333.27823 11:-721.25644 12:-535.13039 13:778.99073 14:553.4065 15:102.48296 16:-141.78808 17:1443.4605 18:-478.33346 19:532.55172 20:153.01569 21:75.172112 22:342.37853 23:453.53902 24:-337.68772 25:555.11235 26:576.33676 27:81.527125 28:-292.01356 29:-96.542152 30:97.597711 31:-747.27585 32:1352.1603 33:493.8931 34:-199.8079 35:-375.11686 36:-44.031794 37:75.13345 38:-290.82543 39:-98.742782 40:-309.47282 41:4.84819 42:-516.96411 43:-39.446906 44:754.31911 45:538.31043 
-0 -0 -0 -0 -0 -0 -0 -0 -0 -0 -1.360058286604664e-08 -0 0 0 8.042894582778471e-09 0 0 0 0 0 9.856854087881678e-09 0 0 2.691100958968806e-09 0 0 0 0 0 0 0 0 0 0 0 0 0 1:-2191.0028 2:2670.5202 3:-3235.7449 4:-590.41287 5:3440.0378 6:-389.28358 7:-407.58679 8:170.07766 9:-617.09544 10:907.07106 11:-848.90325 12:-246.80671 13:1111.6559 14:971.74515 15:-1055.0258 16:64.922408 17:-136.59218 18:-342.28729 19:-1083.8913 20:800.80983 21:-864.63826 22:255.82921 23:-1319.7934 24:189.19003 25:-534.58973 26:292.02321 27:-135.18461 28:273.77008 29:339.98186 30:1410.604 31:505.09777 32:-746.75214 33:15.968644 34:-550.06239 35:701.01616 36:156.08998 37:416.25693 38:266.47515 39:230.1922 40:161.09615 41:152.58985 42:-120.44115 43:-655.05408 44:-520.9889 45:-284.34151 
-3.241343968696656e-08 -3.634856778492577e-08 -2.851701960958458e-08 -4.835013293283594e-08 -2.204129782251592e-08 -2.519425348329612e-08 -2.979972327231396e-08 -3.086709760122469e-08 -2.069250364015609e-08 -2.715847643877213e-08 -2.074860666640951e-08 -3.173910852271603e-08 3.089524602283644e-08 2.238187812145865e-08 3.545378976138255e-08 4.317693519230241e-08 2.299148460296696e-08 3.457090526772928e-08 2.119192744412408e-08 1.26030533865193e-08 3.58301996550938e-08 1.358776925034443e-08 2.554101955677703e-08 3.165555516698559e-08 1.334677284313919e-08 2.61909312507094e-08 2.18974270415219e-08 2.523290612492087e-08 3.530062948317759e-08 2.854183020519997e-08 3.300648022935997e-08 2.957759843857406e-08 6.112420725098778e-08 3.390512016738686e-08 3.616050543023003e-08 3.625754927510893e-08 3.032228997447689e-08 1:-664.85527 2:2438.8342 3:-2610.4467 4:952.72997 5:2381.8461 6:-15.003536 7:748.00452 8:-784.35858 9:-836.99993 10:265.52248 11:-227.84278 12:-497.53506 13:608.99131 14:672.75893 15:-631.30687 16:-590.3834 17:71.499898 18:659.05605 19:1169.3174 20:20.95201 21:607.47216 22:156.87213 23:218.78188 24:-384.92813 25:264.83066 26:27.424696 27:-340.99422 28:339.58962 29:-330.89215 30:-539.04526 31:-869.02151 32:880.51656 33:-179.53214 34:-173.94576 35:62.44873 36:-487.92506 37:38.933847 38:-376.7224 39:441.49465 40:-206.7133 41:-64.53323 42:-553.77883 43:-596.40167 44:-1010.5864 45:518.53166 
-1.337287072999004e-08 -9.255581404040186e-09 -1.414440172072438e-08 -2.051663675959707e-08 -5.931924873578281e-09 -6.030588342981778e-09 -1.585533239728494e-08 -9.35003175883324e-09 -1.042858813864623e-08 -6.528534940870643e-09 -0 -1.579940453146654e-08 2.093523664062481e-09 6.892632259104575e-09 2.72190108585999e-09 1.540664427238533e-08 7.85809301076356e-09 1.977294959829999e-08 5.431530758629864e-09 1.336833661991646e-08 2.519900629020378e-09 1.899084145090191e-08 1.267131475071228e-08 8.010270895306616e-09 1.488537867305665e-08 5.29250247946678e-09 6.584648242133719e-09 1.487479519814446e-08 1.521322326543021e-08 1.367632580587024e-08 1.080330629768563e-08 1.144015586211113e-08 1.639816114014256e-08 1.181854047967797e-08 9.350004379604437e-09 1.600666360526664e-08 0 1:-637.21476 2:3955.6395 3:-2885.0891 4:-408.88683 5:3262.327 6:-271.60733 7:360.74695 8:1319.7126 9:441.1212 10:1894.6618 11:-16.894002 12:40.250763 13:-87.348382 14:1196.2389 15:-1337.2068 16:588.1979 17:-389.73074 18:-89.205844 19:-943.43415 20:718.61664 21:-647.13119 22:598.56931 23:-981.92544 24:-124.28311 25:-148.6546 26:17.990114 27:-414.09748 28:-204.93071 29:646.91929 30:811.31548 31:910.27788 32:-1152.7098 33:77.949082 34:-304.66017 35:674.80936 36:150.18008 37:572.09084 38:155.7962 39:150.54798 40:285.8517 41:-88.628025 42:-220.8205 43:-386.1978 44:-512.57521 45:-373.03376 
-0 -0 -0 -0 -0 -0 -0 -0 -0 -0 -0 -0 0 0 0 0 0 0 0 0 0 0 0 0 0 0 0 0 0 0 0 0 0 0 0 0 1.054137044108995e-08 1:-1920.7195 2:3903.4193 3:-3208.0889 4:-737.71855 5:3152.8497 6:-460.87367 7:25.528005 8:1504.8047 9:92.433503 10:1684.8771 11:-396.9869 12:163.48281 13:155.05803 14:894.88298 15:-1305.5255 16:722.81718 17:153.64042 18:-682.45472 19:-1659.6033 20:841.10727 21:-903.59512 22:550.08833 23:-912.60045 24:-153.24003 25:7.004534 26:233.73844 27:-168.16524 28:-136.25175 29:481.77721 30:1280.8235 31:804.86941 32:-1178.8783 33:149.13206 34:-394.65642 35:642.3639 36:326.68128 37:678.27045 38:493.7154 39:169.76237 40:360.42665 41:-87.740071 42:60.979867 43:-247.23103 44:15.535067 45:-273.0124 
-0 -2.055266661273259e-09 -0 -0 -1.354025859079042e-08 -0 -0 -0 -0 -0 -0 -0 0 0 0 0 0 0 0 9.753797324643112e-09 0 0 0 0 1.890382735499707e-09 0 0 0 0 2.402501083261313e-09 0 1.023022418392989e-09 0 0 0 0 0 1:811.03054 2:5235.4673 3:-2366.9294 4:489.02068 5:3110.6327 6:-156.66382 7:1696.9297 8:-558.91515 9:286.36455 10:620.4213 11:203.90419 12:-53.674212 13:-1077.3685 14:645.71084 15:-1368.5969 16:673.93943 17:164.83719 18:-78.073924 19:-160.04613 20:579.85828 21:1248.1974 22:483.68383 23:1266.5142 24:-23.855818 25:611.80708 26:-782.62984 27:-401.43119 28:-541.40577 29:-14.72684 30:-1509.751 31:-184.88429 32:-4.830248 33:300.09858 34:296.67569 35:-1039.14 36:79.306116 37:-237.28031 38:243.94028 39:-101.95732 40:427.8058 41:396.06786 42:362.25122 43:603.71414 44:1459.9312 45:-982.15935 
-0 -0 -4.328294126165026e-09 -0 -0 -1.000861516393758e-09 -1.552273248969274e-09 -0 -0 -0 -0 -0 0 7.567416496801845e-09 1.630965337610597e-09 0 0 6.994596704947265e-09 0 0 0 0 0 0 0 1.04726083437674e-08 0 4.741569897335151e-09 0 9.64517545341887e-09 0 0 1.653550896003662e-09 0 4.780488685084547e-09 9.46639563462972e-09 0 1:-408.54705 2:4776.0672 3:-2510.686 4:157.63546 5:2594.3511 6:-707.36816 7:1044.0474 8:-129.68071 9:-42.78064 10:505.9511 11:0.904694 12:-67.810184 13:-1002.9373 14:657.17558 15:-821.2353 16:586.31095 17:770.33213 18:-563.12144 19:-338.71902 20:487.69335 21:667.14274 22:546.89958 23:1366.8992 24:-199.48667 25:784.85365 26:-732.5548 27:-288.88031 28:-546.26459 29:124.73158 30:-971.40764 31:-239.43837 32:267.62209 33:143.19108 34:200.10537 35:-1024.2702 36:283.45041 37:-83.127236 38:494.25144 39:12.481918 40:276.18878 41:300.64751 42:324.4616 43:894.49455 44:2108.9998 45:-733.80694 
-6.279704420349725e-09 -9.737294708211977e-09 -0 -1.082927354665438e-08 -0 -6.777998562077738e-09 -0 -0 -0 -0 -0 -1.269597631237449e-08 0 0 0 9.666530709921432e-09 0 0 9.354735303620942e-09 0 0 7.961822357699451e-09 8.348186476993182e-09 0 0 0 0 9.140425887715806e-10 4.426053739723795e-09 0 1.893349097151264e-09 8.191423291928748e-09 0 1.47726421403071e-08 8.931698322824186e-09 0 0 1:-2340.7582 2:3289.137 3:-2598.2793 4:445.41203 5:1941.4492 6:-1490.7758 7:-477.08729 8:-261.61722 9:-853.3153 10:-24.826672 11:-545.83376 12:-378.50381 13:52.745751 14:618.1196 15:65.412888 16:270.88 17:1549.0368 18:-827.1067 19:47.18129 20:200.55941 21:93.528673 22:539.4046 23:778.2393 24:-564.05385 25:747.43754 26:112.50217 27:-39.025225 28:-502.49143 29:93.966228 30:-60.963284 31:-407.43081 32:954.05293 33:441.09455 34:-94.645757 35:-711.49266 36:230.49657 37:105.32247 38:104.71428 39:-306.3907 40:34.300691 41:148.83294 42:-113.0876 43:640.22366 44:1861.849 45:-28.981431 
-5.785588776690118e-10 -0 -0 -0 -0 -0 -0 -0 -3.648745729202728e-08 -0 -1.425619883380379e-08 -0 -0 0 0 0 0 2.906795196169294e-09 0 0 0 0 0 3.018073857461082e-08 2.5507542762495e-08 0 0 0 0 4.496746874112671e-09 0 0 0 0 0 0 0 1:-638.3477 2:-1009.8252 3:499.84312 4:1035.2046 5:-665.46212 6:309.72636 7:-1739.2252 8:-1789.3795 9:-640.52525 10:210.64625 11:-214.76358 12:146.58375 13:539.00014 14:748.97299 15:251.98458 16:97.261235 17:100.36391 18:1504.3041 19:-40.797001 20:225.61358 21:420.65117 22:-424.10067 23:2.921114 24:7.73708 25:411.59226 26:58.099226 27:-1089.1506 28:-843.12439 29:19.211227 30:17.746706 31:397.5553 32:-150.03726 33:-336.62581 34:-76.740831 35:52.624781 36:189.82397 37:122.00075 38:349.92992 39:41.091082 40:-73.665545 41:-188.7072 42:103.06073 43:-338.80788 44:268.3242 45:119.9055 
-0 -0 -0 -1.307581536534564e-08 -0 -0 -1.971406774146309e-08 -0 -0 -8.869428853008047e-09 -0 -0 -6.69973970101936e-09 0 0 0 0 0 3.331567890794228e-08 0 0 1.337640776589648e-08 0 0 0 0 0 1.182048576587916e-08 0 0 0 0 0 0 0 0 4.54578349502526e-08 1:-589.66861 2:-832.41683 3:147.48011 4:1140.5255 5:-698.91072 6:491.0818 7:-1773.6419 8:-1572.0967 9:-593.34244 10:294.58719 11:-221.20085 12:223.15798 13:195.63788 14:903.55476 15:113.83268 16:215.58212 17:137.99744 18:1454.9103 19:-185.84414 20:112.38042 21:659.89762 22:-282.44956 23:-43.246629 24:-253.95822 25:377.52542 26:192.5082 27:-730.40556 28:-794.94311 29:-58.646871 30:317.65053 31:516.73639 32:-132.43686 33:-137.96842 34:104.76256 35:-162.64381 36:122.08675 37:17.790048 38:70.985929 39:-18.201349 40:73.21953 41:-307.54051 42:105.70654 43:-296.76824 44:79.497844 45:44.765688 
-8.288774808847988e-08 -1.24272738652722e-07 -9.157210189385982e-08 -8.31342718943208e-08 -4.973594087898098e-08 -1.211666221183956e-07 -7.311083944273249e-08 -1.444722602071814e-07 -8.4473761218083e-08 -9.907947369780903e-08 -6.442773590731772e-08 -9.282693292412457e-08 -3.882527681949131e-08 7.086170975742456e-08 8.493689314091199e-08 8.947310527195879e-08 8.904623135193631e-08 6.758844513035904e-08 5.272613188624639e-08 6.692490197100065e-08 7.936620108826389e-08 6.288098670649257e-08 9.554778345323782e-08 6.281541970261226e-08 4.990473305270828e-08 5.387032820179238e-08 7.070516713208741e-08 9.737090708555225e-08 1.152180277709983e-07 5.882321254390557e-08 1.391113559598962e-07 1.219169518771572e-07 1.129939058804321e-07 1.428952649935915e-07 1.072941263396935e-07 1.070839431835008e-07 5.396093679483351e-08 1:345.5856 2:-852.16601 3:12.664332 4:2063.8632 5:-139.19157 6:393.37782 7:-794.87955 8:-1396.5154 9:-66.155427 10:-90.088962 11:-157.88941 12:-44.110423 13:507.63059 14:690.83694 15:56.98699 16:157.56052 17:123.17405 18:1102.7485 19:-299.21604 20:451.38268 21:400.3154 22:-221.14734 23:20.840428 24:-298.46013 25:393.82734 26:49.444057 27:-137.13138 28:-523.76346 29:-173.04038 30:335.57944 31:385.26814 32:-435.68547 33:29.197415 34:114.75729 35:-370.61014 36:14.372341 37:127.04954 38:-210.75504 39:-34.94826 40:233.59336 41:-396.54063 42:134.89559 43:82.595745 44:172.08263 45:-268.32609 
-0 -0 -0 -0 -5.582304784051864e-09 -0 -0 -2.55196553922315e-09 -0 -0 -0 -0 -0 0 0 0 0 0 0 0 0 0 0 0 0 0 7.076935833050319e-09 0 0 0 0 0 0 0 0 0 0 1:619.48984 2:-1373.823 3:506.80648 4:2062.2634 5:-40.005239 6:234.37605 7:-774.02103 8:-1806.6129 9:-223.10877 10:-367.39479 11:-264.37976 12:-109.35417 13:833.5328 14:703.70837 15:246.83179 16:55.865026 17:316.92926 18:1321.3879 19:-250.57544 20:733.91778 21:266.47424 22:-452.60376 23:209.4092 24:-113.58824 25:241.91705 26:-238.85026 27:-125.50503 28:-296.79202 29:-207.84874 30:-137.33709 31:126.60993 32:-589.16694 33:0.806678 34:-250.9247 35:98.121015 36:-72.191745 37:91.584289 38:202.02825 39:134.73825 40:-1.109972 41:-158.62723 42:-201.38091 43:59.58146 44:58.855994 45:-60.527851 
-0 -0 -0 -9.471733602451573e-10 -0 -0 -1.78378922676339e-08 -0 -0 -0 -1.859767645748362e-08 -0 -3.621229462311648e-09 1.629871536980998e-08 1.448240115680749e-08 0 2.057332810585553e-08 1.684193165242766e-08 0 1.008300189800686e-09 2.672603837279512e-08 0 0 0 0 4.666198213294261e-08 0 0 2.092706768828217e-09 0 0 0 1.378962870104147e-08 0 0 0 2.739529509076419e-09 1:-654.91143 2:-1048.522 3:469.70951 4:1349.1582 5:-588.77005 6:182.1844 7:-1320.6063 8:-2262.4076 9:-520.49267 10:-174.36321 11:-326.66431 12:-226.1001 13:803.78676 14:561.62652 15:219.24035 16:-68.596755 17:83.645408 18:1490.7728 19:33.487245 20:66.866735 21:372.51223 22:-149.53143 23:304.23786 24:258.34018 25:430.64137 26:-313.83863 27:-851.24039 28:-619.97735 29:51.818596 30:-382.52693 31:83.546845 32:-211.51313 33:-332.75666 34:-42.687245 35:104.71895 36:281.43224 37:178.89995 38:653.25811 39:109.30293 40:-77.181312 41:107.19432 42:227.60174 43:-286.76965 44:397.61484 45:30.364416 
-0 -1.047035292583076e-08 -0 -0 -0 -0 -0 -0 -0 -0 -0 -0 -0 -3.056416184262082e-08 0 4.185531396755709e-09 0 0 2.404085205627839e-10 0 0 0 0 0 0 0 1.800803223835199e-09 0 1.097423064557155e-08 0 0 2.18777901723744e-08 0 0 0 0 0 1:-1180.3242 2:1047.5164 3:1053.1396 4:807.20117 5:-747.78401 6:836.83719 7:1205.4487 8:-1807.5477 9:1188.4255 10:-923.21367 11:517.41778 12:684.96651 13:-45.258649 14:49.657345 15:411.8883 16:1279.0843 17:-592.37928 18:-639.33022 19:-119.47736 20:444.94899 21:24.955137 22:58.18567 23:539.87466 24:-361.59846 25:-480.52148 26:638.97836 27:-46.027468 28:-463.17684 29:-40.171411 30:329.73712 31:-574.61368 32:-321.35545 33:532.1544 34:-199.35015 35:282.08736 36:-215.64035 37:-244.138 38:158.74823 39:-48.667247 40:-393.45414 41:248.57379 42:184.04193 43:-110.59006 44:-198.54788 45:371.96326 
-9.350957041877274e-08 -8.49900680428306e-08 -5.64185078829624e-08 -1.045693404194717e-07 -2.546748297007928e-08 -5.689629283704378e-08 -1.361818870013775e-07 -7.476211092998032e-08 -6.06128873505574e-08 -5.035841309677975e-08 -3.648140189366994e-08 -4.364522072091412e-08 -0 -5.659626328461371e-08 3.720809597130478e-08 3.265996649589163e-08 1.486719418281122e-07 3.675703548439497e-08 1.04176967372356e-07 2.192110493966691e-08 8.050732435256715e-08 1.925906220915112e-08 3.249935860117764e-08 3.928308862342381e-09 8.783256935536628e-08 3.583609534209807e-08 5.910134881004563e-08 1.583671028808674e-07 1.433545243077283e-07 5.754865542661155e-09 6.21713423912961e-08 7.05887739591411e-08 5.333161800912942e-08 4.81369723625191e-08 9.494784191787824e-08 4.714889077264177e-08 7.933667228458709e-08 1:-1448.8947 2:730.45681 3:1076.4356 4:474.77043 5:-868.62852 6:-107.01375 7:1158.4236 8:-117.9505 9:1199.5016 10:-544.18291 11:134.14304 12:545.91421 13:-216.09466 14:437.19666 15:313.08382 16:245.56169 17:-818.65242 18:-335.70366 19:338.28172 20:-6.752856 21:145.15838 22:-169.36386 23:902.17073 24:-580.59912 25:-63.887539 26:60.393442 27:-42.208448 28:-539.9285 29:-21.188115 30:151.10075 31:334.6526 32:-4.92496 33:185.74242 34:-55.946062 35:78.2144 36:93.287618 37:206.60926 38:-77.385228 39:-287.41935 40:81.509055 41:24.244903 42:-48.679845 43:-273.2611 44:-126.38196 45:-469.69475 
-3.479043812794121e-08 -0 -3.189358575095362e-08 -7.293906273189261e-08 -3.755462742347714e-08 -2.612660039841553e-08 -9.245041222033452e-08 -1.992770428137225e-08 -4.044468186608113e-08 -3.454766275680827e-08 -4.306496711625898e-08 -2.009559043657616e-08 -5.36922925081279e-08 -0 6.376703451165448e-08 5.871645159281645e-08 1.452517351319486e-08 9.329148647295791e-08 0 4.247050802412493e-08 6.761533790659161e-09 8.816115037138102e-08 5.473757486087811e-08 7.367127647694049e-08 1.005728417198188e-08 9.420358880492332e-08 0 2.877709198527623e-08 2.560483805059901e-08 6.859592797338935e-08 2.386636747515657e-08 1.43335212518205e-08 8.232270399321091e-08 6.372211069370902e-08 3.442995812204473e-08 7.869094334115903e-08 4.021341336469457e-08 1:-1471.9793 2:1164.7219 3:760.33446 4:-208.38224 5:-706.99982 6:63.369353 7:1260.6786 8:-861.53597 9:885.03552 10:-564.24656 11:694.65464 12:489.32282 13:-207.33413 14:365.28275 15:323.14611 16:610.99033 17:-735.0735 18:-513.39523 19:33.917169 20:133.44503 21:308.49661 22:58.489033 23:274.36812 24:-274.70162 25:-187.71885 26:466.08662 27:-299.92016 28:-692.00003 29:-233.27916 30:147.10646 31:-258.17517 32:-105.50478 33:154.64484 34:-347.8997 35:67.71485 36:-209.29428 37:-111.95871 38:175.87745 39:-117.21329 40:-74.011379 41:-112.10444 42:-138.0064 43:41.165656 44:1.302207 45:314.2367 
-0 -0 -0 -0 -0 -0 -0 -0 -0 -0 -0 -0 -0 -0 -0 0 0 0 0 0 0 0 0 0 0 0 0 0 0 1.074571829980329e-08 0 0 0 0 0 0 0 1:1415.8627 2:-1409.4686 3:572.65738 4:-1153.9026 5:520.77029 6:1070.6316 7:1616.1073 8:-2024.398 9:252.03104 10:818.76998 11:-893.00863 12:205.62955 13:-1030.779 14:-140.73843 15:-463.2221 16:-1580.3105 17:-768.33412 18:161.06979 19:-948.22001 20:-439.46774 21:-236.25013 22:490.80548 23:-523.91125 24:-431.62023 25:-230.04682 26:91.720599 27:-441.19143 28:-857.21085 29:519.16382 30:85.612834 31:-474.35924 32:260.736 33:182.59817 34:477.70315 35:140.43041 36:212.85913 37:-222.1467 38:-485.37167 39:-464.8475 40:345.35056 41:-285.45561 42:344.69565 43:-69.10547 44:-116.65239 45:232.03727 
-0 -0 -0 -0 -0 -0 -0 -0 -0 -0 -0 -0 -0 -0 -0 0 0 0 0 0 4.401269207554772e-09 0 0 0 0 0 0 0 0 0 0 0 0 0 0 0 0 1:-262.94009 2:-1281.0047 3:-183.5303 4:-1268.0642 5:39.180946 6:-1060.0125 7:458.35225 8:-1213.9625 9:-405.15326 10:-425.68608 11:-689.81663 12:-201.25306 13:304.57066 14:-491.98116 15:-104.38526 16:-1361.1028 17:-484.98685 18:-342.4305 19:-1273.5851 20:-258.48725 21:-588.27509 22:-92.875542 23:15.075673 24:-1274.8993 25:-572.02825 26:533.70287 27:-124.02178 28:496.42136 29:151.51383 30:18.491745 31:66.468303 32:153.76073 33:-200.65845 34:-68.20392 35:-371.0104 36:-209.46337 37:186.83679 38:-367.80291 39:211.54206 40:-350.06346 41:-164.62182 42:374.93736 43:99.242578 44:200.79085 45:33.173373 
-9.145816418601322e-08 -7.658775874551705e-08 -9.106805872948516e-08 -1.030618184076035e-07 -5.449750955460455e-08 -1.3467920436324e-07 -9.995825424594198e-08 -1.247442230609295e-07 -7.498702970820784e-08 -1.448244593043829e-07 -1.303531393524714e-07 -8.069010249652673e-08 -5.599123627564738e-08 -7.849047766747328e-08 -8.70346395575588e-08 9.568547955718509e-08 1.218306633369746e-07 1.196147031920313e-07 2.609142609750378e-08 7.415578672960174e-08 9.373945392850554e-08 8.549920882405701e-08 1.029961201575416e-07 1.505809481090987e-07 4.404619226446663e-08 7.167285655371885e-08 9.686137932182966e-08 4.176842177212894e-08 1.042056982414043e-07 8.654062822250226e-08 1.535852056559026e-07 9.283901036897704e-08 1.900796913518404e-07 1.217324519611867e-07 1.113784959834601e-07 1.450950174728424e-07 6.255045272637715e-08 1:306.75518 2:-907.83975 3:-91.785821 4:-761.37806 5:650.02125 6:-18.88082 7:1086.9454 8:-1141.8133 9:-17.132739 10:194.96669 11:-578.75664 12:-91.452936 13:62.352365 14:-15.739392 15:-351.24442 16:-869.95319 17:-495.20592 18:-181.79972 19:-793.76352 20:-203.98435 21:-322.29596 22:140.52372 23:-139.80091 24:-861.15689 25:-257.49754 26:419.36933 27:-327.37183 28:-5.337755 29:188.8333 30:-191.63432 31:-3.675065 32:52.986733 33:-104.94143 34:69.389152 35:-155.4803 36:-72.153813 37:169.17552 38:-460.67791 39:-31.854402 40:-20.307726 41:-243.1002 42:232.52726 43:-24.282857 44:158.57712 45:154.74672 
-2.67586383651986e-09 -1.645784816172974e-08 -0 -1.92614505523644e-08 -6.806427299753568e-09 -0 -8.099172084020231e-08 -1.46500493821156e-08 -2.424103020360897e-08 -0 -1.826523193161745e-08 -0 -0 -2.092881663024618e-08 -1.394049092540047e-08 0 4.968373626829608e-08 4.398529788697718e-08 2.737114404915973e-08 0 5.230356236754972e-08 0 0 0 3.121303336765751e-08 2.834318221516585e-08 1.137116690065723e-08 1.063101677779002e-07 0 1.95845881226431e-09 0 0 4.541406338332206e-10 0 1.47559068674831e-08 0 4.818410009116488e-08 1:-25.062482 2:-1075.1482 3:484.06642 4:-922.19212 5:842.90319 6:-243.35947 7:985.46002 8:-1157.2159 9:130.02256 10:542.49272 11:-1047.4896 12:-345.51863 13:-652.37769 14:22.007863 15:-289.31568 16:-1043.795 17:-413.08709 18:251.10966 19:-682.32567 20:-280.68011 21:-229.39496 22:15.941149 23:-298.65505 24:-539.12099 25:95.04176 26:-165.94941 27:-220.88934 28:-734.37267 29:265.94871 30:112.13487 31:-556.22088 32:39.003647 33:-121.81337 34:396.52073 35:1.511205 36:50.774538 37:28.116799 38:-288.72916 39:-256.38035 40:284.01352 41:-274.67573 42:254.55492 43:161.89561 44:-78.191921 45:-77.62212 
-1.201682788811547e-08 -0 -1.001577117085426e-08 -0 -0 -0 -6.557750734217601e-09 -0 -2.927036148499334e-09 -0 -0 -0 -0 -0 -0 0 0 1.311477679774204e-08 3.087765814267981e-09 0 0 0 0 0 0 2.038645595805561e-08 0 0 0 0 0 0 0 6.02483624434363e-09 0 0 0 1:-563.41794 2:-1133.1027 3:2.226507 4:-1375.0673 5:-289.02315 6:-1422.3389 7:599.15017 8:-1018.1853 9:-445.08894 10:-56.519758 11:-580.69928 12:-420.89643 13:159.32264 14:-566.69495 15:12.622211 16:-1734.2363 17:-372.83356 18:-145.44538 19:-1363.5583 20:-395.99881 21:-624.47348 22:-15.241908 23:261.03902 24:-1013.4477 25:-412.00934 26:346.24707 27:-43.673976 28:224.8264 29:367.71393 30:205.83595 31:-322.14702 32:208.58381 33:-214.69027 34:-54.807178 35:-270.75122 36:-287.61546 37:63.536227 38:-227.72991 39:274.47805 40:-298.76219 41:-13.218634 42:336.57207 43:73.138955 44:226.32639 45:-269.14496 
-0 -0 -0 -0 -0 -0 -0 -0 -0 -0 -0 -0 -0 -0 -0 0 0 0 0 0 0 0 0 0 0 2.969092520814946e-09 0 0 0 0 0 0 0 0 0 0 0 1:41.54212 2:-1058.1698 3:209.683 4:-1345.0985 5:-89.367308 6:-680.46819 7:1009.5776 8:-1468.2345 9:-208.43684 10:578.41721 11:-570.74551 12:-345.47778 13:-473.35673 14:-422.75334 15:-96.227856 16:-1934.2315 17:-536.76021 18:174.66826 19:-1258.7584 20:-679.25045 21:-361.29049 22:342.59955 23:272.15153 24:-566.55286 25:-164.08793 26:53.882844 27:-246.58176 28:-341.66879 29:663.81188 30:280.17088 31:-568.60011 32:300.58427 33:-206.13351 34:222.45375 35:-105.01481 36:-74.439634 37:-130.43377 38:-321.57094 39:9.868648 40:66.247536 41:-157.37659 42:394.84496 43:-173.47212 44:113.67503 45:-226.17568 
-0 -0 -0 -0 -2.2690676510184e-09 -0 -0 -0 -0 -0 -0 -0 -0 -0 -0 -0 0 0 0 0 0 0 0 0 0 0 0 0 0 0 0 0 0 0 0 0 0 1:2666.7423 2:1916.529 3:-993.92096 4:677.27456 5:65.539948 6:2626.6239 7:1247.8772 8:-28.168097 9:-444.1092 10:-872.78746 11:-582.67558 12:-1076.2846 13:-797.14485 14:-695.80644 15:348.56947 16:-184.72802 17:-55.89398 18:436.342 19:586.87514 20:-191.57875 21:453.78449 22:672.29967 23:-273.75501 24:-300.3149 25:-550.77517 26:-78.623204 27:-5.500438 28:80.899617 29:-596.45573 30:-356.07173 31:398.41969 32:-620.18849 33:-280.58913 34:-19.229643 35:26.291116 36:-104.79565 37:4.305396 38:267.9735 39:113.35585 40:129.89709 41:171.84833 42:409.25442 43:-156.22109 44:-191.44861 45:350.36635 
-9.774754869986788e-08 -1.191596508918849e-07 -1.268199712818873e-07 -1.084363881558592e-07 -1.617014785635515e-08 -8.911953071437735e-08 -8.011845464174892e-08 -1.151332963839588e-07 -7.790663484279624e-08 -8.477473371806065e-08 -5.4053177685918e-08 -8.800532838991417e-08 -7.922666249990167e-08 -8.894932208465172e-08 -6.907351272801077e-08 -8.909530421774818e-08 6.967524797262943e-08 7.181899626704928e-08 5.351542055115379e-08 6.307085341181839e-08 7.738155051408349e-08 1.55599956861427e-07 1.29593181535494e-07 6.00674875733667e-08 4.849265832413457e-08 3.7773958000856e-08 6.059897002923756e-08 9.282395348470526e-08 8.781931422793411e-08 2.36995222734965e-08 1.199967701879574e-07 7.631763933458817e-08 1.356989391996165e-07 1.224522588573057e-07 7.417915392353163e-08 1.119282787264317e-07 7.195013130101234e-08 1:466.71339 2:1469.1105 3:-1093.7864 4:767.5463 5:639.64254 6:1362.9943 7:658.85604 8:181.06933 9:-69.801194 10:-493.01875 11:-689.01012 12:-681.18672 13:-204.17684 14:-100.59225 15:593.74368 16:195.18384 17:251.34439 18:43.471922 19:580.678 20:-393.73059 21:-134.16483 22:406.07295 23:-342.34631 24:-447.28523 25:-237.39261 26:84.32921 27:348.23842 28:-210.17603 29:-335.59489 30:231.34094 31:50.914842 32:-618.70506 33:60.19031 34:-280.11715 35:-84.652542 36:-80.804379 37:251.54765 38:-11.576914 39:-160.32725 40:258.65932 41:-299.98286 42:138.78998 43:-123.847 44:176.62268 45:670.88773 
-1.094681667972539e-09 -3.319137832444694e-09 -1.128515006647489e-08 -0 -6.242703824724522e-08 -0 -0 -0 -0 -1.719262227625149e-08 -0 -0 -0 -0 -0 -3.850721219174275e-09 0 4.011068462112899e-08 0 2.845119456031711e-08 0 0 2.075372396467509e-09 2.170611751419747e-08 2.571953131412171e-08 4.892703973172498e-08 0 0 0 8.589787568116214e-08 0 3.083669534641335e-08 0 0 2.818131085132967e-08 3.336339325961881e-08 0 1:990.13059 2:1821.6752 3:-865.21872 4:401.22617 5:344.19045 6:1684.623 7:889.14038 8:143.38125 9:-147.98713 10:-578.42802 11:-554.53091 12:-1050.3579 13:-412.5206 14:-362.27082 15:649.41255 16:-251.99983 17:169.48118 18:154.47322 19:908.76736 20:-263.642 21:261.05381 22:462.4896 23:-265.18408 24:-274.80602 25:-422.04753 26:-40.502169 27:51.952552 28:-155.91006 29:-222.47592 30:-225.39293 31:235.80396 32:-477.60349 33:-184.45937 34:72.324626 35:171.82363 36:11.925061 37:-4.457185 38:125.84319 39:81.323076 40:116.64277 41:103.01106 42:216.62613 43:-41.383506 44:49.573532 45:43.390025 
-1.00499944656112e-09 -0 -0 -2.429477442512602e-08 -0 -0 -4.502972552500333e-08 -9.353765434126255e-10 -1.548683435405735e-08 -6.067910581422377e-09 -2.510046889917722e-08 -0 -1.327598454772726e-08 -5.237831873070621e-10 -2.648843675745301e-08 -2.739454120262622e-09 3.856403764225239e-08 1.083588802508345e-08 1.57246809016415e-08 0 2.31010097205689e-08 0 0 0 1.81972935052404e-08 1.085981828517042e-08 0 1.703904381596788e-08 3.193973709769317e-08 0 0 0 1.717051517843656e-08 0 0 0 3.26019905698734e-08 1:-1522.4974 2:1402.3869 3:-1121.185 4:155.03125 5:200.02133 6:1416.5485 7:23.593525 8:-263.14388 9:-234.68839 10:-1158.1022 11:-1001.9635 12:-1303.552 13:345.02939 14:-448.98802 15:1244.1164 16:-566.54524 17:806.46051 18:-257.0418 19:1346.3318 20:-994.37818 21:143.53396 22:434.67764 23:-308.37146 24:-347.87409 25:-607.10205 26:338.47645 27:447.72592 28:-513.75048 29:65.127731 30:346.56041 31:68.708396 32:-438.45473 33:136.72569 34:289.70239 35:276.25706 36:365.05398 37:210.3213 38:149.25029 39:-108.68631 40:127.50859 41:19.686624 42:-112.55121 43:336.87082 44:232.49971 45:-293.32572 
-0 -0 -0 -0 -0 -0 -0 -0 -0 -0 -0 -0 -0 -1.546082896780211e-08 -0 -1.126068957261453e-09 -0 0 0 0 0 0 0 0 0 0 0 0 0 0 0 0 0 0 0 0 0 1:-556.59902 2:-1226.2259 3:779.95294 4:42.908818 5:51.760547 6:899.27854 7:1019.6076 8:-1048.6531 9:504.74576 10:-115.12249 11:-1323.3561 12:627.22658 13:800.30823 14:305.11315 15:236.34049 16:321.24958 17:1087.5285 18:-760.00221 19:273.02167 20:387.04423 21:95.961392 22:487.70618 23:178.8318 24:637.21455 25:-383.64443 26:-178.46751 27:-30.2347 28:-120.08605 29:714.81858 30:313.34747 31:-335.53848 32:-566.07173 33:-321.17122 34:-185.53612 35:-508.47626 36:-788.27841 37:141.0956 38:-566.53484 39:-236.60334 40:-239.29094 41:102.89847 42:16.436955 43:-50.470807 44:-86.412858 45:90.228844 
-0 -0 -0 -0 -0 -0 -0 -0 -0 -0 -0 -0 -0 -0 -0 -0 -0 0 0 0 0 0 0 0 0 0 8.31642197773833e-09 0 0 0 0 0 0 0 0 0 0 1:-407.65906 2:-1222.0775 3:801.41746 4:54.483188 5:-106.90549 6:488.45481 7:1123.2459 8:-522.01183 9:615.92246 10:-15.925846 11:-1262.994 12:586.65711 13:776.43164 14:265.60387 15:168.09974 16:87.206905 17:928.73886 18:-742.13883 19:503.02945 20:151.80091 21:119.54668 22:327.47838 23:238.02798 24:443.40364 25:-252.51906 26:-302.94821 27:-166.41497 28:-175.52683 29:705.33689 30:280.08897 31:69.268358 32:-346.93921 33:-111.52857 34:-17.068815 35:-430.79453 36:-473.26772 37:128.91423 38:-587.68781 39:-297.24032 40:-210.78697 41:50.851127 42:-13.107471 43:138.53922 44:-77.301954 45:-363.25666 
