svm_type c_svc
kernel_type linear
nr_class 38
total_sv 295
rho -0.03549 -0.0118899 0.0339188 -0.358152 -0.0657373 0.230734 0.124924 -0.0554201 0.076657 -0.12201 -0.120069 -0.478147 -0.129865 -0.0145593 -0.0330539 -0.0133191 0.140628 0.278555 -0.435554 -0.290504 0.0412199 -0.0740251 -0.0156211 -0.143502 -0.175032 -0.0966991 -0.278539 0.289727 0.0435602 -0.0257881 0.148369 0.0273775 0.298288 0.191659 0.159222 0.38903 -0.173873 -0.0472873 0.0392236 -0.31131 -0.0904103 0.0875761 0.218663 0.0322591 0.00223589 -0.140071 -0.0996722 -0.503039 -0.196109 -0.0722855 -0.0704589 -0.0655414 0.0473745 0.198042 -0.473942 -0.292071 0.0232212 -0.0597538 -0.105219 -0.154 -0.228702 -0.0972942 -0.273209 0.135529 -0.00869935 -0.0369715 0.195745 0.0271781 0.426875 0.294273 0.111627 0.260015 -0.230871 0.0730545 -0.280843 -0.0328252 0.188674 0.226313 0.043717 0.105856 -0.10169 -0.14006 -0.547604 -0.0699699 0.00742903 0.000532369 0.0537825 0.122302 0.283595 -0.38517 -0.425531 0.0542033 -0.102748 0.0774584 -0.150429 -0.166067 -0.0281901 -0.231657 0.162882 0.0655237 -0.0135662 0.207394 0.0542631 0.339312 0.280498 0.149216 0.43272 -0.195924 -0.311086 -0.0575735 0.415599 0.124508 -0.0691219 0.0394529 -0.172434 -0.128267 -0.831448 -0.205755 -0.138448 0.0245781 -0.108942 0.0926302 0.168341 -0.62724 -0.260949 0.0146831 -0.164274 -0.0868386 -0.173087 -0.260158 -0.0671798 -0.237964 0.230313 -0.0840886 -0.0403711 0.0873151 -0.0421283 0.42054 0.0854218 0.0598449 0.206581 -0.357617 0.25096 0.396439 0.395509 0.449821 0.335513 0.236875 0.233587 -0.153835 0.148737 0.342585 0.301301 0.306931 0.304392 0.47199 -0.0419083 0.0755134 0.321457 0.304527 0.247028 0.177078 0.194904 0.477702 0.0947856 0.523772 0.307559 0.732498 0.404409 0.366314 0.469765 0.46845 0.482105 0.532976 0.150106 0.164863 0.252202 0.041616 0.0805382 -0.117388 -0.0489883 -0.337297 -0.186707 0.0398003 0.0625927 -0.00195149 0.155533 0.216547 -0.288409 -0.166937 0.125984 -0.00728256 0.0177228 -0.126297 -0.114104 -0.00619935 -0.34475 0.193627 0.0387354 0.0326748 0.294521 0.0655962 0.369824 0.292124 0.157809 0.297635 -0.0620004 -0.060897 -0.138318 -0.0726918 -0.317092 -0.226602 -0.748586 -0.355493 -0.189582 -0.171885 -0.19067 -0.134254 0.0529064 -0.771963 -0.307509 -0.0816205 -0.263802 -0.224929 -0.371105 -0.329184 -0.21137 -0.372882 0.095134 -0.303815 -0.128106 -0.031417 -0.11871 0.173373 0.0262756 -0.0232461 0.0786969 -0.451143 -0.192712 -0.300112 -0.336155 -0.347321 -0.66052 -0.448029 -0.150903 -0.124087 -0.206329 -0.0501569 0.134673 -0.529877 -0.371129 -0.272811 -0.22785 -0.269594 -0.347829 -0.317336 -0.179118 -0.512157 0.0109034 -0.212251 -0.151562 -0.152876 -0.233432 0.130534 -0.0159193 -0.10246 0.0563868 -0.372538 0.116366 -0.190358 -0.0863193 -0.61856 -0.225231 -0.0621272 0.0125773 -0.122684 0.0502573 0.275441 -0.620251 -0.262498 0.0671951 -0.104015 -0.0876286 -0.151384 -0.304795 -0.0703415 -0.246047 0.200735 -0.026344 -0.0233354 0.145509 -0.0147456 0.284583 0.203182 0.0563068 0.191768 -0.281042 -0.153577 -0.0216665 -0.429489 -0.159848 -0.0792695 -0.0971527 -0.107025 0.0314082 0.200563 -0.369945 -0.32558 0.137344 -0.132079 0.0360115 -0.268056 -0.204519 -0.173918 -0.347931 0.0957039 -0.0603068 -0.0536759 0.329697 -0.0319392 0.216329 0.111632 0.0218162 0.17701 -0.351941 0.0293602 -0.37051 -0.0671654 0.0695932 0.191479 0.0463095 0.186675 0.406881 -0.25265 -0.14826 0.227089 0.0370363 0.0733952 -0.0294928 -0.0789184 0.0691508 -0.206244 0.299637 0.181188 0.109237 0.378448 0.09901 0.591763 0.321787 0.197872 0.290568 -0.070456 -0.463815 -0.0802971 0.107772 0.0848261 0.0581515 0.129211 0.298165 -0.289617 -0.25461 0.106734 0.0591332 0.12143 -0.113488 -0.128557 0.0578432 -0.198032 0.188994 0.101574 -0.00482677 0.318469 0.141501 0.402254 0.403261 0.173667 0.420697 -0.0614784 0.313911 0.456553 0.443046 0.657628 0.537892 0.84631 0.0944504 0.356629 0.540349 0.570026 0.405231 0.309963 0.295164 0.402377 0.144419 0.661643 0.691253 0.449753 0.469984 0.467144 1.14705 0.547165 0.492846 0.752351 0.349363 0.123403 0.177098 0.0563459 0.260915 0.293153 -0.331609 -0.130231 0.233676 0.0760881 0.0767386 -0.0179096 -0.0627539 0.129267 -0.129114 0.278712 0.177217 0.101001 0.386201 0.130343 0.487203 0.47235 0.222052 0.320779 -0.0463455 0.0559093 0.00633035 0.207867 0.237189 -0.435976 -0.218788 0.0727253 -0.0519558 -0.0113378 -0.118414 -0.198743 -0.0134333 -0.184226 0.363501 0.0982324 0.0294185 0.129281 0.0435314 0.50017 0.150568 0.129284 0.320251 -0.0737704 -0.046909 0.00179454 0.242933 -0.356786 -0.241338 -0.00439665 -0.0820883 -0.0594831 -0.279088 -0.170579 0.0231173 -0.365921 0.151974 -0.0175877 0.00760015 0.190768 0.00946565 0.37215 0.162027 0.0939374 0.235925 -0.203756 0.178025 0.209502 -0.342618 -0.232366 0.153519 -0.0492486 -0.0801214 -0.116265 -0.205981 -0.0232558 -0.140197 0.167941 0.157268 0.0521291 0.223935 0.0652249 0.348553 0.23482 0.0858372 0.248863 -0.0988687 0.198876 -0.520979 -0.264107 0.00624878 -0.146803 -0.140761 -0.170468 -0.301885 -0.0985224 -0.388056 0.206397 -0.209861 -0.0462118 0.120052 -0.0318418 0.238161 0.11418 0.0507857 0.138166 -0.441798 -0.478035 -0.365838 -0.423499 -0.22544 -0.272292 -0.4645 -0.380689 -0.269229 -0.473709 -0.0390974 -0.233469 -0.210062 -0.0518522 -0.176184 0.171789 0.0117479 -0.108043 0.0213087 -0.423279 0.105479 0.38643 0.316477 0.331156 0.209623 0.221905 0.34698 0.143235 0.708224 0.506715 0.284417 0.528305 0.401551 0.57829 0.570817 0.527643 0.563936 0.352467 0.294143 0.277428 0.228621 0.134621 0.0607615 0.248595 0.0186717 0.363015 0.245909 0.291236 0.322999 0.2829 0.499364 0.523789 0.255008 0.53249 0.0818936 -0.148289 -0.0563613 -0.209617 -0.233173 -0.11803 -0.347426 0.157828 -0.039075 -0.024033 0.234596 -0.0477976 0.457893 0.186699 0.060483 0.237222 -0.336726 0.033552 -0.144934 -0.216272 0.0314253 -0.132233 0.214059 0.123363 -0.0192676 0.225773 0.122244 0.311161 0.236839 0.154645 0.298857 -0.102732 -0.141627 -0.150902 -0.0150744 -0.245515 0.192436 0.0783118 0.0333264 0.267105 0.0450484 0.277554 0.296337 0.0967402 0.337611 -0.138927 -0.0458305 0.0944865 -0.17056 0.233186 0.128071 0.236286 0.399128 0.135126 0.58221 0.318591 0.198805 0.42098 -0.0202565 0.194931 -0.0343744 0.506347 0.268313 0.25975 0.309764 0.273359 0.417308 0.36582 0.27367 0.438193 0.0446294 -0.230844 0.258392 0.0697067 0.0831461 0.167021 0.0325955 0.30482 0.254764 0.197947 0.333148 -0.103349 0.423291 0.219919 0.208511 0.777451 0.254178 0.597365 0.473987 0.345284 0.457373 0.0502078 -0.230993 -0.167542 0.0108673 -0.142839 0.143779 0.0345894 -0.118265 0.0952083 -0.514539 -0.0328282 0.247342 0.015688 0.401456 0.161856 0.0891575 0.239505 -0.367915 0.162906 0.065961 0.2929 0.194198 0.0727585 0.236863 -0.120788 -0.187498 0.194906 -0.029081 -0.0793915 0.0524853 -0.640672 0.250738 0.254019 0.0552887 0.171904 -0.222725 -0.0795359 -0.19999 -0.0903307 -0.527672 -0.173634 0.0108013 -0.34127 0.217876 -0.232837 -0.388983
label 1 2 3 4 5 6 7 8 9 10 11 12 13 15 16 17 18 19 20 21 22 23 24 25 26 27 28 29 30 31 32 33 34 35 36 37 38 39
nr_sv 9 10 10 9 6 5 10 10 9 9 9 6 11 4 8 8 5 8 10 4 7 7 6 6 5 7 9 7 7 5 7 6 6 14 8 8 12 8
SV
0 6.302608017005196e-09 5.377949070376771e-08 2.494369875155754e-08 6.650556500528272e-08 2.873133975226652e-08 7.006445762262875e-08 1.066102286572482e-07 1.034143072174484e-07 7.927106090176688e-08 6.314119210677084e-08 0 6.1686155560308e-08 0 8.582930122381612e-08 0 0 1.485932472938767e-07 0 2.951752074378002e-08 9.435423656920497e-08 2.126004065283632e-08 1.927027525464181e-08 8.010372959908787e-08 0 9.251024184896011e-08 3.840711892196691e-08 0 0 4.520377206657605e-08 5.635146631786528e-08 5.333895131666933e-08 8.792737135998019e-08 1.005138056729373e-07 8.955318751506755e-09 6.132096306633664e-08 0 1:1047.2433 2:-144.18869 3:-460.4651 4:-53.600368 5:516.02523 6:-882.6517 7:-961.21934 8:933.82286 9:786.9926 10:81.655939 11:-1121.0657 12:375.05545 13:-900.02377 14:-754.56454 15:-292.45573 16:-506.67247 17:-84.130538 18:946.66987 19:324.57762 20:212.45069 21:-127.02269 22:361.84357 23:270.31328 24:161.97299 25:361.85097 26:-326.05821 27:-50.080836 28:685.21376 29:464.61562 30:108.79832 31:-316.3384 32:399.73025 33:-69.771208 34:-250.10277 35:-12.580874 36:58.464591 37:-455.1887 38:-180.8767 39:-82.545589 40:-161.59589 41:146.90848 42:-143.96882 43:-236.37435 44:125.53624 45:-29.083179 
0 0 0 2.406440854209359e-08 2.67445375442562e-08 0 0 0 0 0 0 0 7.951200615605491e-09 0 0 7.989639082345944e-09 0 0 0 4.031290014403122e-08 0 0 0 0 0 0 0 0 0 4.668326619009148e-08 1.110915607019742e-08 0 0 0 0 0 0 1:-187.29721 2:-533.73912 3:-33.793877 4:224.26585 5:292.95666 6:195.70748 7:-1284.522 8:810.07856 9:1289.0976 10:182.03405 11:-696.80704 12:769.11001 13:-785.3791 14:-965.48366 15:-480.60282 16:-546.7665 17:-201.371 18:1286.6644 19:-28.384496 20:173.44524 21:-27.354216 22:600.4838 23:103.4394 24:242.51782 25:827.25135 26:-436.86367 27:326.03358 28:923.00101 29:363.19219 30:120.6988 31:-291.81275 32:36.110749 33:-596.4272 34:76.822502 35:-74.404985 36:383.5228 37:-651.67118 38:-45.011729 39:-137.86119 40:-46.293809 41:96.579207 42:-218.65341 43:92.294202 44:223.03648 45:-283.47551 
0 0 0 1.576967824976938e-08 0 0 0 0 0 0 0 0 0 0 0 0 0 0 0 0 0 0 0 0 0 0 0 0 0 0 0 0 0 0 0 0 0 1:-172.21635 2:-534.59375 3:70.285408 4:200.50694 5:331.36978 6:213.21 7:-1369.9001 8:1037.276 9:1455.2021 10:80.363483 11:-637.06013 12:767.96529 13:-649.95685 14:-1031.8127 15:-366.29925 16:-511.11436 17:-264.09823 18:1407.4112 19:55.020773 20:298.67456 21:-157.6334 22:425.30351 23:26.105927 24:153.94294 25:751.41031 26:-424.06437 27:337.28835 28:817.30395 29:361.51227 30:197.04695 31:-142.95126 32:44.57877 33:-616.05602 34:140.15217 35:-203.20833 36:331.45382 37:-625.75405 38:45.178359 39:-42.132077 40:56.784517 41:176.87278 42:-88.889594 43:125.32488 44:237.77612 45:-55.38165 
0 0 0 0 0 0 0 0 0 0 0 0 0 0 0 0 4.76192121515879e-08 0 0 0 0 0 0 0 5.036062043193397e-08 0 0 4.084273243593211e-08 0 0 0 0 0 0 0 0 0 1:443.19341 2:-399.62253 3:-0.146199 4:20.461418 5:441.39733 6:-204.36907 7:-1391.4098 8:1337.5407 9:1352.2891 10:-26.068259 11:-614.33087 12:378.9754 13:-799.83085 14:-933.43708 15:-328.03299 16:-427.0165 17:-226.78046 18:1309.9821 19:91.798794 20:426.32336 21:-208.43083 22:329.88459 23:140.28354 24:67.235596 25:569.30297 26:-370.1349 27:165.93271 28:667.47791 29:341.69614 30:227.5249 31:-71.037371 32:193.46541 33:-434.74353 34:10.921755 35:-293.35957 36:333.7765 37:-622.61484 38:2.111349 39:64.445177 40:-1.722808 41:221.68328 42:-20.961304 43:-44.812687 44:220.54475 45:113.71192 
0 0 0 0 0 0 0 0 0 0 0 0 0 0 0 0 0 0 0 0 0 0 0 0 0 5.066531251126277e-09 0 9.044847605539366e-08 0 0 0 0 0 0 5.223854903032851e-08 0 0 1:1667.3831 2:-4.568683 3:-367.96816 4:-160.78458 5:685.74974 6:-1089.768 7:-1179.3337 8:1244.5999 9:781.70637 10:-101.16812 11:-1150.0807 12:76.503425 13:-964.49927 14:-633.4912 15:-247.57893 16:-367.26199 17:-51.038758 18:970.67566 19:357.24097 20:488.44789 21:-211.9592 22:113.27721 23:449.17407 24:-119.92148 25:166.22318 26:-237.8139 27:-211.16975 28:526.94325 29:435.80295 30:334.913 31:-138.93171 32:458.26089 33:28.284875 34:-335.33481 35:-100.93112 36:154.93105 37:-517.83298 38:-237.94221 39:189.02601 40:-154.98049 41:302.48119 42:-101.02923 43:-250.83043 44:101.93308 45:121.67947 
5.721653253291301e-08 5.959489072445752e-08 7.34290134516609e-08 0 8.729313440568591e-10 4.40326569560849e-08 1.806230339216079e-08 1.016108917765677e-08 9.697771697583178e-10 0 2.549633989474037e-08 1.300892000633089e-08 0 7.072052221452215e-08 3.991452798314514e-09 2.433636805155106e-08 2.413153940497043e-08 1.735523484227727e-08 3.540238429623629e-08 0 4.33063509329733e-09 3.978309171072492e-08 4.589493273218117e-09 0 0 0 3.6572176061268e-08 3.261515456474381e-09 6.354059770689227e-08 0 3.131388176969971e-08 4.424011132758494e-08 2.052386230230238e-08 2.262146410574216e-08 5.101497963155534e-09 2.686587520160025e-08 4.249530221042287e-08 1:281.95297 2:-509.1419 3:-45.54929 4:554.97518 5:-79.962782 6:390.49632 7:-1337.2666 8:1234.0652 9:1642.4362 10:-138.00456 11:-840.51874 12:641.81138 13:-463.97254 14:-906.41236 15:61.712948 16:-104.02486 17:-462.19588 18:1190.5773 19:354.41595 20:624.77699 21:-514.62353 22:29.940936 23:-26.830751 24:-243.33574 25:743.08203 26:-129.50012 27:329.92637 28:624.08031 29:443.89211 30:129.14339 31:392.42285 32:-23.035564 33:-603.67242 34:381.92547 35:-247.42078 36:247.3234 37:-597.44783 38:180.96967 39:1.394445 40:236.95487 41:469.19137 42:43.068016 43:-175.2249 44:244.45149 45:98.673442 
2.854748906808562e-08 0 0 0 0 0 0 0 0 0 3.479955437087819e-09 0 0 0 0 5.967918618193292e-08 0 0 0 0 0 4.3319949038887e-08 4.185766983752079e-08 0 2.164393010518457e-08 0 0 0 0 0 0 0 0 0 5.732386120603488e-08 1.49698812330083e-08 0 1:536.183 2:-581.20813 3:-286.95037 4:247.0593 5:523.27458 6:-175.66508 7:-1199.0134 8:1009.24 9:1074.9511 10:206.9947 11:-753.64086 12:282.75635 13:-1079.4457 14:-833.03539 15:-489.19568 16:-473.94758 17:-138.7866 18:962.20713 19:121.86859 20:240.40225 21:-57.16144 22:559.28284 23:212.08462 24:272.17393 25:631.54033 26:-255.56194 27:65.256853 28:808.48522 29:216.76133 30:131.80002 31:-346.03742 32:178.43422 33:-276.5589 34:-158.84862 35:89.631732 36:282.75181 37:-574.44875 38:-64.170685 39:-38.738325 40:-196.70201 41:109.13201 42:-283.71949 43:-118.51379 44:206.79159 45:-274.9213 
2.233384153462182e-08 8.158347952220095e-08 3.061700850035357e-08 0 0 6.927872441053209e-08 2.825373087285449e-08 0 0 0 0 3.354967382996693e-08 4.209563046723209e-09 5.740413916261889e-08 4.44969012519189e-09 0 6.261991244842964e-08 0 3.352935493943094e-08 0 0 0 2.635255841810718e-08 0 1.195732835986491e-09 0 0 2.802198598296327e-08 6.008421807538333e-08 0 0 0 3.846946938500621e-08 0 0 7.114267481784697e-08 4.423770836954718e-08 1:2172.8595 2:72.017351 3:-568.04744 4:-46.007724 5:924.38905 6:-1235.7861 7:-1180.4319 8:1092.3123 9:415.80963 10:-66.488403 11:-1147.4139 12:-153.67407 13:-1340.192 14:-621.26361 15:-367.7104 16:-518.1282 17:378.63208 18:747.29015 19:406.4299 20:225.60329 21:-214.85287 22:169.7973 23:510.22764 24:183.25536 25:-71.649766 26:-7.507071 27:-489.81419 28:607.39751 29:121.18042 30:362.11174 31:-484.20744 32:305.27614 33:270.28817 34:-760.87892 35:368.3189 36:-89.821471 37:-435.46283 38:-283.1253 39:15.445688 40:-416.32855 41:152.80483 42:-249.62157 43:-575.74013 44:254.43371 45:-231.49685 
0 0 0 0 0 0 0 0 0 0 0 1.780959570724092e-08 0 0 0 0 0 0 0 0 0 0 0 0 0 0 0 0 0 0 0 0 0 0 0 0 0 1:1434.0361 2:-234.93554 3:-583.36417 4:331.87078 5:573.16564 6:-663.90745 7:-1400.3833 8:903.33133 9:555.50376 10:58.749269 11:-1041.3684 12:-57.406032 13:-1577.3007 14:-710.54869 15:-336.01374 16:-859.8834 17:275.83732 18:718.01303 19:153.75386 20:190.74491 21:-99.517787 22:532.2619 23:32.598879 24:325.99286 25:389.60462 26:93.331729 27:-189.30866 28:851.6659 29:286.75254 30:325.04821 31:-487.96261 32:401.60688 33:-187.21813 34:-408.71464 35:422.48406 36:106.00535 37:-626.62177 38:-193.41819 39:-131.07654 40:-455.34994 41:33.802068 42:-357.91895 43:-450.37252 44:118.92981 45:-579.20335 
-0 2.67918856006608e-08 0 0 0 0 0 0 1.373671340618381e-08 0 4.978263568360791e-08 0 0 0 0 0 0 0 0 1.922007154221342e-08 0 0 8.250786232423667e-09 0 0 0 0 0 0 0 0 0 0 0 0 0 0 1:-1497.6605 2:634.1194 3:961.53899 4:2098.8464 5:-459.93551 6:-229.36115 7:-497.48285 8:-412.93096 9:31.882707 10:254.73232 11:267.66208 12:338.20051 13:1198.067 14:-1053.3773 15:-328.56092 16:-425.65189 17:513.07149 18:-1127.1183 19:105.8899 20:542.06151 21:-289.03686 22:114.55927 23:338.11999 24:751.02119 25:-477.52903 26:-398.25275 27:46.267732 28:349.46429 29:30.447395 30:321.91772 31:147.04954 32:-23.953648 33:40.631572 34:-373.68806 35:-154.19128 36:74.958817 37:-165.44524 38:211.09646 39:51.559756 40:74.27856 41:226.98407 42:-329.86343 43:218.32413 44:-154.92766 45:-38.009256 
-0 0 0 2.475816993278529e-08 5.325694867710827e-08 0 0 0 0 0 0 0 3.111615917458399e-08 0 1.134061297714297e-08 0 0 0 0 0 0 0 0 7.87496885704517e-10 0 0 2.562253357977588e-08 0 0 0 3.96915972746245e-08 0 0 0 1.092685247843477e-09 0 0 1:-2951.8754 2:1137.8276 3:1730.8001 4:2250.1644 5:-1158.8831 6:27.78909 7:-545.8261 8:-599.46221 9:48.428409 10:87.827682 11:264.65294 12:152.29476 13:706.62517 14:-450.52541 15:-598.29373 16:-448.92419 17:689.1542 18:-764.76758 19:107.96393 20:476.76386 21:-482.01417 22:211.59456 23:692.50037 24:840.48944 25:-702.12026 26:-78.497575 27:280.46336 28:351.11644 29:108.79951 30:279.39103 31:114.64142 32:192.75777 33:189.98122 34:-205.21567 35:-114.45412 36:148.33953 37:8.92153 38:-1.363689 39:16.625742 40:53.484103 41:-128.84914 42:-487.27666 43:326.60104 44:-95.151834 45:11.656403 
-0 0 0 2.085887085792398e-09 0 0 0 0 0 0 0 0 0 0 0 0 0 0 0 0 0 0 0 0 0 0 0 0 0 0 0 0 0 0 0 0 0 1:-2933.5203 2:1037.2849 3:1601.7249 4:2369.5521 5:-849.54095 6:-29.790988 7:-558.44128 8:-505.05868 9:106.29787 10:105.42143 11:250.60882 12:234.65924 13:666.0568 14:-598.35211 15:-592.14994 16:-513.67082 17:688.27057 18:-663.00382 19:148.31229 20:427.37474 21:-365.07514 22:107.49688 23:757.04763 24:731.20807 25:-750.49525 26:-43.88308 27:363.20491 28:366.58965 29:177.85102 30:423.74304 31:118.75116 32:238.52373 33:15.124231 34:5.147103 35:-409.88825 36:-51.011841 37:-115.35712 38:55.444814 39:117.02725 40:-123.89666 41:-189.08515 42:-365.51523 43:415.97783 44:-27.788824 45:-108.02848 
-0 0 0 0 3.217702784507179e-09 0 0 0 0 0 0 0 0 0 0 0 0 0 0 0 0 0 0 0 0 0 0 0 0 0 0 0 0 0 0 0 0 1:-2156.0098 2:812.50892 3:1219.2759 4:2252.9483 5:-523.57024 6:-185.97819 7:-568.03395 8:-376.08775 9:173.72931 10:195.6985 11:235.56054 12:302.20113 13:881.50685 14:-903.8916 15:-520.71386 16:-491.36888 17:516.37967 18:-804.25848 19:103.96228 20:377.46661 21:-227.1611 22:4.50637 23:681.6214 24:621.06129 25:-652.96981 26:-102.7852 27:314.8752 28:401.69275 29:185.79553 30:492.13946 31:167.16956 32:218.75068 33:-123.71893 34:52.573257 35:-594.73057 36:-108.08989 37:-215.01785 38:168.20493 39:212.34016 40:-189.98666 41:-58.494455 42:-221.52135 43:407.36967 44:-29.01888 45:-185.75558 
-9.303340666594257e-08 7.406076809350825e-08 7.98550574219012e-08 2.921172245165038e-08 6.35873017511014e-08 6.407206686545286e-08 5.408830793308349e-08 5.262637735892799e-08 5.209949150690691e-08 4.098141392442823e-08 5.374589061222115e-08 5.887756381963635e-08 3.879323836918481e-08 8.132567780361903e-08 6.298149400003444e-08 5.767563463543065e-08 6.144319761162926e-08 9.099634808813773e-08 3.886326770779502e-08 2.537982177097531e-08 5.062519818294117e-08 5.468795425490458e-08 5.088063101740774e-08 3.987882162228791e-08 5.119563936957806e-08 3.949601027825226e-08 3.922463264038175e-08 8.483568265992089e-08 6.822367253486924e-08 3.685364641956477e-08 5.96654977934198e-08 6.224309674901044e-08 1.386131491887521e-07 5.984943728039582e-08 8.028710187749377e-08 1.203280605896776e-07 4.674183121538197e-08 1:211.13421 2:-137.83576 3:248.93963 4:1503.1035 5:-694.56838 6:-250.30728 7:-748.31335 8:172.69313 9:632.83585 10:94.424053 11:-55.448634 12:-240.58424 13:953.06919 14:-928.64239 15:-789.51891 16:-62.47913 17:-20.77951 18:-590.66008 19:-72.762087 20:260.48764 21:-81.425725 22:-238.53359 23:475.7769 24:258.77376 25:-679.30278 26:28.755669 27:-272.96051 28:183.8137 29:-46.314514 30:223.4833 31:136.60419 32:-146.49617 33:-153.1198 34:49.234677 35:-741.73336 36:15.585808 37:-281.2476 38:111.66842 39:725.83518 40:-523.53666 41:840.95673 42:273.79133 43:320.41412 44:657.52942 45:-1421.1667 
-0 0 0 0 6.021155065527361e-09 0 2.612232148589047e-08 0 3.957152816722855e-10 0 0 0 2.437697554953887e-08 0 0 0 0 0 0 0 0 0 0 0 0 0 0 0 0 0 0 0 0 0 0 0 0 1:-2381.8997 2:826.34939 3:1092.3556 4:2416.0855 5:-1243.4016 6:-24.258757 7:-477.1167 8:-324.71349 9:120.23871 10:-22.970269 11:289.5839 12:89.159861 13:524.30996 14:-761.96049 15:-462.44355 16:-720.87882 17:584.48289 18:-418.94467 19:-181.08202 20:378.59949 21:-372.91747 22:-219.505 23:852.16456 24:754.07665 25:-785.82263 26:413.34706 27:333.06624 28:496.79111 29:449.35618 30:476.95775 31:294.00497 32:187.29622 33:-148.08883 34:354.41073 35:-979.25446 36:-106.40159 37:-294.15087 38:191.21618 39:483.09695 40:-513.41575 41:-461.25321 42:-84.93177 43:398.50415 44:75.106979 45:-160.82222 
-0 0 0 0 9.449928733912445e-09 0 4.793959213879753e-08 0 2.013414741018488e-08 0 0 0 0 0 0 4.545482646445198e-08 9.596741181240007e-09 6.067310516971739e-10 0 2.900843355061032e-08 1.968633537923571e-08 1.534434714952367e-08 0 5.686658197836435e-10 3.725071564025521e-09 7.466871281125274e-09 0 0 0 3.624393265536418e-08 5.500415727205534e-09 5.639690202023541e-08 7.020806333609639e-09 8.234286928791043e-08 0 3.955640197132456e-08 0 1:-1826.918 2:439.72649 3:1042.8498 4:2021.7756 5:-1245.7029 6:-99.406344 7:-546.76376 8:-402.58612 9:144.56705 10:-1.42769 11:222.25351 12:200.37895 13:1154.4825 14:-727.27165 15:-532.33448 16:-242.39628 17:565.5501 18:-726.31 19:-83.576681 20:511.33983 21:-502.37346 22:260.1707 23:580.9425 24:704.99942 25:-585.56687 26:-125.14087 27:-11.062968 28:334.15395 29:92.581603 30:76.169026 31:82.471425 32:-30.099831 33:256.47818 34:-181.80657 35:-78.972364 36:416.81149 37:-4.910488 38:16.450315 39:37.279381 40:78.731488 41:73.738876 42:-327.47078 43:160.28634 44:-90.340653 45:-30.573972 
-1.506445646967789e-08 2.022483247700943e-09 4.462020696168483e-08 0 0 4.370683013549459e-08 2.14375569324262e-08 8.991821060941677e-08 1.701590517338022e-08 3.728194988292544e-08 0 5.286570732429705e-09 8.073005763901991e-09 5.116615437237644e-08 8.748552694442507e-09 0 1.664079975373919e-08 2.929117071043441e-08 3.214348894997334e-08 0 3.671371236293406e-08 1.156683671074231e-08 3.281059700759765e-08 1.342752760717455e-08 2.032114762650347e-08 3.587816672288777e-08 9.546735485274866e-09 4.07135326493712e-08 3.758182429855374e-08 0 0 0 1.080196537859001e-09 1.905184025673933e-08 2.607627205939201e-08 0 3.199931629776636e-08 1:219.15736 2:354.05203 3:723.33229 4:1689.0411 5:-672.75906 6:-631.37537 7:-511.93532 8:-274.25662 9:133.18979 10:213.78545 11:341.7777 12:95.355583 13:1596.5216 14:-1490.1403 15:-93.132387 16:-239.99734 17:294.61589 18:-1500.3792 19:-223.97549 20:362.91628 21:-515.90647 22:233.03253 23:180.63584 24:672.27725 25:-339.7998 26:-202.25908 27:-376.13015 28:303.02017 29:-132.05139 30:95.554749 31:15.517735 32:-71.11985 33:223.65443 34:-590.0487 35:-46.851343 36:251.53227 37:-367.4867 38:43.681808 39:-197.42379 40:279.19389 41:547.25301 42:-273.35035 43:-99.549382 44:-103.88766 45:105.21743 
-0 0 0 0 0 0 0 1.815590927907855e-09 0 0 0 0 0 0 0 0 0 0 0 0 0 0 0 0 0 0 0 0 0 0 0 0 0 0 1.588307387310012e-08 0 0 1:-3226.7588 2:1294.1869 3:2032.2178 4:2334.5931 5:-1526.1058 6:40.030055 7:-528.81175 8:-713.71499 9:52.150747 10:113.14505 11:231.26011 12:66.11758 13:643.11246 14:-358.39428 15:-685.66051 16:-423.51482 17:698.93867 18:-942.81753 19:109.91822 20:567.11018 21:-658.78497 22:370.58077 23:675.03272 24:969.51336 25:-645.21564 26:-55.930193 27:314.14026 28:389.48717 29:45.74927 30:181.39755 31:159.90295 32:88.934934 33:347.55223 34:-428.08273 35:180.29873 36:334.15448 37:81.416941 38:-29.456387 39:-73.226367 40:361.62673 41:-102.89764 42:-638.18096 43:254.62029 44:-127.14041 45:201.34455 
-0 0 0 0 0 0 0 0 0 1.003869739446819e-08 0 0 0 0 1.246928163852945e-08 0 7.210970828507565e-09 0 0 0 0 0 0 8.792089435553864e-09 0 0 0 0 0 0 1.434603695538457e-08 0 2.890178008623957e-08 0 0 0 0 1:-1248.2395 2:808.09842 3:1315.3443 4:2041.2877 5:-1369.2317 6:-199.32467 7:-648.87693 8:-553.27998 9:221.9895 10:136.17925 11:314.93093 12:-49.411364 13:1163.4738 14:-986.08859 15:-370.32676 16:-208.54035 17:471.57252 18:-1353.248 19:-44.615835 20:532.14725 21:-726.14137 22:479.25947 23:190.32106 24:931.55494 25:-437.69921 26:-115.1197 27:-4.086294 28:335.33636 29:-172.0925 30:36.981949 31:148.23642 32:-24.659318 33:344.28117 34:-508.4412 35:311.33191 36:440.50324 37:-109.31022 38:55.092244 39:-189.37817 40:651.12704 41:370.82754 42:-436.78716 43:-103.83596 44:-193.86783 45:226.00897 
-0 -0 0 0 6.700012536550456e-09 6.726155430324022e-09 3.947836071789431e-08 0 1.452657425507021e-07 2.682229143956092e-08 1.087510207381756e-07 0 0 0 1.216924045697005e-08 1.582278717302457e-09 0 3.129490097752592e-08 0 9.827714297235822e-08 5.519462354362775e-08 4.458574896904721e-08 0 4.308033109520953e-08 2.123953643740603e-09 3.356333199734547e-08 2.050522002980303e-08 1.635512436611099e-08 0 6.640519171847166e-08 6.997943215736031e-08 5.516715314121248e-08 0 7.365209512104985e-08 3.889964152337618e-09 0 0 1:-100.56808 2:-211.36902 3:-1712.237 4:916.99488 5:829.32499 6:-783.24785 7:426.58214 8:1333.161 9:-465.43323 10:-12.525364 11:-531.13132 12:341.0853 13:-148.99363 14:-28.638311 15:626.28535 16:-321.35782 17:-358.37978 18:210.93079 19:664.56783 20:78.082339 21:89.877024 22:-168.16726 23:124.7953 24:505.76458 25:-114.68731 26:75.119752 27:-87.517078 28:-525.88256 29:-465.41499 30:-510.35108 31:455.93587 32:-580.66071 33:349.20793 34:54.98241 35:-269.62352 36:277.58346 37:-162.71798 38:-468.34322 39:-240.20282 40:-88.025753 41:-73.30516 42:193.59376 43:192.48661 44:-469.30246 45:-151.66787 
-0 -0 0 3.626681059347672e-08 0 0 0 7.375477227500451e-10 0 0 0 0 1.011237320860305e-08 0 0 0 0 0 0 0 0 0 0 0 0 0 0 0 0 2.271550341625348e-08 2.855812428328885e-08 2.568463593011343e-08 0 0 0 0 0 1:-1838.4792 2:-581.54539 3:-1005.1216 4:1843.954 5:-121.08251 6:991.63382 7:27.833776 8:1890.6537 9:-535.75865 10:105.52555 11:-905.47204 12:990.03782 13:-426.7133 14:414.0364 15:553.01075 16:-480.99027 17:-800.09882 18:39.051714 19:963.73729 20:166.39757 21:-261.369 22:-475.66206 23:448.62118 24:432.46777 25:-753.25551 26:104.99119 27:-107.9357 28:-382.7932 29:-317.64711 30:-735.37551 31:349.18786 32:-302.36634 33:206.31132 34:167.696 35:249.62838 36:24.039694 37:-544.90691 38:-581.84885 39:382.74871 40:401.94747 41:-15.105878 42:332.17598 43:369.8733 44:-307.63059 45:42.427007 
-0 -0 0 0 0 0 0 0 0 0 0 0 0 0 0 0 0 0 0 0 0 0 4.372958361111598e-08 0 0 0 0 0 0 0 0 0 0 0 0 0 0 1:984.71668 2:-100.36759 3:-1749.1062 4:790.71836 5:2211.1713 6:-721.9504 7:345.26731 8:1430.8876 9:-364.40542 10:240.04985 11:-554.51347 12:8.071965 13:-674.93489 14:-181.78902 15:739.4958 16:36.573891 17:-453.50021 18:307.76358 19:1079.6309 20:361.57839 21:-140.02314 22:127.43595 23:-99.905079 24:300.02125 25:-320.46477 26:182.58752 27:187.03251 28:-307.57481 29:-885.32549 30:-257.52486 31:545.32938 32:-350.58528 33:730.49651 34:-106.85734 35:-217.19093 36:148.18785 37:-113.08061 38:-58.444183 39:-360.66658 40:-113.51533 41:-153.81695 42:317.10093 43:448.20243 44:-524.94106 45:-67.03355 
-0 -0 0 0 1.704324788174763e-08 0 0 0 0 0 0 0 0 0 0 0 0 0 0 4.833470307361054e-10 0 0 0 0 0 0 0 0 0 0 0 0 0 0 0 0 0 1:-1735.3515 2:-501.31538 3:-979.24311 4:1781.0843 5:36.057683 6:777.05084 7:1.688348 8:1981.5409 9:-295.29381 10:80.797949 11:-818.67274 12:1025.1924 13:-243.99806 14:206.50128 15:669.40147 16:-397.10212 17:-794.89364 18:216.31945 19:1008.0297 20:259.03753 21:-477.14655 22:-660.94516 23:388.50837 24:163.64335 25:-979.34028 26:91.750425 27:-93.99661 28:-387.99629 29:-296.13498 30:-626.02735 31:456.43775 32:-343.93206 33:76.344031 34:291.84624 35:262.44986 36:-33.53157 37:-494.16318 38:-367.92137 39:230.94494 40:478.28922 41:131.75551 42:492.01136 43:63.916736 44:-352.21907 45:127.78664 
-7.037310201863369e-09 -6.875446430983973e-09 0 2.307230871808635e-08 4.050988856941052e-09 4.930021615069495e-10 3.66768339035681e-08 2.736570548317361e-08 0 0 1.146088099749814e-08 0 0 0 3.733293754191425e-08 0 2.404232866227967e-08 6.892074684666027e-08 9.596392441383088e-10 0 3.829893066419466e-08 0 6.165423327281555e-08 2.095965000066069e-08 2.504798188254295e-08 4.509901635183905e-08 2.246460784277136e-08 1.477124043838344e-08 0 0 0 0 5.383565162670715e-08 1.456694812233415e-08 2.966108109242564e-08 7.190651957391641e-08 0 1:1105.3496 2:58.431677 3:-1694.5287 4:674.09481 5:1393.7207 6:-1372.6267 7:386.51571 8:1220.857 9:-204.34123 10:113.82891 11:-718.90644 12:-61.216221 13:-312.1232 14:-294.32731 15:678.06192 16:-48.08414 17:-293.8287 18:327.61827 19:820.78654 20:135.50072 21:-197.66146 22:-95.600707 23:55.98365 24:91.891431 25:-367.25432 26:38.864833 27:-43.821955 28:-412.887 29:-448.8684 30:-336.08262 31:536.11757 32:-584.10636 33:192.61003 34:-26.552705 35:-697.61552 36:247.96866 37:-104.88319 38:-44.728913 39:-369.67615 40:-286.56156 41:-8.270661 42:369.64688 43:326.41751 44:-606.41592 45:151.67017 
-5.453825032276365e-08 -4.271479118423914e-08 5.199682123495086e-08 0 1.85171674388458e-08 3.454016500807186e-08 2.193973945899893e-08 1.810159353672426e-08 8.119229106515275e-09 1.65494605607805e-08 2.04274143464238e-08 1.455664465206637e-08 7.727386139179751e-09 2.708105123113906e-08 1.526055969310342e-08 2.213984640349761e-08 2.99625048088212e-08 2.360616710435477e-08 2.060644758268243e-08 0 1.400860390687796e-08 3.354213235405728e-08 0 3.57299970623874e-09 1.199598402861273e-08 0 2.41386309537372e-08 3.104728511547951e-08 4.807812451965609e-08 0 1.541472334075062e-08 1.478734203521863e-08 1.681706172068554e-08 1.592652454480469e-08 0 4.795508144705434e-08 2.337978433321256e-08 1:-780.50872 2:-481.81811 3:-1236.8362 4:1741.5744 5:-297.41447 6:717.16613 7:-429.71498 8:1925.3357 9:398.40371 10:58.788864 11:-357.64476 12:821.4003 13:87.385252 14:-86.569437 15:1006.5281 16:303.89165 17:-661.83744 18:242.72388 19:960.90724 20:414.67569 21:-682.74722 22:-657.82127 23:357.50554 24:-37.095697 25:-1080.3102 26:590.74541 27:152.25706 28:-209.88307 29:-206.17044 30:-609.99155 31:734.83064 32:-647.08889 33:-342.83312 34:447.93768 35:203.75817 36:-6.188148 37:-541.10786 38:151.73348 39:73.852681 40:597.99399 41:419.05794 42:567.97097 43:-435.60933 44:-286.4038 45:511.45565 
-0 -0 0 0 0 0 0 0 0 0 0 0 2.148159104670183e-09 1.228206221030411e-08 0 8.547405758008151e-08 5.575018132002735e-10 0 3.874312176167692e-09 0 0 5.378877198163134e-09 3.100899395573698e-08 0 1.55507705459156e-08 0 0 0 0 0 0 0 0 0 3.131627177430953e-08 3.003053543146705e-08 2.571516511070802e-08 1:-671.06311 2:-603.85789 3:-1310.1342 4:1681.8151 5:772.95375 6:555.17773 7:-219.8498 8:1491.2345 9:-489.96896 10:178.68137 11:-508.78027 12:254.26542 13:-478.14256 14:357.69036 15:601.19929 16:-169.54415 17:-560.56274 18:-4.289876 19:925.13873 20:272.19465 21:52.594823 22:-24.995312 23:241.58917 24:569.59964 25:-396.10731 26:291.12512 27:58.994444 28:-322.59093 29:-663.66036 30:-507.92239 31:433.04233 32:-210.72196 33:342.08369 34:49.686973 35:-19.456058 36:159.69659 37:-320.85903 38:-514.72668 39:191.52832 40:31.639727 41:22.91215 42:283.47576 43:281.93368 44:-392.88242 45:-187.90286 
-8.590541773903661e-08 -0 5.531888139396392e-08 0 4.116888755610872e-08 6.574990165750022e-08 0 3.490620454648917e-08 0 3.204545975452652e-08 0 1.636146966349612e-08 5.090576426214427e-08 3.973601402481e-08 0 0 4.16579887986505e-08 1.015837665858072e-08 3.787052327569645e-08 0 0 1.827346682313972e-08 1.712267899227456e-08 1.058097038843354e-10 5.71753411594156e-09 1.510839485713974e-08 0 4.262600126316764e-08 6.363204996280244e-08 0 0 2.525070360906105e-09 4.722045695500378e-10 0 3.386616708506968e-08 3.395167328098089e-08 3.970528854966495e-08 1:1803.3296 2:28.75871 3:-1710.2404 4:821.60119 5:1451.1675 6:-1457.9276 7:304.92462 8:970.34801 9:-503.01971 10:119.66504 11:-913.84501 12:-566.32921 13:-845.15002 14:-270.6453 15:568.93918 16:-196.82542 17:-28.884421 18:86.625013 19:825.1006 20:139.99782 21:-354.98503 22:263.50507 23:-233.54879 24:492.76849 25:-266.62394 26:431.11122 27:-118.99939 28:-354.71586 29:-746.49988 30:-259.46355 31:531.47943 32:-360.85856 33:826.22252 34:-251.51894 35:-377.2438 36:55.074796 37:6.061104 38:-170.74063 39:-431.79016 40:-518.34799 41:-431.82606 42:53.902043 43:156.16764 44:-293.80569 45:-614.68052 
-0 -0 0 0 0 0 0 1.408769301298842e-08 0 0 0 0 0 0 0 0 0 0 0 7.903546698291345e-09 0 0 0 0 0 0 0 0 0 0 0 0 0 0 0 0 0 1:-1972.5384 2:-659.4211 3:-1168.6818 4:2106.9389 5:-395.45213 6:1077.8682 7:-70.687225 8:1763.583 9:-768.2964 10:271.25162 11:-979.76659 12:942.51074 13:-720.15077 14:555.99637 15:556.04338 16:-709.19741 17:-711.95537 18:-414.84114 19:877.13109 20:204.07771 21:-21.271947 22:-322.39325 23:404.99055 24:665.95727 25:-561.94634 26:255.35345 27:-56.770348 28:-294.13578 29:-211.35601 30:-865.83803 31:363.17227 32:-193.62371 33:310.96739 34:77.445753 35:148.69262 36:43.766192 37:-423.47179 38:-710.74841 39:417.60732 40:264.59033 41:-130.31055 42:119.27672 43:556.73428 44:-345.43518 45:-120.21465 
-0 -5.32848993266469e-08 9.667425615698583e-09 0 0 0 3.632989526482987e-08 0 0 1.656997907570922e-09 0 4.122499160292551e-08 0 2.195822653893697e-09 1.71250722587433e-08 1.085141187480678e-08 0 0 0 0 0 0 0 1.316039998837917e-08 0 0 0 0 1.663673526814179e-09 0 5.183269237354481e-09 0 6.966943110896059e-08 2.707357114263754e-08 3.912520623040545e-09 1.538930590805393e-08 0 1:219.5234 2:-411.76058 3:-1798.717 4:1531.447 5:364.86813 6:-335.0485 7:-202.69671 8:1040.7096 9:-700.76208 10:69.637579 11:-697.28659 12:-355.63953 13:-938.33978 14:103.9285 15:765.07554 16:-570.8134 17:-160.11506 18:-338.56459 19:698.00724 20:439.95202 21:20.25257 22:158.05614 23:-185.39858 24:686.97654 25:-195.86411 26:549.65539 27:113.49386 28:-425.47822 29:-515.21492 30:-343.66165 31:682.73589 32:-70.074411 33:469.93578 34:-106.6438 35:-333.92353 36:-27.399215 37:-165.73305 38:-371.39697 39:92.111569 40:-338.43716 41:-339.49876 42:-24.1433 43:82.777252 44:-274.67885 45:-902.75827 
-0 -0 -0 1.47381014484939e-08 0 3.385156028447607e-07 0 0 0 0 0 0 2.569459763427197e-08 1.958915185518246e-08 0 0 0 0 0 0 0 5.992011886258095e-08 0 0 4.471539667471778e-08 7.145888933862695e-08 0 0 1.437618047056328e-07 0 0 0 0 1.079415055785139e-08 0 0 0 1:2447.3932 2:-649.24308 3:-191.36796 4:561.26854 5:-583.23513 6:459.89885 7:-611.06065 8:-125.91859 9:490.72259 10:-139.89607 11:-223.41262 12:594.87321 13:38.486423 14:-164.39102 15:250.57304 16:-263.05573 17:156.13448 18:-57.834938 19:378.89389 20:-297.80658 21:66.908612 22:-293.17408 23:-85.691177 24:311.45202 25:173.72873 26:162.1129 27:598.78653 28:-136.25322 29:728.23134 30:-415.40724 31:146.7625 32:537.69541 33:59.676434 34:-160.40265 35:-37.914759 36:-97.727384 37:122.16663 38:-320.25111 39:-156.19981 40:333.62613 41:-97.494474 42:402.34257 43:25.781762 44:-101.50598 45:-48.769408 
-0 -0 -0 0 8.082574204062319e-09 0 0 0 0 0 0 0 0 0 4.706686656119626e-09 1.898792228947084e-08 2.996202610317666e-08 0 0 0 0 0 0 0 0 0 0 0 4.089357747438019e-09 1.626496433964278e-09 0 0 0 0 0 0 1.95230879301918e-08 1:1752.9489 2:-986.31158 3:-280.05855 4:587.09442 5:-836.25029 6:970.6983 7:-677.23897 8:-891.19845 9:1365.5229 10:60.631017 11:-660.23647 12:580.25083 13:320.52868 14:-266.325 15:148.87193 16:-451.83682 17:19.73602 18:-116.03185 19:135.40711 20:-191.48718 21:249.08612 22:79.718803 23:-484.39702 24:136.95941 25:-127.1724 26:82.322988 27:606.50562 28:1.44332 29:387.49753 30:-324.5266 31:287.92257 32:683.77583 33:122.79334 34:158.10869 35:-545.88534 36:-55.662952 37:-61.782672 38:-74.45179 39:-555.76819 40:103.4906 41:-7.703946 42:234.14703 43:17.40976 44:-5.165617 45:-78.747365 
-0 -0 -0 0 0 0 0 0 3.061469255172052e-08 7.149118887064634e-08 0 0 0 0 0 0 0 0 0 0 5.235090985140352e-08 0 0 1.560782734283629e-09 0 0 0 0 0 0 0 0 0 0 0 0 0 1:2641.696 2:-316.89024 3:-551.78744 4:210.87945 5:-996.97748 6:238.55761 7:-451.21395 8:344.26184 9:318.61388 10:-205.43408 11:122.4971 12:540.3072 13:203.57795 14:-114.9902 15:420.71065 16:-334.39558 17:280.55158 18:-15.372395 19:151.67793 20:-375.57523 21:-117.05086 22:-440.93638 23:372.04991 24:504.21059 25:229.80155 26:305.75968 27:468.93303 28:-69.910256 29:769.37235 30:-583.52288 31:42.429091 32:607.94165 33:-27.401139 34:-96.375654 35:-42.270645 36:-49.630018 37:111.99254 38:-481.53651 39:127.60808 40:623.25064 41:-185.16291 42:526.43723 43:9.981073 44:-22.230045 45:233.67836 
-5.786438735419845e-08 -7.55501108640583e-10 -0 0 0 0 0 0 0 0 0 0 0 1.0515424663936e-07 1.694411619549822e-10 0 0 0 0 1.610717736000018e-08 0 2.699766048769678e-09 0 0 0 0 0 0 0 0 1.452880055744613e-09 0 0 0 0 0 1.224952368293501e-08 1:1797.8335 2:-970.4216 3:-238.62008 4:653.79392 5:-720.07381 6:868.9627 7:-735.44056 8:-851.87469 9:1390.6272 10:83.47917 11:-627.35325 12:606.15966 13:371.83627 14:-235.6832 15:134.77 16:-483.18423 17:-125.93276 18:-101.92732 19:121.3653 20:-160.95954 21:250.59256 22:-13.735044 23:-443.10077 24:3.332755 25:-105.83687 26:34.070273 27:615.41089 28:40.837932 29:429.33373 30:-266.33982 31:327.45098 32:630.23485 33:137.00124 34:107.16172 35:-571.9195 36:-50.626908 37:38.029111 38:-76.394395 39:-466.35431 40:148.72135 41:-9.790009 42:256.53783 43:-38.380074 44:46.544917 45:12.127796 
-0 -0 -0 0 0 0 0 0 0 0 3.090260293100674e-08 0 0 0 0 0 0 0 4.853761693747779e-08 0 0 0 0 0 0 0 0 0 0 0 0 0 0 0 0 0 0 1:2119.0975 2:-784.98961 3:-258.12705 4:594.24428 5:-642.99975 6:606.37436 7:-656.32661 8:-415.38875 9:1048.8342 10:4.230746 11:-396.54113 12:609.75692 13:247.09579 14:-186.89334 15:192.7432 16:-451.26173 17:-143.16931 18:-120.87632 19:137.5958 20:-122.86348 21:169.62515 22:-188.62135 23:-180.56253 24:51.677913 25:45.806767 26:37.150167 27:655.6958 28:33.915439 29:644.4808 30:-332.94528 31:283.5872 32:605.1447 33:122.467 34:10.639416 35:-381.17063 36:-53.329551 37:114.40433 38:-214.09107 39:-241.92669 40:338.19308 41:-17.378262 42:341.40338 43:-82.436395 44:0.794525 45:55.649421 
-8.883844088721738e-08 -7.477104476949729e-09 -6.728968145655432e-08 3.519167031136933e-09 3.277210546388272e-08 7.536297097396106e-09 5.806154598332073e-08 4.641394351898563e-08 2.629169772000694e-08 0 1.863251789506583e-08 8.681530184408334e-09 1.957506724738447e-08 4.938421288097653e-08 6.916539034630059e-08 3.296480316373879e-08 1.020440286440746e-07 0 4.285264727508343e-08 1.858570263396827e-08 0 0 4.988632978876776e-08 0 0 0 2.712628394296529e-08 1.226140783290628e-07 3.202921508430705e-08 0 2.57317277869113e-08 8.418612252607476e-09 1.056292183466865e-07 4.167812140250531e-08 3.534298469801853e-08 1.518177755631776e-08 1.129923062586531e-07 1:2630.3235 2:-340.6566 3:-329.52719 4:478.97828 5:-538.608 6:177.98932 7:-607.96657 8:329.78818 9:250.21672 10:-163.67107 11:-28.35982 12:611.66207 13:44.108235 14:-49.379217 15:197.00273 16:-304.4056 17:77.855141 18:-52.071481 19:180.17878 20:-173.62881 21:62.630024 22:-586.32964 23:313.67883 24:241.5734 25:243.86093 26:153.54399 27:588.29916 28:-92.734702 29:813.46025 30:-467.32355 31:150.31843 32:527.68684 33:-18.305795 34:-169.94985 35:30.180503 36:-32.375395 37:236.70364 38:-404.8999 39:206.61874 40:565.69852 41:-20.415079 42:493.52146 43:15.276058 44:-49.070257 45:-16.520094 
-0 -2.304816599458803e-08 -0 0 0 8.338833042120816e-08 1.589059587106374e-08 0 0 1.39291778873631e-08 3.307857768296592e-08 9.572726583125578e-08 4.339833666555217e-08 3.29173774918588e-08 0 0 0 6.190189049641289e-08 0 0 2.512061621908311e-08 0 0 0 0 5.999486816894422e-09 2.102809704330839e-08 3.403182587240844e-08 6.856323669498941e-08 0 5.357341994578743e-09 0 1.007518401261684e-07 0 0 0 0 1:2006.8885 2:-809.31753 3:-364.64588 4:620.25851 5:-1571.3896 6:464.8496 7:-626.91102 8:-718.91637 9:1228.8657 10:-139.03621 11:-283.49993 12:131.18541 13:218.07892 14:-182.63574 15:259.78695 16:-613.90557 17:-331.84217 18:-95.751314 19:-166.72811 20:-20.846662 21:-103.93328 22:-283.49288 23:-383.78878 24:306.80058 25:28.070028 26:324.55772 27:322.93221 28:162.33165 29:337.91942 30:-191.88394 31:128.39108 32:267.11957 33:351.48247 34:82.629366 35:-480.58582 36:118.35805 37:97.490725 38:-201.7888 39:-145.37387 40:239.18606 41:-314.16346 42:391.45487 43:-176.31134 44:101.90225 45:104.3171 
-1.112268441436634e-08 -9.31944928034077e-08 -4.969344678805906e-08 3.359760156509757e-08 3.580331773770262e-08 0 4.714300447022539e-08 7.892219036056476e-08 3.644854371785226e-08 2.848715566753371e-08 0 0 0 0 2.144700720896984e-08 5.637149002002852e-08 0 1.402441576134109e-07 0 2.380410500876696e-08 4.627826791774166e-08 5.525526604967761e-08 3.72608738576218e-08 7.290720053188371e-08 3.265117336486185e-08 1.34113416786243e-08 1.046078814233295e-08 2.963545722135153e-08 0 7.261834629556891e-08 7.379313214705905e-08 9.721321496671457e-08 0 7.372159866301844e-08 6.262428993641695e-08 9.783960572849625e-08 0 1:1942.7965 2:-764.92708 3:-450.93333 4:432.80713 5:-1158.4296 6:516.4399 7:-458.35789 8:-221.87118 9:1027.4003 10:-85.12656 11:-320.37072 12:381.42787 13:402.31585 14:-316.17251 15:120.37304 16:-306.36058 17:135.09274 18:-47.502933 19:173.26597 20:-282.03797 21:0.926465 22:-49.11982 23:-77.308086 24:296.08677 25:-2.914414 26:300.39935 27:479.26923 28:-68.521874 29:407.45977 30:-450.33538 31:106.24461 32:647.8729 33:122.1852 34:187.29652 35:-353.49033 36:-42.8591 37:-25.08365 38:-294.61974 39:-301.49058 40:265.37948 41:-90.177962 42:390.48095 43:0.381784 44:34.435556 45:63.178099 
-0 -0 -0 0 0 0 1.608590650697181e-08 0 0 0 0 0 0 0 1.510782480221482e-08 0 0 0 0 0 0 0 1.454661790946112e-09 4.694798343526326e-09 0 0 0 0 0 0 0 0 0 0 0 0 0 1:2785.1137 2:-178.833 3:-537.31564 4:353.61298 5:-837.03563 6:255.80454 7:-678.83685 8:527.43381 9:184.81113 10:-260.27288 11:139.96142 12:516.11329 13:70.863998 14:-187.86871 15:579.67674 16:-130.71618 17:535.70737 18:-34.292488 19:434.94425 20:-450.51938 21:-73.051289 22:-562.89089 23:321.98533 24:495.71794 25:181.04273 26:309.00828 27:497.20724 28:-136.5841 29:830.67738 30:-667.61173 31:127.36242 32:634.2366 33:-308.82765 34:-318.38433 35:207.44651 36:-252.20993 37:102.02283 38:-303.33319 39:194.82731 40:647.03315 41:36.443407 42:537.41347 43:14.148201 44:89.757517 45:85.576534 
-0 -0 -0 -0 0 0 0 0 0 0 1.415185871575588e-08 0 0 0 0 3.300690554672019e-09 0 0 0 5.05251268445778e-08 0 1.623770836390422e-08 0 0 0 0 0 0 0 6.440950727967727e-08 0 0 0 0 0 0 0 1:-2751.4759 2:-2303.8539 3:2283.0541 4:-1774.8603 5:-606.68933 6:-201.06947 7:165.49097 8:778.71629 9:-741.22218 10:801.81825 11:-624.74422 12:623.13507 13:-497.53931 14:340.53127 15:461.70538 16:242.82678 17:-506.80685 18:-462.45929 19:280.83393 20:-11.997127 21:-88.437738 22:83.775709 23:334.9586 24:118.39061 25:15.840951 26:94.381657 27:546.06229 28:318.38661 29:-36.028315 30:-37.741472 31:-266.23865 32:-352.66483 33:-141.55032 34:141.89675 35:-591.61495 36:-28.142441 37:-270.59594 38:361.27555 39:-334.10563 40:-141.9348 41:-27.905747 42:208.49985 43:-71.871133 44:74.024003 45:258.51035 
-0 -1.74184970998014e-08 -0 -0 0 0 0 0 2.567291335027898e-09 0 0 7.17489409924679e-10 0 0 0 7.934486994335158e-09 0 0 0 1.135464592482739e-08 0 0 0 0 0 0 0 0 0 3.665762822475445e-08 0 1.704780687396512e-08 0 0 0 4.49790348477006e-09 0 1:-3132.8075 2:-2280.2502 3:2580.3505 4:-1499.5829 5:-987.25207 6:389.49247 7:-1.61064 8:1020.2299 9:-643.06333 10:649.29417 11:-558.75926 12:214.41625 13:-966.71223 14:21.207586 15:634.06221 16:166.01595 17:-289.69297 18:-467.13849 19:340.10059 20:-147.49623 21:-169.34556 22:-443.17084 23:2.288455 24:484.26122 25:-262.05107 26:62.629266 27:357.04631 28:-353.2307 29:-6.594589 30:453.84046 31:-343.93082 32:467.08111 33:-313.98565 34:324.066 35:-550.90447 36:-400.00459 37:300.66707 38:-79.970074 39:-8.259472 40:-329.70802 41:-97.266215 42:11.330196 43:65.482489 44:83.900147 45:-338.16161 
-4.185787572828187e-08 -2.762029414606162e-08 -5.254677809317411e-08 -3.297237916196336e-08 3.974489568235427e-08 3.342100497495932e-08 3.24098734414278e-08 5.284103623223743e-08 3.897383665179979e-08 3.381100181790778e-08 2.9633221086773e-08 1.924693483166061e-08 2.959231368094432e-08 4.399298911016236e-08 3.550800897802797e-08 2.497020630584389e-08 2.471448846206984e-08 3.614932650680027e-08 1.943006626856647e-08 0 2.633872067578088e-08 4.286596920905419e-08 4.211914683167296e-08 4.487422678413416e-08 5.972558067254773e-08 7.606543131721318e-08 1.240016248162992e-08 4.032521546621982e-08 3.555034596337481e-08 0 2.302148401186525e-08 1.858839584133105e-08 2.129978570232091e-08 3.967018465305149e-08 3.911238174188774e-08 4.881527012312662e-08 2.593454053437741e-08 1:-1295.3172 2:-1829.1971 3:2189.9206 4:-1782.3565 5:51.320249 6:-143.73265 7:248.05241 8:1031.3833 9:-1226.9521 10:883.6924 11:-998.39618 12:516.2332 13:-636.60214 14:-45.073128 15:421.36721 16:23.958144 17:-355.24379 18:-568.59031 19:480.93039 20:-225.91415 21:-193.54608 22:-105.73654 23:-16.179948 24:236.79461 25:42.384588 26:-84.873404 27:858.58874 28:-203.98979 29:-299.867 30:-126.42825 31:-580.57078 32:121.23607 33:-494.30818 34:306.28876 35:-962.63769 36:-87.657399 37:-459.11679 38:611.22938 39:68.223228 40:-185.5942 41:5.664692 42:201.52206 43:122.16879 44:422.98445 45:20.402222 
-0 -1.101698822436506e-08 -0 -0 6.949756452165001e-09 0 1.053857028991655e-08 0 0 0 0 0 5.258619563056474e-09 0 5.94071992658216e-09 2.325725789549678e-08 1.233817559025718e-08 0 0 0 9.461513219915239e-09 0 5.76931119611791e-09 0 4.031154438157622e-08 0 2.084012436021176e-08 5.965982270990494e-09 0 0 2.061953125853168e-08 1.583639691169453e-08 2.798504633439325e-08 1.314652031290165e-08 1.768135555378755e-08 2.995965042747882e-10 0 1:-2627.1443 2:-1821.6798 3:2825.1384 4:-1822.0958 5:-944.75476 6:483.57945 7:87.177146 8:1452.7642 9:-696.95907 10:574.62422 11:-137.28423 12:-151.13582 13:-1079.2586 14:307.94423 15:137.53329 16:266.54361 17:-173.77201 18:-470.49703 19:24.53022 20:-77.10422 21:-34.735966 22:-87.779094 23:147.40847 24:145.93906 25:-45.268922 26:5.131643 27:515.05408 28:154.00012 29:-166.86864 30:181.53892 31:-54.60716 32:-340.1688 33:-402.82867 34:147.79146 35:-171.65997 36:-199.78256 37:128.17822 38:174.49976 39:-217.27329 40:13.883657 41:-154.64201 42:76.757418 43:-172.41159 44:104.03697 45:18.199773 
-2.291990981513863e-08 -0 -2.041222540357616e-09 -1.888249088276504e-08 8.326216291969905e-09 2.758834636074689e-08 1.260759282087486e-08 2.932994761690243e-08 1.511541289700367e-08 2.070773574963079e-08 1.624684720803653e-09 0 1.071688123582818e-08 2.630428098519435e-08 1.350439181191683e-08 1.7198869248747e-09 1.713301231834506e-08 3.279220811085566e-08 2.151224431280637e-08 0 2.052207272913261e-08 0 0 4.573473613124031e-09 6.611613647403623e-09 1.721362944396007e-08 8.480082440815851e-09 3.306771564434693e-08 1.854008809305255e-08 2.97387433624819e-08 1.339094969138422e-08 1.623202716770518e-08 1.886858057191974e-08 9.236511402587396e-09 2.255296117678902e-08 1.721398781292459e-08 1.854492504492629e-08 1:-542.51764 2:-1729.0731 3:2313.8938 4:-2248.3602 5:-418.62372 6:-464.57667 7:291.02981 8:1472.9641 9:-1167.2479 10:944.20238 11:-1108.6184 12:537.71878 13:-270.26111 14:411.03678 15:-274.74523 16:-272.31835 17:-650.99293 18:-322.27026 19:-186.66873 20:-426.04096 21:-201.82414 22:89.564881 23:276.66908 24:-77.067514 25:529.55841 26:263.50316 27:469.21692 28:664.33268 29:23.584722 30:-985.03475 31:33.554658 32:-982.75844 33:-305.41982 34:-67.37153 35:-227.22812 36:10.207653 37:-670.17453 38:849.43996 39:-496.27936 40:74.486815 41:-201.75115 42:197.87835 43:-522.28577 44:282.63004 45:765.63751 
-0 -0 -4.751118678031342e-09 -0 0 0 0 0 0 0 1.43014367375188e-09 1.677126772370648e-08 0 0 0 0 0 0 0 0 0 0 0 0 0 0 0 0 0 0 0 0 0 8.560049632248965e-10 0 1.113408349300079e-09 0 1:-2341.5951 2:-2231.2906 3:2627.6646 4:-1788.8301 5:-1486.3856 6:74.58809 7:-151.18036 8:1310.7584 9:-374.72763 10:833.39977 11:-761.39933 12:184.5113 13:-763.01507 14:821.69519 15:127.68676 16:60.99995 17:-857.57627 18:-442.405 19:49.678189 20:-197.12865 21:-195.20848 22:49.80488 23:264.99027 24:-0.284607 25:301.28335 26:224.52318 27:258.95788 28:877.75292 29:267.83181 30:-353.23756 31:265.71468 32:-1079.5142 33:-256.82281 34:-225.45035 35:361.39913 36:96.168039 37:36.23062 38:773.84937 39:-607.94245 40:168.39639 41:-434.05529 42:127.67063 43:-744.59323 44:-488.78688 45:852.54635 
-0 -0 -0 -0 -0 0 0 2.37702322982763e-08 4.463469973325799e-10 2.081329694913391e-08 0 0 0 0 2.881280701128356e-09 0 0 9.694217688012479e-09 0 0 2.669400073281523e-08 0 0 0 0 0 3.740764937892099e-08 0 0 0 0 0 0 0 0 0 0 1:-252.55057 2:2130.2187 3:-111.03213 4:-371.78085 5:600.05291 6:-621.66563 7:-855.6338 8:246.50537 9:-376.92158 10:1488.0376 11:-560.88327 12:395.78061 13:579.18168 14:-438.70238 15:-1356.1454 16:939.71183 17:571.47031 18:-86.204615 19:25.666139 20:324.86686 21:-178.1554 22:-64.811489 23:-176.54829 24:-425.01226 25:-3.573186 26:-415.25649 27:-41.228108 28:-485.86917 29:409.37881 30:-168.22248 31:61.362638 32:382.05453 33:519.97313 34:127.12318 35:66.560428 36:-460.91 37:-58.894848 38:-165.1354 39:240.75545 40:-311.46766 41:-334.54826 42:351.44709 43:-6.173365 44:-525.99013 45:120.84048 
-1.354587880676903e-08 -1.198483890975095e-07 -2.48173781573998e-08 -3.414410785930849e-08 -0 2.212125255051133e-08 9.15020238958717e-08 2.535450738712315e-08 7.409510949801957e-08 3.668020279564202e-08 5.50020671020538e-08 1.798878452436676e-08 8.570303132073353e-08 2.065388157988947e-08 5.069580653230906e-08 3.084125361049066e-08 3.319241241669356e-08 3.568983353708822e-08 4.793832065873918e-10 1.977197026794081e-08 4.102181403554688e-08 1.684976878357498e-09 3.011771298601573e-08 3.212381599414626e-08 0 2.761880219156238e-09 4.749655601079966e-08 5.274354995982517e-09 2.73621967367929e-08 0 7.54655974926714e-08 5.224906142026455e-08 6.829463992135442e-08 1.329115921485093e-07 3.1521855441454e-08 4.103860414432512e-08 6.295877671994043e-09 1:-1609.9192 2:1897.6771 3:-12.513243 4:678.67449 5:-662.8515 6:-506.50758 7:-1187.6666 8:-375.78584 9:-70.039993 10:871.86981 11:-337.04939 12:70.216085 13:712.697 14:-253.96935 15:-1107.2681 16:655.33041 17:806.57629 18:452.42004 19:-258.70512 20:-184.33822 21:-220.74798 22:-21.487061 23:-188.75214 24:104.24014 25:99.575209 26:408.21353 27:27.285936 28:-252.6488 29:1125.1541 30:-503.21578 31:264.75537 32:-108.47632 33:-73.346656 34:349.50645 35:28.817361 36:-378.62141 37:-234.58331 38:258.95412 39:59.999875 40:-461.51842 41:-452.00092 42:534.36059 43:-135.39126 44:51.400393 45:-354.01202 
-3.979616379713335e-08 -0 -0 -0 -4.473555605570935e-08 0 0 5.93664841321465e-09 0 0 0 0 0 0 0 5.283194824291124e-09 0 0 4.247105235299313e-09 3.994757862677902e-08 0 4.163866694273603e-08 0 0 2.77264011597782e-08 3.152661162431134e-08 0 3.895575170253671e-08 0 6.601162609971741e-08 0 4.955743222366961e-09 0 0 3.354712696841355e-08 3.892131664118896e-08 0 1:-1398.4113 2:1509.2428 3:193.70221 4:119.54234 5:113.8148 6:-368.34319 7:-1223.7468 8:-154.78105 9:110.64347 10:1306.3021 11:-512.90715 12:352.468 13:674.5277 14:-211.9074 15:-1385.4883 16:823.01383 17:687.49834 18:416.364 19:100.91388 20:-26.596943 21:-234.80578 22:117.32332 23:-354.57397 24:-265.88637 25:129.1974 26:-249.74989 27:123.8314 28:-633.79972 29:540.78483 30:-453.43428 31:-414.0068 32:152.93572 33:444.09524 34:161.63537 35:-59.396631 36:-36.35971 37:-45.773986 38:76.862006 39:175.69082 40:-168.81307 41:-471.88495 42:404.96508 43:-0.844667 44:-28.911013 45:-4.354137 
-4.078099128969341e-08 -1.568464791464719e-08 -6.266292611279389e-08 -4.251388954633918e-08 -1.028531237077983e-08 6.578560040338107e-08 5.837702315231031e-08 4.763628569007746e-08 6.145209666488553e-08 3.503647054629824e-08 3.227665271019758e-08 2.305001641120189e-08 1.823844576325963e-08 5.474885543152428e-08 6.435230653563806e-08 3.407182678427323e-08 9.419653511050101e-08 6.237543471958726e-08 5.110065888172758e-08 0 4.479784559193832e-08 1.882947961619806e-08 6.587471452392206e-08 5.697216954951502e-08 2.61132347753943e-08 3.664087516644254e-08 2.7314531996148e-08 4.607931819804717e-08 4.403854072169336e-08 2.612379860788693e-08 8.091947096503919e-08 2.957869220990167e-08 6.341654922758744e-08 1.522781487968016e-08 4.600290319368779e-08 4.813292275582125e-08 7.381314089065122e-08 1:143.48267 2:1987.081 3:-234.4312 4:-276.85134 5:923.91994 6:77.066233 7:-906.75387 8:261.61553 9:-329.36761 10:1593.5671 11:-414.81509 12:-65.578914 13:61.569801 14:-351.94677 15:-841.6854 16:777.46051 17:906.43327 18:-363.84152 19:259.51388 20:769.19676 21:-498.5852 22:-183.58237 23:-775.93222 24:-145.08183 25:-166.69904 26:-456.28777 27:92.740014 28:-630.22426 29:-309.52198 30:228.45581 31:-154.87054 32:99.092565 33:695.94859 34:-278.72254 35:580.08337 36:-504.95749 37:-75.9565 38:142.10506 39:68.951573 40:-62.96502 41:-391.29584 42:217.02418 43:-234.02228 44:-330.95183 45:21.025244 
-0 -0 -0 -0 -0 0 0 0 0 0 0 0 0 0 0 0 0 0 0 0 0 0 0 0 0 1.080141194403075e-08 0 0 0 0 0 0 0 0 0 0 0 1:-772.562 2:1851.027 3:-113.69123 4:212.21565 5:792.27567 6:256.72727 7:-1569.7458 8:-182.15176 9:-344.46406 10:1634.3488 11:-426.98841 12:-304.72668 13:-294.96477 14:-43.026933 15:-636.05984 16:455.10259 17:1128.62 18:69.709936 19:518.65546 20:738.51554 21:-506.54867 22:106.72965 23:-1280.1149 24:-104.79961 25:-119.53373 26:-385.89485 27:247.02401 28:-789.02322 29:159.50238 30:81.966062 31:-148.9298 32:117.39182 33:309.96141 34:-80.978683 35:462.98985 36:-355.90713 37:-148.50236 38:496.22941 39:298.73036 40:-26.874706 41:-399.52249 42:244.50721 43:-313.86533 44:-211.20194 45:110.17031 
-0 -0 -0 -0 -3.739697147983632e-08 -0 0 0 0 0 0 0 0 0 0 0 0 0 0 0 0 0 0 0 0 0 0 0 0 0 0 0 0 0 0 0 0 1:2206.9849 2:-245.94176 3:101.78795 4:-979.74193 5:-181.69709 6:38.422474 7:-471.35042 8:-134.00638 9:115.62233 10:-281.94073 11:145.16012 12:451.18789 13:313.87266 14:217.71911 15:183.73575 16:-464.71085 17:49.588538 18:207.84403 19:437.12898 20:-779.96771 21:520.61547 22:-456.40659 23:-45.093688 24:171.90771 25:-245.82875 26:-112.41719 27:180.19607 28:-409.57479 29:268.87148 30:-219.48995 31:8.424202 32:-129.58197 33:229.08791 34:-421.81608 35:-53.281885 36:-81.669011 37:-77.582151 38:-573.82373 39:-408.95819 40:13.25385 41:-365.03353 42:-424.79653 43:347.25015 44:200.32468 45:-102.25302 
-0 -0 -0 -0 -0 -0 0 0 0 0 0 0 0 0 0 0 0 0 0 3.047460879669011e-08 0 0 0 3.024304733960948e-08 0 0 0 0 0 1.994603468482989e-08 0 0 0 0 0 0 0 1:1753.1373 2:-617.9005 3:228.13415 4:-453.40224 5:-220.02936 6:614.41999 7:-886.99174 8:-1156.5894 9:626.52501 10:-219.42118 11:-129.06037 12:483.12282 13:368.77991 14:230.7223 15:148.9675 16:-155.71234 17:-27.980717 18:104.44571 19:463.43915 20:-697.95964 21:665.66594 22:-378.90873 23:0.73742 24:222.31656 25:-894.09077 26:-495.27185 27:-42.873416 28:-346.127 29:-143.12162 30:-86.294606 31:-45.986364 32:-320.33724 33:243.64547 34:-450.66743 35:-452.97165 36:51.78778 37:-301.66782 38:-376.9702 39:-798.51578 40:-332.88983 41:-180.59931 42:-415.45103 43:174.2553 44:194.9924 45:-115.67879 
-0 -0 -0 -0 -0 -0 0 0 0 0 0 0 0 0 0 0 0 0 6.249185841566717e-08 0 0 0 0 0 0 0 0 0 0 0 0 0 0 0 0 0 8.697356870011682e-08 1:2528.2246 2:21.072526 3:-1.525673 4:-1087.7281 5:370.87713 6:183.69395 7:-302.58228 8:304.48629 9:-302.47951 10:-157.58665 11:356.68215 12:537.85046 13:166.17129 14:393.92203 15:203.94388 16:-600.07777 17:5.043291 18:194.68305 19:378.15481 20:-694.31082 21:419.99116 22:-705.3114 23:-15.106008 24:92.600954 25:90.063884 26:-144.02749 27:189.34171 28:-373.56592 29:335.66667 30:-53.46583 31:155.31829 32:-147.49041 33:215.54394 34:-470.33129 35:199.67643 36:120.90099 37:140.92822 38:-704.01192 39:-345.49237 40:32.408832 41:-457.12217 42:-422.24743 43:336.38856 44:270.99201 45:-81.571384 
-0 -0 -0 -0 -0 -0 0 0 0 0 0 0 3.596520784962179e-08 0 0 0 0 0 0 0 0 0 1.76348665803783e-08 0 0 4.081538418723954e-08 0 0 0 2.322028110046237e-08 0 0 0 2.738403991459219e-08 0 0 0 1:1787.5389 2:-552.21857 3:265.39353 4:-466.36201 5:-134.3876 6:574.36925 7:-947.23352 8:-1133.7437 9:604.27214 10:-205.52096 11:-117.67875 12:444.10996 13:305.11464 14:132.35731 15:220.80776 16:-233.74237 17:-8.579142 18:66.804259 19:600.25025 20:-484.81422 21:557.43643 22:-439.06381 23:-42.713828 24:44.345016 25:-815.61895 26:-552.14945 27:30.321751 28:-340.07745 29:-163.86905 30:-26.472908 31:96.427634 32:-214.84227 33:353.93042 34:-588.79161 35:-448.25616 36:113.39028 37:-210.96468 38:-222.73423 39:-748.11932 40:-121.91564 41:-196.15979 42:-369.22951 43:72.320159 44:185.395 45:-70.057017 
-0 -0 -0 -0 -1.454393894993053e-08 -0 0 0 0 0 0 0 0 0 0 0 0 0 0 0 0 0 0 0 5.68519844473586e-08 0 0 2.071354582369544e-08 0 0 0 0 0 0 0 0 0 1:2027.377 2:-377.92174 3:219.41294 4:-625.19127 5:-127.80151 6:394.27006 7:-819.36043 8:-545.06817 9:358.5162 10:-187.91808 11:24.124244 12:397.14438 13:220.65358 14:139.99602 15:208.8797 16:-391.38369 17:-48.556848 18:57.46665 19:511.42428 20:-393.5346 21:440.5591 22:-569.11174 23:-66.595163 24:-127.07487 25:-530.14243 26:-427.13471 27:95.314477 28:-311.32374 29:91.160926 30:-45.502192 31:234.30733 32:-56.176851 33:378.06724 34:-561.75492 35:-297.07641 36:114.74958 37:-19.112021 38:-268.77058 39:-566.08859 40:1.104718 41:-292.46443 42:-344.47561 43:75.86951 44:222.99819 45:-98.453406 
-5.998502832761115e-08 -0 -7.805672128812728e-09 -7.897689863542671e-08 -9.068440905939364e-09 -2.700554257058497e-08 1.252183797588069e-08 3.853229806097858e-08 5.392450591127156e-08 0 3.28459221796716e-08 0 4.234639248259044e-08 6.443466709011007e-09 7.133748221213154e-08 1.612734483880626e-08 1.222465739724285e-07 4.5675538695884e-08 0 2.770466514383368e-08 6.568370806259618e-08 1.631307944605494e-08 3.138201322032353e-08 4.002858842981286e-08 0 4.260056308350021e-08 2.915096087564785e-08 8.928283913979831e-08 8.24134530623051e-08 4.879319747672006e-08 2.072502741682716e-08 0 8.144752225273624e-08 5.839256557906015e-09 6.001068701111185e-08 5.330642570776075e-08 0 1:2349.4867 2:165.10251 3:9.703548 4:-997.73412 5:-16.59586 6:-95.280729 7:-494.78889 8:275.12487 9:-231.01043 10:-162.96052 11:318.61835 12:380.76738 13:127.20728 14:211.23797 15:165.60504 16:-612.82423 17:19.220167 18:180.1578 19:255.36444 20:-441.22648 21:364.55269 22:-671.81681 23:103.65489 24:-78.017128 25:117.82276 26:-100.72717 27:240.04448 28:-304.69068 29:407.42093 30:-117.7545 31:287.51058 32:56.693552 33:216.97289 34:-411.37804 35:38.900666 36:99.177793 37:138.49704 38:-598.60851 39:-119.61794 40:140.41439 41:-390.14862 42:-306.59232 43:290.69058 44:232.3592 45:-64.144982 
-5.749744959354143e-08 -7.130390073908833e-08 -4.38642549151207e-08 -2.421822759136805e-07 -0 -3.889752021319639e-08 5.386183734459258e-08 2.251368676584482e-08 0 4.599611122666327e-08 2.62397037284591e-08 3.636122403033623e-08 1.375049285795015e-08 2.362866677156591e-07 4.889066266351726e-08 2.016579182261788e-08 5.132389130502141e-08 5.82721321726611e-08 2.932135661435693e-08 0 3.208278657140939e-08 3.531805257200325e-08 1.597158335764934e-08 1.082627813679225e-08 0 0 2.833916878724306e-08 4.028183236680083e-08 1.17188920194715e-07 0 5.533029934668751e-08 1.415744040236191e-08 9.048897558388222e-08 2.061017053200879e-08 2.856902677088576e-08 2.921887022494353e-08 5.672266837230646e-08 1:2037.758 2:-359.43174 3:184.04171 4:-169.58889 5:-724.22536 6:695.89911 7:-1120.6426 8:-830.73159 9:708.50576 10:-209.92409 11:43.740213 12:264.92389 13:-8.992881 14:104.26725 15:475.95858 16:-106.46751 17:71.596784 18:-134.74292 19:481.28536 20:-40.800824 21:20.191092 22:-596.09508 23:14.017658 24:-147.66542 25:-465.59199 26:-284.34913 27:65.822433 28:-192.06712 29:-28.319554 30:-28.299514 31:473.12385 32:-250.80185 33:528.55898 34:-577.10462 35:-226.34722 36:127.40229 37:-66.807067 38:47.034295 39:-654.3147 40:97.474157 41:-163.85416 42:-198.08335 43:-435.54118 44:304.22199 45:-76.76013 
-0 -2.928394065682194e-08 -4.805440850756747e-09 -0 -0 -0 0 1.112438647337148e-08 0 0 1.791561839150273e-08 2.8205275990356e-08 0 0 0 6.895168238174883e-08 0 0 3.290928122179484e-09 0 0 5.808912482742824e-08 0 0 1.876043151093541e-10 0 0 2.231075637099312e-08 0 0 0 8.044711370759776e-08 0 2.182922463872023e-08 2.493450762233513e-08 5.037969573697788e-08 0 1:2044.7546 2:-585.9558 3:129.11996 4:-439.95461 5:-168.58433 6:468.57399 7:-674.60392 8:-440.19497 9:394.56736 10:-228.78982 11:-43.662137 12:363.33143 13:339.6521 14:324.24583 15:71.899059 16:-209.89938 17:-27.57288 18:155.89692 19:411.59546 20:-758.85731 21:514.36975 22:-452.27841 23:-17.039938 24:181.06591 25:-507.61591 26:-226.63404 27:-59.089389 28:-362.07368 29:42.306944 30:-105.04305 31:-61.792264 32:-366.07418 33:147.03153 34:-353.58551 35:-160.86743 36:39.83645 37:-129.74925 38:-526.10148 39:-583.64729 40:-253.13114 41:-287.1711 42:-425.50131 43:254.42341 44:228.9858 45:-171.61662 
-2.456024319773092e-08 -7.191055605037172e-09 -5.103385636271289e-08 -2.630473593251723e-08 -0 -2.200379017011104e-08 7.475127636905046e-08 5.538225156625636e-08 6.898710934476313e-08 8.00756649553896e-08 0 1.274876882219731e-08 8.004790120988741e-09 0 5.491128777236639e-08 0 2.696767647629617e-08 8.684737986064245e-08 0 0 3.304853348046563e-08 0 3.472856473643803e-08 1.257214662334628e-08 3.111056200454739e-08 4.188426438610385e-08 1.429933944518293e-08 1.223883473644141e-07 0 0 6.277128464371405e-08 1.258230832485237e-08 4.29691044657073e-08 5.280239746861162e-08 0 0 0 1:2457.6826 2:292.46578 3:-43.713511 4:-1007.6883 5:-113.03486 6:-245.89343 7:-348.40781 8:572.87057 9:-222.73673 10:-182.34064 11:495.9428 12:373.31603 13:231.69506 14:243.14219 15:132.10372 16:-414.07597 17:222.55641 18:266.08838 19:482.05822 20:-983.0026 21:263.82448 22:-540.83994 23:-24.615317 24:333.18032 25:236.58845 26:175.89003 27:183.37451 28:-396.29635 29:356.11811 30:-201.2188 31:-46.39509 32:-222.4967 33:-53.951747 34:-318.17583 35:385.25518 36:-19.048905 37:46.435246 38:-736.74116 39:-122.29997 40:-31.715721 41:-262.32292 42:-281.65641 43:342.73502 44:305.29341 45:-140.76657 
-0 -0 -0 -8.197631988174057e-08 -0 -0 0 0 0 0 0 0 0 0 0 0 0 0 0 0 0 0 0 0 0 0 0 0 1.20296074117224e-08 0 0 0 0 0 0 0 0 1:2220.1789 2:-209.18817 3:90.877239 4:-653.59483 5:-403.77712 6:250.77397 7:-606.96727 8:-25.592241 9:340.96728 10:-251.4663 11:304.98467 12:460.3467 13:154.1246 14:307.67637 15:168.5144 16:-289.21146 17:196.8281 18:46.360688 19:529.53061 20:-1136.8668 21:388.60607 22:-368.25513 23:-238.46513 24:421.21351 25:-231.19124 26:185.49497 27:32.042517 28:-340.30304 29:255.45833 30:-154.04501 31:-156.13482 32:-369.96604 33:-174.70424 34:-176.94446 35:184.98638 36:-27.942034 37:-217.48541 38:-695.51344 39:-504.87757 40:-360.07215 41:-158.74985 42:-449.87038 43:192.14652 44:182.7767 45:-303.67728 
-0 -0 -0 -0 -0 -0 -0 0 0 0 1.01536539442625e-09 0 0 0 0 0 0 0 0 0 0 0 0 0 0 0 0 0 0 1.285749006719834e-08 0 0 0 0 0 0 0 1:-156.04909 2:1566.6131 3:-539.80979 4:512.02674 5:-310.11417 6:-81.010962 7:904.66501 8:450.60968 9:-136.06364 10:400.09505 11:-39.736722 12:-444.88702 13:-16.847179 14:192.31817 15:151.03606 16:-22.19263 17:760.417 18:-7.292319 19:-35.761002 20:-199.24417 21:173.82994 22:-469.58823 23:-132.32778 24:-64.200323 25:632.45875 26:-216.67025 27:17.811797 28:489.12628 29:-414.36779 30:-526.93601 31:-34.780713 32:-126.8091 33:-355.47 34:-695.25387 35:-1012.8845 36:132.8768 37:608.20068 38:-212.62946 39:329.27644 40:0.586966 41:65.779546 42:-126.52526 43:-493.46597 44:-451.0839 45:85.59951 
-0 -0 -0 -0 -1.699867861523281e-08 -0 -0 0 0 0 0 0 1.812546096334831e-08 0 2.184642198531325e-08 2.992002444269595e-08 0 0 0 0 0 0 0 2.523577539735009e-08 0 0 0 0 0 5.317167501759912e-08 1.231744849083547e-07 0 0 0 0 0 0 1:-1422.4709 2:1473.2643 3:-188.80595 4:1583.791 5:-861.96305 6:639.1601 7:692.34086 8:253.64898 9:-668.80036 10:162.42082 11:-261.80156 12:-259.14924 13:-12.418972 14:380.5605 15:-3.134797 16:-49.318812 17:770.09107 18:115.23563 19:-188.07446 20:-193.15175 21:-274.46008 22:-216.83985 23:168.013 24:-440.97268 25:302.83337 26:-246.24642 27:254.19819 28:370.39659 29:-228.4919 30:-650.96452 31:-141.47673 32:-239.54922 33:-223.6572 34:-591.83333 35:-623.44092 36:173.8321 37:167.06975 38:-296.80852 39:417.90966 40:-9.023915 41:-16.983473 42:-21.098781 43:24.895255 44:-175.96206 45:-0.193758 
-0 -0 -0 -0 -0 -0 -0 0 0 1.460570633921567e-09 0 0 0 0 0 0 0 0 0 0 2.960284866722522e-08 0 0 0 0 0 0 0 0 0 0 0 0 0 0 0 0 1:1188.6819 2:1533.624 3:-512.49245 4:51.956185 5:-407.92922 6:-490.16141 7:1098.9933 8:652.80913 9:219.21548 10:436.93856 11:-174.89532 12:-432.1126 13:35.710034 14:206.97059 15:195.6362 16:-129.08843 17:727.99245 18:9.730376 19:-62.813374 20:-197.87211 21:272.53871 22:-389.83693 23:-368.02827 24:-40.107479 25:493.95192 26:-188.23138 27:-191.25853 28:552.09696 29:-302.89948 30:-384.27309 31:-21.852747 32:175.25302 33:-401.33182 34:-720.06875 35:-1156.2501 36:-112.41045 37:589.41801 38:-132.71673 39:171.61872 40:-129.86395 41:238.47242 42:17.533172 43:-631.99843 44:-482.08034 45:173.30997 
-0 -4.833885771210865e-08 -0 -0 -0 -8.741068690891502e-08 -0 0 4.379176073591679e-08 0 0 0 0 0 0 0 0 0 0 2.023007749929671e-08 0 0 0 0 0 0 0 0 0 0 7.823496909182985e-08 4.647254105192188e-09 0 1.243979492676692e-07 0 0 0 1:-1398.2374 2:1528.1287 3:-213.96036 4:1573.8263 5:-848.12057 6:598.8585 7:626.78997 8:312.58371 9:-561.59199 10:81.364563 11:-184.42456 12:-175.81032 13:112.78749 14:295.25343 15:82.857971 16:17.445797 17:847.01901 18:179.23627 19:-153.84494 20:-243.33816 21:-394.0429 22:-99.735069 23:187.90069 24:-482.81915 25:215.69093 26:-124.79767 27:96.42046 28:477.52054 29:-202.60091 30:-662.02381 31:48.211387 32:-337.4865 33:-234.49497 34:-697.6837 35:-635.40249 36:-13.71255 37:104.51126 38:-237.91191 39:289.17881 40:-98.83477 41:-25.191129 42:149.83331 43:-173.60419 44:-190.3952 45:3.736953 
-0 -0 -4.056268509119956e-08 -0 -0 -0 -0 0 2.968831112997832e-08 0 2.225229471109921e-08 0 0 0 0 0 0 0 0 0 0 0 4.437108072049276e-08 0 0 0 4.174986730937609e-08 0 0 0 0 0 0 0 0 0 0 1:-732.67208 2:1532.8995 3:-404.74037 4:1140.4088 5:-676.86015 6:281.99692 7:610.67742 8:431.48894 9:-239.81221 10:119.93228 11:-39.623983 12:-256.54183 13:162.7087 14:172.21362 15:169.72741 16:137.15732 17:823.95016 18:82.11922 19:-62.41769 20:-217.33716 21:-194.22796 22:-204.72864 23:71.739382 24:-285.61037 25:317.44588 26:2.460842 27:-122.5788 28:615.59685 29:-275.35656 30:-615.53919 31:207.71435 32:-356.83048 33:-446.68734 34:-746.99323 35:-831.36882 36:-65.011821 37:234.54232 38:-172.02964 39:168.79415 40:-109.53726 41:1.827321 42:249.1948 43:-446.33365 44:-400.56719 45:28.961504 
-0 -0 -0 -0 -0 -0 -0 0 0 3.114796493660735e-08 3.92461033664258e-09 0 0 0 5.801806083670532e-08 0 0 5.53161613107517e-08 0 0 0 0 0 0 0 0 4.448768723618599e-08 0 0 0 0 0 0 0 0 1.729322363795044e-08 0 1:697.23694 2:1574.0552 3:-647.47751 4:227.09848 5:-398.83036 6:-312.34461 7:775.60949 8:540.02449 9:233.06504 10:361.96395 11:-87.391563 12:-530.38858 13:-65.572176 14:256.02188 15:120.49592 16:124.32764 17:705.61142 18:-61.348863 19:96.250545 20:-196.75039 21:121.1463 22:-378.03292 23:-133.63281 24:-117.48596 25:484.13291 26:-11.86523 27:-336.93859 28:706.46075 29:-285.99447 30:-407.01859 31:174.28935 32:-130.53893 33:-505.3185 34:-691.30572 35:-1125.7423 36:-96.276891 37:446.02548 38:-109.88684 39:262.72865 40:-232.14492 41:128.11272 42:125.88449 43:-565.99 44:-527.28968 45:202.40927 
-1.069711574556211e-08 -3.101415773228653e-08 -0 -2.645830623892652e-08 -0 -1.868106804801135e-08 -1.710042802158093e-08 7.46991195414402e-09 0 2.871490116041578e-08 0 4.24468068661496e-09 2.356622536146761e-08 7.94657017506435e-09 4.151075699294467e-09 0 3.160211847223227e-08 8.419224540408992e-09 0 0 4.717814876201956e-08 0 0 0 0 0 1.41846583926283e-08 1.8700196436699e-08 4.912112005868759e-08 0 3.655543922227187e-08 0 4.598824947662953e-08 4.829283550247147e-09 0 0 4.475588811944954e-09 1:-259.82085 2:1587.5602 3:-233.64454 4:1625.1354 5:-1585.2656 6:201.71761 7:294.16215 8:280.34453 9:-7.918712 10:-42.327304 11:-45.93618 12:-339.29272 13:-26.687461 14:376.80959 15:382.12226 16:109.89144 17:1147.7351 18:284.91267 19:-169.691 20:-179.90038 21:-805.01366 22:210.94427 23:-66.767485 24:-153.53736 25:172.05889 26:696.71188 27:-268.46603 28:592.62608 29:10.662428 30:-446.6297 31:321.57017 32:-699.06553 33:-13.202467 34:-887.01166 35:-437.22058 36:-284.25207 37:-117.24293 38:-10.886495 39:78.17964 40:-161.32859 41:90.224156 42:482.19199 43:-456.09518 44:-301.58009 45:64.180885 
-1.513509428598107e-08 -7.023476304580249e-08 -5.091376549217692e-08 -1.389876663337118e-08 -3.217374397610435e-08 -0 -0 8.220427226832076e-08 0 0 9.882040641229061e-08 3.040362785431413e-08 7.767310791638838e-08 1.423073610652952e-08 0 7.025829663540175e-08 0 8.136098413916201e-09 1.616620806941306e-08 4.616320603926591e-08 7.995719738207742e-08 6.280814318428458e-08 0 0 4.86650153922297e-08 3.143671039564698e-08 0 2.64813619036117e-08 1.931619506043877e-08 0 0 1.536366850940296e-07 3.623755849982004e-08 8.996048140895574e-08 8.724078182440068e-08 7.155359313678038e-08 1.936763260340019e-08 1:49.668695 2:1203.4208 3:-291.10805 4:1059.4414 5:-770.28514 6:-106.68883 7:817.20562 8:366.75254 9:-123.56578 10:248.00298 11:-277.20317 12:-392.76437 13:49.115424 14:321.09702 15:-145.45802 16:-52.26746 17:663.83619 18:102.73539 19:-212.65329 20:-136.25602 21:42.258535 22:-296.21018 23:-17.107009 24:-191.46484 25:311.44304 26:-162.6342 27:161.40418 28:271.80526 29:-283.93357 30:-466.82282 31:-147.80346 32:8.86645 33:-299.3889 34:-539.60827 35:-830.22713 36:146.96801 37:357.58228 38:-316.93534 39:316.57849 40:-39.286557 41:204.99332 42:-38.56264 43:-265.1383 44:-262.54705 45:-37.221061 
-9.054828185610084e-08 -0 -4.294837876191472e-08 -9.682397995928396e-08 -6.383613960882037e-09 -4.378729209125565e-08 -1.240345236679428e-07 4.728272178497623e-08 1.106339994184517e-07 7.046452046286688e-08 0 3.022535539097104e-08 0 5.399527336271131e-08 3.233592093704423e-08 0 1.106205977847775e-07 1.026887970920752e-07 5.293632418193206e-08 0 6.017517934071782e-08 1.943520914248734e-08 8.747665122435955e-08 8.433424818311998e-08 2.190151807916312e-08 5.518535915428933e-08 0 8.808845140334102e-08 5.975210226033468e-08 2.857931562175215e-08 7.084865721667239e-08 0 7.080285397728018e-08 0 1.761775172493685e-08 4.506081353777523e-08 8.655022988318123e-08 1:1399.1132 2:1332.8252 3:-668.15704 4:103.23808 5:-257.33209 6:-277.3275 7:769.54737 8:534.54345 9:296.43244 10:514.40096 11:-286.54504 12:-619.3874 13:-206.00808 14:84.140114 15:83.612721 16:-73.267188 17:821.15457 18:-107.35244 19:40.179019 20:-95.984731 21:124.65017 22:-589.87753 23:-374.85694 24:128.16133 25:489.36869 26:1.318449 27:-29.915674 28:393.04757 29:-518.95878 30:-177.09092 31:-67.61147 32:280.49628 33:-349.19667 34:-518.4484 35:-884.32012 36:99.117797 37:670.46387 38:-168.83311 39:235.27311 40:-149.6983 41:382.98846 42:-159.46845 43:-794.07176 44:-276.10867 45:-29.776441 
-0 -0 -0 -0 -0 -0 -0 0 0 0 0 0 0 1.539699833148495e-08 0 8.59205533320811e-09 0 0 0 0 0 0 0 0 0 0 0 0 0 0 0 0 3.303374010952646e-08 0 1.402002000836528e-08 0 0 1:404.07834 2:1276.6424 3:-573.69036 4:852.95892 5:-572.39993 6:138.45102 7:505.00419 8:387.54285 9:-219.29444 10:491.47503 11:-250.96672 12:-784.5732 13:-393.46099 14:170.99806 15:198.20525 16:-193.02892 17:808.09077 18:-165.19467 19:-245.40169 20:147.52094 21:122.86108 22:-730.12236 23:-404.14197 24:-30.556208 25:536.06 26:135.4979 27:452.71511 28:94.341837 29:-400.67714 30:-101.052 31:-45.172017 32:428.77449 33:-501.7858 34:-343.77176 35:-875.63833 36:311.64282 37:638.64763 38:-164.2332 39:544.3787 40:68.347188 41:349.95923 42:-310.22297 43:-685.43123 44:-215.29481 45:-223.63494 
-0 -1.920745689802854e-08 -0 -0 -2.026138235202791e-08 -2.963118860837799e-08 -0 -0 5.478216975620355e-09 0 0 0 2.877071290671285e-08 0 0 0 0 0 0 2.016533898663773e-08 1.784338816127108e-08 0 0 1.535386873140713e-08 0 0 1.659833148811153e-08 0 0 4.9889156247793e-08 1.855910166337544e-08 0 0 0 0 0 0 1:-68.10913 2:113.03777 3:1495.7458 4:536.09047 5:-1066.4983 6:-377.29391 7:551.82037 8:-8.086869 9:-92.417518 10:1663.2632 11:-213.55047 12:502.52948 13:34.687745 14:-1208.559 15:-18.632573 16:177.22323 17:-479.80333 18:-246.38439 19:239.0079 20:-466.82374 21:721.10992 22:627.42935 23:-327.28262 24:-122.89276 25:-4.011986 26:-143.62131 27:-630.57635 28:-255.24857 29:-594.47226 30:761.80147 31:5.40991 32:-17.310362 33:81.898628 34:-535.69431 35:-102.80469 36:118.56527 37:299.12514 38:-226.47157 39:-1.720572 40:233.85175 41:-91.913408 42:122.84246 43:73.544605 44:145.35888 45:-8.887366 
-0 -0 -0 -0 -0 -0 -0 -0 0 0 0 0 0 0 0 0 0 0 2.499611868558582e-09 0 0 0 0 0 0 0 0 0 0 0 0 0 0 0 0 0 0 1:1719.9462 2:343.87493 3:1062.3798 4:-214.49836 5:-415.59368 6:-706.97098 7:744.33906 8:1259.9507 9:-275.83886 10:1702.5353 11:-785.24198 12:714.98124 13:187.61128 14:-838.79563 15:67.950826 16:-777.42658 17:-150.65692 18:-244.38896 19:73.893109 20:-483.97199 21:557.36272 22:1062.4989 23:-598.11749 24:-257.03177 25:350.99207 26:307.52438 27:-347.41786 28:-23.632221 29:-154.04233 30:425.88251 31:319.1797 32:10.865662 33:20.657814 34:11.294958 35:164.45383 36:-202.72675 37:403.92134 38:315.05701 39:302.16308 40:268.36372 41:-86.167162 42:242.00996 43:310.2767 44:49.451888 45:104.02048 
-0 -0 -0 -0 -0 -2.515696881177582e-08 -0 -0 0 0 1.397297987647657e-08 0 0 0 0 0 0 0 0 0 0 0 0 0 0 0 2.044881699327001e-08 0 0 0 0 0 0 0 0 0 0 1:-70.090553 2:248.83618 3:1514.4134 4:609.31644 5:-1098.8666 6:-474.84741 7:446.628 8:26.354537 9:1.123031 10:1630.9827 11:-158.40664 12:551.29642 13:43.648505 14:-1367.4459 15:130.02345 16:82.644222 17:-321.24791 18:-343.03509 19:478.20452 20:-375.18805 21:545.24418 22:656.38668 23:-661.43732 24:-150.87347 25:36.961725 26:-47.618475 27:-753.51555 28:-232.49277 29:-622.27159 30:782.55532 31:115.48752 32:-26.830448 33:48.917394 34:-611.96396 35:51.984309 36:-124.72657 37:368.81072 38:-205.1888 39:-155.67423 40:296.07513 41:-154.93509 42:104.08518 43:-166.36814 44:117.6099 45:24.398655 
-0 -0 -0 -0 -0 -0 -0 -0 0 0 1.279542874678944e-08 0 0 0 0 0 0 0 0 0 0 0 0 0 0 0 6.77068039719319e-09 0 0 0 0 0 0 0 0 0 0 1:436.12333 2:301.41394 3:1303.0371 4:365.12682 5:-1016.5664 6:-667.98588 7:324.57864 8:462.01367 9:42.664828 10:1606.2558 11:-306.76918 12:538.96841 13:29.570813 14:-1265.9738 15:166.18634 16:-109.57824 17:-212.58153 18:-362.64803 19:482.59547 20:-336.28663 21:512.66428 22:732.564 23:-801.17199 24:-186.83161 25:185.20967 26:194.38644 27:-789.05591 28:-130.22462 29:-475.50813 30:630.56408 31:238.74157 32:-1.898307 33:-23.710061 34:-434.53959 35:91.926263 36:-240.74148 37:321.20052 38:-90.5745 39:-83.1036 40:277.86965 41:-140.15913 42:198.14469 43:-138.83984 44:91.702146 45:71.595825 
-6.754954817371961e-08 -0 -3.382139004057707e-08 -0 -0 -4.790951636853774e-08 -0 -1.763128963711606e-08 0 0 0 0 0 0 3.826950244137823e-08 0 1.002957600888303e-08 6.626983353076051e-08 0 0 0 0 0 0 0 1.699037585808708e-08 2.609619801274684e-08 0 0 0 3.287795122625296e-08 0 0 0 1.207970960435151e-08 3.554245385339406e-09 0 1:1504.979 2:504.28676 3:838.18445 4:-203.58465 5:-672.03484 6:-922.62002 7:398.38325 8:1210.8336 9:-126.09394 10:1594.9278 11:-701.39919 12:503.12056 13:125.49657 14:-912.50033 15:76.932215 16:-667.56663 17:-78.817145 18:-281.72786 19:183.4405 20:-338.22819 21:449.17526 22:920.2886 23:-604.6843 24:-263.51355 25:386.12644 26:446.07634 27:-600.81569 28:72.219765 29:-126.8856 30:425.4081 31:345.91232 32:66.483537 33:-43.691273 34:93.09207 35:173.40463 36:-288.7676 37:318.738 38:126.79489 39:319.44339 40:216.29065 41:-56.647212 42:286.90871 43:243.44445 44:37.02058 45:123.72591 
-0 -4.817883030017632e-08 -0 -1.948098321828864e-08 -0 -0 -0 -1.639303229815708e-08 0 3.384915922369328e-08 0 0 0 0 0 0 0 0 0 0 5.381916457804483e-09 0 0 0 0 0 0 0 7.593715106701364e-09 0 0 0 0 0 0 0 0 1:617.61704 2:360.11799 3:1429.2896 4:1140.9149 5:-1711.8336 6:-443.52827 7:163.54032 8:286.31888 9:210.26435 10:1494.8772 11:-105.85419 12:541.56814 13:-107.93288 14:-1296.7577 15:584.53936 16:48.898119 17:108.18667 18:-425.50055 19:646.04105 20:-246.50301 21:-184.06832 22:801.31305 23:-1038.45 24:-26.780579 25:255.36692 26:348.92148 27:-808.18399 28:-98.652995 29:-331.59683 30:370.86955 31:373.46475 32:-411.50256 33:53.932005 34:-617.96257 35:212.56967 36:-546.58201 37:186.26268 38:-10.004809 39:-312.84618 40:435.16491 41:-144.25187 42:35.106325 43:-489.61225 44:287.65728 45:19.230638 
-4.668456028338806e-08 -7.697389169804775e-08 -6.137735426154844e-08 -6.247130310342864e-08 -2.833635761860334e-08 -0 -7.702397855047177e-08 -9.989266853596139e-08 4.48092656822175e-08 6.667263754139181e-08 5.122966056145416e-08 6.795680867460834e-08 8.141122481255503e-08 9.973510594643999e-08 5.149472107949321e-08 9.602762258454381e-08 7.859787523229005e-08 3.195132066539876e-08 6.538884523500877e-08 3.878905535478654e-08 5.425658876244917e-08 7.8067505763614e-08 7.6387496950791e-08 3.921350431864214e-08 8.848958307219148e-08 6.739722245250889e-08 0 7.721709782480309e-08 9.637174035094223e-08 3.250568451751009e-08 6.452296807397072e-08 1.105588747245507e-07 1.418508832492356e-07 1.434775028748978e-07 9.776965463482348e-08 1.054970040088116e-07 7.326857834917423e-08 1:856.77216 2:-11.336875 3:1206.583 4:438.73257 5:-813.55068 6:-418.32659 7:479.93647 8:482.56581 9:-145.96588 10:1496.5402 11:-429.42943 12:446.40668 13:66.29327 14:-922.96863 15:-86.347643 16:-51.273561 17:-413.59868 18:-145.0151 19:74.419605 20:-556.51824 21:588.66975 22:755.63907 23:-284.9498 24:-133.24661 25:33.947346 26:77.050985 27:-472.25032 28:-247.32719 29:-363.04258 30:501.2747 31:108.06525 32:-98.436467 33:-19.817721 34:-220.82763 35:-79.709995 36:84.848704 37:341.33813 38:85.752579 39:217.41006 40:226.5273 41:0.506376 42:176.5514 43:143.5865 44:178.68122 45:-60.346228 
-2.5372093777973e-09 -0 -0 -4.33838475578331e-08 -7.462355572889215e-09 -0 -5.052864431597947e-08 -3.03991553620644e-09 5.300981114998471e-08 1.850165341608485e-08 0 0 0 0 0 0 8.884206603952363e-09 1.442118305069912e-08 1.935018346219744e-08 0 4.249773394555323e-08 0 0 1.172393847875066e-08 0 5.056021909296237e-09 0 5.860319949789164e-08 1.924168243857162e-08 3.079597493866084e-09 0 0 1.020194123455602e-08 0 0 0 1.693275858588902e-08 1:2038.6578 2:378.62648 3:788.67941 4:-466.14204 5:-555.51074 6:-898.89939 7:686.26823 8:1514.8282 9:-208.85641 10:1569.6052 11:-928.89815 12:573.48131 13:316.72574 14:-885.75335 15:-73.655465 16:-827.60606 17:0.93077 18:-161.77486 19:-223.57091 20:-587.83341 21:496.28124 22:908.58107 23:-184.61496 24:-116.36569 25:330.29585 26:578.18997 27:-139.911 28:-47.465101 29:-119.36932 30:312.16361 31:194.48003 32:22.30967 33:-57.823412 34:253.31896 35:136.72811 36:-9.651843 37:239.44628 38:420.66487 39:379.23447 40:111.64062 41:75.885056 42:476.74607 43:366.75291 44:131.81495 45:-10.430738 
-0 -0 -0 -0 -2.611088830561939e-08 -0 -0 -0 0 0 0 0 0 0 0 0 0 0 0 0 0 0 0 0 0 0 0 0 0 0 0 0 0 0 0 0 0 1:1277.936 2:85.136682 3:1171.9389 4:-32.942732 5:-972.92842 6:-698.95795 7:583.72078 8:994.6484 9:-141.93935 10:1804.7787 11:-616.61777 12:620.59439 13:86.234018 14:-1060.2793 15:-101.44727 16:-252.52168 17:-340.5967 18:-255.65865 19:-291.29053 20:-641.0267 21:809.03221 22:746.38167 23:-191.90415 24:-140.40253 25:120.04888 26:411.73752 27:-96.076322 28:-160.00435 29:-255.59181 30:649.17905 31:118.77295 32:97.363209 33:-25.731386 34:199.65902 35:-158.07847 36:251.03113 37:230.75716 38:255.39596 39:235.81392 40:81.968612 41:161.69765 42:361.03197 43:208.91403 44:81.071543 45:-115.94008 
-0 -0 -0 -0 -0 -0 -0 -0 -0 0 0 0 0 0 0 0 0 0 0 6.129206889688428e-09 0 0 0 0 0 0 0 0 0 2.941603028078325e-08 0 0 0 0 0 0 0 1:-2073.2464 2:1078.6519 3:-1732.4434 4:-418.24118 5:-61.914837 6:1025.152 7:535.09243 8:765.22584 9:-1245.4461 10:317.78348 11:-405.89706 12:585.20308 13:880.15663 14:-237.7648 15:-412.99785 16:-727.31042 17:64.779278 18:-74.549635 19:-779.27927 20:-260.76554 21:-168.22843 22:-621.23793 23:415.8626 24:271.56873 25:380.55102 26:471.32153 27:-483.79524 28:-974.47371 29:695.96136 30:-345.18469 31:-175.22568 32:-391.56272 33:-414.87928 34:164.80207 35:-13.671739 36:591.2073 37:55.869527 38:111.06731 39:-75.683923 40:185.9212 41:293.20155 42:-78.332072 43:-109.28682 44:395.79405 45:-5.126904 
-0 -0 -0 -0 -0 -0 -0 -0 -0 0 0 0 0 0 0 0 2.231300543555673e-08 0 0 0 0 0 0 0 0 0 0 0 0 0 0 0 0 0 0 0 0 1:686.57385 2:2202.2497 3:-1270.475 4:-1376.8234 5:1268.5548 6:-199.1402 7:994.28133 8:1297.328 9:-853.10815 10:169.23254 11:-152.33421 12:323.95187 13:-125.34188 14:-345.17906 15:160.50574 16:-736.56082 17:656.8119 18:157.7295 19:-673.30912 20:127.26547 21:42.832407 22:-94.696755 23:500.59657 24:442.01584 25:-532.78668 26:398.72358 27:-896.58212 28:-347.56744 29:577.98288 30:678.15077 31:110.65711 32:222.05747 33:119.18135 34:149.40841 35:-31.589709 36:130.00773 37:687.00198 38:118.71778 39:-769.44722 40:-601.75753 41:284.37632 42:-501.51633 43:228.51906 44:146.87412 45:321.26402 
-0 -0 -0 -0 -0 -1.976322464108835e-08 -0 -0 -0 0 3.142686827465049e-08 0 0 0 0 0 0 0 0 0 0 0 0 0 0 0 0 0 0 0 0 0 0 0 0 0 0 1:-1255.7332 2:1671.4944 3:-1809.3337 4:-54.114066 5:809.39724 6:512.91415 7:671.18192 8:809.95404 9:-1008.9876 10:509.84648 11:-62.373152 12:488.62609 13:696.48558 14:-525.11889 15:-434.81553 16:-458.35643 17:45.88783 18:-196.53062 19:-134.00915 20:-204.23421 21:-115.90642 22:-628.35622 23:73.3286 24:53.679051 25:-72.043613 26:494.21503 27:-637.4472 28:-479.69795 29:881.21585 30:-126.05684 31:192.97761 32:-318.54309 33:-426.5493 34:42.640711 35:55.621308 36:342.60258 37:199.5846 38:66.803646 39:-361.13488 40:-93.268733 41:619.59443 42:-200.82439 43:-235.71564 44:-14.971835 45:125.96102 
-5.212399344175404e-09 -0 -4.352066232675229e-08 -0 -0 -2.08416353468698e-09 -0 -2.665445277053505e-08 -0 0 2.436209933466711e-08 0 2.874036585985361e-08 0 1.730740597793776e-08 0 0 0 4.73763868889975e-09 0 0 0 1.103147813815377e-07 1.76548555537213e-08 0 7.164499562148524e-09 1.237286059556402e-08 0 0 0 0 0 0 0 0 2.49259282524004e-08 5.847696682196141e-09 1:484.89819 2:2132.8819 3:-1685.7406 4:-857.95072 5:1788.6754 6:-267.10259 7:1226.1896 8:1016.3903 9:-956.9565 10:423.65825 11:-53.976779 12:122.62765 13:-66.287856 14:-370.55989 15:-258.1339 16:-146.29353 17:110.45883 18:-40.128783 19:241.67533 20:-97.921164 21:259.75608 22:-595.77813 23:337.80817 24:247.87698 25:-137.67173 26:321.5283 27:-473.25922 28:-49.377322 29:569.94123 30:435.16296 31:-4.804008 32:-247.40127 33:-153.30827 34:-234.33128 35:-435.56964 36:163.22085 37:868.49568 38:-101.30141 39:-355.14474 40:-621.99315 41:260.4321 42:-560.85857 43:-194.36709 44:-332.88172 45:260.07334 
-0 -3.33001481077463e-08 -1.069280241154513e-08 -2.243745333466926e-08 -0 -2.175371031339178e-08 -2.682827988733758e-09 -5.61592352735121e-08 -1.352271299365115e-10 3.5159031819096e-08 1.837880280331846e-08 4.211685713877185e-09 4.380739528656562e-09 0 1.292953630457158e-08 9.561286227712889e-09 0 5.968505465374714e-09 0 0 4.477907802315309e-08 0 2.46818357102562e-08 0 0 0 3.119311771155094e-08 0 1.230974819426748e-08 0 1.201896228774657e-07 0 7.732297768224166e-09 1.273748556514092e-08 0 0 3.257745240316968e-09 1:-896.55513 2:1590.9536 3:-1901.9418 4:792.64641 5:-756.55569 6:1151.0743 7:91.78736 8:1012.4668 9:-629.98031 10:238.25433 11:370.81975 12:581.38949 13:869.14695 14:-834.96647 15:-172.18198 16:-248.2879 17:217.30047 18:-502.11059 19:-266.06712 20:-197.15618 21:-418.74404 22:-275.15917 23:-173.95137 24:189.46843 25:25.265414 26:956.52249 27:-692.07737 28:-172.8974 29:938.53802 30:-540.44022 31:759.12375 32:-564.28144 33:-458.46974 34:369.16277 35:432.88477 36:51.827901 37:-166.80438 38:262.04475 39:-399.18682 40:364.64587 41:1156.467 42:-70.282758 43:-650.27375 44:453.70381 45:370.71492 
-7.694347147744298e-08 -7.00818246705818e-08 -9.917150691891998e-08 -4.126905096615723e-08 -4.417668479668781e-08 -6.116433225150526e-08 -4.994726205846366e-08 -4.069198057584324e-08 -6.988329470080242e-08 0 1.567561376685381e-08 3.448622352619972e-08 4.085033707661039e-08 7.30305330094592e-08 6.706148720068194e-08 9.938853248675836e-08 5.969638621393629e-08 9.028800025721887e-08 2.872704158281559e-08 6.507367091470149e-08 1.508876245155618e-08 8.930431362605562e-08 3.672076096516203e-08 7.24433461341817e-08 4.400281586555997e-08 5.735649916266868e-08 1.938782452479278e-08 6.360385632788459e-08 4.642599395221131e-08 7.581731612301599e-08 2.941355381058513e-08 9.43235158707254e-08 1.030930320070318e-07 8.579407601097923e-08 7.529720786380972e-08 1.153498459547897e-07 5.773981464226652e-08 1:-530.61124 2:994.99593 3:-1327.2534 4:-253.55834 5:347.98907 6:629.50457 7:254.36843 8:805.65935 9:-722.3581 10:132.70559 11:-521.26618 12:385.03263 13:359.22832 14:-270.46071 15:-96.913801 16:-564.52644 17:444.49068 18:151.44333 19:-631.80637 20:35.306046 21:-17.146067 22:75.312213 23:447.80237 24:382.31763 25:-128.73761 26:429.47744 27:-903.73472 28:-698.03723 29:411.4566 30:95.237799 31:-19.354278 32:2.336812 33:-211.98314 34:364.52281 35:-90.519349 36:235.97592 37:223.14215 38:195.51091 39:-212.68383 40:-105.18571 41:464.08554 42:-151.48889 43:146.94341 44:518.8746 45:59.160385 
-2.222821356558834e-08 -0 -0 -2.964842968875323e-08 -3.221720464240617e-09 -0 -7.028152520883727e-08 -6.06084026644564e-08 -3.327877197708362e-08 7.584888644670697e-08 0 8.359323278304167e-09 8.272670817689064e-09 5.889171447888116e-09 2.21607563253168e-08 0 4.408403678645458e-08 7.516516602810302e-08 1.665513137736643e-08 0 1.024240972588134e-07 3.884658786276046e-09 0 2.134743710599533e-08 1.495296555186736e-08 2.371253708445284e-08 2.320663470236522e-08 5.219482617976026e-08 3.197880017817126e-08 7.820351092406541e-09 6.753334262988473e-08 9.697659376654444e-09 3.688966040967054e-08 2.052438641197453e-08 1.824646541475427e-08 1.006531470717425e-08 3.31789763432075e-08 1:1206.34 2:2051.8788 3:-1311.1245 4:-1484.6987 5:384.71229 6:-852.13758 7:1455.7222 8:1113.8575 9:-517.94792 10:26.833738 11:-275.29262 12:91.310498 13:276.36624 14:-267.23154 15:36.953163 16:-215.42545 17:383.06919 18:325.38195 19:-354.7092 20:-270.60567 21:-317.47966 22:-687.29605 23:744.15643 24:449.76246 25:-413.36599 26:518.04051 27:-197.70658 28:-600.78113 29:256.65251 30:602.48774 31:-464.80206 32:-204.76545 33:159.6675 34:-90.529689 35:-206.84795 36:320.86404 37:925.6676 38:-106.71371 39:-595.89508 40:-949.05195 41:-120.93081 42:-237.47232 43:-285.21356 44:-121.40936 45:-92.698678 
-0 -0 -0 -0 -9.258135622902933e-09 -0 -0 -0 -0 0 0 0 0 0 0 0 0 0 0 0 0 0 0 0 0 0 0 0 0 0 0 0 0 0 0 0 0 1:-2038.1997 2:1132.4885 3:-1695.5381 4:-508.69429 5:-496.22444 6:1097.1181 7:612.74185 8:1017.8788 9:-1149.5757 10:370.48154 11:-158.37067 12:701.54083 13:889.33315 14:-251.46522 15:-454.96445 16:-796.58819 17:-70.117123 18:-197.43233 19:-899.67472 20:-356.64749 21:-289.42837 22:-803.15624 23:540.08598 24:197.58956 25:494.52447 26:617.55141 27:-223.32272 28:-1208.653 29:804.54549 30:-323.56534 31:-363.05513 32:-404.74394 33:-436.12277 34:171.93323 35:-20.845756 36:492.33643 37:189.61117 38:283.76653 39:-0.611052 40:-32.417896 41:166.44829 42:79.994567 43:-316.18359 44:645.47011 45:-285.41343 
-0 -0 -0 -0 -0 -3.122812241956531e-08 -0 -0 -0 0 1.094304984028234e-08 0 0 0 0 0 0 0 0 0 1.783514873757986e-08 0 0 7.358711930139963e-09 0 0 1.013518140752014e-08 0 0 0 3.493647928608e-09 0 0 0 0 0 0 1:-143.9093 2:1679.8065 3:-1518.7455 4:-891.78418 5:-155.57917 6:-124.53314 7:855.37119 8:984.47013 9:-507.24615 10:259.90515 11:-194.33178 12:467.9617 13:604.65423 14:-406.63031 15:-228.11799 16:-292.80496 17:184.89017 18:147.39918 19:-622.69538 20:-234.33112 21:-346.10195 22:-978.17539 23:630.97315 24:324.99727 25:162.26143 26:599.67882 27:2.372454 28:-1041.0541 29:379.77983 30:317.92944 31:-581.66935 32:-447.81173 33:-31.800974 34:121.01787 35:-256.5478 36:448.01246 37:500.46278 38:151.75874 39:-307.95122 40:-530.72849 41:72.945337 42:-13.959462 43:-547.87384 44:250.14493 45:-497.97114 
-0 -0 -0 -0 -1.920622064609159e-08 -2.819238145003792e-08 -0 -0 -0 -0 2.980323208602876e-08 0 0 0 0 8.101499353355209e-09 0 0 0 2.468088886666577e-08 0 2.510018103588953e-08 2.904885169092786e-08 2.847610914128338e-08 1.521759723678422e-08 0 0 0 0 0 4.594630629036653e-08 0 0 1.172026994093966e-08 0 8.341739022310766e-09 0 1:329.1986 2:1594.5975 3:-487.24586 4:-1243.6982 5:-1432.562 6:-634.23358 7:532.36101 8:-568.04223 9:-229.99702 10:516.17402 11:283.50762 12:577.14264 13:-416.47093 14:167.83342 15:650.16498 16:1461.6931 17:-121.1957 18:-511.09764 19:834.80279 20:454.08828 21:1118.1825 22:-491.17354 23:-46.291082 24:586.53138 25:526.2719 26:12.846855 27:16.40734 28:445.86824 29:464.22126 30:-212.94902 31:17.924608 32:356.82657 33:272.36108 34:376.93487 35:529.36786 36:246.35952 37:-392.68736 38:-77.879392 39:342.70804 40:-690.25828 41:329.21258 42:-117.83662 43:-57.604472 44:17.049053 45:746.22204 
-0 -0 -0 -0 -4.605948134024653e-09 -0 -0 -0 -0 -0 0 0 0 9.115187630411551e-09 0 8.226797169024999e-09 0 0 0 0 0 0 0 0 0 0 0 0 0 1.817321575405318e-08 9.818212670389532e-10 8.081118352102364e-09 0 0 0 0 0 1:-441.08118 2:1152.0012 3:-122.81645 4:-1002.5307 5:-2562.553 6:-180.44553 7:222.2055 8:-1326.9526 9:299.67064 10:483.59271 11:308.06146 12:774.57532 13:-19.257315 14:-95.389216 15:473.74641 16:1336.193 17:-291.03751 18:-845.66163 19:538.32066 20:715.03298 21:1346.0999 22:-386.70312 23:166.51557 24:314.92742 25:263.9364 26:129.55346 27:84.71825 28:327.75154 29:-187.82776 30:67.42149 31:-120.96583 32:396.84916 33:732.00279 34:118.90525 35:203.92761 36:223.90643 37:-725.38685 38:-202.40138 39:-83.339904 40:-764.57572 41:271.65933 42:-129.7623 43:-57.014634 44:330.38374 45:811.33834 
-0 -3.42695467733565e-08 -0 -0 -2.050523864860718e-10 -0 -0 -0 -0 -0 0 0 0 0 0 0 0 0 0 5.850742539118683e-09 0 0 0 0 0 0 0 0 0 0 0 0 0 0 0 0 0 1:-406.9831 2:1247.178 3:-82.861129 4:-916.78845 5:-2543.0532 6:-281.43079 7:168.41647 8:-1330.9312 9:256.39778 10:454.28978 11:254.87514 12:687.33222 13:-211.80338 14:-80.904594 15:695.08749 16:1147.1489 17:-98.9727 18:-867.89467 19:724.75722 20:767.18309 21:1200.1388 22:-254.305 23:-117.24107 24:431.54929 25:347.96783 26:115.58861 27:-265.51169 28:390.54881 29:-139.33649 30:-53.222405 31:-162.68762 32:199.48971 33:680.79572 34:-94.261514 35:330.29888 36:109.76796 37:-707.91215 38:-55.11137 39:-162.43206 40:-656.58469 41:144.37207 42:-62.425086 43:-88.434496 44:217.65589 45:859.01751 
-0 -0 -0 -1.035224845149171e-08 -3.864305015563298e-09 -2.338081567108812e-08 -2.751021646058333e-09 -6.828941003872553e-09 -4.182568261753558e-08 -0 1.176165567966091e-08 0 1.749510415905947e-08 2.607752039186262e-08 0 0 0 0 0 0 0 0 0 0 2.603488088353609e-09 0 4.329474717568311e-08 2.005188014021703e-08 6.917628836238821e-09 2.948670496470355e-08 0 0 1.172388489474257e-08 1.391661308828026e-08 2.221433291521526e-08 0 0 1:88.278993 2:1415.4948 3:-171.30251 4:-982.69053 5:-2126.3017 6:-491.30054 7:217.97054 8:-915.02743 9:77.05103 10:403.59488 11:181.4755 12:470.3382 13:-388.40853 14:53.295186 15:797.47897 16:1123.8249 17:-20.39914 18:-690.92533 19:807.98542 20:655.86489 21:1049.1912 22:-263.8623 23:-253.15913 24:507.16982 25:421.76016 26:202.95708 27:-453.89198 28:457.54184 29:154.45754 30:-233.60252 31:-121.54418 32:70.554972 33:418.36031 34:24.032524 35:480.78243 36:118.43952 37:-523.14814 38:22.678939 39:28.278067 40:-578.00962 41:164.34629 42:-35.768603 43:-59.20561 44:14.592032 45:716.33024 
-4.461120971906376e-08 -0 -3.893056467271293e-08 -2.35511667378037e-08 -0 -2.517261979295309e-08 -5.168376656556647e-08 -7.529138446240091e-08 -0 -2.831233117579252e-08 4.076219551354188e-09 0 3.228802299589633e-08 0 1.047847677542874e-07 0 6.87638381545785e-08 8.441762418564913e-08 1.248114861838209e-08 0 4.07058270792431e-08 0 0 4.105048216141943e-08 0 4.541815533285537e-08 5.136397585353186e-08 9.365525027400393e-09 1.35917661669566e-08 1.840204320623297e-08 3.538937204739532e-08 3.541811651441203e-08 8.04356005813046e-08 3.237300879159247e-08 1.489499288176302e-08 3.79748752600457e-08 2.83641328256136e-08 1:908.30248 2:1852.652 3:-519.83704 4:-1240.0007 5:-1319.4337 6:-842.11156 7:493.02314 8:-343.18936 9:-455.40545 10:338.53808 11:95.718852 12:188.96036 13:-711.9924 14:366.12182 15:823.82542 16:1258.1719 17:49.242538 18:-265.06591 19:794.29136 20:509.73954 21:666.56923 22:-401.3257 23:-137.96334 24:691.49008 25:670.45391 26:206.80721 27:-492.65486 28:538.06691 29:664.24252 30:-450.01024 31:46.411919 32:58.974359 33:-44.565073 34:349.32284 35:749.96078 36:174.39844 37:-239.94317 38:39.555044 39:513.50347 40:-413.66681 41:220.18576 42:24.003718 43:123.89227 44:-235.47366 45:404.98782 
-0 -0 -0 -0 -0 -0 -0 -0 -0 -0 0 6.611974077158689e-09 3.127389894528802e-09 0 0 0 0 0 0 0 1.666299052627517e-08 0 0 0 0 1.069361517780293e-08 0 1.514972707254394e-08 0 0 0 0 0 0 0 0 0 1:1580.2924 2:972.29883 3:267.59177 4:-389.22282 5:-3226.7808 6:-803.46365 7:323.28035 8:-1047.6109 9:-148.04872 10:140.55974 11:445.38837 12:-271.31122 13:-1057.8458 14:-166.16765 15:1332.4963 16:495.79845 17:505.06661 18:-576.94521 19:567.34521 20:1207.2753 21:-47.51496 22:730.22763 23:-312.41709 24:916.04069 25:485.39166 26:597.53363 27:-674.63859 28:-111.61441 29:-247.07647 30:-574.5104 31:-745.71015 32:-899.32544 33:835.59983 34:-513.61914 35:558.06173 36:-290.69089 37:-240.40866 38:813.85017 39:1.202346 40:561.96505 41:-191.98461 42:-339.55064 43:-79.514601 44:74.987387 45:-667.95364 
-3.465985118270312e-08 -5.403251442846536e-08 -3.814364498972592e-08 -8.000410723624777e-08 -2.663721138537296e-08 -1.578415337699503e-08 -7.163698797042809e-08 -4.966763172753811e-08 -7.719776756363436e-08 -2.320343647941774e-08 2.612903615423761e-08 5.79228882202058e-08 4.058523626693665e-08 4.62353313597087e-08 2.756246383256298e-08 6.395424426635736e-08 4.326553477114557e-08 4.116120649395084e-08 3.765287682160624e-08 2.056589245057399e-08 6.231405415506972e-08 4.805028238013282e-08 2.133406981357136e-08 1.200272240333606e-08 4.77340578709743e-08 2.948583083921224e-08 4.310833446152961e-09 7.047412874216895e-08 9.65722829069525e-08 1.587392333238649e-08 3.416405960565518e-08 4.995441635178453e-08 7.589366813862939e-08 5.080353114574054e-08 4.600402084850048e-08 4.04792382042735e-08 5.710493931184187e-08 1:1817.8315 2:631.15644 3:152.17794 4:-496.97345 5:-2122.0888 6:-867.60495 7:1014.776 8:-357.41668 9:-276.70722 10:5.172282 11:188.67711 12:456.39456 13:-255.73636 14:-304.81237 15:328.35 16:1207.7292 17:-99.479332 18:-418.99397 19:222.15779 20:778.04173 21:608.41674 22:566.89982 23:690.4937 24:202.13694 25:3.02527 26:629.06939 27:98.800462 28:-249.8622 29:128.92263 30:-756.76788 31:-318.12936 32:-178.69996 33:471.75114 34:342.12997 35:-229.76431 36:-53.880322 37:-7.13411 38:288.19304 39:261.82317 40:277.35651 41:-50.732172 42:-611.65165 43:50.929891 44:198.37389 45:-870.2507 
-0 -0 -0 -0 -0 -0 -0 -0 -0 -5.949215061059272e-08 0 0 0 0 0 0 0 0 0 0 3.60433211199591e-08 0 2.164957472424267e-08 1.858476662168892e-08 0 0 0 0 0 0 0 0 0 0 0 0 0 1:1215.5916 2:1765.1722 3:-605.36871 4:-1408.4733 5:-1330.916 6:-973.35346 7:834.05468 8:21.525865 9:-364.68366 10:252.8084 11:128.21345 12:285.12577 13:-489.95238 14:115.1398 15:718.6143 16:1789.4836 17:-155.29674 18:-54.311709 19:528.42439 20:380.21471 21:372.65 22:-515.02696 23:650.78355 24:715.42818 25:576.24877 26:490.81593 27:261.3833 28:565.93063 29:727.04474 30:-520.69614 31:-60.081751 32:298.73752 33:-91.240228 34:732.81234 35:363.37847 36:275.53204 37:-46.849486 38:0.151974 39:472.7849 40:-414.95677 41:421.70413 42:-109.4815 43:49.236027 44:118.74328 45:65.528087 
-0 -0 -0 -0 -0 -0 -0 -0 -0 -0 0 0 0 0 0 0 0 0 0 0 0 0 0 0 0 0 0 0 0 0 1.321519200437269e-08 0 0 0 0 0 0 1:-550.1337 2:1156.5952 3:-83.937225 4:-1106.1973 5:-2685.0865 6:-67.246785 7:374.40043 8:-1254.8047 9:420.77736 10:583.65177 11:375.07583 12:986.39285 13:108.84362 14:-141.34861 15:297.24469 16:1590.7866 17:-527.166 18:-1004.0544 19:348.8437 20:639.07391 21:1488.987 22:-543.37622 23:396.10781 24:207.37329 25:201.65615 26:111.62263 27:506.64133 28:293.01224 29:-178.60314 30:203.76582 31:-42.076023 32:575.32625 33:811.68106 34:386.03518 35:40.9889 36:297.32341 37:-694.49854 38:-332.79842 39:-2.114129 40:-882.04624 41:428.38052 42:-226.2485 43:-172.28151 44:456.28666 45:779.4422 
-0 -0 -1.658390360714875e-08 -0 -0 -0 -0 -0 -0 -0 -0 0 0 0 0 0 0 0 0 4.765828862140751e-08 0 4.225423953869019e-08 6.979631197077018e-08 0 0 0 0 0 0 0 0 0 0 0 0 0 0 1:-996.00499 2:-530.56181 3:-1686.7122 4:1341.5486 5:1552.3247 6:-1274.5081 7:1215.29 8:25.542895 9:681.67668 10:-196.0783 11:651.26038 12:90.486897 13:-312.16585 14:-53.174637 15:-250.52918 16:220.07258 17:-381.82402 18:-575.60752 19:595.4286 20:276.36549 21:594.58176 22:-679.197 23:-936.27389 24:-187.14901 25:213.69693 26:88.827975 27:241.67024 28:248.14641 29:87.108479 30:307.40555 31:-443.25246 32:-631.92598 33:-521.04949 34:87.343804 35:31.042019 36:132.97554 37:-116.36136 38:311.93623 39:-38.941923 40:490.89863 41:-724.81666 42:-49.140059 43:280.91697 44:-49.519147 45:-79.070243 
-0 -0 -0 -0 -0 -0 -0 -0 -0 -0 -0 0 0 0 0 0 0 0 0 2.047488827706463e-08 0 0 0 0 0 0 0 0 0 0 0 0 0 0 0 0 0 1:-2315.2768 2:364.78058 3:-1128.9993 4:1714.0697 5:749.92034 6:-1793.0653 7:1670.8817 8:146.98315 9:1188.5909 10:-153.51393 11:443.203 12:171.30202 13:-304.5036 14:639.56665 15:-714.61878 16:-240.27458 17:425.50564 18:-622.73599 19:516.88791 20:187.11062 21:353.4208 22:-499.00651 23:-447.94843 24:-443.6768 25:-454.1356 26:372.69944 27:-209.54307 28:418.87292 29:425.32618 30:306.63465 31:-721.49916 32:-171.79656 33:-264.27676 34:361.99011 35:3.791238 36:-266.03174 37:-455.1732 38:-235.27189 39:-432.95796 40:64.478057 41:-205.60736 42:219.52441 43:91.087889 44:264.7204 45:-189.61042 
-1.418689253264971e-08 -4.012258194141752e-08 -2.977281830776181e-08 -3.63542825507168e-09 -1.192586709484852e-08 -3.563669530214372e-08 -5.536196996611278e-10 -4.996123965863862e-08 -2.274062300051335e-08 -2.420718201692368e-08 -1.540353174661687e-08 3.022593580139241e-09 9.64891254369361e-09 0 7.829124372916929e-09 0 1.652105946901245e-08 8.419147235168851e-09 6.596239537503831e-09 4.641065464424512e-10 1.075559327265033e-08 6.891561242605644e-09 9.588310910110655e-09 1.818507867754304e-08 1.44395462463633e-08 2.800543071063775e-09 1.879320892851042e-08 1.748027963635425e-08 1.025711724194794e-08 1.566475651644764e-08 2.865047997795631e-08 3.154660444483863e-08 9.97784529104472e-09 5.546195815582138e-08 1.502616098787955e-08 2.934413275599512e-08 0 1:-2456.7654 2:411.70313 3:-689.86714 4:2326.7328 5:278.03646 6:-1149.8437 7:1565.5644 8:741.9361 9:1508.813 10:-227.52937 11:571.46133 12:156.14613 13:-254.05828 14:505.79461 15:-495.89081 16:359.55869 17:850.8463 18:-372.87143 19:840.82579 20:-406.8971 21:357.74602 22:-173.53597 23:-382.65406 24:-155.26393 25:-365.95737 26:1200.0479 27:101.1491 28:232.50819 29:-81.564755 30:217.53655 31:-573.29931 32:-333.80933 33:-559.33225 34:458.30251 35:206.29641 36:-625.56132 37:-561.5249 38:-407.52103 39:-331.82189 40:26.037277 41:-126.47366 42:355.731 43:69.44233 44:257.79081 45:271.44171 
-0 -0 -1.189307225438278e-08 -0 -7.694279447578175e-09 -0 -0 -0 -0 -8.593941490312129e-09 -0 0 1.078102186978211e-08 0 6.391613789764865e-09 3.995242211849517e-08 0 0 0 0 0 1.019373868328379e-08 0 6.656919450002211e-09 4.894713813714953e-11 5.960085546651001e-09 0 0 0 1.032903181140537e-08 2.768054630876772e-08 1.273880841242342e-08 0 0 2.457184877437603e-08 0 1.245856157572544e-08 1:-1885.4174 2:-29.193865 3:-1118.9088 4:1773.5924 5:1076.4216 6:-949.25186 7:1255.8424 8:268.50266 9:840.72643 10:-252.83379 11:490.10787 12:-126.60184 13:-400.54111 14:677.35177 15:-661.73406 16:-285.88953 17:34.068876 18:-581.32654 19:658.63049 20:602.10885 21:546.29865 22:-491.48367 23:-464.73918 24:-227.25059 25:-9.356728 26:225.72387 27:-20.357667 28:139.13252 29:217.07017 30:456.38991 31:-430.17362 32:-361.27416 33:-168.27776 34:189.09046 35:212.30417 36:-113.38896 37:-179.9921 38:-92.217919 39:-140.58673 40:498.1043 41:-302.69471 42:153.94803 43:284.28821 44:301.92455 45:36.691214 
